0.3220752959948233,-1.3873806710508259,-0.3494272437382558,1.3087548890782872,-1.1020666827259518,-0.9196922504863438,-1.66846812344377,-0.4568139333195655,-1.172871141106528,-1.2267538800020785,-1.0498547532599565,-0.6335167176411689,0.8266053692750742,-0.6139040527426392,0.7438562392815661,-0.41737831072901355,0.7501837478965065,-0.8275458884568802,
-0.4111353697042299,-0.3305393039513607,-1.16589626391494,-0.7223042068994292,-0.6998944467985354,0.2546856087614233,0.24753187532775273,0.28322999908312363,0.35533196076843654,0.09612469044958116,0.5257072386593388,-0.4277602098658518,-0.5927521516246604,-0.4433943611766766,0.5573489225379491,-0.3720986841826729,-0.06824069628992732,0.7728633375927594,
0.8876541465068563,-0.202531100287959,-0.0023967158164157985,0.8007384217272733,0.10945722241146844,-0.6338724369884112,-0.8616806353458699,-0.5877161454687571,-1.405604427547893,-0.5544327498146623,0.7067293720552381,-1.2228715599268156,0.5863263018675029,0.30729093999344387,0.37148315020386524,-1.5352898125082557,-0.9338339033370635,0.7933638826322867,
-1.0875781220970633,-3.8782786765236477,-1.6613891641847978,-2.2435060143066514,-0.8981422431448879,-0.19678861177967855,1.8275809449132907,-1.596064896065296,0.9801714123606677,2.18241668652017,-0.153950499855003,-1.38981750770474,-1.192066347004209,0.6155539779283762,-2.5559861904953207,1.4650967793496479,0.9064423520542438,0.058891431080728855,
-1.239270153942557,-0.37942467272238906,-0.2436994289875657,-0.19860655116902742,0.5755270577861376,-0.4031715825383452,-0.9273290661529296,0.7784937853151108,0.285913135020336,-0.1667507040780902,0.016159810942071168,0.5427294950387318,0.922922929404431,0.05424554550152299,-0.06665823802062555,-0.9456068675793802,-0.5332057320552869,0.3115958856674034,
0.5240972585344572,-2.555639653226564,-0.9979873870872529,0.6665607355276199,-1.2793477830062374,-1.5107163686727032,-1.3802294288893424,-0.7288670321441878,-0.35235748531889366,0.09697219711403984,0.016532302401421277,-1.7858093145555805,-0.07167729278099746,-0.9497536690504225,-0.8476128376396543,-0.1580009297161029,-0.5715161698810717,0.6369446205508636,
-2.0642567077500042,1.0352546306824522,-0.35536325249008915,0.6408494920717844,-0.02406318869652476,-0.18700493070491672,0.7480550585129097,-0.40586996654798113,-0.17933733740993046,-0.4756991533399671,0.24400653539325035,-0.5234636063276966,-0.20410366608642877,-1.0795708865081488,-0.465565127230745,-0.7521274382159446,-0.7423243376815476,0.22003921643317517,
0.553678662891756,-1.7678397616795523,-0.27894961243577454,-0.5018343175957632,0.28596131474190273,-0.5640932484348545,-1.5787054385796784,-1.3506898264170533,-0.8714976203557584,0.7401144913553712,-0.670991075424092,-0.21139224500175,0.7604991979959794,0.7979166584240782,0.14066346630962936,1.0313750261853494,1.0883908281828343,-0.20042371969499023,
0.32248577339924644,-0.6683021824633344,1.8542287928713772,3.041540144853617,-1.3730208588114237,-0.3632185802220331,-3.4446233169021108,-1.922095634768789,-1.0250667186332167,-1.872947333659495,-1.0785762637713041,1.4814457427832146,1.047411735599499,0.1724336059909424,0.6360367255596804,-1.3760949522366144,-0.16954407149602138,-0.6403484400783549,
0.9738910361880015,1.1540161074796584,-2.0857612130293237,-0.2802676398340598,1.8313852554191503,-1.9178743309665567,-0.14682742243233027,1.5148501914005232,-1.4392820310374865,0.9049294251542845,2.308059348248611,-1.9122261423494298,0.16588570243156,-1.5394281299916277,0.09976473512050772,-0.540593306788149,-0.05809544701002001,-0.6916062858622349,
0.2515130016108181,0.3046463524911538,-1.5165871922850644,-1.1298129359490372,2.281326500012402,-1.1967826938534831,1.0939391448191795,1.9725340389415398,-0.84231641072479,0.2664600083157538,1.9218291251944886,-1.2999597867003037,-0.887135715902848,-0.6712619371436213,-0.4631256211621197,-1.0440474430263589,-1.5788138296053036,-0.3425759574831531,
0.42984871155022386,-2.097682952467827,0.41345324945571194,-1.1311100903688038,-0.7754255038493274,-1.475887949501826,-0.93756691115628,-2.0184701164619847,0.6077585852662801,1.5637585211976013,0.22384671980232046,0.4476455042614548,0.5925982123287216,0.4017322510665601,-0.4122774763523396,0.5158330006933003,1.5700183532281624,-0.7382606955320955,
0.6895955785237646,-0.6396259039888545,-0.9593040181507403,-0.5934289357558648,0.8968114501698048,-0.5215669249871508,0.32363657956355424,-0.5523398678997521,-0.6713311369386509,0.2912393610393772,1.8882092897269045,-2.045322203045463,0.254785683884988,-0.5826833309247609,-1.0282712288965628,-1.4282212317958312,0.4211627804318206,-0.5653655041599073,
-0.3402079732734078,-1.7672167971443835,-0.5042158286724351,-0.6607478048954808,-0.3346287059793686,-0.9818377283352776,-0.48164617932883336,-0.05957036140636454,0.01392025331915064,1.1013510592676194,-0.5013264847331262,-1.9325096694117858,0.9625010476840207,-0.607001759212512,0.46677529543112123,-1.0211228226546252,0.41805411293298295,0.23961352933157112,
-0.07866496834704081,0.8770807870296365,-0.08860139223599532,2.1862953526339397,-1.541948488365219,0.2697812922228874,-2.331199778893308,-1.684815342887325,-0.1581580004373494,-1.6927736265302946,-0.7362542618761372,1.3253708809512923,-1.1932740977931982,0.4635364974336843,0.3009606816812673,-2.4017916398203276,-0.3483494207574032,-1.0803067704237748,
-1.151471333301276,1.7314863065132513,-0.18369147423761958,0.343092688082358,-0.6963563688017937,0.0879458938480819,-1.3658924238038537,0.4421457846163269,0.15030926061744465,-1.5261483750704583,0.3083998730754021,0.5503378738259448,-1.414093581767459,-1.2485042824625785,0.3870568768339311,-0.7191552767131946,0.702079813061889,0.06704166771805142,
-1.1188721280189668,-0.5815414657400619,-0.974942883418227,1.0590504675879528,0.7570180715216572,0.5865528231356845,-0.27936858399907366,0.35041145986970135,-0.9371057019896636,-0.5472089885101828,0.360914120016936,-1.179994959714149,-0.8717904178091634,-0.5259111482011254,1.0346852726613387,-1.8381368708212222,-1.285391205387054,0.14645883434072474,
1.4091487167670034,1.167365515724782,-1.4048861776763546,0.7626505953622292,-0.7992631440751798,-1.5829973416162164,-1.8307590100704827,0.1540663045122292,-0.6095866301826571,-0.45919515889632456,1.2848183233877684,-0.6417182623721318,0.18095372029294296,0.4544933257458115,1.620317713516544,-0.8793455342957224,-0.04940602333873748,-0.5528199246894716,
-1.5070270172933316,-0.3270840320168425,0.07784608563120694,-1.173973142002953,-1.372057592983878,1.654147601504186,1.2006114172807127,-1.1569572566094308,1.038423422655852,0.061939719079923614,-0.29659945623039324,-1.0093162794122643,-0.246043343806348,-0.7322026162048643,0.16600016732826772,0.07063677793380521,-0.14806148900058225,-0.5404266612093874,
-0.11338582624125015,-0.48979996120401165,1.5483231914121272,1.8750337174160816,-2.797168092430204,0.4417020027956904,-1.962341634623677,-3.0916731092091467,0.5177222217560629,0.21246504697841298,-2.6458032666018987,1.2181412437412038,0.7186186999383329,-0.5722395605665733,0.3005688987879389,-0.18315998990535023,-0.03150213378151822,0.7362511640368001,
-0.9614062732509806,-0.0978895033189491,-1.5744842157622876,0.009742517986631408,-0.37253583933362483,0.6573281375939065,-0.4338910103479236,1.2781183576013975,-1.0558534620139939,-0.8921246587003231,0.5763025668962946,-0.9174840883195522,-0.45699730687118034,-0.8042674007964535,0.6361375426988564,-1.030232336793228,-1.112886122422333,-0.36766268094632487,
-2.8589974713057154,0.8233705703721486,0.3704735690526503,-0.30838466011105314,0.1860390629034292,1.6692809245079734,1.3527275320077043,-0.29749288429569254,0.46548998566578803,-1.577214876554376,-1.011288367453599,-1.207488974390209,-1.2098352316919456,-0.1446355215571714,-0.9140468413479177,0.01439103118262633,-1.6227906931121305,-0.07236027111315811,
-0.5035266964030858,0.31175368064164716,-0.7466697855391636,-0.9484121018545869,0.3054347659070156,-1.367914363521245,0.014704734035953775,1.5547228805717968,0.13543389028450992,0.754254952773568,1.4614714784174074,-0.47062976829621445,-1.0157070690083116,-0.5274161547837117,-0.3910844103044322,-0.8674665732138109,-0.2238428486959888,-0.9466990186736656,
1.4372119996577413,-0.30912589983107225,0.42366507743307097,2.030469340457833,-1.4940202745407964,-2.3193373186860833,-3.5455818469295193,-1.654009538833481,-0.3061033924850113,0.2311248908231118,-0.2220729462447088,0.6246949445695598,0.9032980501266973,-0.3565474858463073,0.7535071636081273,-1.7783414943607272,0.8505606781766798,-1.1462138447157402,
0.8208289808972384,1.387878737411895,-1.623881112694169,0.0826592723093593,3.325035221847757,-1.3375068437470723,1.0358645733556961,1.4328312160433683,-0.6821081797858515,0.9014110119169711,2.8292497093913567,-0.08740580575924027,-0.009458512313793833,0.048809138813774716,0.05195624430893013,-0.48928869550411663,-0.5673716673015148,0.9345815411466067,
