0.5984516487402937,-0.9574723117699889,0.6563390500653006,-1.0626889999563993,-0.4105937043300221,-0.36162250769960397,2.4441442638405615,-0.6980496168305154,1.0091509009943682,3.0241397247010138,-0.777724133313889,1.532585647234747,-1.4289103348552297,1.5737557755192377,1.0802067499012853,0.9009714944287796,-0.08741169363180894,-1.4175601684238375,1.4947691423490854,-1.846791720720961,2.861006271387867,-1.3290376414641554,-0.9758547216812641,
-0.5171020566015733,2.2486613326169143,8.15812669373864,2.3064714588938062,4.084046797816312,0.06169462122600497,-0.41559286788997496,1.5453295766806006,-1.341789422832709,5.057409244553496,0.07869115490370505,0.8612879834194962,-0.7733139747375896,3.5707712382971954,4.69745688046313,-1.239251891411001,0.631339643602511,-0.9736543961018568,-2.8678152825608505,-3.2507164010041625,5.918728377585718,-8.729695428892777,1.1323895255519876,
-1.4298105682875597,2.0023863951838057,7.708826821622572,-1.0576284492948005,1.456562929135534,-2.0845375728053073,0.8254466376804911,-2.513781323185449,1.3185367604249927,1.9466730168504698,0.3411998961147997,5.2928892200580595,-0.961290492312622,4.061011761728136,0.050800246275702045,-3.4259280785002635,0.3669315324394944,1.121393199095832,-1.0583050897955752,-3.49550703258802,10.456443740833775,-4.23223313155559,-1.2991282637965373,
-1.6628449846448392,6.536424173488421,16.808393321682207,2.4644398406193604,6.21387983200384,-1.2576734672137013,2.0475638700026577,0.07552552441176043,-2.181641828275441,7.785910852596393,2.4344323650780937,5.054613869195998,-0.8813446369624812,8.611949625582541,6.064342289015005,-4.850548007272573,0.864313024521683,1.0027467981738036,-4.757018575495568,-5.678704371750849,15.971627107110503,-12.118694339651427,0.2977410529011744,
0.6354005969254753,1.2521088898023447,-3.9005578348200514,7.592584143094573,2.6653614787481645,2.513482948467288,-2.7923936909685305,8.516409001005597,-6.3955732898259035,0.5703767153516426,0.6605546243560746,-11.186360840027856,2.5029354440489118,-8.913634204577406,4.202657965989615,6.228848158544522,-0.026148881027590283,-5.079936182519369,-2.9295248925675383,3.3688431227990168,-16.198376794034356,-2.0105534896024513,5.45572158539271,
0.4906711755313977,-0.7350342734319125,-1.2018219398474421,0.39940379388949093,0.09487101938478362,-0.4147495651236357,-0.8487966248204077,0.7563978120437513,0.39950690168898173,-0.8351707627640096,0.16940642764453193,0.15666066799466274,0.539282888934697,0.2977007808888266,-0.2809003917948671,1.1812427446049687,-0.34547925371423266,0.030265479343008137,-0.3413423331378288,-0.4173827214386526,-0.8546052556415205,0.8159052098429213,0.6945015842017489,
0.608958361088913,0.694388526230658,0.4871012983938368,-0.3920309729690026,1.2226984111978467,-0.48605748462852283,0.9833446568975163,0.9468765833961021,-0.9878117390871282,0.6772453147008588,-0.09158097378523258,0.1841003545849498,-0.2872830546276702,0.7545001280776065,0.9435927803546479,-0.40142903798648155,-0.2153381361391853,0.03178257582372661,-0.5391812005263154,0.4562475757679699,0.40658446339197457,-1.3087837002531595,-0.42123372004070564,
0.7384896355813529,0.27450539581858874,-0.9212588925998284,0.9404006067827475,1.009954056093863,-0.8454717761798256,0.6312350087800179,0.8830180966660747,-0.21461249808597818,0.9106449532505339,-0.1805798367303929,0.5799357771451571,0.6053203021063401,-0.5024588376660385,0.341524826452166,-0.47257309269361203,-0.004052436429265633,-0.31557192487991714,-0.4725729766024295,0.6099732462085954,0.5727395150284588,0.3734635282377605,-0.021295580429401967,
-0.6553528924305331,-0.29785776113885903,-0.5023380612756775,0.41579204661157376,-0.28785994171211193,0.01064172896512539,0.8706698789053777,-0.7023190861234481,0.3138632179918992,0.8480031096806433,0.17599826946428368,0.13817891251841496,-0.1329163827233819,0.25024171548941637,1.0250456655694715,-0.672317675790322,0.8033591696359378,-0.05861698135398819,0.0328406073443604,-1.1132580606079467,-0.6453591909188698,0.29684326847089026,-0.5792424733313323,
19.27168937604478,2.8025090969028086,-9.979164739291004,26.757985480069433,23.37799330102627,14.307105180334073,8.21135640477477,30.07615333842252,-13.16230642372661,9.95954738466596,-4.4456276435227196,-13.370865718974134,18.11407132096834,-15.191872320122961,21.927119985019285,42.28708819671639,44.60467159042936,7.109610074817601,-4.941155669857608,-5.726660452823421,2.24335546186052,2.608165831577499,34.84988339975754,
-2.3603448926012827,1.089160343032794,0.16976311800147847,0.024840656762563005,-3.5289928064819405,-1.0710377523686314,-2.836604928872394,-1.9254505287158832,-0.5557027843485896,0.9530720299953844,-0.02113747264554179,-0.9700726416786196,-0.6584287916542182,0.44377333515231193,-3.5785411782496386,-3.3614117312802825,-3.0457872319244177,-1.3892832234017354,-1.687147954690258,2.850168699461358,-5.6219429103509,-2.87013097043269,-2.6433002610154364,
-9.001503583270408,-4.065265673948845,1.433607182855004,-11.608116057506194,-11.350299857775669,-3.900680314982164,1.2673458574305985,-9.980402919407018,13.73501322348092,-2.4670850201890016,5.363091580412865,5.181957631982569,-3.8001572162577117,8.24343235345142,-16.816017028269165,-14.03729229026035,-23.27386607931955,2.6679791873699887,10.714445666682725,15.556864910599161,-12.239458227053932,18.83179620399915,-21.619961946762075,
-1.6575097649000567,-2.2686880600084027,-1.7619708410792327,-3.3285053767815658,-4.410114980851016,0.8974415541190413,-0.7811751372791996,-4.076591715377933,5.017555190827011,-1.7905886222617677,2.145476211749593,-0.6694848077497777,-0.023752505857985592,2.3650848876737665,-6.732935135391624,-2.2533224324712515,-6.0725499535799,1.2763646008532632,2.7417424500305336,4.7349298131611075,-6.953163978643657,4.5788264386400765,-9.526168195529477,
-2.1766625519072584,-3.1891581813375556,3.5542867155683067,-8.150906008575266,-4.826470962047592,-2.915705527209041,1.0324432959614347,-8.53961807254332,5.63196325103116,3.371571764903287,1.3385997085876988,6.674667173515323,-6.269531656349224,10.318464967349213,-6.088526647011226,-8.187575438523714,-7.48821731909288,-2.7264009523081323,1.2937370865614988,-0.8218024813518561,2.9401983471451043,-6.06899065363515,-11.586024218595607,
0.32088165466791574,0.7076755222822878,0.2523002562546581,0.8060456917877873,1.1432079102382173,-0.7566749956577832,0.5335002881526089,-0.8211233305178559,0.9240920661078461,1.3974035165880978,-0.21809246878737515,-0.2550111422987733,-0.7012538662132661,0.5908022784176917,-0.4485763589086404,0.1612642800893995,0.04274963611350171,0.6093780471901573,-0.16542257323102028,0.5925293500483891,0.4068103270064087,-1.6614378707347328,-0.3555647124396949,
-0.9271863147850826,-0.6236258640571968,1.3150419555535469,0.13887491217318337,0.05670969770310969,0.701639848502047,0.75492486689064,-0.9526558598722042,-0.48802961275795986,1.1966276919944676,0.7226055557425596,0.8247799389760656,-0.7057655786193736,1.6386393394645606,0.6855277414683999,0.2863913630219473,-0.14132340576445684,-0.008609097722498908,-0.025601741700842326,-0.14191135110854539,-0.0774459853089017,-0.7323706513113716,0.4612125672170954,
0.22990335513371074,0.7422269503369929,-0.6061856097463032,-0.7276627594879626,0.10542301226512082,-0.8172808129613077,-0.4066688689434008,0.8234198075604533,-0.5967458001069319,-0.5688501952845549,-0.42802035254295606,-0.21099237573275237,0.6347028925313826,0.0983066686123659,0.15252227453306763,-0.17802869361414805,1.0683509007223178,-0.2353751269205277,0.7834280402148555,-0.5419229123935477,0.9962296368912327,-0.015425997843656942,0.7335551712735997,
0.7150820991716172,0.5397834866800767,3.3788216625835923,0.48342593949717133,1.0887292892442746,0.5339381707368862,0.9754711994863347,0.2578759458020053,2.109922636690513,2.7896008753917725,0.9803184572306116,0.08602459769353714,0.969732855417603,3.1701272513936627,-1.509602829925862,1.1583749427227552,0.0055933284247828355,1.9462109868646482,0.8749210741523399,1.8870778020161316,1.8758488472139252,-0.5406504942826851,-2.092204065734714,
-0.5938219656600422,2.9044177820790433,2.034456745015874,2.1314489614462917,0.7692243048361798,0.04820664712826345,-1.6402425772310663,2.3302312502612446,-2.2781557351184083,0.29501691696014687,1.3007022090101752,-1.4573024732223052,1.7641299842813767,0.7097203316358962,0.6969022463013747,0.21661513994631956,-1.0841063818600387,-0.3001745699573295,-0.807616751322485,2.6052239782451165,-2.270068111335361,-2.4562502217744706,0.2269823741936649,
3.63525220371479,1.5438927263944697,-4.116637399428057,6.431257493402303,-3.055578896867568,2.3946342627034514,-3.215576497221056,1.0342424479540875,-2.0260967754740973,0.9680492085940495,0.07253040188166505,-7.872327528791766,3.3571212740470604,-1.6460138794071162,-0.5077841286975133,4.298578183116546,3.853021968726224,2.296513422561792,0.5450410451624257,4.467610922993721,-6.734778387719995,-5.19852683853445,0.3154855627353179,
-2.590816276322503,4.417233659225517,0.36493325819082595,3.441295465401335,5.437285530720576,-1.8423352827181572,-4.68720568940801,4.188057756839022,-10.348618528695848,0.3921601415453811,-4.560890618592111,-2.399436483830214,-4.379626175039906,-6.461261748530103,9.735957287444263,-1.5895014475549865,0.6300216813418715,-9.606202357834349,-9.208267562903668,-7.786241438291056,3.188619686784125,-11.404009361659144,8.766345485944846,
5.084264296105682,0.07357707331323379,5.06361674843977,0.3265086376533498,1.5756914875092338,5.209709961919407,11.851651920394412,2.5186124814055444,11.235766029112282,0.5872278377350219,5.292705914338967,1.247867672069131,11.179665648977835,9.759716070070517,-5.302719244942404,9.685368396349,11.634894370363982,20.835183440304228,10.23535960251919,8.553957618570985,8.332207503315606,16.08534101447686,-4.444539994694603,
-0.08681505047599758,-0.8635215730609803,-1.5795598236849033,-0.3096452095691609,0.7835480276171627,-0.14782885167395224,0.2159468861296519,-0.07901178833276547,0.45553322359947745,0.8459818389214636,0.4288805025333473,0.17050830917395396,-0.4579131479828268,0.02600336027499156,-0.6569058230480547,0.19253672802169158,-0.6048186202257395,0.4924627956850409,-0.7223541807663361,0.2932427791043498,-1.0187766531814926,-0.38063642112272417,0.5643751353975973,
-0.5237116298941743,0.8018704479710598,-0.9410634901319694,-0.2523721423956553,0.28748688843607145,-0.3946004857057821,0.5545860528417277,-0.17708230596980806,-0.7254138111177709,0.6981151175545834,0.851670105362304,-0.7190803602105594,-0.5115198481680304,0.821762027342793,0.679966631929449,-0.28611690668350026,0.4168851516447516,-0.15261630207916113,0.5351792346279058,0.6822312273201234,-0.6891704606565304,-0.039464521787854506,0.16579839982563585,
-0.16385921972204692,-0.7275607936882611,0.7042382598843738,-0.9761101851362197,-0.22749546753610903,0.4858987050641903,1.1220272195970342,-0.10445528761630879,0.720447291581823,0.034002973276621024,-0.60757062466776,0.9755390875958684,-1.1326362600896211,-0.05532430808640362,0.05457686381003152,-0.809129837380714,-0.1067183722250709,-1.210544050976044,0.5315377330852676,-0.14235162137112678,-0.7367989373652036,-0.0754035350426379,0.7614023630761061,
0.5060949496933834,-0.2502189559683991,0.27043663751993563,0.4817334872974009,0.7876547271174459,0.6947105542150178,0.04398312593535971,0.7958070914425522,0.5446048912955086,0.936739317999461,0.3110150667574786,0.032439137249541596,-0.7022586083564265,-0.2692294518180199,-0.42964804816437363,0.9372482448160541,-0.16921133476478772,0.11721090739814469,0.17099356466340607,-0.9096400424822064,0.9639810317138696,0.7118071224436544,0.27452977003518314,
-0.8003310040645346,-0.2310594222987144,0.2522028658788003,-0.44980891310050436,0.6893164947964824,-0.7388506152466108,-0.5232653511257549,0.8390709062322449,-0.19337685931659415,0.5371715669899124,0.8116831227708877,0.8466931716488532,-0.3336483985869662,-0.278239994985108,0.5194916627294857,-0.1045978280573933,0.6940016324730154,-0.5587705945316365,0.7122196076822229,-0.3227003506092172,-0.5786047045723856,0.13836745338564102,-0.930304931573885,
-2.2896389552149303,2.087684882826235,7.807963589556304,1.4942541922325618,2.4520021040524638,0.5127623881973277,0.4558937493119095,1.1222227760496213,-0.2977621482193288,2.43769853266583,1.5197414635447974,0.7473438415681654,-0.8556475839056249,2.4099804557047415,2.268896755992733,-2.046654316930041,-0.2836164777465774,-0.23735501853568594,-0.6530838950750661,-2.20734633089467,5.271654638008274,-4.712331713780175,-0.7267870432973722,
-1.6888680166470857,6.6333016530499505,14.89985558954807,3.1696126281628354,4.336427697459285,0.3391597561582592,0.8431562297262276,2.726056674767681,-0.9462158240456366,5.043428435295938,4.448059583612694,0.1902899309962341,0.4629423418070006,6.300857272366614,2.953684490063757,-2.353074317466155,-1.8792861296138825,2.023580159460149,-3.3659846044619215,0.2294643085554216,7.070465785313155,-7.588649011070916,-1.1191050019209396,
3.032448616341122,25.44641228880868,56.44494257336254,7.093350842161084,45.11481421378248,-3.6750263605757714,24.613275046424175,13.043077978196527,-19.44470700266116,29.355747860736233,-10.855482072563884,41.94054648349341,-12.265999430324694,13.19991151205355,52.30641038289515,-0.6103281796225778,18.301696312894002,-16.72490270791829,-24.27341289363292,-55.32112140701778,99.7903892752584,-34.09607684659802,44.54519182275801,
-0.30590297009980383,4.212078862146225,9.300159951431844,2.5764301193557615,4.5837543174885,-0.885993559168827,2.293065579086102,-0.5032892892123837,0.4640722231476985,7.570141624745796,1.9499886101302815,2.65364934854921,-0.2065936821105439,5.325296662351296,4.68731555135733,-1.3059457954455542,2.256682904020517,-0.40366803299012816,-2.1817188634515263,-5.576029946787369,10.318220951850824,-10.244521446964542,1.1324553244400855,
-0.6055244699359241,0.25993926857404875,2.2195352484154,-0.29040147605286454,2.1710394132438995,-0.9927174101864855,2.0702505746110402,-1.663054054444574,1.448663895135736,5.165867965290619,0.9136404094477532,2.6151208690957644,-2.1045725541213844,3.8903541309019833,0.9415294352437147,-0.7576684701478223,-1.3253012052861328,-2.8155550962447027,0.21620508265799818,-2.674357810081579,2.9219506798931465,-4.846472280160746,-2.219577666919857,
1.4700962175284369,-1.1220956763196595,-3.4033872434831776,-1.4734498771856839,-1.8178021403822187,-0.9854075194209451,-4.200201113813147,-3.315198176348293,-1.2359963583801952,-2.3192684315251326,-3.4477812315553344,-0.14493894666046123,-1.517504935555463,-1.962600715382926,-0.45711646600794675,-3.04993407476955,1.5365814502277815,-1.1198457540996098,-1.678086372400157,-4.197607320437272,2.7515549711332543,-2.146734739026924,3.2569862143418398,
-0.5765276635130404,-0.2361270462936639,-0.12766246054124775,-0.9465668989768903,-0.15641631743903586,0.19610540975825386,0.1628335205749875,1.072444907000624,-0.8201070261187491,0.9205647949763752,0.03998440462103904,0.3057328314558149,-0.5995252257921516,0.6131231414989303,-0.10336567754536721,-0.4070757244236252,0.13374782783663822,-1.0851115369384274,0.8260241300110676,-0.7666298966721858,-0.34632913144911837,-0.465674841760847,-0.01389374212691209,
-0.5938689219983395,-0.6312687551903206,-0.019492007617140407,0.5078793216937882,0.7071587278036567,0.18447035497495526,0.46955391585527334,0.6114529613522669,0.23790136808637072,0.24335646500754543,0.8525368140620907,-0.04697914720416451,0.06821437426360039,-0.2573427512972849,0.7963930566417852,0.9752445827867696,0.2618968795538076,0.2727373616536022,0.1090318298277086,0.4968552892564213,0.6255333704794114,-1.6661493129000549,-0.6046044343627214,
-0.049499276671339944,1.4865749779950437,1.6060327620063528,-0.1483509886296051,1.6925932167693523,-0.3660069727493655,1.1630739889394532,-0.418594511582727,5.778411019268809E-4,1.9688525123598868,0.7623354726995883,-0.1746282508120537,0.1315725716026772,1.1627283189969013,0.8535318107662949,0.4908279067018483,0.6243278749232739,1.4901421488006945,0.37939998147968584,-1.0923496587486023,1.3589833143216408,-1.4224200706179957,-0.7485297559524516,
-0.5935667352089524,-1.5631933499156383,-2.445801771451059,0.2260348623401554,-0.9789319533306461,0.5389485544367986,-0.112541799825499,0.13731682527302333,-0.7648337305742833,0.3318605703627519,-0.26985834389833174,0.7485498783218213,-1.1001825821945734,-1.3647020517026212,-0.0852243070980387,-0.16195414086202936,0.192128317315855,-0.20743674124833322,0.9661067786132086,0.22599151454520458,-1.3047969653321012,0.814001419134241,0.40058555933950674,
-1.0394634411645056,-0.8751001013893239,0.0771580189815788,-0.5208988236072986,1.0841145503850698,0.5021078011670427,1.2137004811402397,-0.4225913839221898,-0.6164544405346453,0.8194580021188129,-0.9799775936344404,-0.441818540747231,0.39680862687090535,0.8425037787239025,1.1985634206503064,-0.1941291707415959,-0.15892955013270563,0.5324912908215317,-0.7241487577092941,-1.063953485826757,0.20547292766856348,-0.6176281417294812,-0.7524647497324607,
-1.9925624548370768,-1.774982080047254,3.616891662074184,-6.8620028950836005,-5.225256237158742,-2.71528428638797,1.0502779786613343,-9.40922380410097,6.390804332057772,2.8793865784277823,0.8276904938408108,5.916275128567112,-6.381159983634093,9.734607215298754,-5.495096141334316,-7.735076139636537,-8.600377346002515,-2.9664273105610257,1.649410444567943,-1.3863860161521868,3.4788238645099128,-6.421913746223368,-11.306799997882443,
-2.308788438252307,-3.434721262498047,2.193336275265793,-7.07579035071338,-4.22539793171625,-3.465104760763685,0.6638176891369251,-9.150905219320428,7.3634198037831124,3.63084934493183,1.2225344614516704,5.290715981382981,-5.477826576917644,9.711395380636231,-5.468259812793046,-8.681227633085301,-7.357513030573383,-2.162931802107011,1.1959700102008317,-1.5611827792908028,3.8584879718287883,-5.442568667837368,-10.238382820920272,
-0.03122090235919932,-1.833049717276647,-0.4252998700990208,-3.090529235862526,-0.6857812445793057,-1.4750033036352472,0.2254242747863613,-5.249901027012211,4.4514643549646475,3.2705561612914353,-0.2427108463728227,5.118158594590556,-3.081509166836481,4.998311543062522,-0.6578197735469506,-3.829385623884853,-1.332907709258144,-2.351943943543989,1.833549774174272,-3.610634775169077,4.008660857371156,-4.946595649228024,-5.483531663467404,
1.2547016935445916,-2.9312402451938637,-2.196110559857849,-3.0495259234191723,-1.8022098575407683,-0.1869982729076384,-0.15617474249086744,-4.149858804732977,3.2314526128915406,1.1914772304062502,-2.0236335853088456,3.7113912469728443,-2.548974329037971,1.5928433849830532,-1.872683002259571,-1.2862398214456412,0.06260883549904063,-1.8917724272437169,0.803793328947636,-4.024373691113747,3.447759670960777,-1.418001307377286,-1.2285494897868445,
