80.03424440418563,195.6749734314525,95.19893976590023,58.71469468522192,118.93135839735865,77.94687823953734,263.7173432030346,92.75242054060634,113.14063166701901,211.57674546875637,3.1785109703281447,-42.66830549289466,285.4334408276848,26.241070192262647,-53.23299766175293,240.77341582162754,352.5170100346162,-7.443950283937265,-95.8574831789535,178.7867797081126,333.09207215429393,112.56597513906192,7.398646979000843,341.3258170529231,290.01283058923804,302.026552202499,409.34426975261545,195.64310520499484,149.4180609425816,200.4513529141724,-47.61553248453131,316.7855964049696,167.25184361285935,-226.45283109706202,160.56641623459953,53.45038995843317,202.24985447156678,210.23228916092842,-25.266539629593893,249.97674349916335,323.45483299173253,220.77641552324684,
-1281.3278251181312,-1187.0638327150577,-975.3776749810562,-1436.774781292169,-1767.1094089750438,-680.5476297406368,127.97791016147666,-547.0760370581019,-1528.5548726015945,-757.6959123463356,-311.57200696097675,-872.2793566232853,-477.91267355872367,-771.8887172093347,-1038.6635991160292,-744.1932117082916,-1224.133587768052,-296.5415552773663,-782.2510439011102,-2115.9406521278684,-1225.4453684470438,-1108.6369500837181,-987.2930101146038,-2254.638224677042,-297.17518264495124,-630.4049738508202,-1051.2463889150722,-1053.3070254244435,-946.3154704049662,-216.0375587615123,-243.35145822420657,-1360.3247493575057,-401.7098252328138,-425.37095681280806,-1531.068980839633,-1195.918030667441,-1621.589587120524,-94.4343156703569,-897.3822399738009,-1232.5357119489677,-1045.3914986990108,-657.6455022809714,
-1172.8048074975038,-700.0960761860565,-729.0878729084266,-1373.032359793007,-1552.6614228793903,-154.2197642785948,1000.7392086991434,-52.63991653203473,-1243.4225303051153,-374.1058782901627,-462.91398489000073,-696.1648887914296,163.19474309628478,-693.2306963041467,-1138.1970515903351,-61.49669168688372,-419.2865772356579,-506.73819376082287,-1051.9399810424923,-1533.6115358274164,-484.42396432612173,-810.2021529930973,-993.1064023247843,-1437.3556065340513,-60.01772293716143,161.70661932342983,-30.186374183875063,-672.5962927726763,-759.7689358333245,114.34744636977103,-447.1948444223829,-741.7261669405501,-135.81748907233973,-968.8460905754016,-1302.3349429393336,-1053.900167960748,-1258.3666249604864,396.3751409457325,-486.854814685123,-570.0261894102588,-301.8621043509096,-163.94501643892877,
-2724.9269775585,-2326.4335737337797,-2195.535942974334,-3112.752450131492,-3828.0461195005464,-1355.8185357840425,756.2004527065111,-813.7546727522596,-3257.2129284242774,-1397.4232322246896,-856.058486903,-1881.4304971794925,-702.9403628274243,-1923.7392096885467,-2555.0209177578126,-1225.6756593274692,-2358.5997043904154,-649.7132181330423,-1897.6614727949518,-4504.070969216003,-2405.690897707933,-2327.065339466185,-2322.9309110991126,-4533.780873211099,-505.88021145798575,-990.2304511520584,-1811.0317507603886,-2194.7355180980753,-1958.5910098817144,-261.16378344058717,-607.5842170786377,-2716.5583999210894,-761.7992625164317,-1137.757677635691,-3402.62132530808,-2523.0291847520507,-3372.165181039124,29.63031494710032,-1591.0883285620937,-2382.6112494522695,-2045.6585820800963,-1203.7783040718357,
5013.03209380936,873.2842444653074,1339.7511190208975,4148.981108330597,4772.960068688323,-2819.1523989699936,579.8134815608178,-394.94923473885575,3600.3989038994055,2952.505810188887,1323.518403818616,-942.1873493022345,743.6232144730157,-79.24565660570283,2168.913239375818,675.1699408237382,2707.5890226179804,1830.0380998068879,2026.12346542204,2793.6100017814056,2297.779244892309,1306.0258410692302,1468.879725074843,3432.492461838342,2653.4229158123335,128.96035646296727,791.4733374417522,5461.347811536423,5011.1502767988395,532.508906383699,85.42282467326015,4491.5554116771245,2433.2554710628992,2913.3149762676317,5226.623202120459,2769.5394597840477,4032.4847791326497,17.849915259848668,-1085.0881898836735,3199.2433871257854,981.7732486234385,411.1105888991065,
-12.785928383300728,7.091402096093536,8.438704465032966,2.547886107940619,-3.0934199789284915,9.681001079178179,-2.7568890352565423,-7.714688372331656,3.0885484822870057,-8.788310099385715,2.5556165626451954,13.442473265642409,1.1523504387822947,8.859323065238,9.958617863147742,5.127752182764629,-0.2815059140733022,-11.21900120243326,7.997419038889588,12.785705746909946,-4.3074248166448275,4.257919346687384,14.335567945332006,-1.5799010803850217,-16.007512277692783,1.8554489463570016,-2.958068179659254,-9.329712988172549,-3.7381755525926397,-5.053140144446021,-0.1376025542197335,-0.8453427947720945,-6.190223051187441,-3.3715512488141184,-7.560088314674917,2.138824283743607,-6.767022804655318,-9.714706402409035,0.5367308445148894,-3.2300162356234607,0.9202911687326993,-2.59667451593921,
3.105734691242211,17.219696932307222,6.98529044147891,12.413353057602174,14.976957098985931,1.818440993084298,10.200388793437549,-3.9100084233779113,12.66159145660796,-0.043905786465889135,3.581547214970117,8.207445081878108,7.3757095220901885,-0.25763348074063513,6.004787664743239,16.529948321714482,11.477638703297032,-8.925974625205244,4.5880139786682115,18.544021129917553,8.961743375957878,3.123789268910323,10.52285608051793,18.458101727489378,-4.321506425242978,5.354653040752233,14.867364994057834,13.707807607774413,10.789564006026872,1.2861357288098916,-5.278482665006872,17.071490870808553,4.219912722662765,2.5776068029246524,10.953971272911602,13.541636813134998,14.732575584692306,-0.0013937396255016294,-4.78997828755954,16.072173073492603,9.577019279739115,1.3876908838357371,
-17.14014301582975,11.840333060118295,7.644417226982106,0.10853507676713503,-0.5202662126112291,26.34023093855219,-11.588549395653262,2.3534551262286363,3.804053324090643,-18.489671060061784,0.839005761063192,24.149483945524754,-5.54195759619143,14.266200537227547,10.12278545466324,5.561970370020006,-4.052982254197098,-14.980204298163144,5.273911973925735,17.576956557100328,-3.338303949183495,4.929070543539603,14.164406694625075,6.551355332723193,-25.544514460588893,0.974845566426587,0.8464559357907283,-18.833197592662398,-15.636935160831632,-11.54214491986163,0.439254507736293,-9.036150201196138,-13.942493213064353,-5.34532342240577,-7.794366471606916,4.544845580227062,-2.230077898247574,-10.74505007471794,13.71516813612733,-4.768336304470509,4.035677564110516,-0.8813728613038915,
-4.135505916064317,7.911594756521019,2.0383410037926497,5.503773270432616,6.152369622334925,3.4770835932351085,8.450790512545153,2.7611874824785922,3.997690299710375,-2.6131958844886802,-1.3236296772320317,8.819107619890731,4.136602886896055,-1.9316845277394081,-0.7521180862181007,14.6743133910098,6.327192778320319,-8.788574389227518,-0.4044066820156278,10.201352467053004,2.9649636798612047,0.754779853482439,4.052015658405613,8.99092501445104,-7.292793611919317,6.754931977975985,12.10321503183434,7.354668767917936,3.6010362515449477,0.6568032527976373,-4.431848380409419,8.39346717519246,1.338734200909477,-2.0754264597386314,1.0293989335235978,4.944577087010404,5.220193463982216,-1.4830956840170766,0.21854351700063496,8.647833565471954,5.152119535516504,1.6717804750388283,
-120051.38070726593,-42315.520416746585,-38108.382141924165,-127599.5906937779,-167365.52291718306,-3071.459959514111,-1859.3010757767631,-174267.07314716902,-115467.23530418583,-82161.76509547427,-4056.71351604866,-50375.80714313642,-33989.688461644444,6962.472700327801,-36893.97038056138,-131926.1067312335,-132444.80956686733,-44792.2028338547,-7815.927348179742,-152699.2798771774,-123455.75219401123,-86221.07575077016,-21631.436093073804,-241386.52708436677,-59590.2103145118,-85844.50835350248,-178977.70308626856,-175985.91232653405,-120434.98075947499,-31172.076361515272,8036.860705628243,-171611.1297346644,-74160.44847689017,-16200.236808907166,-117587.78250513069,-109896.68666920293,-174991.62635213562,-18883.13552758471,-138116.99835631534,-150163.8069977162,-59657.273950442774,-71223.25984702082,
-2985.1476047861424,-1605.3799212238382,-2653.0907256619253,-4027.412258488185,-3003.056837970655,-301.81033799787565,1552.4854754331773,194.4675718504558,-3301.3418566831365,-2490.932746803625,-1733.5845835426037,-260.064985353588,-748.7237341567555,-2501.9639759196534,-3868.0332151355046,114.679153386662,-1821.5605388719175,-2667.3853962515427,-4296.015830641594,-3808.0922277991867,-1806.5515296727713,-3437.7967376734464,-3890.598960965292,-3386.359347371725,-1834.7930384075748,-1045.539980283869,-196.70074659397278,-759.0642478939793,-2127.413010454819,-711.3041002566,-1589.923875811477,-2329.091255261465,-363.0432608329035,-787.054082083595,-3127.5600655961916,-1553.6376385262574,-1436.7155641659772,636.9257285878091,-982.2509703767902,-1385.9540876949661,-2311.921841489353,-1374.2100371407275,
-477452.9372233917,-381003.4842505953,-395176.12991221366,-611420.201622139,-607217.302778779,8748.849790687293,2245.0450172210153,501700.56386451365,-440313.25247927796,-439997.41731556563,-337999.15121235856,-157574.214144282,-177050.84206374377,-539954.361202725,-569469.7179593672,-43235.35127252874,-187755.93251405412,-252143.32715692036,-693689.2781783729,-464611.0732139997,-206679.2300981649,-366180.93222429836,-397827.1226235354,-496695.26875806646,-218186.51522209268,-94316.49652198132,59829.106440951924,-301944.06220908486,-286093.9609806101,-213925.38573368333,-329744.9853219358,-313894.2005845333,-169875.10369314856,-460560.35591607925,-753890.4480820292,-521810.85994958086,-344272.70203042205,-50627.535501274826,339777.54223276494,-130746.26235039251,-280280.02279730554,-184250.5897028718,
389.010396112423,-2080.9467212558766,-1900.2282750521197,-973.6240916676229,-887.4562675396259,-2804.5353101887995,1716.0863168580386,1284.7865607823078,-1282.3416743185614,1321.3462483185992,-1079.7004409444376,-2042.033354162515,670.2700229422798,-3078.729005934259,-2716.5935210664916,1184.2649237836645,597.8723166494659,741.0375995262089,-2263.582951128513,-2715.3180409764896,153.0555987538104,-1109.6750376915456,-2556.229600711075,-697.3653213525032,1697.5818362205723,814.2448876855327,819.977935680556,1864.656104970195,1170.9689691582867,1019.4043818930037,-589.6093671643725,688.0559385069769,1396.3343335448276,-510.72956731748866,-821.8218201818931,-986.2203889422946,-317.652332469372,521.7948260811136,-460.91418118853176,391.1041755154347,-784.873249323893,146.96238736730947,
-6400.15810136434,-9445.244204759894,-9648.834134112865,-9468.120357244448,-11898.707030962327,-7907.331225227962,1471.0231787613823,-1892.446247382547,-10848.259116286677,-2918.467731010072,-4284.541536783137,-7250.60362529976,-2966.610832554676,-9920.166913119921,-11114.407528484817,-2596.068755076642,-7402.487474136618,-374.8251137511376,-7431.248262418111,-16932.6009891501,-8113.600223551485,-8339.68616054137,-10373.824771363028,-14453.766456566074,-1085.9359936972783,-3875.89346452243,-6012.365197344292,-4691.76301180891,-4196.798979615282,-611.9592530513567,-1619.5610957859783,-8087.402386848548,-945.7912764842928,-1340.5367185367315,-10916.770814682384,-7887.955843385799,-10253.150273933978,-1200.6311936519755,-6155.79718448209,-6853.282651672381,-8496.515030501705,-4665.181573906587,
13.62132935297269,60.081005934116455,13.930188251854148,-2.928956488178544,17.525308507812763,-2.4483928751436865,122.13326676727807,23.023752720811505,15.099774225619411,98.20304639543221,-3.3390728304088895,-52.908370474056625,131.65002721606058,-9.353090592979296,-60.9399856229246,89.51888907618084,129.92141639403613,7.715912969219293,-60.87432325483621,16.497132118016673,123.3670124179302,31.62225684929506,-30.213454265454967,114.21508684398113,154.20625730069642,125.32242854690443,158.2205584508312,71.76121380553421,58.33210308988262,105.94732666174932,-16.168454186968653,117.8858753354671,81.07991892066583,-111.51285573992259,45.73064451402242,-0.39096835837449706,64.77401599650493,98.37232321307187,-44.69987508430387,85.85549487941964,122.04588302251737,91.30659301165441,
19.879126624426668,41.46860578146249,5.528637051479358,11.264568353824789,20.501626829243513,-12.939305483048045,66.44325915308283,9.758068215419513,17.16862759763927,64.40228158836146,0.04370444313127371,-34.33256684250601,79.88840998201361,-9.834625517718518,-35.39963270893995,56.07167248854961,77.41905813861791,15.289808085266,-31.043234433361516,11.74557546540126,74.2293303737616,22.818670773677376,-19.75914444621484,77.19293239869063,93.85915852733254,69.4048333903719,91.50502310536193,48.14828649025001,44.524676632465145,67.85249814580807,-0.7327212337278793,74.40563947627604,53.84745221871775,-51.024258990480035,33.85980536584334,9.927404314875938,48.17701829941843,55.5451738517069,-29.4355024420553,56.12290934348503,66.14507891242063,56.828343939278746,
-166.44689312585123,-281.7584429317254,-203.80092447803258,-126.92923208125168,-230.16266198232796,-281.18951107141305,-140.23581139550456,-13.151401345304235,-211.85369730342123,-111.87401319991778,-39.98043936549849,-174.32620012378285,-121.13669506656093,-236.3288439037735,-162.44368597965595,-110.55673609164957,-248.7204427230187,92.53980826147335,-81.99019556921048,-360.5535993070996,-249.5529108030384,-147.58934204313522,-151.1392419226425,-302.9410612179556,-45.47391901744376,-135.85613056160764,-230.58463103047293,-144.92340335277888,-101.88356809081507,-2.6245924991537395,58.86816269050428,-233.0460798397806,-42.74168794964249,64.83814733257262,-255.58728084042806,-154.50116715610517,-204.9807882886992,-101.22684096758469,-24.55475058692149,-243.64510584444403,-289.24793703153404,-95.12204208536633,
4377.299767194403,23230.640699874442,-2900.958793395936,12134.697927819121,12434.375817538812,375.9713646803028,-44616.94750181637,-23961.28764188722,10490.576637071883,-11240.543792174785,5513.93519583082,14183.750065807979,-18716.538919944447,6849.508278491445,9937.63378942699,-21077.712492042105,-22022.277828381662,9059.77806953058,22901.279265438196,8905.85147590455,-15341.562922654426,742.4957518699434,13444.004422543525,4003.534619059201,-14346.243126658905,-30882.912472908396,-26576.954624846207,-26189.24940474049,-8242.400334838121,-13861.164141681624,13270.492848379423,-17990.137327520642,-19044.81610415635,24601.591200245817,2978.041192660001,14529.38125532994,8267.597308790035,-17204.077427920467,-6316.585424804718,-14453.561142266602,-10714.451892264013,-13935.240526639638,
-1550.4512238928403,282.0543596582611,-180.64250209276256,-1832.3223827434406,-2421.0689675006543,320.0662985716778,-46.867095729052494,-3068.025093300797,-1316.1415445880734,-1098.651405726577,-26.243449233407294,-599.9288014959501,120.59174381260874,611.3823850401553,-164.01465507961134,-1928.792056716793,-1905.67030527383,-796.0732694180849,277.1191447719875,-1736.472457068586,-1656.7000297011757,-1162.3070694913288,133.7031727764224,-3449.2167497114365,-1273.333954148248,-1339.4216869863315,-3143.961167923404,-3063.2220552880053,-2096.9248275208574,-183.09201295063392,398.7197033091467,-2831.9796048442076,-1309.5855499989982,152.42113922556734,-1609.984765078683,-1546.9544818908041,-2475.964873980562,-51.108827280918874,-1897.273894013316,-2229.3495964494573,-679.2255957228494,-915.9149065341128,
-3445.9477583072394,-8888.964658819903,-7729.543683104754,-5736.257457381348,-7910.176153289868,-10252.264413642484,685.6133678936579,-1297.1253319025705,-7728.558445472708,-1320.6484083315938,-2057.7458822529848,-8139.862436214039,-2692.90999994618,-8554.228035371292,-7455.4987454259235,-4237.446678811384,-6554.694506393597,2262.5073648951925,-4690.847386948722,-13440.84641079164,-6897.463508990708,-6446.432123260215,-7141.545768024054,-11263.262676032497,2163.365948291734,-3908.479243203161,-6682.222981495186,-1361.7294597559794,-540.211781708969,-325.44705842208305,-1180.2833007075965,-4921.073680146584,-134.8507159742697,129.53431386584145,-7353.529616301556,-6102.479635055443,-6964.775111476291,-2091.6771346775695,-4001.398468428004,-5660.262933170138,-7510.681659509708,-4213.766472215093,
-3773.465077864768,2251.633833402208,923.02647976218,-2299.8667064575247,-3150.8999530394594,4215.486784490889,-744.9989803897145,-5574.283058704919,-1257.6068266749296,-3270.47254718474,649.2548038850844,808.1515742691246,-624.8231238074575,3664.2567648108625,1232.2578031490377,-3344.577583442204,-2815.0427679118243,-2812.438532358331,1209.5408265527658,-177.37297446764023,-1959.798881209701,-868.9122205479963,1536.1953775693282,-3468.064207879756,-2750.8557314310947,-2084.084331459486,-3160.2451263807598,-5837.916472065979,-4206.190233726201,-1524.5134368009637,-54.96735799349219,-3762.1065653198475,-3216.0620039690025,-1516.6355246939067,-2011.2474349842696,-1237.3443376102935,-2924.7446337169013,35.75807894832161,-2505.4039877458185,-2815.4045428290824,497.94677393265835,-1330.1392450834471,
-10.84646397699003,94.05133065430297,105.89736106568236,15.01549690299885,38.5273362889278,165.47176452811905,58.879725993345744,4.504391591073228,59.0164700539094,-7.512111794885181,23.598196669454442,114.34934046267324,45.33967720911143,124.76534709003148,94.40732484089806,34.83603246867073,70.2225209046186,-78.62595822719689,39.26402659120653,145.64783298283604,72.8001882177203,62.92700640068558,91.3079036031483,65.24187983345023,-34.13453383964852,67.51901910038748,69.31446571945058,-2.396684464082548,-16.746196811160914,-21.631711261385522,-31.853329382965324,47.22840069484603,-17.79053405442089,-62.604072313608974,41.31721692398515,36.6858068344216,18.820797140384823,25.72463907973323,30.225909429037536,48.86804529638017,102.54888156644631,34.23386072132322,
-12.987896667880158,6.398734611644593,8.051634568101392,3.9098453082668727,-1.3132676543708068,9.53545189301125,-1.9405872287882056,-7.837260162869919,3.6896717888726687,-10.168935106342502,4.088083873804531,12.97494209861014,0.6350506954872499,9.211950212210523,9.867480021822628,5.985819895778878,-0.17774268884642277,-9.990610647763171,8.834468207266255,12.457680605561299,-3.2521132349173825,3.6645176033283273,14.25538190297059,-2.1920227978716174,-16.216905167879432,2.01910546225001,-2.110109638041581,-9.158668283415494,-3.3307971675392856,-5.585362027714214,-0.4732696066191102,-0.26331522938721275,-6.059971746014099,-1.7153981696820526,-7.136195079428155,1.7701188631032831,-5.87420319262008,-8.062273061741928,1.3265558053698945,-2.781140334122522,-0.12968982616123298,-2.65241709208008,
-24.899762974997387,-63.891384034614745,-65.66993295797536,-17.706270593365698,-43.99742352474034,-95.88898262955871,-37.71858559290226,-9.073817629303269,-47.68174366403614,-14.209117429236544,-16.346478948661538,-56.61980800191131,-30.57843882039704,-76.54293053228679,-59.08621628513805,-14.392294823619117,-54.78771095819133,33.84150171539243,-22.395372324376115,-92.5949005024915,-61.90396204669426,-44.33260218488811,-45.034761170274,-57.58140988027446,-6.137911738122564,-36.619216501273016,-51.820750582622125,-19.71331803041214,-3.948374613397958,5.133035847561013,16.362701246091802,-41.62954490363886,-3.353320099476286,28.992305203871364,-55.9650053310202,-30.254373756345508,-37.268625365151145,-33.956321431834986,-16.395782209152117,-44.453827577142754,-73.33458675158602,-30.565902898924026,
-79.00615296360881,-39.483262651955386,-3.986943870945777,-44.240133496212806,-41.408814858849134,50.46006431530393,-45.57540748687552,45.23256509174117,-39.39915985787972,-55.0301975928729,-29.122626067199167,65.96429548086097,-41.217615500234004,-1.003812761888674,8.279921201162477,-12.824690173638366,-42.423244188415154,-37.505632824211055,-35.363517100098015,-7.2158753246459835,-39.445692230737734,-3.5547600658161227,11.965849437089219,-31.442773317256528,-59.101800900860646,2.9623526096801185,-4.65652379020921,-61.35453082276163,-71.07949567829758,-46.41924463134146,-20.876423511238038,-65.00450046782144,-52.43590128655826,-53.28525150595143,-76.64388001822074,-36.16119603670869,-51.99010239854084,-41.10116552124575,58.19412945768581,-55.98581068676796,-21.089569297013394,-22.752554248139504,
-15.675695437042515,13.190586320412164,8.591436250456868,1.2044824393904103,-0.9445357680406062,24.509791642046288,-11.68685732256675,2.3221588155688573,4.4517388316637945,-18.445822495782675,0.8387879743450106,24.785867852687677,-4.645573346273994,12.613080584277924,10.454577532061169,6.080635782546654,-3.091802071173945,-16.106977625005836,6.091455043820082,17.122476619605987,-2.547042970939021,5.430579277886182,13.906335937671368,7.490981070580745,-24.772017070309204,1.2197494171329382,0.2065229445000788,-19.89148742918918,-15.868520708217696,-11.101268162312447,0.9661750330696232,-8.274120464445032,-14.130877814616245,-5.950740419101032,-8.425385945262635,5.148532608272043,-3.98559364062943,-10.392149369257341,14.79324208701779,-4.602346919275398,3.2061751116789172,-1.6328304610217153,
10.887488661731782,42.80910376683022,11.235678067112268,21.08443453581329,18.02510693390482,15.255881747916066,3.311810063132185,-25.23360727656399,23.286014122624263,-4.536299323214863,17.670569893504414,2.42367776186029,11.54016522750184,19.352194000684197,8.497721631793368,10.445210475011258,10.072935871887097,-5.870911522379951,29.23090114408918,26.717739983082673,11.302919601052022,6.154224028739543,14.383539252593462,20.897571725079032,-12.229488655817589,-3.996505771306398,-3.5776019101083887,-6.558814554759146,5.07230870325283,5.6231353781818925,13.36533491197849,11.954317250545197,1.7748777285943282,23.07503298341047,22.757168353971597,25.269429255573346,19.00912560122815,6.209312291513776,-11.548864065512426,17.40911280229682,12.520838793658688,8.169368926315626,
29408.15332245717,32085.945992763034,24994.60283531972,30358.02557428265,35874.92836969772,14223.728207062824,7823.0214300650305,-4228.736563511365,35017.23887379098,19778.666282211663,10079.028231628876,12413.427758568647,19261.604600565286,19555.15183048798,23487.455158239936,16042.318564340429,34007.280091167726,2901.6353462436296,18780.054391461923,46165.93312831588,34090.7094812865,23354.496999655876,21847.107606363243,44567.8575012201,12032.7873377373,15049.521180083177,22788.898278747325,23087.020066666035,22540.81043265525,9903.655451099516,5287.675630999415,33093.51586224661,12650.937919088901,6693.635802237882,38571.80155450766,24799.09906293317,34644.89317627327,11317.413530078844,1395.4230137620696,28987.675038569527,28968.899776168506,17544.126563543137,
41965.24752074487,7492.115998919551,19345.786196470206,40022.40395775182,48609.58378913224,-11752.508332832727,6896.853058367816,18916.072023320994,36020.095367248425,25702.989996115215,9387.918768079686,5259.791904367638,11172.28569576508,3399.3902356020594,23154.747884594788,19691.835240147488,32209.27832848314,14406.933120089634,15918.27800990132,40145.17544381864,29648.623553212004,22564.826543115054,16606.672986610647,48746.5189930764,18077.477331872775,13866.975889369327,21559.623216203057,52689.168635703456,40212.59636837074,9025.815722836429,3098.653677118194,43694.428539495435,24150.705215544498,21263.84924978778,45591.57084822244,28639.815039480047,43694.389399912914,3235.812933584679,16844.399284406794,34432.335256106795,14189.82619850529,15101.779247978551,
-43699.296270111445,-22537.872028152153,-18652.013951157558,-36132.106993569796,-47039.930769816536,-3343.579416343598,-7505.124231323472,-8907.674968472442,-37453.844770010546,-24867.22210794061,-7488.895450752188,-10993.523129888736,-9883.225537656985,-10879.948796611567,-21137.879891840912,-20408.94736313714,-35409.13455063108,-7642.279693625296,-14825.69767892197,-44461.6756330405,-32634.92191257884,-19046.91571573781,-16989.921740315025,-49302.40462126887,-15368.157577338396,-12815.082693004268,-26470.503486958565,-45989.6205495636,-37033.7886436945,-4033.857210815518,52.3978420306323,-43337.58351378097,-18176.40544777268,-15624.737393194935,-47446.569687983814,-28659.035124393777,-43046.83552088925,-2998.6824726711766,-7480.665474887957,-38084.81618579454,-25348.093477474016,-11851.789453670679,
579665.8077227568,257693.75581701795,486567.05901586456,622522.6753634523,689555.2563683923,48525.10986819596,10835.09672766924,5892.364149960933,622169.3632236635,222701.58206550634,287231.4950939209,129586.43989293712,121824.59215378563,400912.39554130036,619703.7019264019,47402.54769031459,426469.08764297666,107805.22647120168,381226.66722670436,810664.5520681019,443261.75374615774,396471.22850696667,503904.74862348265,611950.8401527548,206478.06907809622,113639.57214827632,193988.1130561146,618165.8234434427,517272.85441253847,7809.4063522331335,34257.94112906486,619786.0493618697,220602.16449262312,214853.53373329443,735186.6226261898,436507.78766182787,583437.8831562771,-14655.583828040792,169721.43913272957,448123.89219688333,352112.90271329,170143.24401402377,
27181.249422899273,20526.551595832825,2097.569879658515,18833.31784112341,22478.773831601542,-15436.849806791291,22016.920401480922,-91.74774195568395,18813.17524402064,22806.961059423822,1425.8785327896735,-12416.743257834332,20347.15176275166,-5699.06505977454,-2047.1810488241574,11295.569140989013,20402.42864149669,12674.021967977818,-458.5835115291528,10931.325021235292,18003.88974583048,11884.05271765566,-235.44256242337596,32672.597597318752,23488.826787521084,9101.844867319098,14765.836155732148,27746.10920219359,29422.513887269924,16560.24247466521,854.8595783401659,28571.653140766273,17463.907384296675,6370.259496556411,29935.15757190871,13007.13690422033,30093.25738011845,8503.293495918744,-2307.3289066780544,25703.031874227632,18811.465966382882,12314.234223523725,
-5408.509972028517,-4948.651844193476,-3973.110210510174,-4438.87644566461,-3864.1128140309,-1203.6965309625473,-1136.0158268936007,6176.8677359780495,-4667.119933933247,-2091.855503955901,-2273.370494280235,-1411.4406506151922,-2363.9876484539955,-5409.436740168547,-5308.936605960084,1579.2290768942094,-1922.9010906566066,-485.7491972140417,-5363.1660027404905,-4774.908902181654,-1996.9296959251603,-1807.9672424511286,-3910.5647795123095,-1663.9638410575349,-125.33594122300539,504.48599499007383,2559.9126437581763,-2366.6308510092563,-3217.2188218206575,-317.60834482794775,-1741.0300592953151,-2237.632919444612,-140.0828355093249,-3938.1888979251175,-6303.707133993984,-2793.537504787884,-2772.2979209225405,-325.57104629146295,2778.5499385837747,-1464.6569265129972,-2422.484591741496,170.49230321205266,
6.943861971593621,18.414245140886308,7.17871093573352,15.748276873315291,16.548205351866578,-1.8886660609333354,10.218075292411642,-6.155009004705349,15.58599356922142,3.6069550885621906,3.135175191115115,3.641999431573532,8.293227085060447,0.7425098357429518,4.488891409162144,16.933475378538624,13.956663623865781,-6.707912113086911,6.29246465567883,19.385342704456896,9.800617051381149,4.046219169507755,10.874397960544082,21.384341220019788,-0.4429539259842763,6.0272205697599786,14.978929646754874,16.09589678277388,15.349818657286166,2.703431845506866,-4.73853464971483,20.559623153589758,5.7622156273607255,3.746062549978457,14.205814034997596,13.893040271593149,15.796523060299943,-0.33179120590973377,-5.712410049089908,17.869698000292583,11.603804411732783,2.468677516179659,
17.229223106484103,49.11584248054209,22.110943921390795,36.32994499103733,39.56642374583195,7.611002087986268,11.877736774388758,-21.860161358685573,37.0990925224412,5.576672209140308,14.880711862852388,10.742595430905306,13.988097956697965,16.063037209963444,25.010819170526613,15.676880225714909,24.951819089250172,-9.764628155090636,20.074682527327283,47.35947046053631,22.15897758761794,9.71950608970067,28.662816676825692,42.96404179871748,0.3263761994262095,2.347777381343034,21.537799354015167,24.798535280469206,28.12680402727993,0.8976834633583937,-7.622889808596788,37.67886928116463,6.373446508855926,12.420645897047928,39.17004750396481,34.983515589020655,41.3262058059173,5.388564781400092,-17.174184687784493,32.41166153454265,23.97265220375484,2.4339300565289084,
24.26143848352987,74.64117633282548,33.87980847909612,49.58189896703874,55.394986789525376,14.718411314124735,20.768790471284635,-32.72543951451415,55.45087162503435,5.44324521106727,24.973504473992808,13.568655143515963,20.050954296294,27.178913693379716,39.989834087674325,13.758802617464797,34.234080672602616,-15.018392586518083,30.72063713511976,69.77435285269529,34.057197026067755,13.14953666452789,42.379280855945225,59.42968967391243,5.6123495068273455,-0.24063027313885818,28.858754784058675,32.00559500724444,37.03239242978698,1.3713552570792813,-13.391836668498964,53.2389743856366,7.107301738539009,15.959642119620433,57.71076776041352,48.64038334276934,62.371325028615814,13.86129893835147,-27.436020905336978,47.395739340936466,33.91204415780782,4.737043438758108,
-1.8576189331319515,-8.668908483464222,-3.90674534651027,-0.5692664377950866,-1.5968556436607704,-4.358008384547575,2.2176718631674097,15.5588668906166,-2.5389972476720306,8.329413964830975,-9.036164841629668,4.185957782454733,6.0005951886484645,-11.578630875350175,-12.831877338503235,24.885780536352062,10.086842132512492,1.535230455389002,-4.705214326773676,1.8865020568862545,1.50703047679881,4.2328098781893395,-2.573650658613519,10.742916781980147,-0.6164804714430613,18.1126467840103,16.637856408772873,4.85390511363584,4.0648603503134,6.204109359293204,2.9672102537013467,7.510503069454856,6.317504349714678,-9.713500496814776,-11.963796262596722,-4.655714429827409,-6.514513867467807,-7.656655312325124,13.613623522786089,4.891347648114411,3.8844789272051314,8.243970754558768,
24.716818414361025,7.417783266235834,-4.743735464410943,31.317362234868803,26.139677556262125,-29.107847284269745,-10.492115634513032,0.02688384807709176,21.967835216214016,15.986125436884357,3.863906735215146,-7.862197854887603,4.313734454352088,-17.101770789786098,-3.61059525245115,21.857823923580643,13.521868951614525,18.464634898304183,10.545879180555076,9.935044811816045,7.442474008018704,4.581339754417243,1.5822349189571914,27.038094380243404,1.9253626509662625,-1.9748433800354679,5.494204264755535,28.797995215995467,32.98870655602811,10.801854682521013,10.651313680886757,24.764803972054015,18.557999901498857,34.205529989924614,20.24725369314871,21.0134437593888,28.26156536739193,-10.310203258872091,-4.1910509513388075,20.38821812452944,-8.427550910953105,0.5098420754259199,
-6400.589984438176,-9446.365652124729,-9649.21601815201,-9468.967561628018,-11897.836904914457,-7906.341376881624,1471.8086649570025,-1892.2536385125127,-10847.151230436995,-2919.7711556584486,-4284.444614294405,-7251.91683247388,-2965.2322039148844,-9920.225626686748,-11114.024518812841,-2594.5128585873613,-7402.270791967872,-373.61174939175436,-7431.283927985586,-16932.337832567428,-8113.993035346849,-8339.577055841588,-10374.553595010511,-14455.475723207532,-1086.7825773737052,-3874.671069546066,-6012.861196589387,-4690.409731016091,-4197.556581097325,-611.3969730045735,-1620.1159906662986,-8086.966620152324,-944.9564135598401,-1338.8117660930384,-10916.957793882726,-7887.682137460853,-10251.863582504528,-1200.5522365361935,-6154.964663392804,-6853.857430892492,-8496.124651713588,-4663.927925121232,
-6400.613930808092,-9444.74738792649,-9650.199961008915,-9469.712445419655,-11897.65018736692,-7906.749284325236,1470.9687305144246,-1892.4893906451762,-10847.295730121174,-2919.0545541129536,-4284.403131518247,-7252.010320013456,-2966.3805214293648,-9919.204790455513,-11114.328222814333,-2595.684808197752,-7401.406957703684,-373.4833196386931,-7430.858726083142,-16933.024506570273,-8114.591410599022,-8339.498147171988,-10372.981430423093,-14454.834118747036,-1086.476126928011,-3874.517890622476,-6013.416103239377,-4691.215539422942,-4197.511283155355,-611.3803032458093,-1618.322310033718,-8087.075082200311,-945.3629100202687,-1339.536904838509,-10917.667106073844,-7887.861578292942,-10252.620257017707,-1200.2350638845994,-6154.470444338217,-6853.163657077476,-8495.918160575871,-4664.821487371246,
25610.168111784093,22171.06809460122,2699.274796986453,18064.675243308757,21411.76108548265,-13008.601778138562,21887.97844593348,-2449.9537566474623,18590.453308951066,21679.09884614618,1548.7484841708924,-11867.903767244341,20369.098989313472,-3772.700685526145,-1551.177960042471,10327.348165984107,19731.088991733315,11437.190585279952,-89.05553367601598,11444.801075427291,17636.348779049084,12070.775424381267,522.4976468571699,32271.648823036852,22567.533854295703,8740.693127610348,14446.530038670473,25205.176498653178,27734.230209513866,16229.86544117214,859.5856424277357,27447.91743065523,16108.57761373224,5078.681676048613,29447.554954233696,12617.138508276103,29407.4378394442,8835.268391110178,-3039.527327718708,25031.11356403786,19935.098099368188,12148.749932521821,
-130.93080239402838,571.3484394961952,410.9174754863371,13.121802337124892,167.63933462788054,731.782631876479,410.61773632073124,71.5869856966467,224.7427517554352,96.33895702862101,102.05927526221139,276.0582907665015,337.07998631201076,493.64683102120944,204.52610758042852,271.26588850468465,539.7615876878573,-320.8006990036664,-15.167270691137185,617.79052182889,548.3934489238376,242.0326742610357,293.28638388594754,566.0967119482361,234.76616844078254,486.6933921750089,721.3470457286156,15.19193302461081,-30.578549772134338,137.24344722663324,-219.25136035058244,423.54641006980813,35.617764590750404,-574.5294667245145,239.63696359608375,136.68979329377348,283.51429748942826,388.13141795123505,69.89719324327379,379.18104907053356,731.0944700201569,320.07682931914263,
9790.2671476994,22727.942989105308,16243.024871196192,18090.6590755742,22800.466353170166,15914.671717601523,-13198.73818310286,-14289.173213659156,22003.00648253184,831.8595319147379,10298.766717485472,13968.215772341224,-2208.141709797373,22760.53313873735,23467.055642411397,-6268.981611340154,6515.604059378527,-175.48675752448906,19547.986977151628,29988.000286887436,9613.248478588137,10486.192348338682,22635.990208833748,21859.766777159453,-4916.822584089515,-6607.182599711611,232.85492766365417,-536.5993173840859,3496.8429416975673,-5122.018403286092,3863.8540924234253,7681.414564061532,-5364.4205477685955,7844.372079668099,21994.492933983667,17174.929667226774,18372.60822257703,-2939.865120646155,-3017.9691758339286,7543.386102751387,11681.925921886212,-954.3509230014561,
-15772.080960112553,-26781.286664695213,-15607.721239452821,-15234.408851329985,-17600.77974219092,-10451.927935268995,-8760.305832196142,8673.580367287756,-17263.315102580655,-11190.296461853812,-12936.164916808726,-6778.96037895405,-11751.585317598472,-18095.62165096372,-18132.249514217343,-3526.6104968354734,926.2124620610545,-3432.8348274727537,-20698.16783598844,-14364.2136298423,1938.3398023716406,-8936.304156950668,-17379.33037215275,-20219.86064412388,-12379.667572167897,-4743.83192639019,-4894.135259053065,-2768.7994885875664,-10034.949624973893,-7002.092682012379,-6596.837273079123,1359.385897003953,50.30018182933052,-9655.189230853028,-26218.237015157174,-15583.882804936882,-16932.17508561362,-6128.949693613596,5819.740399288282,-7171.164376862525,-21391.449974007788,-8578.669579010957,
2793.0349278502545,2317.3850140144395,2107.9422783803884,3241.0464406436527,3856.4569907468335,1171.058985012692,-1254.8135337962804,540.3190742555797,3289.292628024533,1278.1703605369578,932.3566752932124,1871.9711421444706,467.55728376142736,1911.017301336446,2634.3898010060916,976.3745189673542,2041.6747318646433,819.7134430270579,2133.1216106450393,4405.507957469686,2120.3260278391926,2283.6092423649634,2393.455427632996,4372.225753885762,341.191908199039,622.200062435397,1343.7029871972888,1955.0877564944406,1923.1061714649895,147.1532471812685,817.2312615135521,2449.805861779701,624.4383589535024,1509.644932158295,3382.1356014098883,2605.2198001862785,3339.2742126480466,-290.3904453712009,1469.6936597920808,2153.3538261745857,1745.8809417963535,1023.5725752791681,
-1168.5297739598072,-753.3759244279059,-880.9713097413756,-1245.4783349632544,-1562.5199739668983,-388.5899846957399,105.50428694746282,-363.56323110539927,-1286.5396803652238,-594.8990766698774,-354.02603189251363,-656.6626117027206,-296.32836345519377,-681.0635974952761,-1016.9714644216056,-453.5799806276141,-978.8315611900641,-243.27041842974373,-693.0214459848577,-1716.2486687302587,-984.4012489890154,-898.4766075965719,-874.3397319378314,-1684.6395660730764,-260.9535602971972,-394.1873041766952,-683.8169165286636,-1083.6671404016874,-915.4794123188568,-92.14182994304878,-144.4367325895286,-1213.9886397348519,-430.33655836304143,-521.3374908970001,-1428.4129011055509,-992.852245231579,-1334.6433690508113,-27.215369275851828,-558.1853033519425,-1015.9491536747228,-738.9320994749838,-463.1600009061959,
44.3574914819352,-18.152123228821218,-74.83751072680926,99.79507147311844,12.78896428741846,-173.5104915825252,-362.66361649337074,-204.4305030116808,20.684485919926487,-93.22596692721119,67.74843851632625,-29.232777465392804,-173.57221486325957,-42.887339023559655,56.49398525193123,-202.58997018101962,-249.8516280924985,133.0122465704574,172.33295426120938,-93.17931376863314,-222.18106578562004,-48.27099007195123,55.540768747685846,-145.7280270842041,-105.14603778685463,-293.11069601142634,-368.1126905786349,-171.8672094561271,-14.257545806127057,-86.79472338956312,140.1220639032645,-194.17818363637727,-95.07522769022323,282.616628218757,-32.14464798022543,63.78400188680855,-24.89953504309057,-198.1700742797576,-106.79405730974251,-177.17889287645883,-253.58639809635528,-141.412369107929,
21543.11468283131,16785.808181444616,9039.594269004834,17680.292075248268,21913.687795890164,-238.3013968021677,5183.604845288962,38.950316140973285,18638.80949867997,15658.442095422999,4455.955598178661,2156.4151856956473,12237.040858823531,4058.741054498862,7743.278982394119,9625.602358864626,16630.542479278225,6011.130884349203,9051.133690229864,18222.028390246527,16763.253766571008,11822.057075055665,6648.786721600298,25655.847311220823,11772.568520767783,7628.787770937694,11565.933071255524,15154.644847881602,15966.183712173794,9762.690091965082,4894.342013784411,19082.923449976697,10780.46662564276,8523.243684505853,22586.273627556908,13755.955027108672,22331.145644980643,8182.422672405343,419.7598409273464,17640.403581015224,13132.171839491595,11858.688102710608,
3331.070405021278,-430.2203953792915,310.4801004091202,6738.37033410969,3105.6044794883346,-6966.110612314214,-17914.92593713912,-12348.488309848994,3560.537080519297,-5799.583932311764,5892.060079849904,-116.75181630832301,-9995.45894385525,3100.2402174216236,8931.58186698819,-12538.152209721473,-11678.61466094552,4162.779763701099,10736.095242071277,-381.9753092283356,-9729.6666114495,-957.1691962846754,6679.044866370958,-7496.4205595886915,-5521.37158284766,-15719.099635987519,-19512.634251336647,-5171.87463080091,933.0409368033411,-7176.008770301876,4661.941633422354,-7187.463222246959,-4901.864098880723,14818.463439903464,2617.1006859285158,4619.848216969033,241.45487786160604,-10325.578467863459,-7086.755922953388,-7679.867774116298,-11628.21318222185,-8668.062507011902,
22597.506613667607,8929.448991311416,6432.310520672086,17570.311853673575,24038.599443119754,-3227.108035164688,15760.101954667918,12854.46488370601,17739.238346669867,18714.786998395797,814.315514583063,-275.2994727275207,13399.792889901279,-2476.9817094710797,2019.156124160008,18154.475365598526,23619.75151437313,7039.451041592916,1700.1048987102306,18901.2794725729,20381.070008577106,12410.465559989907,1596.9758590880906,29758.991645433245,13290.652229262918,15159.803244892688,20751.400790283777,26388.379972614126,20993.882127793502,12052.612241138666,1300.091939239831,26094.21923684912,15033.45078349263,4804.432774869405,22984.241380848805,12413.04263110297,22626.403598592595,8432.787467160317,9657.442722298078,22603.411600586074,14433.021526531513,13155.330059405442,
22664.736151000565,8997.221549517235,6469.514729093766,17624.575051768858,24094.200222853273,-3191.857897601273,15797.147940649449,12846.884641985416,17812.772765061705,18779.56904021363,811.5344637931906,-259.095769464312,13454.111546275393,-2444.4201389465543,2038.9223200182448,18202.87063056813,23692.97664082831,7067.040987687036,1713.7714794806218,18980.524662265347,20454.45978374244,12477.814249601168,1612.3295828957575,29859.29006519911,13318.798814389387,15207.827555814216,20816.164845070365,26415.926975325667,21035.256497798426,12091.674787501343,1328.4181900260974,26152.46071732543,15058.281700319118,4806.053040480956,23054.742056830208,12447.92878029106,22688.50984272667,8462.09903796562,9680.255859870578,22667.704629459495,14505.815243926241,13196.979562816501,
1596.9740393806687,1425.3330323634864,870.6298025744479,1703.8668514348362,1917.1081784798675,349.17269234844304,-811.1447833747175,-167.1660009858509,1677.0370879769582,777.6383808893645,459.99756630389544,718.3165660113095,192.46770775513966,828.4068040521529,1137.876648993514,344.9236670283229,933.5789169812226,568.8826606105703,1213.9025611945501,2023.9115751881282,952.5692002352906,1048.5067773242915,1127.076495048395,2069.3798841204025,321.00373968481296,44.28253740434379,417.91483415433805,803.4366731281173,1091.433110418552,98.83269373446907,530.7613594677791,1195.90099696248,259.6772082755692,939.3481563830835,1717.0531405640322,1372.1546763577996,1702.8043995069424,-200.3237576552886,386.69804252294864,1058.6643604815583,803.3190557748248,387.5513482608785,
-1898.0660477838107,-1385.8306565830144,-1262.0473727683345,-2015.0574981578204,-2461.4804207781544,-625.7613571446577,230.32634175720008,-754.9175886923767,-2060.465692188938,-1089.7148376728362,-459.5005894690987,-1044.439082172391,-569.423602467165,-889.4985083861887,-1392.1355609505201,-1004.8495133789723,-1636.8660565918967,-506.13823748631023,-1041.0581417808962,-2737.369147521386,-1617.265061300902,-1440.4482859219327,-1270.7026180794342,-2960.086891645713,-521.5718520630501,-763.275365577267,-1341.2145725684154,-1676.9416587702267,-1470.1019005600767,-292.2821699413959,-312.8640921128161,-1937.3417416326106,-689.135301273732,-747.427762276845,-2167.040871512874,-1617.223340109573,-2242.217721068082,-56.34991029924567,-1062.2211278267205,-1697.5877840357514,-1273.6294415379239,-837.0888207319874,
1671.2130037970755,1449.2789560047795,808.7600963923838,1842.1514217461936,1969.1251242761366,182.66533818527503,-1225.2244312138516,-395.12496186290883,1734.4511317771403,687.8715203205361,539.6393655828622,710.2572083344247,9.508186938597266,807.0777542594021,1220.61650670371,132.90123121146772,681.9385165316156,717.1016467078558,1426.0671591671185,1972.505810449091,730.7504191199788,1017.384020723985,1211.2777912658157,1961.581173269216,209.53487356067592,-269.38697997310663,35.59356509588657,618.3176477051962,1087.1974323916138,2.7997619448756113,692.2709485546604,1003.8955764768748,151.995446748466,1253.8658131591646,1712.0180010111544,1470.0865543078694,1710.6008278333925,-418.63922882980194,283.95860787888,887.7145691264965,554.5311907084534,242.43152912908027,
-1874.7486860497581,-1428.7923525322415,-1349.8844862078574,-1939.0003058187767,-2475.2289334256584,-810.9472780520408,-119.31281782332975,-954.0338610287788,-2064.611391597093,-1193.1262797847257,-399.0669995981581,-1086.5418770975743,-744.1748374376377,-947.2858357586024,-1353.8526976802261,-1211.8529993221075,-1899.526779745262,-381.4829646316587,-887.2468548038779,-2862.3762113878815,-1854.1489430642027,-1505.6331579593589,-1236.1553087178434,-3136.1916868777744,-628.2716312501553,-1053.9297377580813,-1715.5539553838676,-1852.4966975987775,-1495.5818527070455,-379.4855512701676,-181.14323162016743,-2146.0102228886262,-784.7409629149071,-477.3495950281401,-2222.235225586242,-1575.0929899991304,-2290.6506107705272,-252.84514100020462,-1174.7818950206954,-1889.8654940824463,-1538.9646670692075,-982.6633267305476,
-31.268424129245904,121.67698413364238,64.84066918229146,55.86249047588738,50.28398005658511,112.78049812277982,-117.60344081372918,-98.72457617162043,72.10561499316167,-73.96677245508899,53.83077879325629,93.71917161938276,-38.38060332722236,107.6828330705562,100.6100678103056,-45.88709813956542,-37.00566553689083,-22.225101760292137,98.19430709802478,108.7610384146037,-11.292563764325724,34.63962250509049,102.9011351105996,41.281849153408416,-107.53839796727723,-75.44529787999411,-58.610089684428246,-128.07472886336873,-64.25770438738476,-41.994339281359764,49.1397487882466,-55.20159956622728,-70.05770922906821,69.19736443746964,32.81968257655768,83.34482042203507,38.79496272821955,-23.91006516795599,-24.853640031491512,-23.294213863947665,-4.489871213922488,-19.49269486205861,
-336.83067728403176,-231.53003348145927,-182.30818882654793,-293.99843314441665,-396.5513212177319,-132.41942689587847,50.69920736329097,-180.3712479985172,-314.7832934349771,-197.21620836040367,-32.81411604204965,-197.37604021928993,-92.42651064255503,-136.1930187008104,-178.6903252237305,-201.54234659550312,-271.21594271160416,-84.56411375962395,-136.75838595652775,-432.43576310512776,-261.8070954851182,-236.54565026945278,-161.86629091558828,-504.72466344314455,-76.76040623115617,-144.90458155212878,-257.5699704682736,-274.3328947668849,-226.64799538035186,-53.36078923769851,-62.10304589036961,-300.25666399528535,-112.37421130163744,-120.3991745145859,-339.4873566497194,-245.96034280965202,-354.56011624102695,-15.540263329875698,-202.82769261435,-294.06799296228246,-227.5103675574608,-148.16627947052672,
301.38989954545,-90.33278894235202,-22.18313012128901,295.9343319256803,337.89014821914657,-196.2519018847304,4.560563061876152,407.12258304726447,196.35524532504488,224.2703655451394,-12.302226281906442,13.806746780198788,25.16479571223621,-208.9845487915185,-20.559466420076365,308.2726090985002,266.72406052880893,200.5872235586502,-33.08036103080077,169.90170164471215,217.07649793745964,149.36773504881495,-56.398940894278645,446.34029682665636,201.80004252318733,175.8109311556811,359.1793715461929,483.64108111686,360.5176037738546,86.78911237969615,11.771226713716606,389.82263341102066,235.94090657729708,103.17980193548316,228.74463309884246,208.77601206367447,355.0795975695791,-16.186012984813942,259.87001692780774,297.23835457367124,19.110652056702666,136.5869005072366,
8798.119580978637,3057.670549383921,1885.3066100509127,6306.79333843377,6020.36925116878,-5221.235201138412,720.200479346998,-6571.282015314732,5693.2487610647695,5484.606018641197,1886.6724076681617,-2356.6010012985,1172.2069395034125,386.225973132087,2883.1325518683598,-1570.4985496461481,3566.4263389681837,3995.0741273145118,4430.182296760819,3436.273564670736,3013.9010967183754,1307.4393052025673,2284.3484088712435,3347.754197921402,5121.546502864588,-1297.6516852841025,-1015.6672044324885,6773.8057489546,7901.092440173584,955.4247483698916,573.9768717328185,5939.273516642717,3131.542475339444,4683.359943712396,8266.762748884208,3922.5627143210104,5489.575297515886,-455.73189492953964,-5863.995930393892,3615.3614278657124,2259.523401653135,-188.61347989720082,
