-28067.376086478012,16855.87029678268,-10703.479667339838,4921.3668048470045,380.8605575883407,33545.84276186461,-31719.713614686,31072.940349514534,-18418.140410927947,-29841.630039994147,-5110.095281160207,-24528.32882982215,-21928.81543598926,287.5524873916883,23429.947373285144,3458.722485736032,20102.987969177273,-10797.259800709176,-18752.070532738493,-581.6249024285429,-16456.598732154594,13135.323721822842,16005.793063992638,-15987.400489297406,-11993.13890963122,3548.996762287018,-7035.2772239527,-22614.14107174716,-20032.919400877632,-1346.0028995477119,-12335.732717115712,10396.68100030385,423.7323971158037,-4965.409828555283,20168.09691718465,-40.250136623104,27419.194508307995,15870.183897423276,-9193.059708119426,13765.263074599397,-13723.996491609187,-4278.354432364334,
57416.82937399821,34796.00552309533,9521.690639877595,23767.382413679123,21823.79812870348,-13832.447434647811,45466.70964598459,27784.510875756547,24460.05310264207,73316.64544303104,48033.6087615203,37011.958675813825,-3912.7571073936997,-29243.91988453299,19420.04585404738,16011.967726671615,7713.882281759431,-30755.13577248858,33436.77288399821,16699.080524331093,-3871.181115377474,35374.144664313666,39022.57524159859,-5502.773479412247,-27404.254605250542,50584.42224535906,4460.990292720158,30531.97094264233,5170.943799291196,-28035.720773277913,-14596.524676017872,39492.520124921415,49741.49705584017,-25930.552364224975,-32595.523392628536,15602.78686118632,-35676.676451851265,-34301.16486412229,18971.311522406617,23979.89348539239,57062.27959741463,12220.646828191706,
39509.27145236393,36545.96576037065,-7523.785371998792,7774.673341672743,21384.341238102414,-10673.292862754102,30898.63864253797,15000.852258154095,27923.35387562939,40788.27732240937,43277.09179375299,27777.255343314813,2555.0329636043025,-40102.26082358795,41633.37374988629,-9031.681995778777,-16000.44079398471,-22217.23009291528,-22788.095397083023,6185.075617462645,-23938.11989683657,10052.248312966723,47701.2262711697,5138.278679403532,-18625.11973106559,19877.643185010096,-2172.7558694205895,-127.95053037940863,-14800.752655050172,-20935.07247456051,-1684.7749096929674,23507.707461163252,14783.583136595134,-12516.356271930108,-35576.636063832084,17726.702621821198,-23087.58884212208,-16104.533461108686,17138.396609226027,-11639.794948135741,28470.259722869065,7213.982086525422,
116631.8000758556,59231.14435826953,3669.4472426191064,17984.502474087814,49746.32422193847,-48126.90600948828,97896.30952809159,7318.7981294938245,69837.02657050162,112102.98799067896,93201.71297817583,85851.35576418498,25603.830914995953,-75694.5034560548,56926.49728977144,-18526.215780625036,-37072.21208547919,-29837.12445241318,-10857.623653034047,18650.596541060222,-29025.857753664837,21873.32362999634,83614.42134852242,9530.597117431855,-31172.099161808113,45314.6379054018,4076.1496123022503,34734.06064855516,-11379.198231454347,-36508.24782649406,-4326.10251769916,54391.204314641174,52319.18259113586,-22088.12250034328,-81446.48665143918,41534.791678243295,-71788.61760581446,-57202.81115193569,43540.73048474234,-15966.731196249842,85648.9995830563,22783.88186319466,
68577.22028696131,49222.61551777353,25892.19470533976,50021.33729186647,41146.30232759126,7040.336890424794,47769.29978999405,-498.4658942869076,65186.76958079426,47321.22660024377,49592.963243725964,63019.09322473502,24603.813450874713,-20054.53633496387,51543.89858504548,13627.857896919048,47065.343293761434,20684.96134792056,56280.11062482653,38580.59266338836,42461.124552562505,63139.22462752459,35300.98540556896,-28614.71152677374,-29074.986198839673,52151.36561673651,39227.226084519505,89537.32694414287,45407.68791697626,44666.08109501998,-22074.66250779167,85029.14965786578,74011.46162005303,21103.642490905077,7047.35559321234,51783.855610761435,-21124.133831798245,-53538.36106138755,41835.76204483319,86893.70500184743,102895.28923033336,63393.865236020894,
3703.4514309996794,3190.1422664146485,587.9778407593835,-567.0560745080732,1046.592117362329,2394.3750830009353,2524.0792906990036,659.6343657380728,1802.20962056499,569.0927369032963,3948.7073062577424,1680.602455280191,1401.175304509862,-1207.1053678812827,2483.8102283681333,-336.91054866809867,-333.9431066890371,2181.9599602841017,-1381.6358574401315,-1732.0055316422583,-2556.588090189392,-1995.9716719493317,1869.1997455712421,1003.33378441256,2582.0056175809814,92.81351281588225,614.6115258625256,-1725.7054921165388,-363.9769604316459,-103.2953800968229,1391.5759634712633,1917.5007879685788,-965.2479897902195,-1276.4154711730894,-830.9975670656603,1902.4097049518266,2461.5772688115994,2259.6986613477343,1265.7265339844344,-361.998213249355,3504.655443224804,160.6743863323508,
2588.2938978471434,4223.298240451014,-373.59041139391934,-954.6777208919937,1490.0084539452,3785.3248856436912,1080.068532360889,1542.002028885202,1243.5196590536773,-1288.5906200754207,4264.167601648081,667.4732519999327,1228.7812818743505,-1744.7806605756373,4199.9984711985935,-801.171186797082,-292.00544243310696,2401.9696079281134,-3591.6936977183177,-1857.4801066996242,-3907.9734821457805,-2466.759332931492,2809.0550847274494,749.6070482225847,2226.951121849039,-461.7667216842848,-248.018775956552,-3785.94298436644,-1699.6719836781033,49.90805934567627,1319.1339670328402,2245.0598237684007,-1842.4573971699447,-1276.4524520675843,-582.7067033960402,2434.7298017054036,3795.164453116624,3475.09897434676,732.1595913423043,-740.6783245555802,2674.675211297442,340.01581864467875,
2844.453906178382,1356.5147249292822,638.3613792262104,-1394.20027434741,385.32052664586,1845.7145001435372,1514.9914254538912,744.5771176472525,1118.9494751679092,-595.9696692982486,2885.3478988338325,546.9380545522254,855.9730806606839,-421.73486498360967,688.9374089020101,180.86687571284412,-319.7919714868524,1625.4234413400695,-1149.4785773611054,-1420.9878003122706,-1894.067838421926,-1972.0871785023326,616.0343305930951,79.47933692479465,2257.146809981783,-530.7317077688884,-127.63862485024677,-2857.2754282637334,-1565.939138270595,-694.6464439088104,1275.8815984626488,1536.3398269816325,-1438.0109938954965,-1537.3264395076117,-519.3789975700386,1114.9907389927976,1791.483152753566,1251.4098491660027,-57.90220801067839,-979.847855032845,2972.785913750184,-191.76807878380527,
3410.3221599371154,3592.6063291258656,-151.84615488552484,-1192.5491760677737,1322.4158607908414,3045.3259676142407,1866.199551927673,1028.2229421947634,1295.7938964199686,-929.7986755490663,4177.672372233928,1031.7764201369368,1055.4192459972612,-1992.3549715167624,3305.1745061575666,-867.4054868140938,-596.4538041001175,1966.1433998107552,-3323.5887760010064,-1965.6912485010373,-3834.9716748539,-2485.935801340779,2565.2106130631687,467.7503574225637,2054.372594316905,-556.4097989229058,-280.695734312732,-3610.686825265081,-2129.4662653981095,-628.0890858285026,953.5688636992137,2250.1117444501338,-1629.6121468320905,-1560.5497684562765,-980.7336619915117,2236.4068170784703,2790.8223704839143,2334.1589325050563,710.9677044132998,-1149.9114014213692,3190.5980602466775,-2.2251428030891285,
193063.19794089667,-30200.524481202607,130426.00057897031,-58941.07848513538,28088.257429889774,30881.909771826406,53531.65978521054,166581.47583275192,171201.91217165225,-139855.06427841095,6899.987685734462,-8796.405829684623,-7974.515381324547,-41624.8979578508,-76015.64743119193,103886.10309602396,143375.3579956352,44430.695454880755,15767.950343847238,54266.955530378975,75403.17149723526,16861.96376882189,90237.83072362309,-107636.05727209138,40365.738504251145,204431.11246626457,76278.03737543528,112987.48318799004,-14535.990372563738,-135493.30341390963,-30795.123851784578,127341.33304127844,115971.02402754851,-143730.50873723658,75741.55009663072,188423.94271384293,30337.152232886478,-46963.717028985666,4024.7584436133297,185905.08264838113,265454.5010131788,102057.43154512582,
-42960.033031730476,142647.82602820074,-39329.95860461244,61857.03976800625,41372.65037423125,161504.79963582338,-37962.49243285536,169795.80623817822,-46490.24590143521,-27057.469974179225,45469.82143270302,-43448.13076591713,-90200.77104957079,-67484.55542261584,154262.29901367408,47769.1906027994,100639.42251758014,-71998.11989625724,-76521.86021223683,56061.45160966366,-112184.78701076901,81255.41521193432,155740.99072461555,-3776.115570630506,-61275.59448354286,60613.36117165627,-11678.824461866929,-107109.54884455606,-88740.588401369,-41570.485563291164,-101064.82820350479,78445.4761154257,105939.20504430852,-14367.244227857818,7817.188942586239,38368.77440174344,69033.95493100066,72866.27803366285,-5691.378784106627,61283.84408473526,-27018.69826640439,-24049.96979925549,
-759218.2474991784,-193166.591328884,-322643.4009472933,-376196.9667249893,63183.9897399633,-1168919.8816989395,445100.2583153736,-1037148.5218598936,-580685.1372194175,207426.34031295707,-225012.57074749906,319530.977382118,321773.9652135707,153755.49550589168,-750769.8583515993,-504725.49801130977,-551331.3611429004,33932.87116593901,126486.96671132841,-742126.1042524028,559678.2725946469,-305148.406783846,-154325.07185865173,157514.5594606328,-178024.05770144018,-110534.37220402033,-337391.81526097184,173764.34700679325,323123.1537203545,-211549.53515902747,358731.70963273646,-1028898.9436996527,-69379.87436154432,-67222.31484757566,-477089.02328884765,-750655.9791718822,-934875.3683983306,-548061.5426321782,-276405.12379432184,-605723.6548508526,-1432564.7776106915,-847672.4750199523,
5864.595131653774,58336.3664229379,-39521.34293401736,3709.6715018655977,43375.90181462617,25626.459579269325,2991.0601187236757,52914.36055998792,-35936.07572830552,-8869.673833516397,34023.499215997916,-1740.6457359172628,-22738.255652861466,-60443.34530324055,65241.293364869605,-42927.88793406183,-2320.2162628233655,-41723.06145957252,-74544.47313075405,-29219.399915136346,-90100.53205653044,14088.360566015519,88255.88927380994,-47874.006203090175,-44902.29593433506,15862.823864217928,-24692.69435824317,-30393.285050005557,-66513.74172256455,-45146.14173457492,-49383.8338046664,30378.964164335015,12910.201984659456,-48263.28504047535,-28646.665273405135,-468.20489612517264,5373.095367378065,2146.558889479214,-7737.415776648198,-2947.672884949016,-10776.48064564109,-4719.78262121834,
238249.45692717333,97895.48088311435,-4510.930910766717,29499.041487879782,113672.82461965394,-88372.75519000422,212021.46410927616,31301.644422236062,104604.19873831565,177761.68146975574,156564.52544351429,186108.23410369712,27237.61662794011,-131265.63032315188,87393.32510649868,-45642.955196305025,-46782.8590641365,-73200.48111473706,-20682.424461998526,32322.56920868043,-86264.58085310715,83808.5208391896,185640.27367657024,-26037.281780464324,-84548.62639425094,95475.67992677199,9464.30497068858,71996.80749603108,-93704.57783670689,-123450.80234411643,-54657.62239121453,127306.52867290034,120779.19929474579,-74441.81587778125,-136956.39769526833,73590.31155395987,-155195.95668875636,-143388.37548926237,92737.69820634235,-15480.322990679682,191442.2480125052,14823.580456051315,
-8790.432616469352,5150.758654054721,-3448.4890222725135,1525.982412946279,-465.6406219112125,10697.722778276053,-10186.899544390744,10300.040844650744,-3930.0893428117333,-7936.6079244032,-410.05012234688064,-7717.675185863425,-6460.964816597101,-341.58863944483073,8357.264323808806,1039.3886804177516,6093.890406136345,-2837.157994939329,-5420.510688607464,-439.95482052828993,-5179.123134474546,3533.070920672044,4501.504018142612,-4891.6785090952035,-3240.219768751535,1917.1861701018897,-1104.6955592245463,-5816.312558005601,-3851.9590085908208,-142.422024025438,-2286.976989934892,3886.640001774134,-373.5108634483121,-2104.8517102741207,5572.52320647965,211.12561231304485,8914.81578605431,5840.546876663648,-2554.1742382219722,4962.07900327938,-1710.4672257874274,-872.5488426934908,
-3724.034482139198,3473.8918468631045,-1852.069319426888,510.52243010347735,171.4842621032526,7118.020213110514,-5038.948244619955,6385.736594387896,-2410.5248751783192,-5294.397167235646,382.28176088028073,-3691.3917418931164,-3669.769683098641,-561.4126319241358,5038.045696582109,834.761008187966,3888.93590205317,-1445.2477711318284,-3475.1052692067997,-603.0368475835771,-4245.708652276942,1735.8851180365714,3043.0063325452716,-3019.475907461186,-1470.3841554609107,1275.8940943265281,-510.48250450451707,-4223.777754431088,-3348.939059535791,-881.736744274085,-1603.921454297313,2877.4764009141213,-97.31103714712722,-1755.7340512225749,3203.1058384627527,739.6477368876639,5450.531972451552,3379.1373772584875,-1427.7066228609096,2592.2401371322767,146.86741280377464,-685.3737055724968,
14084.481602808628,9477.141561718025,-756.2079670866798,-1058.1186556026555,5346.92939502744,-3130.9018294892953,11801.112493196979,-3899.2444788723406,12922.112898276964,9122.274951618747,14758.320026712174,10829.325833484017,7485.214048375345,-10360.851638109347,12593.234119755456,-5889.447163043321,-8055.155161228614,4327.0597605978655,-6586.910992752436,-2769.6891072741005,-6354.919222954042,-5217.345814388849,8699.891454519911,3750.538015057466,1904.3034276244816,775.7507324149485,1310.7526736487534,2413.7999200494146,1636.0192518145313,-548.2484156425236,5423.202267482835,6655.051404738293,-1396.0635403668186,-1640.6189240252445,-9756.614220704247,7736.8785818602055,-3107.640901357767,-1050.8641346020636,7125.141611043581,-3426.1748098057888,14069.23502700529,3888.430719770229,
-122116.91906951556,-80231.04786493383,-19250.53002467764,-33600.44465992926,-30341.422301313272,-15985.743069262287,-77089.26134678548,-51560.991823510136,-67633.02027765606,-131706.29585258252,-122394.01897059973,-43925.2849064489,8756.463199676537,52146.74637517531,-58837.09944066596,-49962.49136714018,-14132.40829596835,47579.12522780603,-56492.52273252674,-44581.78177856425,23412.687771666664,-44348.12422947406,-70938.92100783887,20575.418898825144,27114.177343267642,-78926.53389898602,-17487.0473710894,-1684.9857369662695,-13807.896009869297,53025.285867370636,39520.85507595707,-93935.56865917248,-83532.81907675859,63055.95837048587,66854.62075452317,-36301.725067227315,18701.40933443558,37273.482707654985,-22648.298798958567,-46930.6996552435,-158764.91541204875,-15640.249186578936,
-2507.9638812498324,68998.72239225481,-20121.624249809844,23790.927663061488,13944.49461430311,18426.635996164972,-3418.7112261933275,25852.151906319275,7257.437342641061,28520.7521803427,41063.880986189266,-4227.349558114028,-11804.019767087017,-30092.401251658397,68556.43749398283,-17963.03797107341,-7136.473949002951,-13746.149276348702,-36238.16802184182,-8145.684607442137,-24765.40296407816,235.94528341313415,58708.00760206795,19716.35349100647,-13527.142693886979,13145.148883506976,-2482.5957347739304,-3046.8739331456627,17277.992398320166,16094.17522479281,-2912.1200150413697,19000.376063692278,6891.616622460173,-6105.051768951687,-23075.29659534236,16173.665235981745,29141.667654491554,35372.65552519504,21339.643974365008,10473.036864329237,-6181.367217615403,8906.95600376225,
-77166.6549236818,-20315.087087897144,-18555.416756441355,16177.317947659583,-24132.85918277773,-62120.50541299231,-12019.339479505832,-68468.74391407479,1577.7787653518246,28331.08146095349,-38605.65678950364,12285.029862599404,26942.421981938318,-1159.7916357638585,10075.824806345394,-33029.61217370977,-44201.56988624824,125.57249557386795,-1847.9098160966114,6553.948576291777,45586.434240574315,-15203.610650130837,-31251.6420532533,33647.02149561744,-18213.182670695693,-36199.836026883066,7845.580651662875,64343.3706149356,57369.411211298575,53566.62241290892,18467.97491127138,-59799.24657138401,-27552.71378100582,50652.7866089243,-14717.441544401203,-28345.724970604468,-35968.10116528809,-10867.739438403305,26709.99527986802,-22923.384975137553,-99274.55173560105,5241.207619842741,
7296.9047026400685,251387.88025418168,-3218.6317259139228,173696.0953797577,136562.89489955196,-112342.94869870835,74667.83859642458,92950.96283951396,-109416.72368237718,334242.1312358977,71188.14818992755,116677.92380285206,18919.962824136073,-1498.1530326578504,122619.68664177507,-54355.77281230498,-3596.71222139375,-108597.8668512865,29612.271188442475,75044.75051577619,-17942.153701360705,168214.6522782412,198924.37597501866,87434.22937049826,-123430.4560617193,153067.17904646572,-54180.3114015033,74342.29603618474,40528.075680268645,53031.164628109706,-69851.66239041697,-13986.237642248077,154779.1419814977,81021.94734666836,-38327.60094585184,12018.594064608898,-75176.25861872076,-21798.074751640506,122256.66939370547,-44120.22699293388,-357308.8962906672,6590.082335423755,
4233.277905474584,-2247.9387563932332,2620.9510789764695,-1684.2205211028377,-1785.0722648339079,577.5935727523668,1751.0538127369732,2731.182803404651,-1046.3668327649261,2454.1312612355296,1820.7924174600355,-1143.6948999262665,-1879.761167264047,1428.9960926240062,-6865.337955578528,2938.1034693791485,232.5812784308026,-1740.1128229852538,3312.348413002617,-817.7606210249655,-582.9763392073593,-1094.2519286525464,-2193.1850864297903,-1293.7208902117093,1378.9323214328576,1244.0893056918087,-1326.0967734349522,-3062.250359713078,-1499.790589252946,-3487.0753110871665,-519.5127074199395,834.4126933234463,1503.5623733453715,-4001.368666585185,-1820.3720885597015,-2275.3167719965772,-260.5900229716496,-1930.7943897424025,-2499.338337464277,-440.39613397418117,3938.2325348512527,-2226.712789471119,
3703.4907934224857,3192.0554882405677,587.8896492133274,-568.7493697799908,1046.8537250418274,2392.9536442710973,2522.2814819128316,659.1067563633867,1801.7547860185064,569.4739330860918,3948.7023824835583,1681.1825755910031,1400.24957947079,-1207.9216521625685,2483.750112200753,-338.36629422846096,-335.37953779964835,2180.4951936529724,-1380.6741056613328,-1731.752304671509,-2555.267828342266,-1995.568868462104,1868.6842505900986,1003.1184029076704,2582.4208731214303,93.98078371568157,614.9839322503257,-1725.535182541995,-363.161259848623,-104.3952212234696,1391.4098151017172,1917.2447270281793,-963.8851863445851,-1276.1960281608963,-830.9361439317826,1902.293850810626,2462.0871867519163,2260.001977683127,1265.640500511357,-361.24989434068016,3503.422653386754,160.59668072152135,
2503.927845746384,5453.848465637604,-418.87733300724375,425.6462173306251,1983.5884593682674,2721.413648831198,2180.035064385363,-821.722947373941,3303.176424651864,151.07402963275553,4362.924313407137,2593.1342657863806,2952.722567671297,-1947.088328913905,6800.566646845139,-1424.4742645238416,-484.238011480776,4172.270531804538,-2856.9928590228346,-1662.8678016340912,-2466.1753201893434,-2075.446635525212,3102.9193594992653,2660.264955944204,2999.3967600173723,-271.84687065403756,1829.2321907350147,-33.56985212221775,1676.140908260425,2331.8720033549776,2806.4395346533843,1935.7379470595808,-1996.63995075933,754.5182065038944,-110.65727769510312,3765.4259440009228,3710.081904064064,4527.154619314871,3234.641243698616,375.49977009172915,2820.848040515397,1606.9728911602742,
-705.252027577863,-8149.887447391062,3420.6774924057463,3380.054327597984,-3277.8991386629673,-4941.320654087084,-684.9885762817605,-2056.9857501811,-1597.9957897721154,4077.557049331737,-6646.0561094308205,-927.0868208060298,-4115.005623676415,5462.727320062015,-10247.757050879884,6425.007320241608,4774.874342579576,-4241.063771205548,12363.99194964401,6319.816968031853,8676.559132798708,7759.160942878926,-5504.8951717754035,13.855507964955224,-3244.5076941462253,3533.800634800516,1560.8045804350122,7972.070857548913,5272.09021451432,265.4989924158875,-3354.3680478444485,-1788.934395103558,8731.043349029836,4383.1720429089,4037.964296109651,-2718.0931435669304,-6247.1263137128,-6824.44620733386,42.59373151867278,6739.444734906946,279.6291276340907,-127.96116963784323,
2845.152285420821,1355.016589702298,639.0529803708991,-1394.2450821446946,385.6201279139731,1845.8457703068536,1515.3542276601856,744.2336176931523,1117.430078001678,-596.1176271921731,2885.593774917675,545.9842628960026,857.1197852412305,-422.66065374407935,688.7092518503645,181.0776428323325,-319.2181425141521,1626.6598165421597,-1149.6010743617878,-1420.4717287485967,-1895.933399626766,-1971.654586061291,615.712270108224,80.30600872655477,2257.6381207028485,-530.9135617948199,-125.8120429466322,-2857.2002870674123,-1566.9749171670253,-694.8190641774877,1276.9307572775858,1536.5858835598133,-1438.1738714259518,-1538.5271287865853,-517.978629799725,1114.3922823800265,1790.9190418392961,1250.579069715757,-57.04761706466415,-979.9100163838034,2972.6551229851216,-192.82115039627462,
2673.2286326066233,3868.1737994173395,-306.8202192021944,-2221.3565579392525,1048.2118672521722,3151.2297948397736,1256.9163918548857,1006.0617290802342,2964.6788678659773,-754.7432547548051,5314.084825779787,249.9109591326008,2710.0573959936446,-1773.0680567339284,4264.435287261608,-1269.3054348354651,-2174.048185627317,3726.760673343922,-4316.907098746954,-2655.4167594040123,-3792.215419631507,-4637.014623321637,1614.6938635738518,1339.4572934939288,3707.8886106732202,-1451.430070655886,-234.7697092157615,-4567.508832563881,-1006.5367859778082,535.5056975168253,3920.4003002155764,1929.813280247468,-4168.096876404701,-2102.896147975119,-1895.4387773036517,2213.9748368555825,4242.968260643267,4659.0496487540895,131.2915499570811,-2410.081344195431,3527.743876269363,460.8349266659233,
-127798.77568055611,-135962.32794058823,25473.975272132175,-41330.609796223616,-91443.24846481622,-90432.97852114898,-74939.71283242144,-46864.18207644098,8799.762846392816,76293.46941944558,-52822.90607082409,-67553.70381603266,27870.580533199623,130562.96312506203,-140026.9765622236,25509.327634283796,-25479.9376424494,10576.320661925447,158571.91308302197,17037.142445097074,142848.47126164066,-23022.053294904483,-169072.45361511668,50853.883722261504,-4991.131014516279,-4832.316763290137,-33859.86708987942,62987.30989385213,173068.7220255126,70704.86923335286,41898.834743468724,-99102.01249299069,-14755.84500770069,26641.27965555197,-8782.346549142621,-97678.80028091183,-48922.46179887281,-8084.607951367009,-12862.86411995763,52802.53417884096,-54563.21534630072,-5270.84833592652,
-256046.02484376286,-263823.8177515613,-32655.081595283533,-60145.97948271992,-103259.73979066456,-214118.23134523828,-91391.95572455954,-44214.25865574468,66110.25455103823,10047.92649121463,-152365.59996280525,-142695.40296430595,-28978.009396121593,99994.23344616436,-148158.80323202716,-8579.929755578183,-163536.98802996357,-77757.70321786054,-29176.846411260067,78239.52359813346,157983.76104136297,-29528.670388993927,-126801.47670031637,35179.95737185193,-98312.94676382747,-90738.03711760907,-63803.26719954174,8461.66776577902,48076.02105469697,7183.193893204464,37103.61766160353,-87683.57161181704,-55355.90606946302,-7665.3152237306,-38259.38058172919,-158896.45783660555,-213906.36451206455,-73023.30211560574,-66508.27168509501,-76199.24344297299,-129894.98407718318,-41207.226353255726,
-237045.50802932584,37716.65392588686,-132745.11444961082,-34166.36772932079,-51879.05299458462,146787.6939789749,-200929.0326792824,-26870.845609115688,-165721.55289406894,-262221.91598699207,-162020.77604581512,-193950.34384298802,-101225.87532373918,-11353.709089545084,119968.92208845698,-109150.34892055752,-45356.558148694494,-20009.275542261286,-291645.74224655866,-83462.18102576361,-190577.10340711346,-109441.04543343047,2482.9290096366008,122001.43820187196,142408.0695688733,-166287.21762785417,-20795.520369482816,-224524.12828737576,-114250.94660532106,41753.45189480701,22896.534390303328,-147583.9700095822,-119561.91917390871,50075.46297599848,-84771.09553599614,49691.35381633538,202955.51815556982,315192.2514210438,-98579.85703127043,-89318.5017244111,-333714.9372627709,-179387.92594983903,
-166394.09847938453,-81593.6526870777,52748.643739766434,249809.12861584255,-59875.516955405175,-271637.9212007876,-37354.270327886734,-102310.0196381079,186786.23164207296,430867.31985252246,35980.85646976097,-85501.15968666985,-13465.980762659892,101036.69449547837,-17697.148098348993,76122.56503466015,-45740.6243947805,-27537.12430782828,315112.8617453632,385864.30759725586,464127.4742711586,-831.922338891043,-57763.05349352029,172265.34127213075,-145917.54860485735,-19958.101287708283,-50309.73162788575,162284.9088923864,469213.83219393244,294126.06404291105,-43598.661819476205,-48046.797242657594,156649.03260983303,256378.4832081487,69603.09430929137,-22618.874969139877,-163358.14169729594,-97511.17389519323,111209.3090651868,135039.71668239843,-202310.80293020347,123354.94605925123,
379040.1068709127,73785.14763636944,105286.10848242954,136318.81797116584,-33617.23083278849,212127.70106340377,-1582.0600824399276,1282.4114292389886,-29084.421655475657,286904.42536568316,307549.0052280453,-6051.27339280901,-95665.00987191971,-38367.817781360594,-100049.35650517647,312683.5538283802,63495.55916806595,-44167.83763752865,254045.22587812535,20108.797355680414,-75232.59692463817,-59449.557959027836,-68281.81971016896,74477.10263860432,25913.463394740585,214789.83617482797,3775.2384271865185,-22861.353223282815,47280.88426471949,-159469.91712756964,-21631.577018213582,132088.639240949,97934.62047705514,-155819.6158061861,-154928.3423635957,67555.85526620121,71778.09864587113,40359.99151879218,92526.25434294909,128297.31663195143,398798.0408028297,22600.122129913398,
-53296.18217355006,-122947.4865569744,16746.86035975675,-65354.5206166761,-108728.5581094966,35428.56658979813,-30855.675869466057,-8206.789320399701,-90329.97687333066,-76990.97623846942,-89563.43282060346,-112794.66744050525,-28312.63616560645,59806.75883441294,-182982.46087932558,92720.15949448552,11832.03528588136,-7542.519488530405,61357.20617955646,-62584.66472245376,-25369.66008546935,-70590.03012243626,-142847.7288492768,-21990.11333747976,48756.48342847638,-20921.501687017306,6909.252644836682,-71538.05890412952,28611.586212574417,-48208.18517229958,27010.682676122884,-78659.70755141368,-49688.928411371264,-77835.74168297717,25170.64311992804,-99889.55659287944,30579.51876988212,41063.11985975215,-87685.94024307281,9290.0774325266,21546.34255941961,-75834.77478101043,
2409.46285328386,4329.4312366002205,-121.45805173116513,-401.083891295196,1492.7734573912949,3722.9775417629503,1024.02532556013,1564.0754987585947,1362.0799931980673,-707.4919945084553,4118.950528963198,843.7750314016395,1329.5899223682823,-1297.3154279946502,4247.330637701068,-454.9909543607366,119.22132892148598,2526.2365448209193,-2681.781751929073,-1429.0251240387918,-3193.506492009654,-1943.8935231373914,2699.861751293227,1178.380940238878,2262.5446083970114,-1.8897149613915871,117.26579925503356,-2876.6417853449243,-747.8175195378295,517.706213918352,1444.7293232551938,2189.282450635367,-1330.048207773482,-831.7463710671458,-250.7504681175803,2520.8370513601694,3923.5636710484173,3739.1381951720273,1053.0487802504267,-26.929880568008738,2597.060470616929,642.8660848769526,
-375.60890219170034,5468.332410918928,-1337.8702325386946,-710.9219598384362,1821.6096116830322,5750.415741561433,-1782.707428321397,2822.4347592375757,-50.69578113799952,-3157.930663002746,3823.206822584194,-882.0281160454987,1288.8524288248173,-1034.7856899454518,6078.167574945744,-1199.9671869670624,340.85189831983115,3266.5351798069933,-4977.029452451565,-2267.4429305436397,-4666.259510653411,-2709.2986432874654,3271.131293527976,737.0324939323175,2290.8872626254074,-560.4011782420449,-641.7907223434937,-4877.813240115678,-1417.8067090155787,1380.5753949570474,1606.4185675500992,1889.0051373741533,-2852.93470656049,-943.9563105398842,482.6531213447238,2413.0244180657182,6254.52872486998,6174.863952377711,383.7852680960049,3.7762415178397726,517.5240054926702,685.5079184081112,
-1278.5703411326213,6304.157388677277,-2294.954760985195,-1267.6824387201132,2003.9514411775929,7072.422945093399,-2819.259789634289,3535.682225773909,-629.8422125524451,-4845.150036696723,4097.979940671005,-1756.2974571153802,1016.4924712370948,-1809.6282327651345,7487.754864740204,-2026.2765225384455,66.2680828972036,3425.2339006192014,-7220.344822208026,-3112.0071714406113,-6472.9978494861,-3600.571262189216,4010.8383312121096,240.29109048997756,2223.2014280622866,-1220.8319680755794,-1251.260723062958,-6727.325919708415,-2701.2262579845274,1196.0081573167304,1478.7786638346506,2075.409505793738,-3942.1188257743033,-1436.1110889248807,347.81217508492745,2467.0065957129355,7378.512959734347,7280.07578498954,-106.23978874244088,-648.0624108330068,-38.97995464705316,395.2342997020288,
4078.6613414256017,2013.10283445254,1571.450690064778,314.00147694558297,681.5073881171584,1929.7085130027558,2840.0379243373027,793.8437962597473,1473.2818438911975,1152.8256936008956,2903.245458589002,1845.5998564269062,666.323641099216,-70.79974264395402,849.1247685958434,1533.1647207302883,1176.4476413370128,1410.666790800138,1408.01119984349,-114.70115178337326,-685.8162324496601,-151.02434166232962,981.0753127845092,1320.4387853054711,2037.932463214471,1139.727088613162,1127.1720242702484,-243.10636529452046,404.6606295028677,-312.5154644377151,891.0619809475476,1999.0007638702941,929.901410730351,-469.6700742281749,311.58040310446285,2075.4532671829693,1757.432202650302,1329.8209034516162,1221.6788652363814,1083.1264991157227,3911.926436506824,457.78216358371964,
5665.258513762576,6224.262798316861,-734.1320630843718,-1146.0592357203607,2771.7783970210685,3753.437949861712,3626.090655665032,244.093113139285,4332.415356412503,219.93629742613123,7345.394252243814,2995.7476222470445,3061.481159201925,-4063.0994865956964,7259.2813291283055,-2430.622035122999,-1707.8464091125106,3765.583318412456,-5161.097924152624,-2545.2256869419866,-5666.591011321757,-3823.5263788746124,4459.310973212061,1325.4548330937237,3013.316326389456,-513.061742514337,283.5923166796776,-3296.467033212508,-1385.9885138619916,-9.316366176260688,2232.906005064509,3819.1173715548757,-2013.4989987113925,-1565.4650375564402,-2707.57590299869,3990.2545185447084,3485.8039176219995,3369.4877099815185,2185.98567958456,-1371.1939719220522,6406.030616629205,752.2669883991805,
238249.16022740168,97896.13890018729,-4511.078518822101,29500.05203611334,113672.92945483244,-88373.76392960784,212019.83086942098,31301.115160371923,104602.38272855342,177762.6395638568,156565.1301405467,186108.49675551808,27237.366480748507,-131266.191743995,87392.77542211035,-45644.65194279793,-46783.982180416235,-73200.26046539085,-20681.968470008796,32322.687715184595,-86264.77072226122,83807.91454405426,185642.04348775864,-26038.7963849537,-84548.6721813414,95476.6711870289,9464.096772937846,71997.10754965764,-93706.1464107545,-123450.45778430886,-54657.06244984897,127306.80320570726,120779.17486852557,-74442.67555176979,-136957.74954799472,73590.40756154431,-155195.74731515115,-143388.66843643604,92737.83795394027,-15479.609540373543,191443.88255138174,14824.165966556504,
238247.7155817421,97895.3234041044,-4512.014390742063,29498.74260442773,113671.5633816842,-88372.49581570146,212021.09764785648,31300.964882208504,104602.99749724877,177762.67311965328,156563.71746459097,186108.17719912378,27237.628534795873,-131265.69651232671,87394.65717421444,-45643.429457176775,-46783.89862047763,-73198.70400658295,-20682.315565345765,32322.259143191168,-86264.71484315931,83808.6167944522,185640.35398477074,-26037.96880707153,-84548.23120905286,95476.78201465218,9463.447861454639,71995.82554474202,-93704.66231206161,-123450.81981919728,-54656.42378022495,127306.16457605883,120778.98928180603,-74442.26603054823,-136957.25176818488,73589.83429443867,-155196.34654427334,-143388.62968186964,92737.70027362052,-15478.891326251685,191443.82907660093,14822.932245234837,
343830.7136647927,70280.37897965901,97259.86814712186,182192.5437494003,-61653.78302600011,193343.24087643102,-23871.30728511882,521.9029809284241,5008.4483839114655,359585.586213389,303307.7495351908,-24487.53515986074,-82481.6737935788,-32794.47563084071,-76826.01441392471,327551.1243096534,64959.089748175735,-49416.69246203117,293385.1478375007,55642.90545846967,-18311.650127678233,-40243.23301685623,-83727.16405301154,108329.23349651152,24332.20820790076,241066.64114585612,37831.89281733751,32072.261947440395,138885.93996992888,-108739.9547430273,16345.017431419003,123023.94117941597,119943.25787609405,-123147.08604014914,-169504.13128496945,70980.29139010585,73117.36837631182,68544.83821867315,106443.8175887274,163055.22689115838,406444.36818224995,33372.488450207435,
-39550.804392551116,11426.359827484494,-15827.638991579795,18936.30512932078,-4456.157362575312,18999.25540483281,-44520.54625097698,36430.622787442226,-10316.853589550581,-6465.5820214219775,-12078.93112336462,-30546.251435243,-28803.137285464993,605.0523226167967,28746.393435769667,7423.526841885595,19025.882504333385,-24837.069225217423,-272.20500930502095,16267.424196722688,5422.31557321911,27944.369240579526,13379.884666465921,-18542.890618457837,-25615.850134345394,14892.388223913122,2407.0133917721764,-4608.381732676564,2646.444514150878,319.6541036643262,-15363.447599979487,10616.750494218812,14826.251656623694,578.4397633832774,15848.47313028602,-754.016841664304,19521.303870699005,8061.057217713016,-7792.987622013665,29593.6521614448,-7878.98130994843,381.5137243164417,
-90810.4153515296,489947.87154925166,-2017.5917103717363,339153.0644659579,202174.91319009382,-57810.461648060416,139268.66273053826,159952.53257327047,-126859.31909623406,357689.08819880435,250840.42447238875,87062.66373520883,12876.216817088822,11804.561945870199,334806.30758102937,-83698.39217675035,13216.84478091734,-264190.4630272044,17886.46914399247,137525.6298211018,-103333.3463740529,307040.37534723984,376512.6933704213,93528.2791104954,-233635.72421859653,219834.47853776318,-113314.07686881724,54590.67796449785,163029.05188620364,146677.94732785766,-172556.76178444744,-7413.093608288008,121400.32739391008,68387.744342994,208145.12909522976,21500.003179821142,81167.33012406815,89117.61654346863,257320.21935603998,70820.82479377252,-461537.157998077,89318.47972606806,
-262202.1087844702,-166050.5960581977,-127764.7726792996,-140980.73237637812,-112497.26954759406,-95646.96437681119,-175819.3947685333,-214929.69556495186,-188208.701157528,-506923.7486670837,-361039.5449727899,-138202.73651589427,-6365.545236685395,-13386.433117831202,-104761.5749889035,-210293.29243840298,-130915.93650809924,50020.018436068596,-451003.49137947656,-140590.89985948204,-231503.3974585935,-205778.2783278304,-132863.81740662077,28896.5545849877,692.8190779192764,-371176.22435471026,-106672.28027877257,-201307.47889566564,-344425.5953432997,32995.43126903497,-14087.852834120546,-290794.82229686604,-370688.0492430716,133970.40035845336,104522.01684784122,-108226.79754254658,142815.64112256424,130992.96307874582,-108390.42969091602,-237476.7020825738,-581477.4240062723,-65176.69475844887,
-102542.09067368039,-56447.8809247773,5459.914000641539,-10630.883065487085,-47514.972426809945,48406.37787175007,-86790.33800319048,-143.3690927644488,-72365.2322113854,-98411.5496962617,-89336.16386845606,-76321.83480675309,-28710.501822190243,79818.01038007323,-65531.54841965241,31122.36597739109,49470.183073487686,25059.74820006884,36969.55928815606,-13446.385183008417,35168.461314464446,-9271.05639086989,-84174.1697636576,-13501.428467910642,29026.56993415754,-30107.470611799952,357.92529203259016,-23074.297744064515,15561.247979485288,30090.463649528123,-3616.163162635429,-46652.23391283373,-34849.24443072165,16319.379074477742,83794.60406767875,-38971.68138961833,66389.83120238861,47758.81584294987,-41139.784318585844,29524.442142411663,-73290.55891620152,-20636.631008323773,
26272.159121711942,12229.401637659343,-2930.1898323405426,61.43444188018893,12304.052583344564,-10689.696977610647,21527.977822573015,-4032.1159470985795,21006.735934001328,14521.058937631444,21038.339179817758,22092.976715762215,8146.634192331796,-21565.62849638605,20852.800809658198,-11848.556644724053,-13849.197959320352,-2246.9515064999314,-16791.644098869674,251.3851310034788,-8824.778613619912,14.959167327041651,21194.058203780638,1507.7521081358332,-6532.3453498002655,3553.736763912219,2511.569568868349,7049.744998205868,-8606.240009356638,-7547.693625479742,2670.1351694140835,11494.226445370461,951.1760349316094,-3163.89215874593,-17111.063260355913,11162.053236080756,-14555.326706290602,-13988.34249559378,11453.535129515745,-11089.295803865358,21712.659884390127,6772.81815082666,
7784.5883931943035,469.0283987452351,4557.147968199467,1460.1778955311706,645.028630158573,568.2067245156345,5640.49583790315,3674.5033168282857,-1754.336788993901,5913.378127313976,2697.7672269121604,3539.706822493239,-1784.2817531734495,1814.9470313355362,-5985.525640522842,5460.491685540206,5135.056697817795,-2123.87555811336,11830.103800285264,770.1162192190247,1670.182327344902,4478.2522185140715,-1060.2449612408923,-3215.055090963735,-561.381363684513,6372.753783557208,828.0420250749976,2702.5490640090843,-64.91779025183172,-4661.791957551597,-3933.847312851388,3781.6304937266787,6955.880191372871,-4941.580622963086,679.3015821899719,676.8951079552302,-2609.4365135267135,-5019.618328165858,57.11329671268912,5355.961245633074,7015.53232816307,-239.24211968778238,
-37822.6505667611,228236.3717830218,66848.90571636758,296179.47026190435,164629.85967405094,-60553.17823557564,27226.595835320077,38712.20764228925,-311920.23987392447,-90670.06581979756,-35397.35628052364,481689.94529959705,98749.21912281266,83608.22730169368,186493.4816737002,-229368.7792719792,87192.14280359741,120270.98114004049,360876.2724813112,-243996.38429707242,49403.43711110094,61007.18972020727,94808.24340141701,-215310.31181002298,-74383.52678038168,293491.9017751041,221378.9940001282,810866.2415660867,478765.4443694408,163150.7140088223,-213071.90272024693,87641.93564173141,126654.31963200042,71086.86942202406,161819.93760058904,80305.22539818249,63583.33191252839,-26782.91828546949,266627.6923602568,330304.4416328977,-143519.9029320311,366349.8928963532,
552264.8898479975,47293.07842307446,279101.69812297006,251395.7811353456,87802.57748864277,-179922.68754147724,445648.79035476036,216178.16312577357,166579.19741825806,756686.9997113127,291118.9741788913,357230.4060393451,-40355.94540152789,2103.104182367409,-219345.4333657386,362296.306949301,299369.6012738683,-204740.5154957558,865695.4540988469,225259.7920376025,323331.3175842812,463495.6138475551,5656.974957264309,-165804.85450608958,-188322.73595445047,566761.9689920205,146472.71750024875,536477.6033964953,276932.4499057615,-212298.28968744449,-158667.05161431764,336519.89657677,611003.4511579657,-249698.39815894348,-116410.67511196139,47046.19115993929,-413310.093489879,-464679.3095940099,119631.80042849861,495757.93811379676,660725.3827514746,127240.70576493883,
-315502.0660084856,-181240.84812690597,8623.704203532603,190213.8401358178,8711.470210140613,-549961.11551089,100134.05729412459,-593380.7881535426,-26183.041945662564,323341.48771306913,-1619.9097230156303,40301.75533209591,152136.20647277252,102847.15093644851,-236624.72605884878,101573.99014411976,-248320.62541718272,-170455.51430231074,384274.7797220354,124898.21285822387,455731.21352797875,-71708.73840420163,-105270.10110099656,218198.68834596733,-232619.28687396174,-99356.00050149692,-273419.9999780532,291018.9145498613,478336.42564080283,212128.3546432881,-11065.009248850054,-237150.4229822214,-29277.511849734085,157686.82690466143,-86776.19881501234,-195318.2344362827,-413210.6575539822,-188494.9740849748,72107.40372792984,58666.793764281356,-347083.08499918383,93178.6892261044,
-316959.36646278546,-183786.8894705439,8893.677913014519,191236.8061181611,7096.6219317675095,-553010.4682043554,99042.93058803356,-593434.8899136083,-26419.891894095526,326598.34353817697,-4256.235592962681,39011.445775719825,150291.7105742584,103227.5868648739,-239227.04128432358,102920.71665100513,-248175.78133607315,-173053.91396575124,387122.883090613,126699.3165138031,458230.1664785544,-69374.86796476471,-107328.51190658525,217587.49270021578,-234831.1359686059,-97535.54238697267,-272391.16914309526,294723.03498031537,480664.418387558,212277.78716196868,-12335.289037163178,-238197.45761786355,-26164.238390986022,158184.94016910158,-87238.60558007646,-197379.23380543754,-416325.33910975227,-191265.22146627758,71419.63283192547,59894.96299574763,-347546.15837043186,92675.37608833205,
-30285.631345759095,-3297.8114432146085,-1500.9855602981006,5704.231983781554,-8060.128885507657,11466.900112746547,-19532.626598468534,-7071.91725130922,-10543.13874192899,-20663.51404059107,-19708.850572277406,-16611.06345022518,-88.2821484560711,16207.615987648544,-418.0017621294555,7452.185187393807,12396.773956690473,11895.837201318132,5083.688876898499,4161.973923852613,10428.967151869669,-680.9765035446744,-15348.295598444614,8562.46296417443,8691.373899230659,-6383.540024014977,3649.6400004005427,2594.651452969301,16534.032481500675,23053.04051724706,6760.058384491018,-12667.532307178182,-5580.285993911956,15696.237359878915,20042.505405875105,-4079.135813478269,22363.423549788982,23399.06173695051,-6264.980837688282,9578.78063131286,-25442.831216482045,1018.9122405442924,
46967.32160413997,26784.88992573447,2819.0048645665465,13437.84702667612,18856.998904133125,-21477.44493446914,36491.15006604948,9224.499629041413,30908.08013383149,59755.38335638086,43611.741805295205,33421.9263346569,5755.118883911639,-30200.12757343274,22172.472301274873,-2538.0845355073307,-9712.115969690025,-18601.467765984857,10973.254484501922,10768.713607520669,-3119.90341179395,17537.132465159462,33122.1407998094,-1464.2431555897215,-21681.905072066023,31203.10991621586,886.9240203794286,25568.190571725434,7160.237548569467,-14646.30298704668,-4559.692882394278,28330.23934579947,29925.73083080171,-14403.903178779457,-36195.46773023682,14810.572510191223,-33366.45941896615,-30779.934452175057,18165.510346239626,8087.353607896274,44425.92168599023,13798.134463330905,
-22882.70750184803,-2878.6579347728575,3068.138822473781,7201.7236866952135,-7529.046056895616,12261.245425089453,-14126.630199608067,-3548.418593236177,-12474.95609184011,-15144.510954537745,-17359.35883658085,-13285.276887723423,-1818.1162735214496,18304.786405058316,-6470.253438213716,13088.08887538257,17737.01089632278,10035.108832249345,16974.354612735802,4967.671160589373,12164.969385325727,3725.711379413217,-16702.785217223252,5560.034384007895,8402.723464594816,-139.97459511514197,4581.889407482393,5265.161169141543,16648.778679052317,18696.177771614595,3000.5496842792595,-9126.34789174441,1234.2379111266634,10996.943596143,21046.13278863827,-3442.9722503379617,20166.63419858404,18845.3568311947,-6323.038595659518,14991.609108151955,-18816.2625474733,744.0543867533801,
55550.032848336574,27469.353696894057,7575.011570726608,15117.08176689033,19680.79505319804,-21244.850316763557,42645.94601933279,13180.128182112401,29586.856067009747,66739.9989466241,46964.42904709616,37449.16426276169,3951.510478610654,-28672.191424413584,16230.989805200175,3063.9360851048923,-4531.095337262438,-21091.32323976646,23418.013015550103,11784.40324313594,-1218.2714472223022,22466.566515246424,32378.552742158983,-4886.128876829368,-22637.427012977325,38205.85018218477,1747.8924723569446,28792.872323117746,7311.5458596391545,-19602.2127029824,-8689.016304083949,32622.50399879867,37552.253446371775,-19666.228316014338,-36017.758596878986,15669.240363954914,-36606.293434167856,-36526.54350386449,18454.99695488976,13822.966176469023,52353.91780641359,13774.141507508308,
7959.699595147828,11463.588371191845,-3823.392378603137,-3104.8875305857537,5587.566699457903,9489.232186327003,4790.301147115462,5201.228749581475,2527.2920628690385,-5689.2073218787655,9517.97120511678,4237.901696918899,1700.347719092442,-9570.416578628337,13271.28117642876,-4487.1686785140055,-1341.2681721365332,1874.0033264187202,-13628.01666721514,-5512.364166185835,-14270.831542841235,-4842.469965135319,10574.512857770942,-1947.0104634252996,1040.5358580414952,-763.8440758637042,139.13726296611657,-9993.325766173231,-9075.48014494006,-4025.378618848905,-332.26257267832386,6702.367834662116,-3785.4902530211957,-4855.267420848231,-2497.3811014327434,6665.280624713789,5723.070816104484,4105.175434186814,2771.2327816003017,-4438.354255711513,8375.135843161926,-183.3323526371037,
20873.104945977124,11604.655562999784,1997.9269359719206,4088.1273591171866,6281.844753403788,-9216.002235288224,18665.747985153364,55.882125219229096,14883.235107025785,26284.439017869277,20144.56229555952,14763.823940364502,5262.900158142483,-13485.03411735687,9128.36286147247,-2600.447754219256,-6456.068402402848,-4932.174091520927,3345.7737568314506,668.8895145280961,-1215.5198677537323,2530.3939965357345,11858.96328820939,1536.8483678926973,-4147.823543547391,10641.560439037123,496.8757426359571,8403.603722228418,5405.380282523573,-4290.985550851337,2167.3523797911125,9595.144985296805,7125.403407098437,-6538.488050841134,-16060.639808009244,5710.571318236008,-13242.18012037651,-10716.926612666282,8683.070238640594,346.04491991260164,17401.150799351337,4565.529823375194,
8794.460955544888,-13938.892710653297,6761.625823503463,-17196.82056617365,-4117.6233576170725,38693.679684417504,-832.8063666635895,24490.385919781955,-56874.96150953294,-58276.02398130847,-19838.13360471892,-9984.931889900814,-23657.57769752887,19154.738137082135,-37939.49456675862,7759.413361587108,28033.628562454716,-3173.8984754445205,-4445.716388389481,-16575.196902486263,-26413.100440280552,-289.40269725675705,-1412.2567694738864,-35745.14261174324,9686.43624798123,-12882.198079073336,-10263.399952274693,-49897.27649887032,-65223.44605278098,-30378.79881225767,-35973.145015165734,-1230.52600952401,-1868.2628692790452,-21826.392140830616,31794.6901176532,-10310.163903086113,19543.757720400095,-3809.4325795612513,-21675.58747229333,-8762.664758922483,-9849.994257922002,-22608.152756492687,
700885.6685078649,321280.73259931745,326041.1654145369,255652.6148904179,179595.76432837473,-49642.39273453849,647709.1949196638,569306.2449346954,139748.78137694317,893753.3245185311,497661.0141655735,496565.8191709587,-38112.42742664316,-119315.1736034102,-66069.16862638768,472479.1687394697,366361.26143148664,-244532.11552774743,858361.6110168764,216127.8906274339,144811.3193870281,606215.3431410461,178324.38096314968,-314628.6553808017,-346906.34278068756,709319.6620880024,213747.64873775648,514252.70007126377,37961.25091863205,-594427.95686005,-297210.9778377231,564854.7316919097,660586.8165446939,-523853.3138263551,-81888.0482587846,112402.75837637046,-517839.95510235033,-718663.2138065442,189034.51072095303,517415.554264903,979874.0810523094,161047.4027587561,
