1.7288148401947472,0.4051307026405124,2.6240075227520108,1.013230594542257,1.0667463589001798,-0.04604910982564369,-0.3074955994471945,1.554846689892501,0.35770319833290554,0.6574152861462572,-0.8120806892595395,-2.241380368709599,-0.11408996557109355,1.7031226844133485,-0.951397052136505,0.6759842889977794,1.2785604507424728,1.619683518209983,0.4244314650858099,2.224724829401218,0.9025044288887867,-0.22698109048991125,3.4026592178040462,-1.1419211913883016,0.042756636169149716,0.39661572774678194,-0.6814895465532481,-0.3000135168093296,0.28543593928273453,0.1617136025692682,1.3848840466371732,-0.7062641992413968,1.8283935036252381,-2.7134116186881587,1.5120077601575455,0.203890226205888,1.5148441180153598,0.015510583269576817,0.07312271219752903,0.9632286540063042,0.5802040329476474,-1.1404993052092671,
9.854851213563823,2.6833734289307536,-2.678361746486812,0.2995457225789689,12.101701519584847,0.7911484281684572,5.606852996740645,2.7211174888666463,-1.7928377447830333,2.765050408095046,-1.9257304936665158,11.927350876080352,-3.685712983985008,14.732987230588021,2.0223674084367746,2.684089024246476,-1.6261857187108282,5.070913378700405,14.257662484326966,6.146819609522897,1.1947933864049631,0.18011677105757218,5.1051688935423005,4.322377753408417,1.8127708120882948,-2.927862847214406,-8.037126057144453,10.564446446827745,2.5028003820975533,-8.53248624325024,4.7874917806481765,1.5924422859011604,11.510711130862253,3.114231649458033,0.8932728176970427,3.9183830338345014,-4.0567058523916675,-6.382127541743067,-8.722521446323851,8.455819866183345,1.4631044790443548,-13.24375238195007,
8.707930339544518,0.5617529558327271,2.623960472574391,1.9830577946029828,7.949858322499554,2.580779182032034,-0.7237489596350672,5.562206503646215,-1.5267141024037227,2.7558485640438786,-9.64981911369061,2.7285102186773615,-2.255740114126596,13.189080668451709,-0.790261589730581,3.2138643662953346,3.364425171180139,0.7763337513030829,12.941180467636038,7.107860569245051,6.135082923459411,0.02163798863993998,7.781042923003364,-0.5121212539087903,3.4636744277121223,-0.4142694652990502,-5.708360995552229,5.307531015812966,0.8156571878429899,-6.17635747113011,-2.248140387073,0.366943824433877,11.179335145230507,-10.310585880973624,3.722590957960628,3.268851743533756,5.195636501770487,-3.062348207361047,-5.525246387944735,2.4534887146413547,5.459159648312612,-7.3900327947303355,
16.168662157046928,1.6014506344830197,-4.055327492099739,3.068003460655473,20.995227005402686,1.8212824894094164,7.541516521448372,5.83163035191324,-4.49882108782653,5.7113189806345455,-8.71054259846731,15.801934567520899,-7.659769478427447,24.03948558005222,1.5087943832135475,4.4904053023615385,0.28698801856081935,7.041621407834623,24.67788317127629,11.695803424528549,6.843124711053854,-0.6647111570976348,9.691072319282764,4.714492179622925,3.8628707435873197,-3.475446674710406,-12.965742405672033,15.659932089666858,4.000207368898657,-15.544463392686104,3.8195952317743,2.482466261099391,20.279972967534594,-1.9885947790841991,3.0304942948347446,6.087697526891552,-2.0676385412846083,-9.81084840743545,-13.03439548542507,10.84456731575359,5.53347680129424,-20.473458501679083,
-16.73189499510018,5.009778075347838,3.1009188642142362,0.40473812932596076,-14.737949940308573,-1.518007457790176,-2.8605833982129134,-5.943406388442955,5.427490821720219,2.453554618935865,19.252071111376793,-6.894936414922135,4.636315191304748,-27.149793018759883,-1.8766375743707826,-4.50668107993645,1.3349070355102965,0.07524092348174607,-26.14883339078389,-6.922322526591099,-8.566880331713058,1.6332661296237134,-2.259874205947428,5.544508318186102,-0.029965917509878728,3.1737005951074684,10.122125906624532,-4.610110163008104,0.050412859128243476,11.29130831409114,10.958169153441293,6.4760208752746635,-23.546963752849724,13.858235710726257,-3.518335830735248,-6.289505140638288,-3.7342350846416954,8.714759020084317,4.647308810538274,1.2637489293095603,-10.417892967201144,9.444833654833705,
0.5157593620966886,-0.17742439753572992,-0.4309568905968059,-0.38472987812888176,0.44487948207754524,0.30310903975098374,-0.689297101664238,-0.7157834490589655,0.19490905792099847,-0.2542728203739481,0.7194282568169099,0.6160704034135446,0.6822983896995869,-0.3562702988341695,0.8033622292391819,-0.7248026640824674,-0.13156855807441453,0.47089581701028993,0.6977161334990135,0.3151940867640809,0.5003289428617569,0.5623865133744927,0.5663291884011281,0.11367415269061168,0.8584699732188457,-0.6422598861360941,0.41746809700572945,-0.4899868377412067,-0.701597343682253,-0.023505792829371673,0.31684438800905323,-0.4140232788206744,0.28167162425930314,0.048518828738400396,-0.25849973294983475,-0.45590977445238506,0.4517142904057232,0.4110626153747748,-0.7248557870847625,-0.016144690794646456,0.902398900436804,0.07448002792915287,
-0.6851654653345396,1.0024791734143341,0.321534343632319,0.1495972494544184,0.13091502458398052,0.04223063568808033,-0.3736249539477611,-0.36412379168223363,-0.07534362391672596,1.045462403020106,0.46219621230922414,-0.8367447982239785,-0.16865609198984172,-0.461332011026878,-0.25468890477847567,0.49951711616028566,0.5874922495097905,0.7057521027151523,-0.07377551999111755,0.7597777043408008,0.3616518869985033,-0.24325516961856283,0.8395686505221919,-0.6807095010056429,-0.528145214734835,-0.49880711995442883,-0.4594544055485744,-1.0935510731554434,-0.13009285066471946,0.19784627154534284,0.9325908615510838,0.5783563921594705,-0.1831170497553405,-0.007012920275033593,0.8015857682633885,-0.0058006585437925685,-0.2943403412478082,0.42990686726733157,-0.6759622633357217,-0.03929787171267517,-0.044627327405686305,-0.6238884307365367,
-0.3774102813790215,-0.6129538514749353,0.9123770413677733,-0.21528737246630256,-0.8331359400667998,-0.39487810082708774,-0.5371968312343253,-0.6610794716234722,0.8207612820601989,-0.9167575617826617,-0.48627351341358005,0.7711654703160972,-0.5604144294750457,0.33042353189169804,-0.7385298010081947,-0.2471671050991567,0.9174927130691104,0.8343452077198911,-0.08454984501030915,-0.36007603778054076,0.5485395826686242,0.23182546669927032,-0.8344446051423122,0.25842587161291747,-0.5307350719877149,0.7231044974115793,-0.309994123201146,-0.5803866958727624,-0.40864444874429834,0.7155382515439243,0.25886798034355,-0.8764555431877896,0.44303103297615565,-0.777228604040244,-0.06502458431952723,-0.31727548825758245,0.2641684321630761,-0.8602655100523786,0.15646168882211361,0.8046283606699853,0.5225485690695683,-0.5060647507896175,
-0.020538631112215697,0.7941631697652347,-0.4193367265342188,-0.44562459846038666,0.25148697403978765,-0.02338987073105485,0.018148710564946057,0.8800688043085699,0.12904305493887425,0.7888346033661364,0.13372136583484587,-0.06225952275942866,1.0475267425402937,-0.21970573723077938,-0.8820425881438323,0.573212239814791,0.1914084199416692,-0.31789283556884973,-0.07850680928536774,-0.1469465647283191,0.8100145553705524,-0.4311187829731394,0.8631749368411233,-0.6319420063724746,0.7308851084112903,-0.7968568393314767,-0.36772330366993305,-1.0776958658013192,-0.47321569615383446,-0.19701911393395963,0.47073813356374383,-0.3530367924967548,-1.2507092926063834,-0.8580936208294593,-0.7731021879993795,0.5986341496512135,-0.31301842231365784,-0.5106344590937295,0.051037070966957,0.13122856806858785,-0.3365194793328456,0.20350604576895856,
16.381633321628343,-568.6904029916185,-418.16988654254175,25.911106255104002,284.82426976760206,311.9825485562433,287.95665385947643,-354.33253232490495,-444.69707348471434,-6.5917578911825725,327.3250168457225,-305.4195397176865,-635.3186480137055,59.024896875100154,95.08084008023815,-204.4518418726816,-456.0299966601467,136.11267840689484,189.5164908232579,-44.25789375013986,79.90290333909982,-404.12837039645296,-670.1515429261101,-305.1636615741236,-533.7551470282651,-706.754356524191,-712.9219574338749,-161.08455710398576,-329.23018042799197,-745.0514884659401,145.719907882676,-503.768563771096,-239.21147689286883,280.81719684318205,54.05941007126058,-417.89845187976965,-241.6202192059457,-989.287152117021,-614.7122467105818,231.31336321246096,-663.4998851130855,-448.8806446360943,
-29.74275171958249,12.519155824230076,39.99097338689683,4.353892709342262,-50.54904020163748,6.14393691655797,-27.48093699356026,1.3025149930768296,11.705472881101809,-7.833791220190346,-17.572675643080093,-69.76224354711805,11.853765047322419,-26.15338768136962,-5.758693825873408,7.061072628922961,33.71258781284827,-10.930090757602953,-40.95195234248345,-9.529136969544476,11.672776656161892,12.85775312224204,7.097016905576286,-15.86223683692852,7.9646234826456555,12.914886341167891,35.107964356990145,-35.27843767577826,-3.6390400578995776,26.464105640052058,-21.638417123505068,-10.503258269119184,-21.01055498077348,-43.375771748576895,8.604018811440971,3.2847781956325286,43.80924520159283,42.65834572951422,30.031997917721817,-20.885311240036412,10.98149265416472,29.907170591497376,
-39.10003133478067,-21.16050042463899,-39.74071563415337,-45.097261327687406,-55.21579123188076,-21.909642750585604,-3.2858967393797185,-28.750341220423305,5.505116534352325,-24.039232859138654,28.427626693561223,13.264750946206672,37.16341328883372,-77.06646545608815,-6.808623314061192,-36.54880669285265,-34.57689997461735,-39.689418388660435,-69.4346208812332,-49.329147746258066,-43.65567799672201,-5.100763083718921,-63.49605160509853,-1.8319070099363586,-10.567970312667477,-7.636209151478429,16.30634951478279,-47.80797997180365,-0.6476209049291884,36.97366641979302,-38.339684972109104,3.7122272466895487,-51.148082218777645,51.920922400265766,-33.51460236149608,-10.685301379070934,-62.471271886939334,0.3060474042729344,42.928920641152594,-59.658553701912886,-6.577021781732034,77.45826286940641,
15.640358749910364,13.814532502535688,7.907155500400487,7.5220839582618915,18.421922609576296,1.1356366163359148,0.9772141913550458,14.629901225463925,3.480090311268979,9.728452087461502,-8.612034739680029,16.021281086456828,-2.2011681047722558,24.010080155618937,0.27143982939602396,10.357519479596974,12.230902581517505,10.41291531898029,20.40788803637778,17.85286510276539,7.163443111904076,4.715668588203444,25.67859113674404,7.867417502012438,10.22219989844838,7.61549142981671,-5.314903616414715,20.712426459926927,6.401695758522905,-9.611922807106922,9.646643570643022,8.773963812496966,18.86178407153509,-11.455865308150507,6.979853034806386,7.9661874945275715,6.3130974846268275,3.5622990226525904,-10.944908042307503,14.90940059639174,9.304534884260685,-25.188584105967433,
60.63309064625049,12.911213731759867,-16.688731630760223,13.120788866351752,77.8941879539307,7.270456298997295,35.34905413606747,21.03621850901492,-18.082458843064273,18.491962950872665,-17.995896858125203,62.284166047098395,-30.038965867695037,88.50493190631096,5.53724370614924,20.704505955547702,-6.0612901367591405,34.29993653438243,90.3589832412315,43.07507322257967,17.394719337976277,-7.949030828284658,33.35844401767733,17.92799327498112,1.9133520248121019,-16.17593666705566,-52.126657292260425,60.641558812460666,8.884562811811898,-61.13470231756632,28.225329940803892,5.98764230511625,65.92072606389853,8.486537092750085,12.70637754832533,14.645745339554212,-17.262266428870465,-42.88426750724806,-58.4940482605979,49.08921458122179,2.8581692826482366,-89.51839156528881,
-0.10122893919449535,-0.5402544444480941,-0.07336045956346643,-0.8249940891666313,-0.0018395556153921692,-0.5410745981316372,-0.0784995133432776,0.33563898265057834,-0.5931195149412569,1.4950637599738117,-1.2040306375625833,-0.0948253304990472,-0.96386080524897,0.17034065745875773,0.29591458107819313,1.1451086387495555,1.2694691647270084,0.10677079760421457,1.351538909560422,-0.0994679143773827,0.0956011564650672,-0.5743395014953919,0.8834231507031899,-1.0299888408700215,0.0132853976953551,0.8181249127815096,-0.22775318997526126,0.8646271542674612,-0.23063258883123627,0.5049044978499505,-0.4726897018142997,-0.703313588770031,1.0133815731598634,-0.9803631688073231,0.9760208881873056,0.25586854152487765,-0.7675500059113106,0.7548836517920312,0.08112671638915639,0.9755158526256663,-0.37318427267133986,-1.2060096777682987,
-0.48317299827941323,1.1475744324820252,-0.30841399224345395,-0.6701428296328447,0.48525092389353447,-0.8853533431028543,-0.6848676617496459,0.6195002461012412,-0.14805683231847436,0.11847615134212885,0.5660182218038625,-0.43405039616339086,-0.3794914756797947,1.345887011344456,0.4089055493972053,0.6696813805608917,0.3713977863452634,-0.12463836756786653,0.47887163974272995,0.07976579157359037,0.789372680764579,-0.8394289634453511,1.840768166598774,-0.819344602890884,-0.6205731034515485,0.4884509828300917,-0.8016216393285165,0.4562898777648155,0.7090961782569485,-1.008109322712993,0.8329392930039335,-0.6180654300217135,1.2142797130256178,-1.0657396629708422,0.9962084047842594,-0.08337784392965325,-0.517712727631644,-0.15670193504796717,-0.42388111423772606,0.8151588468351235,0.9324318210446748,-1.3297756864663586,
1.2681721569234123,0.7891679383178778,-1.434655917525905,0.3414633832539719,1.5381939595335903,0.7153307719577565,-1.0007963655121617,0.7278471466959047,-0.07003201046875866,0.5068244009239947,-1.356408529506537,1.5898576301132386,0.9179656788848056,0.5782926163884619,-0.8037383692196572,0.3203668156757576,-0.1534652330890556,-0.031650476317873724,0.9134013678025041,0.21517186423608597,0.30437451541218274,-0.03788042769388342,1.3914867233625032,-0.5540485940545122,0.9719208358552807,0.14270263318947002,-1.4076102480641093,1.0682513546117418,0.16981817264723187,-0.2720078906377347,-0.987604357684286,1.420656251031825,0.8509911656775274,-0.6712233343606938,-1.0536707359485666,0.8641873613132551,-1.1437686260330016,-0.7050774480599182,0.19350191333969277,0.5268626727782687,0.6944121219482268,-0.05242557071721304,
11.681627989237178,-4.929573318342978,-2.861579009144203,0.8436958285383133,14.405636122683413,7.617764404826335,1.5923979564226545,2.6731849587058907,-0.2755948683769772,6.8531571222999235,-5.124656576344967,7.613830670342895,-5.429608456478458,14.15806075366309,0.6477492584932426,0.5954297665191401,-4.70815106879547,3.7633002546541694,15.339356192820489,10.18734888937398,9.84018590135829,-1.8070051100934392,1.9520074088805446,-1.5003382562123875,4.607369418875381,-0.8169020085889004,-17.177072117144842,6.228431453065999,2.0844955627268202,-9.937491790355082,-0.045498788656061814,0.4301851669689303,14.537208824782283,-4.456178657452983,3.795538400566644,1.4386767052292133,5.908594199870211,-12.827789215317935,-10.074445565107032,8.661565360982898,8.666253383880893,-8.147398681245113,
5.426887904695156,2.769901847526804,5.513209956425246,6.427751066664399,9.207746908534064,6.635004679930349,3.154135926630142,2.3572444061501785,-2.703535210706278,2.622288995769724,-0.35495577343167967,-3.014497556645411,-5.488481718251667,8.77728252206676,1.7060866291111771,3.456136831788059,6.21138504083745,6.908303560626825,8.8929372368329,4.466161140992788,7.4142834755272995,-2.520910129740192,7.8332692815749505,-0.4418268018409307,0.32519483807205823,-3.765678102861701,-0.22234646735258537,6.64597579612129,-1.5191740183725966,-7.301998154198764,6.485853429039969,-2.5097761720888507,3.2794582656500784,-3.2813487712071367,5.8862107111717155,-0.9752278986454731,5.3972380183295545,-1.1183433781180225,-6.2737944175606675,9.414630345751533,-3.4015747234269393,-7.546504230014596,
4.827852935036329,-1.4869792779488444,-3.5569569227041824,-4.247109033688687,4.215714221841602,-4.516155371910489,-2.5509062836865866,2.8384874566889753,5.76817811815075,3.323349415341962,0.5296519473198679,16.73395625944635,6.176796137473394,-1.3503547455129332,-1.3763741758169281,-0.3023068224776515,-1.9046618406679314,-4.557980885801693,1.361201778018379,2.3552212109106736,-1.751619983774117,3.802048070553888,1.5280135631505514,4.219894688220549,6.319157363089297,7.905525563225549,-0.45534913697707097,6.491122939832168,6.814648033064963,7.106525916228744,-2.890231758999168,8.92642785560259,7.650241375041715,4.3639883905676236,-4.662949921558348,5.459574094873302,-7.387158320677415,1.0552510972349474,4.73963975380519,-2.926128407182048,9.294294226926006,8.88759187139954,
60.638558779253586,20.06476817391171,-11.435845211519693,4.563067622511261,71.54131704188671,-0.3496528077436691,36.58217406664034,21.53017100155952,-9.975579090378641,16.90658306677152,-22.589323110048642,82.03457798216637,-11.773691526800262,85.43437931545837,6.865840132944769,22.164815014401164,0.1439336575891064,29.235169102600647,85.48340551794581,43.813565630543565,5.840917386086935,2.2345809326863533,32.78191637237591,30.591445013592118,15.961348677863999,-10.78755078515394,-29.06735947033345,66.96515708037317,19.180544842958145,-38.13011743633638,24.84078574454343,19.450086322998988,67.17856090320716,14.07286685157948,8.668563040173382,23.761263707362374,-18.938761360646556,-19.729817339048182,-37.52857422811382,39.658930302507684,14.397241042958994,-64.578727578456,
0.48924170839229514,-0.6000158246478293,-0.7910251143616066,0.10246035250410036,0.5635047079843906,0.2643367216973,-0.5777123710059664,0.6765680706241899,-0.5060575690910345,0.2952157055468022,-0.14300420706606196,0.9907465920620535,-0.7605266434285485,0.29796065526596444,0.6927355524602989,0.6546259485215796,0.04024932494584147,-0.664238341353697,-0.2355310188364594,-0.05817099257899214,-0.28943035247084986,-0.44720672159345864,0.0072817335210584155,0.07887980913002741,0.770735541452008,0.18037266204958735,0.12339219622498007,-0.055860693422124554,0.7025671854574659,-0.4021794625055629,-0.006890714632640307,0.2474710380726358,-0.5691353049080712,-0.10118903502056542,-0.5802627556334613,0.5073029057316861,-0.8826268496813312,0.5764725056135683,-0.8459077615279889,0.559666705559693,-0.7605715113106978,-0.3380858581867634,
-0.3494514943263748,-0.4478343889453887,1.051676298958928,0.35007887164297385,-0.8289068867970798,-0.24052970720720596,-0.40090131369393955,0.8465002734263826,-0.06582403690416883,-0.9095100047348911,-0.14965568020070374,-0.0385268916497598,-0.045738793340110356,0.05594907109343543,0.35772377029232355,0.8451887886198968,-0.7552878073177596,0.9028074899419207,-0.17200993383616686,0.42675479702237273,0.05209071059682689,-0.07129194084651191,0.4216234432368088,-0.7136144469326542,0.7898659167786866,-0.885275403098246,-0.7412550373705362,-0.05298501066585033,-0.3650386647368998,0.10651363547320776,0.3695194886739884,0.7879474302247921,-0.9343241919242079,0.18177553563413731,0.4938319573203648,-0.04564761872156589,0.8858875127252125,0.18809683577387873,-0.5017994594015819,-0.36209660304821745,-0.7212772503140219,-0.11853806073556317,
0.571389298043971,0.33095031908007794,-0.7938206018833204,-0.05582553529327183,-1.2012131528984176,0.6810040178526303,-0.7985848686806969,-0.43091238431898066,0.38857297389249223,-0.6243128416918088,-0.24300803188776707,-0.9150892114125319,0.25760462458074923,-0.1880384767688485,0.8353766295975681,0.5060234028392899,0.5453358351419793,0.3029426701848408,-1.2546356899126598,-0.127676954258574,-0.1740291836548784,0.019718108692974613,-0.47454310245951464,-0.18835691338884777,0.7995424228449062,-0.4193847015438633,-0.143145821852308,-0.7174031781567923,0.8557392090225999,-0.24553668352651173,-0.08262477331894184,0.5824334049573796,-0.12566065543052207,0.20792295356784768,-0.8388109113705919,0.7645026669370166,0.05615230773431297,-0.018451373108609517,-0.3378417217231629,0.29574614277182104,-0.36902262580861106,0.7343738715794902,
0.47399665798192214,-0.4126470421023115,0.31994837154084177,0.7727185997431054,0.9998586791235591,0.8058426175511355,-0.04167402740145992,0.06357199040261657,0.11178429993211575,-0.4821887947230747,0.8508876844792792,-0.646560996917213,-0.6638456460356297,-0.18312452229145015,0.5948510751738656,0.7620771203475261,-0.9650813875466576,-0.4785966567510222,0.5960305696392676,-0.04991093221306934,0.01820130740891557,-0.397195867353296,-0.35446831320698996,-0.046700563937083384,-0.1414675968526539,-0.7323092026946685,-0.3554877101119377,-0.5091173905103598,0.6183218820548756,0.5877803227324188,0.2577349743941514,0.4635303182117176,-0.9373753155934518,0.44986927118700165,0.12135636883513966,0.18527017708420507,0.46273564458001737,-1.1808579835003477,0.208407860666198,-0.16411606083025043,0.6251298083223338,0.49451227002007225,
-0.8315533728058349,0.30987818697460745,-0.7187654338041006,0.5293512759719631,0.28277589062703884,-0.6928885784790951,-0.4958151824401739,0.4723580600011582,-0.28324633042230146,-0.17530542541214061,1.0244257945445359,0.24131682144050723,0.2660433067122809,-0.950433379284297,0.9189208702797729,-1.0279298257100367,-0.7446339626315881,-0.5772407736996369,-0.831344069872329,-0.311481654190246,-0.5429444541495808,-0.44022740142310307,-0.3832171611930543,-1.0293868513253728,-0.27427427134476645,0.5771775298131231,0.802017662132322,0.035205511274295026,0.11112219695075007,-0.06981920358946035,-0.2677599925951647,0.7134005311421838,0.03380621525112386,-0.2811329577259959,0.4223072600683592,-0.6057164011868832,-0.15279248691690855,0.3276001779464552,-0.8849453624560703,0.12409993956116538,-0.25555537863238514,-0.44530359111183554,
0.4050036319244819,0.4751082480744991,-0.6404348214779412,-0.5237911911778315,-1.2075367583492371,-0.9045144090029078,-1.2281687776917372,-0.10219496597348941,-0.0969674427411421,0.5453053677589413,-0.3074937915231172,0.5347385245706436,-0.22852564248962748,-0.7155169697722267,-0.3327246752533972,-0.11463844828049419,0.6532271288491607,-0.8549287153876395,0.5250746000461131,0.6438085125092687,0.3359267898717842,0.092671772252182,-0.35396007042831445,-0.05653979644245097,-0.6708761811797925,0.8446883059483857,1.100398296572624,-0.6493812777936813,-0.22275766752997728,0.38228284180786143,0.4602529644985625,0.5876800975843893,-1.2837039406786266,-1.0938268307872718,0.20400775749437033,0.43640308797344396,-0.08266971899118737,-0.6685170551580936,0.15608124193801892,0.3915227233186541,0.8155605719458553,0.25686803927364216,
13.46079312975924,4.563394119633968,0.8569599598616302,4.584582338151989,17.62370265457232,2.8069200093830524,7.1416052645707655,6.835953901318578,-2.723663030941738,4.445663730142724,-7.778299585511879,11.280734518703769,-6.279669557441274,23.448822117573123,2.4540103913471243,6.5923765261237275,2.206505380782861,8.991823375164241,23.009157916553285,12.13896446632544,6.348301494734745,-0.20485846596451038,10.178225165251991,3.7675268431824653,3.8627950506101367,-1.7679096230744398,-9.989900935007057,14.790739524081028,2.731803842897358,-13.005825159766975,5.302869443221938,2.62332125867281,16.127553499976212,-3.1223799481956926,4.479189856244405,4.138941757407835,0.9930722475588226,-7.235189010972876,-13.14767761903391,12.505394924178525,3.7891002863305765,-20.354153301011053,
22.58851062322643,4.407937252196967,-6.073743792146003,1.8459016551735705,27.536610530684516,-0.0793330823866748,9.858039072080818,8.134586668546588,-1.6080138571419154,8.657030849646924,-6.901785064977114,30.479835453994244,-4.753209556998144,31.97216996916258,1.9052909768276949,7.885061859225461,-2.6716160932455457,10.659562412480419,32.965849657455706,17.180176639895635,5.1620077975944705,0.8835563944301975,13.046412913460061,10.314458161966986,7.643186860677013,-1.1703382766359591,-17.287011502574668,25.284952827575328,6.245563652276968,-18.431893147180418,9.200404552286617,8.116962947842493,25.29940793061664,4.38236825908783,3.6633717230659717,8.378973539202425,-6.811800911851499,-12.466452994775782,-18.489765313105398,16.486749302611493,6.841685033125033,-27.60451581576399,
1.092152902281454,-57.34570728093238,-55.114183303362445,-22.02150067514485,2.5603375701769666,-13.127895894511099,-16.675170467142664,-10.975338773370218,-3.009427068976549,-10.371358222102351,10.935475624215774,27.353063358971557,17.87607086244642,-22.43904852053725,-6.761295654852948,-31.568111658089894,-57.68550494290889,-52.57494457904808,-3.327462888241846,-25.540230135287295,-18.92158783014847,-7.236832926321159,-44.10185647425473,-12.283869684342799,-19.347187558750242,-4.499578811919525,-17.25811336565259,-17.921618676401252,-2.1928260021404675,17.796927049562445,-49.456613081497906,9.658081948655783,-6.060559132222023,24.775245502549353,-20.664327166233722,-12.749667650364106,-54.51759504940398,-32.981390918522784,19.54761217885776,-59.52077982145495,2.2471295113866963,47.69824706057744,
23.224341118032548,-12.793375251391415,-45.020572652563864,-32.54249762720433,32.70240990941438,-34.56238331672088,20.168087015359617,-5.640614529531214,-2.43435317507371,-0.2731614222350268,20.763054345484257,77.85550563459627,15.574824963426861,9.240304573646894,5.526936438037307,-9.416361033504643,-39.9737307580518,-10.431791826160666,21.206708033250507,-3.109498728340953,-34.34093490502216,-1.1023323710273953,-17.75555807974968,20.92920470349425,-1.3151069693243975,-5.553534972532168,-19.768795212681813,28.94498295034491,13.314281450674432,-5.622168350474802,0.987355611271547,23.241205987861974,16.22975268841574,61.57519330429467,-24.800562680089612,6.37525960453906,-87.86334220054519,-20.036593554536456,-4.015977043032625,-10.348510059385129,2.72003152695981,-6.793362691227549,
-7.880299414724993,42.048804798471544,37.57260984641052,57.17490500486234,28.192048771921538,92.95800478413035,185.88607007881103,-62.52214243727221,-139.99219761299355,-78.80597185815449,63.88364609885735,-85.75838542946508,-139.54148429630476,45.868182643457196,32.900778853644425,22.512381600988746,40.96302786665808,99.97072265538311,12.673461466369845,-6.238449830833357,23.887081305818256,-70.55467100097069,-106.59162545034457,-36.29737315881924,-112.86809442012033,-212.70919364407044,29.856003963073665,-8.49317099847909,-54.745786185776396,-158.46552467757468,28.230052883144282,-184.3231738833325,-35.13594427249254,49.20676952634973,50.53035509956499,-39.52831904896323,100.5660195212901,-45.062411847755115,-68.20468619686079,52.51580841664835,-149.83391487792315,-216.01096491674744,
0.07279343074467176,-0.00436090778044978,-0.2529004821553896,-0.6438078460821121,0.043236511624794936,-0.3743674610061113,-0.5876749188150661,0.7783763890070122,0.930115637822902,0.25810206216942855,-0.5806124722935716,-0.5544085054837758,-0.24894154196009644,-0.10920956227159716,-0.6438091321405233,-0.28378071922065734,-0.24478655214735365,-0.841053816871899,-0.43219653332782776,0.2659535455498011,-0.08398349349755149,-0.20650083555222684,1.2383497819218703,-0.30243514385060777,0.02027682754565058,-0.1447412747786594,-0.038546914363065246,-0.4746638101244778,0.8453307857220792,-0.03392275194999928,0.3139523535898144,-0.1604097895924734,0.29955802402569165,0.5667924050044251,-0.20670580577041178,1.098274099357366,-0.6202875792722777,-0.12973334916564222,0.059830395418595465,-0.4124378841443909,1.329537105668215,-0.25103570070556713,
-0.07920736832018917,0.7678830329514725,-0.582608612225999,0.6868514130909918,0.3517301977581756,0.5364972768464579,-1.2078175779817288,0.32111935274106734,0.8032788411766605,0.795230116219735,-0.5463253780671236,-0.15451923541175477,-0.7049781948266196,-0.7628294492130079,0.0021495047015999288,-0.21870525433742521,0.9886996003903367,0.7716313455028762,-1.0015816715236552,0.4565388824154238,0.19866873789987452,-0.05528267099959623,1.328692758107587,-0.5867076289661796,0.4210628746312022,0.21755466714098542,-0.6809839761613978,0.6397682729504208,0.8032745954028069,0.9808319758171958,0.4677128101312184,0.5656147816628118,-0.8251647582543457,0.4118621252089225,0.5666669411070206,0.2610495667884481,0.05908834963482531,0.9106415300021101,0.9976673550968743,0.4830416705684723,0.30485374526588077,0.6372806615147217,
-0.62461928980911,1.0170929581002384,1.2615263304515498,-0.18248849400543996,0.18375810022907413,-0.26612307011526953,-0.38513497784882184,-0.5593991538463836,1.066919648252098,-0.7706744893567773,0.04526746159716405,-0.42526408642870117,-0.10788693632412708,-0.10589179816871024,0.3290425746757393,-0.36312143126021845,0.70127952516148,0.4346694139021059,-0.142622034937435,0.6984556310940838,0.9983449589867543,-0.7131382808824666,1.534273288389615,0.7200889806221946,-0.12794580848476805,-0.08433096764489882,-0.4110752863415635,-0.2842949983827389,0.5909188143917316,-0.07506237264180159,-0.12383542418733587,1.019068568414245,-0.04780358772323974,-0.3354097926124569,0.4821268328808872,0.47807738405930145,0.8355663621497832,-0.13936816295363633,1.1675408590109584,0.06999941449387463,-0.34717209479766353,1.2432938753822937,
-0.8012181916926954,-0.38489459342936183,0.2703535138698585,-0.822635980672996,-0.678264960077534,-0.5633012586704439,-1.2938401198819038,-0.4913419552490207,0.3610062531725763,-0.1634913907903942,-0.7408779823890617,-1.7143570429403565,-0.47316529347744907,-0.08019004180751418,-0.578028354826843,-0.5740232130391302,0.9044049949616952,-0.9905566940595875,-1.6256571646958884,0.6153280458505133,-0.1373962654967876,-0.6335340140443559,1.3546153002297696,0.6352375770280331,0.9211024995342835,-0.22432114622165192,0.5007177221137502,-1.0903742329586255,0.8994143825984797,1.333177379975029,-0.3469556626335786,1.0035210730737496,-1.415653763766397,-0.738424393005696,-0.25603595759437997,0.549723075428993,0.3203323055454202,1.318398445197058,0.38493162225619865,-0.11409510704740554,1.3842703895304114,-0.09703469137908742,
0.4623593863575809,0.4819165136166634,0.396105982777801,-0.0011548117062527233,-0.11647328513256605,-0.1560832673421457,0.4032846164527119,-0.4915667580097095,-0.6212078066388668,0.21742922243778515,0.42640749626870333,1.1381276660537234,-0.040376363887055323,0.9129828189611844,-0.9163263655576078,0.14632132216637092,-0.4478794093890166,0.8511573979974352,0.7180667241225623,-0.22872329550745224,-0.8732803573843854,0.9748392181680264,0.24756083944888915,1.0526186876497807,-0.6341026982118515,-0.2064235493165256,-0.10326227568724572,1.1375148191616036,-0.8072306682013822,0.3103953888670595,-0.5641922432967743,0.9235079437178957,-0.4129076871324924,0.5865132086600722,0.9370927988320801,0.4536820565593602,-0.20229167138881002,-0.36649944811259055,-0.8344857987720236,0.6183688226091146,0.7622716800439234,-0.612560351351181,
0.7627512200447922,0.610886579815217,0.521638980044282,0.28777002306697064,-0.778609463542623,0.8549514142111839,-0.7976807349895384,-0.38893682715745176,0.21931965100938927,0.7347218359238621,-0.5870220158340043,-0.9620008065915064,-0.37885444795379336,-1.3355712100769546,0.40864002141922506,0.6709208447974319,0.7300985263706722,0.6864944838610564,-0.7924137012454695,0.1518623484920721,0.9038712132516201,-0.5460570740607579,-0.3671295926708558,0.29746596481583626,0.8556364774265901,0.06781166387442282,0.5414569823510902,-0.9462312289295153,0.5477779491509861,-0.35968521800393327,-1.074533504262985,-0.8289628529772105,-0.07863354895006071,0.5289123795671999,0.11698252237603753,0.10319406001479779,-0.7798872352078781,0.8749552394103154,-0.6543931172672613,-0.7463626985335264,0.8436181655273529,0.6241362787978361,
60.77492364696952,14.019044605396564,-16.303268280625616,13.971486770924376,78.32521797586386,7.298313142795538,35.18515358034799,20.47631105483326,-17.93522840904934,18.29139605934121,-16.78227501424146,62.82118766130472,-31.434924363401674,88.36111284950888,5.997814359526709,21.60392715455133,-5.049309058295723,33.13521315140153,90.79009141093489,42.77095425956337,18.80536831746377,-7.133674686005736,32.26508496869749,18.066637964687214,2.5280756465779004,-16.779323647655772,-52.06926189848213,61.22389755936323,9.211665612039917,-61.91297913149701,27.931721987312127,5.0028308385568385,66.14948606999766,6.929015579020262,13.614891124533566,13.921473528510658,-17.751130483690375,-42.341004600412155,-58.980435943632564,47.823477380948454,2.831305119115715,-89.67963860035944,
61.38626734550275,13.745820132959556,-16.452370989872517,14.668115471456318,78.9854981601294,8.56140375435861,35.805601541616575,19.397142732642262,-16.51299637826717,16.801693411514183,-18.163898955273485,61.65489167997748,-31.2457308227799,88.92968809695105,6.053180913238105,20.91896700210532,-4.985687751807411,32.99307405943273,91.02245718945944,42.99963842558873,18.386488115241626,-8.559149300813695,32.85103556190917,18.397950956863756,2.137477903952314,-16.356705090043782,-51.61544100953738,61.53368145578376,9.099451066453188,-61.546229122078145,28.43451990908996,5.4000837042492105,66.12721133337585,6.738942863995706,13.28285317209379,13.095974960221325,-16.949978815374763,-42.08508278245284,-57.62262421490227,48.14264888215948,2.1809153943382684,-90.5076556559092,
-71.44258642727956,16.124714416125396,52.319210200883994,44.48846672738801,-53.63543923356477,89.5889104402382,147.7868009620001,-83.30903348062674,-125.7515057604382,-92.33673153296743,90.11148273445878,-155.18593263992238,-121.12356210100073,-50.47758274382469,32.65332195091889,-1.2090265004519072,40.08085159113636,66.59606865400497,-84.37398956588703,-39.79072473979745,8.198141632924877,-64.39772917041003,-142.15634868952543,-64.99769589342083,-121.71961267123088,-202.6301467442757,71.28595363048788,-77.09096451653645,-68.45424644529578,-110.17445465879969,1.011371597792423,-197.56948087282206,-103.59212778645245,36.39994232290552,36.441993084797424,-61.29500534364011,125.85850617799859,-18.151698966033678,-19.664713340767157,8.016268740328576,-157.02138903651738,-139.30480013643034,
3.2617948022774903,3.6896264884336882,0.8440281139649561,2.128796741016274,6.683231853246237,0.3951796881619355,3.0089102229201314,2.9544984467569284,-1.3958797201312623,0.7690476516361909,-0.7486341191072929,2.99307635518356,-1.6691863023356446,7.394995320976912,0.6164660971419048,1.7016278593305443,0.5197871882902418,2.6771550031075377,5.72279439575839,2.725925649037309,1.798141712575543,0.4109884327174132,3.400474446580287,2.758852110422884,-0.09632519945826,-1.468992694777191,-0.5036530580646505,4.4215264288799405,0.2110617513779194,-2.947222800672366,3.5152230575794645,0.15508756937908483,5.285697339678252,0.18286949547074471,1.350056640218641,1.2861501897524426,-0.66920206125914,0.45481717237768027,-3.2970531227398236,4.657326794098583,-0.3842637432760386,-6.7954393428368025,
-143.18605879849966,67.82705756311816,155.42476713024917,27.864239900887803,-197.54079203410987,27.473989756659794,-79.44115841295363,-1.5918634614587996,55.29742804231226,-16.09562090079274,-10.603197901791486,-300.34985536451194,41.229939739032154,-165.93178257049922,-30.52220113996887,-11.9509731249074,100.76520209360204,-35.15117549126246,-210.32310851536693,-61.069237069702794,38.47051977584183,29.873475511510797,38.58254926117335,-68.62390732935691,27.424793764754593,36.69437386204285,155.4028875677254,-164.2887129640288,-38.33436156619066,132.20800717958107,-35.10871248931929,-75.208298897249,-195.25336944801435,-65.86979613039945,8.484372394901422,-20.191126138787727,201.75224689276607,181.8626822599808,122.25538517257439,-43.31713006831298,-6.756510676468956,163.62146021308993,
-181.57498932240642,231.22851058939034,170.49477162100507,-107.35578804010021,92.68627226402535,-175.8759407663299,315.5707181133238,-277.53770615540094,143.76647978209607,-121.51659145988054,617.21600919433,377.04669162557514,271.2605333719086,-9.811176984051288,226.91278428777733,56.50904613239386,131.27155753400888,404.4685090823664,-43.70922979525753,-86.97436347666829,-191.26705148118555,73.14636041415034,-350.1729207693288,225.3647257972463,63.50569238764365,-145.76406449773404,66.419391427136,223.16699807420693,231.52828508541697,81.74717682498311,598.0855560845104,143.24499777945167,-85.81606765646531,745.9303973434733,-54.9479128391255,-7.82246640976382,-645.7135631799391,203.9079702008809,-88.71027569417055,447.1000731151549,24.18371082746448,55.697603936550784,
-18.196204129850567,-1.2215824975019596,1.355471588685637,-4.481384452808245,-18.62136927030021,-3.6079873916855405,-3.783045483161894,-7.330543642667878,3.980397153509653,-4.85343202548987,11.70697740777804,-11.784567554769032,6.2839897447838835,-25.484233579748,-0.25779238101217694,-6.61013530605107,-2.0079912061360594,-6.464515486855542,-26.67405954206616,-12.857381864891778,-9.24575048102876,-0.14782306515556437,-11.321851138720488,-1.359977120957379,-3.2438964870407294,1.2248860508154624,14.437667474156093,-12.917893772323415,-3.576816369023898,15.452411606622597,-1.0133133759171231,-1.012390350876954,-20.867125068342215,8.842001600228919,-6.042860157996986,-5.276194774867546,-3.1357627375689443,9.60863487355237,12.137770237173351,-8.61316427009739,-7.813319215678469,18.47837831092863,
9.315285250873178,4.623292165170992,-0.15680690680446885,2.574290699447563,10.913742316273453,1.621357087003675,4.798110264969939,2.833637066227115,-1.8490484037918549,4.0364799091551715,-4.616588120392377,9.56611332435354,-4.463551208406683,15.194048417480616,1.7002536337155745,5.304631180225593,0.8962546179164522,7.1247572767407075,15.709640801541164,7.968218057173984,2.6755844583720982,0.1224920627551634,6.785115195053104,3.970447336698824,2.9869288376318366,-1.057315696978252,-6.790176144659157,10.654912259741508,3.0552000130703334,-9.261717032047287,4.185267957558239,2.3975936172687238,11.249467233514444,0.4362563814932441,2.859499875156444,2.6827245714446173,-0.08761609983416971,-3.4660107505839086,-9.086943228782932,9.363740104848128,2.8571398576855183,-14.328221395448027,
-0.20914312101805924,-0.6214459919813756,-2.7047266102203853,-0.13032514884036578,0.8400658207077336,-1.1736139934468206,2.8508480830510874,-1.3870713228746196,0.24728421848686313,-0.26216520841556257,2.7568915790492823,2.4429322876576474,-0.6858556965388312,-0.5265110620282624,0.24281562659203396,-0.45870225569856427,-0.719748174710739,0.9736434479710196,-1.0748143331849704,-0.07924085361612668,-1.6196834085503948,0.3061677454500229,-0.40040442343770033,2.4151580656217466,-1.283015760847495,-0.761604219923714,-0.22942921028024757,1.4850630562202345,-0.6431847175840898,-0.6474796368630243,1.7727157351889915,0.04855664721485353,-0.22783885078540791,3.4853289067215973,-1.8216898091995248,0.1563279613448109,-3.8878337180085794,-0.07942912389280435,-1.0031003639034703,1.0772317489650651,-0.9595308084802148,-0.9349147221431743,
92.61081400167753,-31.158589805011772,-46.078759762155734,22.926002336471683,141.44308981359762,29.467424039323433,42.743791938705094,24.182404812089345,-57.6439707033774,20.35429939492509,-29.566533474510763,62.61093798567145,-83.14206488775176,140.28134189492135,-1.1374826817977521,4.956204908864283,-42.47744605557026,32.56278604645907,155.71886520089748,59.693571922180595,40.2004694221649,-41.201957822727564,26.218210793022333,-6.81056514750394,-25.75340050138127,-61.06829674008193,-126.76724542970214,78.65648944623761,-9.806306154608109,-136.50385492563527,11.91086157267879,-31.81234389363092,93.3380432187802,-10.032464660052483,23.892993649442854,0.6467755209010942,-20.106966295248533,-119.16739959732503,-120.15414890772097,57.04406224397155,-22.066364775518924,-161.48210460999354,
7.628194362905568,5.371224570559166,-91.94648061642368,-30.474029616559275,66.7963617638644,-43.44055620928055,99.75899222373333,-47.49142533809563,-9.212651380773785,-0.4830306873247365,116.73932490963261,191.3856638819336,11.138692063333334,-0.7675266621932846,38.6193907387907,-8.194638913607609,-73.65060429036342,43.72226945855686,23.5341642024581,-9.528474786660437,-81.83307907316573,-10.73996636963064,-55.11296993724367,76.29246334748672,-25.750126882169333,-43.04414293137292,-41.454646448461794,86.63655263238827,23.97380270290521,-27.715577782511186,102.44889940663076,51.31614864758627,0.17915996709769574,205.12492498583634,-39.84065195400506,-7.7365653001843935,-165.8222587817875,-59.7730313994805,-51.11460957188521,57.40140392942567,-58.29579521301439,-59.72239660319372,
15.049047522463422,-33.580448461688555,32.41626526382717,17.061489819592087,-47.83923071265551,7.442561583627164,-69.11414707509607,42.44384622371155,-16.353165637965592,10.117023736350292,-115.46567598711788,-127.90441273538065,-38.21019466280342,2.0907680529604318,-33.88880717926069,13.345160169139685,26.89103117263789,-63.67007020916706,3.76296814156672,19.448744029322114,39.991618057291355,3.0613602583437487,44.156386229353295,-39.885892296967924,5.675509310315382,47.25417233188073,27.22519399805419,-52.136024146617515,-32.31738373012356,18.726500141560127,-115.4072243680623,-25.16703156219415,24.531985372343684,-169.58263399590737,15.570728001430505,17.073411533735722,104.98038964775972,27.57197323731183,39.07913013230837,-82.63791057544151,27.140158337395714,3.6154169204459055,
15.571030444053667,-32.74972084158375,32.33488551301941,18.152181506829173,-46.381606260505414,5.838687182190833,-69.4279199115056,42.63686940922019,-16.70183818301713,10.623624787335288,-115.27150868242022,-126.71224744490107,-38.48555089742732,3.9992649333016472,-32.92585116476809,13.228324335351148,27.616972392926,-61.49158189012794,5.725449257763143,18.31513509254171,41.74456647930447,2.2332690542582627,43.15094017760183,-39.24993421330684,4.965271375859965,46.725663701467255,27.544570052796868,-49.565526475727,-31.901136789875814,18.16177685057662,-114.9140973349572,-23.892838092304675,26.393424044119897,-170.31016328926964,17.298483007412553,18.812836740046894,104.98089440232579,27.185476779873525,38.87365860391908,-81.52091269316017,27.785335450484556,1.5191041554193785,
-8.644288406290423,2.6898143374066863,-0.882048148791265,-1.3293498041130274,-6.707148585590023,-1.4949902855417327,2.2169094210964397,-4.96489048298168,2.2422120570337167,-1.0556055496481491,12.277757125743063,-0.04791252670666179,3.606634719362047,-12.299087116811782,1.4740039567744643,-2.287788120980321,-0.07746887468905324,1.9821749371390378,-12.148581998554013,-4.7908936100553925,-5.5747233828575915,0.9678717624155356,-3.663520017661978,1.994008882506126,-0.9922363361948339,0.02709276346393302,6.112934476322331,-1.2247419310047571,0.46955015484386103,5.929130562840452,6.636113323550714,2.498813396025612,-10.25737544873676,11.717749542059781,-2.194397052911837,-3.266564344426713,-4.189068151123087,5.055344384755407,4.469748238793437,0.2575112376044751,-6.9218846553475135,4.880295579430954,
9.835095177912446,0.8887943949355024,-1.3613341025519297,1.4416241231211884,12.75757297378362,1.292552506963127,3.5256986776955013,2.9070757192089207,-2.781709668945138,2.099853051940298,-4.673151396357238,8.506584791930674,-4.760388425142393,14.529808878251384,0.32000465478842466,1.7007781894994747,-1.3804028948760987,2.797363742191228,13.292968085390484,6.750757006588568,4.341263514610583,-0.19081563293253795,4.486666092549112,1.850794389792818,1.9972084822190488,-1.2023718404622739,-7.58023280261501,8.344181734266044,1.717168364265872,-9.384706415552122,1.2809820651205481,0.5972394729017391,10.874286644583192,-1.7958215332387917,2.0486581561168533,3.5346605910659568,-2.519144173363962,-7.18437841236716,-8.446146963519082,5.276844470815228,2.588759436241698,-11.208793942233966,
-8.514471034736744,3.1112730499440904,-0.8720774791406953,-0.5139038459160945,-6.019131471763808,-2.590469159534476,4.4884658472259895,-5.972607400294433,2.0407065232193706,-1.5741600572787593,15.343728541004747,4.456208064074026,3.613593609176186,-13.95425513542071,2.735809964661462,-2.6978006301298714,-2.5330166885557164,1.0694693633522558,-12.226753191778416,-7.1610126919645865,-7.726045389056558,1.2379254021576918,-5.16612290080981,4.407448347336507,-2.78275816646002,-0.9101809730170494,7.699400733367673,0.46728755591740523,0.4572675201418608,6.716619751693373,9.877848127399476,3.059247429306096,-11.869881443504292,15.228983144564548,-3.38190208730046,-3.5723710875075603,-8.740926401496687,2.9879677148524637,2.946344365322882,1.70183517463763,-7.261182238849102,5.354366274132318,
8.779442870293359,0.3902326392483503,-4.9784684351387085,1.9104105776787899,12.761229093390687,1.1964104078597686,5.471931971692751,2.7071926313159596,-2.662245419980331,3.223373547990999,-3.0472855618280135,13.094908666303693,-3.1665462996039575,13.036629752031242,0.6871912778373837,3.2581188579381153,-3.3053843353848826,5.277343470053137,14.305975969140356,6.606168977244773,1.3180650530741407,-0.6050176464309556,4.887876334826123,3.5806745763890713,0.9862543506977346,-2.385833730681593,-7.881483611804055,10.590077196827949,1.633952936508634,-9.25325702341034,3.306932732919527,1.4730410568410288,9.669092776197237,1.8898119701641314,0.472227428165688,2.95861064573462,-5.241593447921594,-6.95045163015196,-9.558088930752428,7.3355141214824116,0.279303260119287,-12.144868986089545,
-0.9469711937970673,-0.9718208995796117,0.8462765058965588,-0.38867375841597085,-2.0117543874669974,-0.6389547594310382,-0.43503168898044703,-0.28754779821804194,0.5337002882503906,-0.8269920183604281,0.4978470011983475,-0.7985180457779832,0.09558595610445322,-0.5988630974566629,-0.5908619121924154,-0.8927016726935332,-0.0852159559278371,-0.6180107058652413,-2.602142184870439,0.004963546107257192,0.19668986236137578,0.6636595542371322,-0.6426349432292134,-1.3819004564132373,-0.18488489128237132,1.3891023316001048,0.44428151519471093,-1.14837555695066,0.5712684277177822,1.380866339283925,-1.8219751131230857,-0.02697870806466788,-1.5245256899273878,-0.35761347704409197,-0.3709482079934574,0.1452269784978619,0.8521661704970285,0.6208039913675037,0.5056320896272647,-1.6764317731735976,0.06332730695641624,1.1637376674366084,
0.11045646700677349,0.45858605634990535,1.1438004339855548,0.02694421564252826,0.919864267048407,1.099141120555916,-0.561088711328596,1.065565453358856,-0.4214856818057508,0.48860794608693525,-0.3248756346506838,0.6229958785059936,-0.8251320121168515,1.3430178561664747,-1.1740705118636423,0.14812711008327897,-0.5598971336471771,-0.591226378074969,0.33847629032803106,1.200061731023613,1.0270872209275042,-0.14306304105273163,1.4572243395300457,0.5736029468502416,0.9050719617786714,1.3771328683845874,-0.3523044550112986,-0.12196616133729388,0.7970604724843001,-0.14514707225724255,0.1509913227742292,0.525003420463751,0.942449909528643,0.09886193465625213,-0.555341798141305,0.10426021528285029,0.8756471030437819,-0.27886886810121325,-0.9638433130568334,0.743016360189882,1.4816932786970276,-0.48458404747657186,
-3.9581606561062648,-2.7344008112745755,-2.4126789173554712,-1.7001049059875102,-6.730565361285403,-0.8915663459771528,0.12576162756131493,-3.143218194119004,-0.12852192374483182,-2.707764926764818,1.9305153840107394,-3.9159592564192525,3.0288364569950805,-7.7104655824922,-0.9263376565653678,-3.372009702797541,-1.1116512972300339,-4.135997430848106,-7.878680143864149,-5.597722358146547,-2.6007863358382024,0.1900151757374334,-5.166747448638852,-1.2290804651865983,-1.897648346135977,-1.9375672773593804,5.749132618447663,-6.063324192326471,-1.1625396570957744,3.797563344244772,-4.400122019567619,-0.8288437646748413,-6.97233194846589,2.515067070631985,-1.870673198235295,-1.3144489041232232,-1.920300129877908,1.3753443762775182,6.146462647285414,-5.208620688219041,-2.5458316881989216,6.969118771067223,
-34.36198982827881,40.90046390469595,19.28011270550273,14.034933040397107,-45.86515028681734,11.615698140094924,68.2895593570802,-31.726108675813844,-35.2638481953477,-45.8663420363153,29.510278486026326,-54.28061017246152,-16.837610531749892,-22.514128390219017,3.942856663864301,18.12057984962576,29.492960009685675,27.39318968824713,-31.716915965295467,-36.60888476730586,-18.678722872078353,-10.36871279686709,-36.5252689512036,-1.4998003468484522,-46.982419083340496,-39.26761316958754,101.50793451924567,-30.0594149582725,-27.07728840756688,21.733234099791662,1.6376447010854596,-39.73660613211695,-43.12075601466325,26.680840790603938,12.853767757116064,-14.217414935415015,13.928624273350168,56.43822160043862,51.92369924225378,-9.284860314060069,-65.65031715139163,-13.309553739789587,
