-84.71351433480007,-58.504298990446095,213.60241463154455,12.722073328362502,71.71660575356842,17.172139744510105,-21.24867424115705,12.576433165424207,20.934354263776005,45.119327989155686,-24.29134558370803,-496.92547820198934,-77.93575884269349,114.71455763381232,-222.11999137428984,19.70117914619621,-145.82039849799617,-29.991583110605838,-70.01626584234884,5.741025026443623,22.57037077055829,-518.6327746753261,-92.63432034667558,-94.61685714975185,131.28339494437458,
-130.70309295977373,87.94546555447903,-155.92564867349304,75.66418422583789,-167.34881436578266,54.9353398926144,-13.639948393438292,-30.00420587849939,-51.66650501768836,-15.2374310291501,-113.44332727734486,-331.4496745156852,-174.2272980363696,-54.57032724293278,-30.072979642992934,94.6119033003775,135.4958464324412,5.004618147610679,65.3870936595117,-129.84718048592472,-70.39449000247971,-39.290086656304936,-16.477878089755826,79.55189058102718,-103.44884381487715,
104.79278206920824,-8.328345965407967,10.250209416490376,42.49244566569666,-116.93641277799976,-18.749278970458022,-91.62861841489111,-26.473055770252703,86.69704826025085,14.490273594944673,-75.56535479430634,-486.96236975404804,-84.197180662285,34.21333532244245,-324.0606646944877,-117.92511639486942,70.20123331787012,-31.947960009331226,-25.363483743436916,64.7632310001205,19.17007573291877,-555.7820976930318,169.92943563412322,-136.29620560058,-27.445134370336266,
-22.788899313591706,-15.542345851971126,-148.1971294881478,-137.849215724221,-96.9651016579675,-111.05165393586435,170.16647327637565,-28.961263951378783,42.75090947927971,111.24252153101251,92.83152795778304,-382.9934152266947,13.826452395768541,-126.33779657050707,-92.11294110940548,18.667567488693805,222.25183725823538,37.882899224868105,171.56977612219177,153.32477562571276,-171.12684310990423,97.00271641814479,-85.14788477726093,151.48866233425008,77.3210027015889,
52.733995365874435,146.17758634156363,-37.57927177671714,-57.04349828057591,72.00577215968922,-17.065977240010945,-82.43937065337272,-19.15528759745054,57.952602182874806,-163.5535804060935,8.440648475204291,-495.32761859900677,173.9877715840153,21.36552664529316,-362.93185407710564,-10.186744777940934,-93.77345531138371,-105.45749913087971,24.48248568781658,-59.98472273923912,-21.079991125241527,-492.410336850551,38.734524246656505,-202.08409792330178,-187.6062818156417,
29.586929721901157,79.35347118042154,41.171464746958826,-115.30873668422193,-47.82165462508593,37.86192966105969,29.861687602746215,-59.01087563353561,35.18776936905337,-98.29054444102687,-82.81548418490829,-500.53576673470764,78.10760301575034,206.7010384729727,-294.3210058168781,22.863450239821372,-9.134019050420832,-5.667443646779659,-110.84362505015417,-121.7656427040531,-2.5488928141461478,-489.8201003640097,6.5913628959981265,-2.613382230601312,-158.78550009072123,
-54.853578345396414,23.337666231534307,52.572794843526346,-46.384468539909925,84.58230897335015,84.1287175230326,-101.87401592712999,8.57291091217021,-51.12964029926746,-123.34354495799444,-66.00593994480322,-356.4705347030535,-29.6384401138102,-161.82317937952715,-129.22274059883844,-21.25584993352347,55.736885781168795,-29.444024461390836,-223.8436995206596,191.57103520911556,-119.67942349250745,-61.03830085351762,20.101214452324463,118.50263821136153,56.86877776264528,
34.45993618513324,27.85950563291854,102.21656319271113,-38.108504829282865,45.74725149376619,-29.908226379215126,89.06310563069133,11.566449618842261,16.20579353952339,15.706625420888406,79.56173089708338,-370.38651605286793,35.850471515772135,76.9264646383709,-206.32228050487015,51.39311284979111,-151.52069752538682,-2.5937525006682685,-19.48214449323717,1.4164864716778716,-69.79605544029336,-113.08006615230805,-173.08579993458287,-96.48191523461911,85.24220905350491,
36.492955839089426,-66.67002752487768,-117.41223984135749,77.11483596350858,-29.121801766005433,95.40749154652507,-20.26534717975157,-52.283103656152974,-176.68655672821274,-123.99122663077813,45.61975562433015,-425.4094939284971,6.230785105350419,-109.63446779201882,-138.87850797260836,11.13308066986506,60.005119145379425,13.688584928833537,-145.00045476080743,124.70866367090282,-117.92004391479081,-280.5236531397393,-9.586246240646703,108.3949049695778,60.41628378423268,
-27.545369088440655,-23.57794099814506,172.6660485442539,-12.5705695207804,75.37946259726677,-15.38595676159615,17.701909799561015,-21.25075075710632,-63.404027932419694,-148.10842718191734,46.337958806749924,-466.13398055455724,-32.142366008749036,6.567627315257315,-251.37646891887277,24.568715830808127,-26.675216338482713,59.37335667546417,10.287448378781233,61.447634583632656,43.92692626327729,-210.4027259248376,32.891261306252524,39.329382902121985,86.40461027290316,
31.844254645025757,-39.73956897251153,-96.69740110625118,25.30664054906558,-37.86689548830152,-129.61333955798654,39.49247975586947,4.302673480986222,29.273389865612128,241.84336546742364,-79.70321241662732,-421.40645809325173,51.98314884779261,-100.23717598901789,-172.03105571631488,17.757550570871626,179.14733428819946,-7.3421250737883055,38.39319827885018,-118.91538347974809,-27.213513414813427,-300.1696632392199,34.55943986522271,112.82752688390681,-41.560148542327525,
-54.02365739257745,-204.67606600320198,-59.60844159774843,-77.75586729369707,36.46619161253214,55.27884740459764,227.57403009258348,-86.1403281096462,-282.5474142948981,-40.508653458440264,142.90060116914654,-457.00576429327634,-27.89577365563471,25.329574858062585,-265.0158463314303,115.34153614412945,195.66365272657757,-6.224292897491401,56.26303345800366,-5.269666883332277,159.35872488628772,-191.96633927603835,-109.76003305701347,234.9200666043358,-27.234093948285143,
7.6969742369876935,56.94868519962522,-156.3206942206593,-125.45824493267563,77.25474893586019,-129.92014990025524,-45.09880594664525,43.50263524519325,82.66086513900771,143.1587468020428,-8.501319697024453,-384.09229483461354,73.69583255132092,126.24386174243469,-213.08489330661396,-56.637362164708,17.888163539615494,26.0213573011641,184.74924594386164,-86.31780377225891,-3.6065042587817446,-103.76447768026694,-63.45183904824057,39.89769473172001,-30.445152094998562,
-5.272488056598839,-80.59140570454854,13.200558869803693,69.5580679235626,63.02227848721348,-74.282379014831,12.314833561240103,38.75271599481233,-58.75408547616423,20.77096852454406,-19.5050059725134,-423.98489309798845,-99.88199134909138,3.7864951161668876,-222.03165425311528,-76.7794222166552,-64.08785605635228,52.71156223297971,227.36647908811528,-159.81311687466246,32.61354197887771,-223.5592291461061,31.235863037459914,42.39220407633342,-84.05044388832268,
-92.94489257631709,-107.61986484134506,-164.69562600510372,-48.400626804291335,18.805433647482207,11.613398665701695,-177.08618539680785,-61.0102558343081,-112.47235166678,-30.560587493161183,-68.09104124107098,-382.43902726080626,69.57756170368009,55.46304164074253,-308.8560034267096,-8.148402231323486,59.59885278649901,88.59518816739319,22.97499766251248,115.92878430869955,9.294676399851507,-291.9298731547374,13.682609272416823,120.45657115697082,103.8973647992705,
99.54196527077062,-56.064190511418325,-48.48754593180489,-21.564573527941093,-175.73856405491475,-37.25110803681663,-23.489721737933422,34.633326097458955,-75.41402019177815,-41.16862795182024,2.9090280826097468,-522.4244401514941,-77.46761454516299,23.81685429829681,-390.50268236779465,-22.847172932871583,183.52466456782858,-32.66253227318801,-47.19515149328024,79.183407215894,-89.6622179854145,-472.7149643816305,99.26306657760522,38.48457750291413,-32.76772791192745,
48.454565435945085,14.069200485416637,-14.783695864867761,-76.11329762571147,-50.36051976986762,229.99714892443103,-2.866630897580872,-121.02414006150755,-22.433060760333298,-109.43772484085825,76.30989039514543,-402.268473765632,98.65783192915372,17.540199694851026,-191.5739093983267,-16.91201903565559,137.722253104222,77.70992170757327,-10.044562293633716,29.15581377374836,-179.65232120478285,54.663016534558516,-73.05454149556728,100.90872104603979,100.03747293875634,
-6.788325526634103,-14.961283216474268,24.759273468877982,-76.67004415516337,-22.625329148314925,-25.790147052998826,36.112707541611485,28.947526179456396,-32.32169345721953,-22.58849233517949,24.611000716994575,-486.9126812672692,-36.47735726803874,-76.72720201151657,-326.64834033593496,-8.749312375947904,63.53605631062303,72.38314075484575,-86.269908299508,40.721706632052026,-29.267583223692125,-265.8097325092566,-53.5078086371039,59.55072036893859,-19.92790921303756,
26.66749988312748,86.29707496214672,61.16530913235915,-9.103714965302148,-10.577691662693185,-130.19163194882748,16.906300148188162,5.767398801418531,91.11278325630119,165.6332759987519,18.176151940594785,-491.61436391802476,-19.36627834897961,89.20652025144011,-337.49189023616606,53.6550661985294,94.40245564452573,-139.297654737152,94.66821900576363,-177.53483067967377,19.65047941562623,-299.3444705163186,63.608578467038456,-180.64043824334505,-91.16561597407627,
-33.79576361928817,191.31499365093705,-180.8355088037389,173.68547562698524,128.76332994793145,-91.81579585404938,-190.67807329464486,-60.91075736501659,7.6243466546331184,-60.28898275080759,-142.97667063548832,-314.72685420345965,189.91124447409007,-5.936174301844765,-114.52332297988792,-216.02844062308603,-106.87050366226681,-6.035064546034519,24.886417624133696,-116.87796598154523,120.80138708767659,-565.7345547478982,86.1469893318595,-192.76369047308987,-242.70654020914657,
-139.3326554656967,161.4214637496338,138.76838344614205,118.82998532881615,-189.75946186752256,2.2003804558968794,-183.2708176203921,14.987292903127011,39.2483605367477,26.283624238550615,-50.75257987866679,-446.18118664206816,-132.25489685428064,-100.68900985121371,-169.82813370432876,3.0019952381971033,50.88262748408669,90.91640457039244,-107.10754992311277,-81.33697647043014,14.609737972821492,-382.38269457835816,157.34619603824237,-247.69169406273386,-141.60287727651286,
-10.903238848391165,20.66749245442052,-88.03263700332825,-47.748900329220504,-78.05252323887119,64.84418047457461,-99.15322298242766,-42.165038513971275,-16.550993840790287,78.97306864465621,-145.1895360980067,-504.32233950237793,-31.95800810814791,83.41987698882645,-346.7264355572014,91.80317488158485,-37.27338140168328,-51.23462248564952,-143.52284844458626,143.50122779472957,58.394858500140046,-345.1802756533119,-132.2755061578583,42.46965787352621,76.66530466292744,
-36.03370255894956,-29.769473214483856,-47.43941228769734,97.07234066910401,-29.515053457202892,32.12708580127575,-15.79868948727736,92.9260158570352,6.848829594649398,-71.61225470625413,1.6757577731435618,-483.37739353020334,-81.01605925017343,-73.099755726631,-294.84470074629127,-121.45365322246313,53.3343717619043,95.15870884224583,6.556189933784943,45.916513003387685,-20.24089000200614,-370.43328057945405,-31.83528011201549,90.88948444233273,-22.14639567484834,
132.83126309801307,70.77763369704523,38.462388453437974,-25.472169836668098,109.43406696551345,2.423742562199326,99.89759022087802,-17.512871613954562,64.7324115608915,-23.94731931226454,41.49426278528109,-308.2205997597702,75.11145818058813,47.24401092403193,-150.64299967654,-22.240183454434593,-198.5968679533843,-35.51146764211162,58.46419109841512,42.05771935416476,-11.892312674062019,-440.38105172659436,-183.98258899055236,-2.559637002154893,-3.881911420693393,
30.352898367773452,64.85754735605242,27.023808272781274,-15.208929323771173,-103.9023202701847,168.40185025596472,21.791876660375376,2.001453187280223,-8.904148201023704,127.34344713268611,-67.93607965492086,-402.17367916220667,-161.4678660088402,28.126354962498244,-219.54338649971572,-105.4163741261253,95.46471315766723,-136.04019956248794,-8.14144877547566,108.16262383973029,48.7944449450185,-124.2884316315106,121.49772765569912,-165.5884067625551,-88.48354051726295,
22.51898609939477,40.35786628257694,111.87711104677821,-97.09930474230868,-25.89371488201544,-20.315862335511774,-74.92696240023017,49.765159315946214,95.23763205205121,121.14292548859878,-91.01146263540976,-441.23114360565864,67.58197140074188,-51.1583933113353,-242.55683303032094,28.35584647461032,81.55657533047277,-91.57058431308414,-58.593673431630805,-17.149659884484155,-59.69861682074907,-119.66078742393806,27.213431857589505,6.768196443114931,7.228440563012537,
-49.227652215655965,-69.73553869581741,-102.97614581118125,-68.93426082279981,45.57722508229694,19.11794052523537,63.1384693396971,15.825630662146928,59.87315778886492,-24.875862858930844,-48.1878032481676,-422.971581642294,-28.455739415808317,-46.31528962030491,-192.71945778731154,-56.293739688551035,100.11894679004489,-55.131522014958065,15.287084215671532,-61.097585969287344,126.44114705132625,-144.2509153529726,10.058763901936201,-45.18231446661714,-173.59591613221653,
-67.7182219003058,-59.11662645247296,-33.28140759235679,-56.854987650634236,-54.28942579463949,123.19226229944024,93.5173747069313,-124.82289317866987,51.835660550002224,258.25772686187054,69.56140004269724,-478.52402688896404,-185.74974449740043,15.115086159736242,-373.6705243368997,103.89071335223717,-43.63568527732096,-23.355638075887413,-4.476116495546789,29.941970398720947,68.09421099394321,-87.48643737265931,21.064600508519806,-130.67902291505882,-106.53741568526763,
75.2649001105511,70.75858595261643,67.31123192194727,-20.895331604494693,-30.0082671136159,48.346214957502475,-67.36511879895224,-87.7953037334237,22.12952726597369,-119.06047090284372,10.874852754515265,-426.09857180168973,196.8708080144149,-16.266285824887508,-231.10537518542304,82.32276555651984,-18.038764098700906,-67.55343260475946,-28.797466526331345,-47.09626515721186,-67.33372675941396,-420.44037820097395,44.65461750168003,-192.36641178686745,-43.993080590016596,
-138.12939704255743,-38.360922213517284,1.490952763555268,13.179370461072901,98.34857996358299,34.05084057962495,-42.481797575530585,40.20359461921756,26.19937093190434,17.71385415454173,-58.006991551070286,-500.1717067288768,58.54753149823786,-68.86618036038496,-313.03152627324,115.53590540228787,-177.5455191942699,-62.73807814273575,-28.910207681567805,30.490060141745246,121.16694203806152,-602.7702053036862,-90.58573012727705,-112.35657144143697,115.39031689469849,
112.48713708907823,-92.09634846825693,169.4532141666762,-52.537562926264194,-223.10849150556223,255.3195934659579,-56.499428569728956,43.1879760072288,-46.528030281207684,-340.80213117203715,-1.7818076198511001,-407.5089294779705,-208.4884393055189,-149.53736232871285,-222.04656410721728,0.630536310526458,-114.7300606231041,35.719064584741,-192.20595713567252,209.78657552828403,-32.633062747211206,-102.65626171002864,76.1307900424682,-50.89667099214905,123.88116448218217,
-7.748915437433057,-30.770810811638615,-51.01095626634001,158.46899835999776,-25.512001307471063,-160.55393717475303,-134.2379163809764,-15.886162481120575,91.43901418551705,-77.02028787669003,55.4713861868356,-532.5288835549461,49.77749711589413,10.474709863898346,-367.39342332568077,-28.218019137751686,-37.29755015700988,168.30835756764634,-82.74664176254771,-93.6595802190787,-93.17568312998759,-836.7498967171454,2.951686055359373,-59.191753869428034,-124.39650332256726,
-8.097408608016922,-94.2039892390901,-6.387363815292476,29.338483926018288,-156.0359107247487,-88.69729871484991,-57.62400423799682,101.73419427807194,-140.56413400657468,-51.94303983490622,-11.397318263208886,-335.7874940948698,-181.75811082499592,104.71772716022909,-216.98921600464217,-39.72176553061916,-10.5151277499777,86.58811215405011,-116.601970347042,9.871692428140829,-43.38858429316121,-135.65021125135354,153.30570197908222,0.137127667996289,-222.72839100714256,
-68.393922398845,127.64187915002572,-129.64633701020261,30.565283066699887,41.49419695073256,191.70398284786745,-99.60850247603257,70.72432775081074,7.694587483590633,148.24944889666946,30.774850080199748,-510.01164125189547,-208.81607056343017,23.742779773786683,-411.8870532701637,-1.8817072068360805,-150.84562697304938,-41.96545918721802,-73.48939176146683,82.36762966078076,61.27843451486161,-338.2764804083946,-17.916947521296784,22.17221747441142,93.55118999840347,
-93.3524511087164,12.281167480392348,20.749765553184567,-120.16909464151084,64.78193407964567,-24.595933900525687,38.171307942812525,5.518270382244814,11.547318541357049,23.998720529835218,-34.25116484959282,-425.78911623351576,17.840581976753334,-59.752561751380824,-242.8621582810615,16.870728970380682,-80.55560265133109,46.14918090726384,64.39611505401062,-155.46184832811812,67.72663992336352,-118.46884184548905,-60.108755383392555,36.025976829436175,6.199728703224555,
-65.39785447679475,-18.972572843509028,0.7190686865171478,1.913567375759026,42.47155438485895,-18.92214189126967,86.29162945699834,-50.17459260480568,16.22399539546442,149.21829080318437,-93.29862612903732,-501.7866909953042,83.21856599235997,-18.389921993405917,-140.6154059289362,-83.87830079377596,-84.151061791772,40.66130658622551,-1.4408155791001327,5.205524131463013,149.22503925933697,-434.393985732318,-52.62080259333682,102.19017584736778,277.41865730753756,
-11.188583837569325,15.789679422994894,66.6858649615022,24.36076885566614,247.49500704167326,75.14858722318941,213.791633243137,-58.14942166622678,-118.98372796702238,-75.99200410048654,39.20705388053449,-390.23487616564694,-6.931936012131755,45.528926756334855,-115.90618019926076,-68.88828390247176,-159.32972196438064,-91.44381467267308,94.18976178362053,-80.9190820744377,79.26319238396692,-394.8230167122693,-52.19350905848086,-61.432580481791696,-76.97283861328997,
-38.121744364821716,51.828354691424465,100.32567343168448,49.49308702470675,39.69345182982334,183.26434196062084,-151.56948576563693,98.28361801748522,-21.805853612009304,-156.5546490569739,-51.080824108486105,-417.43073039658606,-93.31416733628954,12.76444491599625,-106.3473098124007,-82.8236108543276,-143.40578225756897,-100.14626370240518,-40.28628301861164,-52.06504137200049,31.402718636584343,-217.61467872051637,-6.983573835504373,21.93981483108977,133.07976976496283,
74.56211784378705,-10.849530565845336,-34.94955727742953,72.33968861854041,81.95287871291487,73.37285402104001,31.333564006586098,69.34777388064943,91.5830888573467,-27.413938596021065,24.885262925001367,-444.2453562686678,-35.63233445035431,-24.905784937261085,-289.7220662971027,29.483850795976007,-87.62726526758934,-36.27907550044445,49.532625506243576,-90.61809487883397,16.966560947771434,-476.6021138332581,-9.166908288618432,-77.61726686239493,-56.16608719768048,
109.63926076452486,-29.360875402837156,3.8044915071168863,-43.00736892399206,-58.60735551614751,-30.01625891384732,28.089378777672806,132.6785831071822,20.58378579642466,-104.60017987221805,23.850850469433755,-432.9485828230961,11.965700716715505,-16.796842662217486,-194.4190231955163,-9.35610554856762,99.85844950740776,-21.151454038133735,7.242169276636076,-176.16014299037633,-121.59136824014637,-113.72827465107771,34.44424474371771,50.69113904576076,-37.70538505442696,
123.38072322369635,-150.07049025767793,-99.22041788261205,-177.44164851605672,50.394630792335654,-61.00600845910516,80.8002433760118,-114.73040509186228,-46.86331464262727,115.74879645256972,2.5575736278488503,-438.4548401192489,181.48552637759045,11.754873329728605,-227.7175323383353,-139.2687909577389,15.885815747634982,26.41731383911229,9.336484600782851,208.21932922046648,-40.6871255881517,-224.4170830733771,121.66449281946112,124.95019603633347,-9.103131322452741,
-97.447197232751,-99.59347475508122,-43.20617089535688,-77.3596555215263,-175.36257464399964,-8.270784646154915,146.33621015478155,-39.37293876720912,-29.46264678838279,-23.454728420270307,9.820718764826037,-416.96475526667956,-151.49103589928086,14.433245045002693,-153.152573975453,91.89788811566126,-30.21815270890937,126.8312307040906,60.939147871366494,-22.887410016878803,-61.552302444771776,-32.02540761465717,-7.7295165739411,66.19236172946529,176.04096451194596,
