0.2282648560860591,0.27126443015866614,-0.5499382397890261,0.38136695835696177,-0.2622928156811868,0.0991473853637124,0.5947104595265416,-0.3281470939836642,-0.5442905834783002,-1.0679742328048492,-0.7414725507474201,0.1705012885253754,-0.6615024895107292,-0.015926207589726196,-0.15925406255492267,-1.306916303115572,-0.9862324799643513,-0.7778755557513962,-0.04753485720725415,0.40760765529703347,0.10469278651434338,0.019620019967536616,-0.02467629248884746,-0.4360397970220653,-0.041993995206648746,
-1.0122611355073385,0.17479152516492194,-0.07802990784454503,-0.9822400916518539,-1.260594300688982,-0.5184705271742124,0.3410942814521306,0.21027330763963134,0.5049819996729661,-0.440449610560143,-1.6365364972974232,-0.9368248982187626,0.11490702889306317,0.24916749928404164,0.3703468694738988,-1.1401750590062487,-0.8578753422352839,0.48190698157023004,-0.6272888160041554,0.44344835951244693,0.5231825609943932,-0.75293101802231,0.5121521126436692,0.1795729760309279,0.4788646127440424,
-1.3772138679132906,0.8586202879443533,-0.22480784789869743,-0.5197390657947963,0.32504003299570955,-0.6987237551067862,0.27976440716300993,-0.6193640328826596,0.1497908982392285,-0.22831313367488015,0.1997951673124031,0.14996353534663984,-1.4310898510122636,-0.8800018361068296,1.1651890633705213,-0.1088979407166702,0.444199574586249,-1.194802008638239,0.03969569014163136,0.008147263074985488,-1.0518723022171892,0.835338800311107,0.34751559405126353,0.23153992009032776,-0.30333116506023733,
0.3844447135138801,0.6380536690535403,0.37763777226069417,0.9362805601737982,-0.1305635512309847,0.4709183192349066,-0.30646431595898144,0.1743480220611379,0.03587339054387286,0.7884039468424823,-0.9521642992128316,-0.3538774294668107,0.34425768381611943,0.4965702705639672,-0.22108567655394865,0.28812703725023103,-0.026075607798999905,-0.10729178441615722,0.651248241162306,0.08696477976150457,-0.3847598862613686,0.4242965162851776,-0.606876536202309,0.606968790374808,-0.6080958434835211,
0.2711503083151411,-0.8622995476160412,0.46445936976800567,-0.03500922201250045,-0.7616517650934603,-0.2634558175517256,-0.6539864238092292,0.3951437244557935,-0.26726939592943355,-0.6339473278301433,-0.9197406366643459,0.26434588644258933,-0.9114430118042797,-0.9168032259061781,-0.03325846894023575,-0.640463208250064,-0.23132769740942338,0.3797515795330778,-0.46047441757886937,0.3596201648654267,0.3597750052110984,-0.8769008697189387,-0.36455313942238793,0.20878572998651843,0.7908640615215744,
-0.26025221411005356,0.15947920834961765,-0.7295390192986806,0.3034273919470853,-0.16833787433859201,0.8380490365295482,-0.2750688357870699,0.05775094994447201,-0.5249229574035975,0.5680327295762185,0.36291026006864885,0.6451582181314834,0.28762494627691715,-1.0009421905307316,0.28252497424877027,0.26064281511505494,-1.0739816414853034,-0.9176337674610793,0.3322087316941688,-1.0329327847635987,0.5898143293573662,-0.0023236563278798,0.32050462365810106,-1.2353026628401442,-0.5736993347320827,
0.869419483332207,-0.0018535596844012961,0.2593138549258347,0.6418390541057145,0.537901038237441,-0.5668588070949284,-0.5562488193378576,-0.044130760763669306,-0.2465497695788069,0.2102950136040141,0.7579949770896584,-0.5513613703384947,0.31488342844384937,0.6035232415584569,-0.20047848321299278,-0.18626635792603263,-0.13483533880526724,-0.8623256788935334,0.10259167344372701,-0.0925121392367577,-1.0988952675656178,-1.1611419948200605,-0.7970875950358806,-0.046762560114133,-0.2586507057534188,
0.9092329112381379,-0.7863258156722095,-0.2304057374456763,0.04869472105912183,-0.008743410216571934,0.5532579445755912,-0.7922695375402165,0.4151696440486244,-0.3000374302506,-0.8203130582615386,-0.1765971084581648,-0.39158564236607446,-1.4319993044592707,-1.102189134890746,0.45614268458793306,0.42591968607870095,0.06981375523014015,0.48361710753252846,0.8349793037787355,0.37388011134380983,0.135191320130168,-0.2758461260306903,0.3852637816386924,-0.2988367347922074,0.7691615255370304,
-1.090224514938383,-0.16749543827987634,-0.6128496047404709,-0.6989567013614758,-0.5928964494765284,-0.9097133181947168,-0.22295955838155665,-0.2635767648659796,-0.8144184496477505,0.6172433999843197,-0.24115796321622526,-1.0816178698441388,-0.6500129990154305,-0.2913925674122794,0.6975521180593978,0.14828071399800768,0.2607749879179612,0.3740693790540727,-0.7223777084353247,-0.7680552118547236,0.46659211391421085,-0.16624212397927277,-0.9484793162284075,-0.6268287063241224,0.7839144086614773,
0.062256951334560585,-0.29178008149988827,0.0028114268097728205,-9.671199133316072E-4,0.062246195067863476,-0.17202065950073103,-0.5257559835738631,0.5439172490757833,0.14777746186837545,-0.4882641944519023,-0.09012439721006642,0.8269893489541579,-0.5256423386629101,-0.0030030681196614303,-0.8525722664910954,-0.13517493529213837,0.23060229896495416,-0.739139068552924,-0.01179659004031623,-0.7811780592160641,0.15804077511285455,0.44389073837151893,0.682915009486328,0.3896484056700047,-0.42310111830080455,
-0.24033433443728705,0.9465908208001637,0.05099523645394998,-0.3180377499727999,-0.34304512345545096,-0.7622334560187253,-0.6829510254179192,-0.7400454816780355,-0.4437569374715526,-0.4881389378300755,0.312985065923847,-0.0857065564139595,0.18662225062385343,0.6200895319388848,0.13338863213546098,-0.7519594299417222,-0.7242086505973815,-0.1542735080585682,-0.3723548746735561,0.28860976247825804,-0.6020297188668384,-0.10064509859620074,-0.13071501493931664,-0.07279057977371839,-0.19330919667005148,
-0.7643428910634195,0.4025840370523191,0.336522495314794,-0.2939844127170476,-0.5149028070264361,-1.0233389585723371,-0.5965761547118905,0.03735296182763045,-0.981693864822546,-0.898349356060545,0.8361374442671275,-0.6405491460970056,0.2563611215611221,-0.9799522034511449,-0.007788361215199317,-0.11177103084467917,-0.5272933702742706,0.18239617367186542,-0.5547084840528915,-0.12294194476997411,-0.08379867441687537,-0.3528157249717874,0.7271842588752786,-0.22098880536414964,-0.5321333788171528,
0.7223955487999293,-0.060775001557614054,-0.7524641203820606,-0.7396907242129879,-0.5340583696204376,-0.5799930398282855,0.05783000105351245,0.3853506730905592,-0.5537648328364049,0.7756381684171327,-0.4854155362702738,-0.21311157858162655,-0.642135539528221,0.9658747983163803,-0.3913383627269711,0.08411007477402375,-0.7413843472729911,-0.34231551401995547,-0.4538493687946506,-0.5214032483962572,-1.2493370310882088,-1.0813039235614994,-0.09132124843449746,0.6794996265962114,-0.09716604585462353,
-0.6953366814309193,-0.6308483935037665,0.2573431839394522,-0.1261987494529801,-0.5032132252235402,0.19793424863441966,0.8680138312799314,0.6395605892525346,-0.6391675305614972,0.8424395317101615,0.6946503580372579,0.497074585552261,-0.03559163113820463,0.5751137105314373,-0.8334058761953302,-0.8957033660424556,0.23846821914851304,-0.43852297764276454,0.1498564650615561,-0.008141263817538498,-1.2041487802129627,0.836286186163189,-0.5835042622271112,0.24966455460240125,0.15978157001059778,
-0.3391192973172232,-0.6932975870356487,0.1622090545622197,0.2177408536390754,-0.4190845791955856,0.5968450330359428,0.7105965419977933,0.11484955039481662,0.4684454555102278,-0.08519064356679897,-0.962853398066232,0.4356422966246184,-0.2746825687428279,-1.1792219246856945,0.43767353521645935,-1.3340748844520445,-0.7873273888991491,-0.17843780980221158,0.3759248678633665,0.12033234930725224,-0.8620953779786968,0.24444113666745437,0.6348988210512394,-0.9275459830809637,0.7846721784429611,
-0.022802231473623417,0.206623470304148,-0.16927178038547366,-0.29013586417700593,-0.7136733754373012,-1.6658748692202843,0.03040893033490808,0.6319485760124894,-0.3439377845303834,-0.2386089182447,-0.6109076571467497,-1.1245828893823326,-0.9170114344696919,1.2121639318065849,-0.7612195328453829,-0.16949530621926798,-0.8291168989568418,0.2991713288735775,-0.5425336174816677,0.35621126779753537,-0.30208515945247716,-1.1855963232672955,-0.2632630176816404,0.4998954801657883,-0.04335514365766448,
0.25673426720736525,-0.5217529452812457,0.9125169448321423,0.5088786703388233,-0.08473764335907447,-1.7321767260597154,-0.35252638036834916,0.12959980033950322,-0.11665351345583283,-0.7809048275587861,0.15050863329360395,-1.096765385367268,0.5470340901195302,0.28094226605726125,-0.13956390332266713,0.3084111406337369,-0.7347694045887608,-0.2031950800240592,0.36723821310863547,-0.2439847645705264,0.24414434126726356,-0.5553600754018048,-0.8893279239850012,-0.4328020494281233,-0.03279320441268266,
-0.4447017219687485,-0.37111289127142,-0.8926630136623841,-0.866614084682766,0.6762948336090719,-0.5053086974685651,-0.3783190468669206,-0.46092669982410767,-0.8220868521712531,-0.045244302124245586,0.5782178498861884,-0.9992973004797343,-0.46903659671209474,0.530228739566771,-0.031006293143312318,0.5246457524375553,-0.033992308513438915,0.5978147499289559,-0.5153321629224403,0.10932812885416744,-0.9789349834155208,-0.7982067060231978,0.2946852870065262,-0.6516387332982833,0.6155896058212801,
-1.0927591114135438,-0.03376554426624301,0.8215102019846473,-1.0034687124617572,-0.1345131434270923,-1.0613295186081626,-0.14356525031454567,0.2515578945522044,0.20520269874539904,0.8832246297710121,1.1277564900087373,0.15426957400741106,-0.7322437645181037,-0.2088456166549912,-0.048288282364760515,0.3157888836612077,-0.9727292466245919,0.11565427981747203,-0.14645632247247545,0.6354120416654044,-0.978213357144223,-0.3469095667564303,-0.6510655457392522,0.08817342037266561,-0.4092840067638818,
-0.5847887053984855,0.7601767140286908,-0.507891861305596,0.7626699344684863,-0.8005919872233556,-1.020685042151473,-0.6383742947119642,0.5456902286902025,-0.7126925229418876,-0.5999594727618056,0.38533809757922566,0.4267417624231956,-0.8213452962453928,-0.6223130075170978,-0.2547336320265067,-0.7669394268006828,0.1842218411686299,0.28797318255198245,0.3840041026540853,0.06651690898124941,-0.6442067868805695,-0.9443487596320043,-0.6225325247385708,-0.7502295909674755,0.2130079548240036,
0.8296737978554084,-0.29314295857182165,-0.5689238879172457,-0.1829556507410674,-0.17562596503989664,0.40089168160024263,0.15168400079340263,-0.7575450082897897,-0.15305060300516352,-0.5954753839343465,0.03293310768827222,-0.5308935236299053,-0.5694649387567539,-0.47679890487115933,0.003135964269892982,0.17872538553849365,-0.2579222644223359,1.1413432889409503,0.5584780629641314,-0.9112368558581676,-0.32073062013781906,0.8129362849671624,0.7183596951907344,-0.056624921714226124,-0.026916217893344356,
0.10246358777520678,0.7361708969893889,0.3289657924858101,-0.12977226253515775,0.6775458928001165,-0.49674000013696246,-0.12264404893454263,-0.2530575429915837,-1.4244337140565173,-0.9191518205271717,-0.772540914852367,-0.8556328359766538,-0.3346285163976162,0.299274281525078,-0.2125827107256794,-0.30106907573966224,-1.081535969034302,0.2870519927570911,0.2548012896840106,-0.10434508039492703,0.052243522500469895,0.2293138728110133,-0.996477554493097,-0.3461253469360584,0.2724888988201432,
-0.8391874675725084,-0.3569583843948724,0.5218207917660764,-0.7082630851401663,-0.011485571151183023,-0.30740510398648174,0.7106597622016265,-0.13903320526010765,-0.35826753455123644,-0.005775758325103464,-0.3075603587850534,-0.6586078434645912,0.20951795321911232,-0.8893625594687193,-0.1668601535491746,0.02734636044843084,-0.7812407442837254,-1.2365531594005847,0.5726827245304522,0.06591376024725436,0.2782916486342065,0.8819190642432174,-0.34371852227776284,-0.43463932106252734,0.2818680394241306,
0.23011967385373908,0.4390752129267845,0.7434310454858405,-0.4483232448103366,-0.012614027547452479,1.1981935964359518,-0.25155875395398924,-0.404376547698328,0.6643846189230794,0.3040785912328518,-0.8555180002558681,0.6219513394144409,-0.4620214878699751,0.3435546555375751,0.5905521648329275,-0.8330809205139519,-1.0614840130666219,-0.5884862500518054,-0.13572540526928384,-0.8999414669652939,0.4220849797483236,-0.11239757633234396,-0.22346419656659763,-0.25417468599618115,-0.14057064130708286,
-0.7833029205602999,-0.030023991017444126,-0.5054851863145702,0.09845456056738519,-0.09254169625380079,0.45127135896674453,-0.524406347136187,0.16147495970651443,-0.3291432700009006,-0.6591025274426919,0.6976286871203962,-1.0120617787639372,-0.48520229852280994,0.7273194401430401,0.15955288750021113,0.2135797777563263,-1.0952931422204502,-1.0854476283886858,0.6293154487365062,-0.1446510917469066,0.01825070287205344,-0.600141365969357,0.41821243011523296,0.790112863618146,-0.31349589400302885,
-0.9725969216237149,0.22366213918624317,0.4342496725256726,0.3199533647481927,0.7593308614194653,-0.24543035417446143,0.7625000876188605,-0.8232810607364268,0.4390421517782451,-0.3731253731959584,-0.34728422359231037,-1.1147952980159788,0.6020035484898116,-0.15704353895560944,-0.06277962526789929,-0.6465879130176169,-0.8655691546252523,-1.2460540266055078,-0.8580612485037243,0.737096150785602,-0.779958535800945,0.09423994478895417,-0.3410677379754908,0.5854722811182368,0.18411646568310813,
0.32537032498096047,0.8578606488483088,0.44712204015145346,0.8886339815501386,0.6160013432711551,-0.15377677775840598,0.15435954742476027,-0.6930928713628955,-0.3265563027805294,-0.10142008178504781,0.705328748148146,-0.8049165726264664,-0.7450924738850949,-0.03454288637854555,0.26772360470671414,0.49537611354149025,-1.5072931544231862,-0.8702194747955231,-0.06032314255523613,-0.6467400391620008,-1.0672736942876229,-0.3001475270551564,-0.5462143879438579,0.6459318507771025,-0.4017812363550808,
0.14683701714161868,-1.2294044146284613,0.27807029454410387,0.5262385321900742,-0.30911396168552246,0.6892508280410101,-0.8680805031393033,-1.1086329088827218,-0.7469635177022967,-0.1830014813411433,-1.2966196479001715,0.3496635269229072,-0.9875544553551292,-1.4331500735642477,0.2121509481176515,-1.0522891645557255,-1.0699719816702478,-0.4603485609740062,0.08850919864127031,0.6480279768154662,0.36690890274559773,0.8042118051528853,0.5377921904415007,-0.27322006355301415,0.34562133587197386,
0.7994544846774823,-0.7057268866584012,-1.0756578377234016,-0.5508236988974278,-0.6236053702608211,-1.8818575712959968,0.8431395577452834,0.4206755315259977,-1.3352473215353966,0.409414395761101,0.6031882828356347,-0.33676091229937405,-0.7949334617678411,-0.45931051189749306,0.12436286259471493,-0.20490831940713372,0.28185327465913174,-0.38122434697091523,0.4919684228525603,0.1917698676438593,-0.9351274443754367,-1.2327320134291775,0.32410672004534374,-0.15442825356485707,-0.629840195817673,
0.5445438433301851,-0.43713892383346414,-0.13762532560836474,-0.669413454929256,-0.6571339067904862,0.5710651709825274,0.317289953034863,0.6381616999183116,-0.12131683391413567,-0.6437371397450173,-0.5263064849908359,0.6255931383660875,-0.38361098622185863,-0.6100239394842226,-0.2836266457325921,-0.36363564244831453,0.40291108802388786,-0.17162673340422566,-0.7019948597301661,-0.6487655758838738,-0.051605424645880665,-0.7847605313166877,0.11670002334395181,-0.1820485208890736,0.37752726293666106,
0.3468196481988055,0.01856529002978336,0.15789197351939663,-0.48107546876669827,0.07278767998726249,-0.37699861886588737,-0.8973211331469088,0.06893887413428512,-0.420190585210087,-1.0600223029410436,-1.0533203960604371,-0.5282149495707738,0.22576264651842315,-0.22662416728143692,0.505818780498976,0.3027913212032207,-0.6568564841771587,-0.2670556051744183,0.3202258084891489,0.5141157728281819,-0.6630131611333832,0.6801196038366011,0.21366090821525308,-0.7777120980800114,-0.11195562031158604,
0.3415021270393522,-0.2615457248180769,-0.2140012146914579,-0.3878886127412768,0.03798493824525953,0.3309237454202534,0.04645952142763235,0.054406995584617424,0.47297915832891435,0.874653968199872,-0.32605933547520694,-1.6435514326900496,-0.4523535092661864,-0.44206307216335305,-0.17778846827784275,0.25863422511772616,0.2875843002626633,0.1236586851200372,-0.950715527923677,-1.034582471720735,0.049233791542133795,0.26102332088855773,-0.3425881276016374,0.2004634697820253,0.6139763792477658,
-0.12696554469948526,0.7088946397492656,0.03649646180409714,-1.568771986210994,-0.01559730404986628,-0.3632231366727552,0.1839065005426345,0.37283227848925055,-0.025225414718718493,-0.7085677197984022,0.02701847573865767,0.066318452212248,0.173417136278706,0.7298645180595139,-0.44307302190077275,-0.3823532774421789,-1.5713514234504735,-0.6226930589843179,-0.9617288995361778,-0.6142692179457001,-0.5347085198408764,-0.9976616735630779,0.1426893121591838,-9.532290235689071E-5,-0.5985832261241868,
-0.7072731174347969,0.4907992154792233,0.008118183726461954,0.542653942263199,0.12293896225027112,-1.8632036858192988,-0.4535899901387996,0.9409616189867248,-0.3164538348512489,-1.167666359724674,1.0169074984103457,-0.45068012587268735,0.27745540808387736,0.8087851706016156,-0.6229394104820594,0.36569804695876834,-1.1472366396231566,0.5676187465282457,-0.6848717376352815,-0.7090611722532689,-1.1153324425356799,-1.1774439563466492,0.23572867070150683,0.256962668239922,-0.523688668531017,
0.6446255024991359,0.7782872194310047,-0.5022107267249792,-0.3142194329203539,0.7644941948056898,0.4540282786558121,-0.4565216416863061,-1.0598059390701358,0.11204878582320967,0.039842331123339056,0.8787551144610987,0.09607492502040565,0.525711351343483,-0.7337266947316073,0.6643927119825723,0.4338711787878558,0.03935967476302245,-0.892739603923352,-1.0385435052727854,0.15753216302822956,-1.5476985496091757,0.44859371256337505,-0.10484488159345988,-0.8182276911383518,-0.6759522795169784,
-1.336673201630377,-0.0042895917916879025,-0.0028264347898540425,-0.21976019371099673,0.29354778851734453,-0.9595507604484494,-0.4554143277811533,0.3289364246177323,0.37249074759915324,0.29991685375641136,-0.8776456285586628,0.3429738016014701,-1.1179575788577552,-0.8318888234395191,-0.3462605081194059,-0.41820796577302927,-0.2850341781008741,-0.6278110750292022,-0.8992805763345583,-0.768641502345612,0.2687160508276273,-0.10086112490087237,0.27828592698320487,-0.7590840359608925,0.6430841116737909,
0.41988163520807664,0.050922046630319774,-0.27853516988713206,0.3587516528271525,0.4871678335670628,-0.6875653413156919,0.6615617720633484,0.0870406147720057,0.06865427067036638,0.1661233591422998,-0.2525711862472717,0.19791515780399502,-0.2392005997408745,0.6459217683511203,-0.4930084908161577,0.3304207984866881,-0.3913454603539447,-0.06518815465400506,0.20859125108822268,0.9314350893585285,-1.2688082429704153,-0.7408072643847166,-0.8951946132569308,0.3712330777527769,-0.06644206329748763,
-0.828447332931814,-1.077049468469838,-0.46866744709590724,-0.3363449014887812,-0.07865664063893248,-0.30368835564732705,0.5270227169823275,0.22830691011412035,-0.36768563980237623,0.7816519074159997,-0.7286034756193007,-0.7244102068227629,-0.11286673567910852,-0.7988733954967221,0.8247980730131167,-0.2726266684692709,0.4275425231314921,0.5280722639474024,-0.033277844486918555,-0.8024001516369131,-0.5740604894675534,0.5888351648990884,0.4957138304254029,-0.9787413123287144,-0.09564002879158998,
-1.1706644267556938,-0.333003932281341,-0.5733875314644977,-0.5615470227772443,-0.286352929774598,-1.2270784632916787,-0.2897559941120665,-0.29829119997983783,-0.19878324298556826,0.5520778802340444,-0.0710528573078692,0.4968432287339542,-0.34938323564239077,0.9127035985504229,-0.45538889546986905,0.8470478204946683,-0.4524244993342709,0.18403769006528384,-0.7731996980242912,-0.12458291653010775,0.15585816631341162,-0.8783266027598645,-0.06760024911914655,-0.7794402539855108,0.5424793543126454,
0.258123396719391,-0.7330173240180169,-0.3905050400297611,-0.4359226013230613,-0.2011042448482843,-0.9932136671312533,0.7877697903198438,0.7022024257054328,0.2886413754081649,0.14097994275027997,-0.9793802856830506,-0.45016168791790323,-0.4051495242968814,-0.9587536817596549,0.24570472573314966,0.7995502985462943,0.17055821450158506,-0.6135648102688576,-0.4957192642759658,-0.7390154400800015,-0.866715388795202,-0.1590625030229009,-0.09461777796675103,-0.8011658385004178,-0.3486067486484628,
0.49952712043330544,-0.2363067649102041,-1.1687564347368413,0.49198467083238573,-0.807742042982165,-0.4285087658132484,-0.037050900570211855,-0.5972208364713284,-0.13273973488213647,0.5179584905974189,-0.46788700541015105,-0.06781924293304475,0.03637091243011261,-0.9331710508328048,0.06968670281121744,-0.09010562370134553,-0.3716686309580034,0.27730552859480745,0.14388013697641708,-0.6483548944898602,0.35673275325344866,-0.8821183159792569,0.6078485972684895,-1.0705264808715653,-0.42898149274315556,
-1.130926701954913,0.07876862239019376,-0.40492400146124535,0.24105979381727574,-0.6815089441359373,0.5628505377644551,0.1135637272040356,-0.285699636193616,0.006669485766690714,-0.7998522186263716,-0.222057417512206,-0.0350874968978908,0.6234888034009456,-1.105089762878563,0.2886738890921185,-0.6245448003373937,-0.4354623583775295,-0.9743897060003436,0.1515896864541118,-0.09439669901533201,0.17411940497735928,0.9689178464592616,0.23442820118671115,0.5000149511434347,-0.07161725124013164,
