3.17406715859256,-7.676449599980176,4.489564119115239,-3.349518537186443,-2.1491198225147747,8.041331879451537,-11.634273037135259,-3.2274969222569814,-7.137006088399295,-13.436083394907907,-29.25156837102586,-0.4175171172524928,-7.946388482696288,3.868476739854331,-9.176900254081593,-4.78894468435633,-4.9021774896023524,0.5604362390562089,-0.031177478592179786,-0.12264023304667013,-2.0609993257473618,-3.673729546885732,-25.253667387614726,-14.111183921649916,-7.233942869781882,
5.268523587153121,-17.502564559388887,6.53057684685056,-7.084775104229601,9.900265206141961,-6.002325224693095,6.810199070559013,-0.13451713718481684,3.4167422582841485,8.494157803160247,-16.17573790137526,-2.6230818293206415,-3.272368416912173,-12.073417629392452,15.830528894917665,2.0775279036409295,1.3668523174377263,12.153724107323663,4.367455096085069,-3.4295678734689243,-6.7465279989266485,-0.46910801425256615,-24.87577442501218,5.259701876544133,2.0365803401083893,
-4.758230438513665,-8.770870421731459,0.8595749653032401,-2.263924908441622,10.570227616214693,-2.824448468739098,-3.9769457301512685,-2.080384949761229,-12.513395136669525,5.641165680921393,-33.203032013662764,-8.017798551487505,-7.165948624481081,-0.32661244192082917,18.43408353176988,-4.092517582472906,-1.223855767922711,-4.578424225747608,-9.348700721943239,-7.95998761825764,3.6347123559238415,0.769769825719108,-10.89213363366969,-4.10529342497811,1.8977095866619276,
-9.568841393125066,-9.78239651495207,2.9705135447691666,1.368531667843016,5.747809816036676,-4.321963414510357,10.318953496086431,2.4713332481625114,4.261663714614777,4.420252097816224,-32.24719206755278,-5.236152654020505,-2.3682268326935003,3.5146889725256845,-7.766416595200845,-4.029397722004866,11.262146224441363,-4.500684764934643,-4.451409126039551,-1.5074178064759323,-2.4434025597178737,-0.8052549076102962,-23.451976236341434,9.786936086677672,6.286126484862961,
-6.149743546365435,-3.85813651980353,9.480062328458956,-10.554100643329496,-2.9417971761991373,0.3861694518530578,-12.130961521866274,-2.5806907697339962,-4.958000567012902,5.4960335033311765,-43.8264798844822,5.564655475190736,-1.6616771994529207,-2.098996878793849,13.487500401233598,-0.07897937612162374,-9.746849856377985,-17.449899618779238,-5.012828276584537,3.0774986848403114,1.2267369278951088,6.819676238333667,-21.428064428051137,-16.809405560813204,-5.255834344986174,
-7.831698663831853,-9.3610458821568,0.43989739194685085,-1.0112911096936292,1.8924987568198626,-10.207736884879738,16.284582392778205,1.8127873090269777,1.1537544778112054,-2.2891326275214974,-36.70408765183839,-2.2101100115733194,-1.5001486432573687,1.1961180091054493,-9.709049627352474,1.9281751726260603,3.4099572693556297,-8.135385927833006,-0.0632330799548976,8.966217764389969,4.361945715680041,-6.2626982889704115,-32.069557758253275,0.16900948715022995,-3.334477854537577,
-8.498162340506331,-20.783296019503894,-10.177191533183743,-3.320441035625969,-7.823861262710241,12.108193811629262,-6.964919681376509,14.259821962634673,-12.926648096275413,-9.109052389630131,-42.03853710641448,-6.0285340564878025,-5.661616444603866,28.927290166768966,-29.7412579851098,10.876491338861515,4.195701221793681,10.61411703857609,-1.2389992627884894,8.138844506052168,-0.10489283729607363,-1.796124462829467,-62.22897356315918,-37.13618742424291,-15.479384540602167,
5.117265568993215,-19.502312022699186,-5.519420453641555,-2.2619518254397395,-15.12207965460188,8.811686580143268,13.30523914700065,5.968465246598079,11.161376189744056,-13.643890193873085,-27.83486817050341,-15.731834266345368,4.086185324825645,6.5432343543971445,-18.72453949080371,2.177796795625651,-3.3049776802910404,2.721984953023863,-1.775706925164081,6.561264906778694,-1.8189595180314404,-6.363153356305823,-45.74380688992135,-23.758245327830558,-15.299413069009123,
3.778442575583998,-5.197309821753212,3.396926027491028,0.5784351940232154,4.652145403971927,-2.3027291129398013,-3.224346552859664,2.217299395109419,7.020981591187322,-10.594212991944953,-37.02158823166403,-0.08218450673213151,-3.9351590109703034,-0.4745503613224942,-10.00849965351747,-1.7388203180042592,4.215837657638648,-2.142865333398784,-5.019304411065617,-1.1098611359558226,-6.2496748685502235,2.5728471014192538,-16.031183099715484,-13.123810993346378,12.163989935864453,
-11.170920664043159,-1.5695829703570752,3.574903352805387,1.3441676800221416,8.575967419071876,2.479831452812204,-4.438764497231381,-3.3616827152021305,1.1361531234685398,-2.3071314587934304,-40.78953784858358,0.7569393798152557,-0.7634381504919471,3.465100055022579,-32.00519139625631,-5.062812437059542,-0.28720998643649553,-12.141383510450115,-7.3782184359295275,-4.3411187918010015,-0.12384121923217838,-11.221879094880657,-48.68987288082897,-15.19784718136097,-8.710413521151448,
14.652877460047861,-6.957445692874728,-11.679431974834417,-5.632172292983515,-6.392097277348038,0.7674924022099081,2.618951552889141,0.12829568242795214,2.9902781747596068,-3.584139463368272,-42.31539301347391,-14.562385361284152,0.5680851557232185,7.106321678889231,-11.304821283097308,1.317008311433542,-9.149255438417963,6.4303826546840295,5.091145575071656,-11.54228236912161,-2.0964499655535143,-11.598933377312239,-42.48681671712851,-19.265902036763123,1.1944047614446363,
-10.332780055096343,-24.748957231121718,-2.308660732706292,-9.234986000255452,10.028856549195307,-17.341915836483672,8.175202926300486,-11.759615841221555,-0.30704444850264995,13.984212294066538,-22.770673168635803,-0.9725558740330363,8.914265916245968,18.173227434000253,14.728997835019603,-1.1436608419581789,4.28384881350983,5.164852688073218,4.062956892182664,10.024371321209612,-7.073701512327849,-3.4584560854118878,-18.408538993406037,16.756082043686533,-6.172885238276953,
-3.05739861427005,-31.16083392729506,-4.6180813677657016,-6.075984876717716,-3.5986580969937765,-18.635550936111198,10.259832844231424,-3.097757386272956,-6.160275140788513,1.782390822559247,-14.878545523976543,-4.29133175384447,-6.985425019898112,9.94442684464009,7.920535537121738,-3.355493514140625,0.45455061810714886,10.760271118072781,6.373483563022727,9.763785492286432,-2.220575822831452,4.4753598704091795,-6.579433123031537,-16.216958009100775,-6.251360929139306,
5.5360411669147185,-14.161102562832248,0.42981608407480626,-2.246699960451985,1.1648001328568676,-4.256959110161632,4.595447980990083,-7.259246509688713,-11.23280618580351,1.6887275595303761,-21.82195608831511,-17.510006474491814,-7.834128336284261,8.799568936691005,11.983357705036292,2.552721526359671,0.4315028011308606,0.43159095351599663,1.84066151819553,5.8792423096507225,5.175486544474652,-8.395229309345426,-27.655182866319734,13.539538110824164,-0.06372040805230207,
2.1476252916423864,-14.574381981795149,2.943117030503728,-1.3542649973233079,-1.4806907119629436,14.958099240963236,-8.960302177862458,-7.526003427236543,4.9201036624103756,4.027826261716814,-22.527143011611976,-4.817732841121678,3.009870583940585,-0.7838186603740995,6.887842687195526,-0.060210739770411484,-1.2843126344520055,-4.78281104977002,2.536228762930386,2.039238383123171,-8.987067384055987,-4.756766119720203,-24.266105298403968,0.4110097849744188,11.747588158389636,
1.8356970263893002,-3.695736916796069,-2.249068474500373,-7.4789505769039755,3.950195841691302,4.989081951778539,-7.601862806153878,-5.662440054377148,9.814043548156745,-5.0058829712970425,-35.06947576961993,9.3931754724986,1.2115007590282334,7.1341961452054745,3.3877211862916305,4.688057492246687,6.806854346573825,-3.767353601491855,-8.349125505953525,7.2723716067998,-1.4998306267741004,-5.789210485584033,-30.419690382313693,0.6914227057069563,-11.174382894777231,
14.417114959255303,-11.97959302463784,-9.987915708327701,1.8839415366819967,-6.003898329305816,5.58125791322619,-6.263038758308697,0.7147446982634491,3.6088290338225972,-1.299354855385136,-30.80689922693082,5.53472419700275,9.111490286964699,-0.735264057862323,-24.791849477871974,-7.694286730221388,-11.235137825433084,1.2836925533350436,3.6864386904083943,-9.06014957237489,6.45163574472579,-3.2428186437494038,-37.04523247613021,-19.29636768610067,-11.4117686311874,
5.790467619795507,-13.158161952753684,-3.134106687381509,12.277394338230536,-2.219935858261487,-9.84940801584852,3.2355567536371908,5.846016890137053,5.911763245291869,11.014243357857847,-29.711375616437664,-2.9587665131787197,10.95767186068999,-5.198401567846856,-4.217704717990385,12.109227717015095,-13.114470181758982,-6.252999446075332,5.480952467372015,-9.805174278567504,-9.395003478289052,-13.445857512111218,-46.715692327652924,-4.108824030886804,-3.4606981935953285,
-8.894313874563332,-8.696791125195455,-6.528316076522278,2.795370774786531,6.656852667175615,1.1412178448005872,2.5034498963703626,4.537482126025013,-11.618747256556812,-4.6477879047889195,-44.54016721772746,17.068118163768027,-2.811273158275142,6.095800832660095,-2.5522811196413095,1.4485299804721234,13.39277805826339,2.0903963303328412,2.435386187533365,7.9474758513305845,-3.4965487632424987,-5.208022763115075,-39.03991781812186,-9.141919936059313,1.2914089248455423,
-14.24321609844898,-4.310227726353898,4.864559860073214,12.95732363438921,9.777788442557123,-23.553657728629258,-14.863279322042366,-4.942487996225836,-9.532099548297273,-2.198648034044501,-32.14998419512912,12.43499077387229,5.460838572230013,-14.025886796584189,9.789695308423372,-3.384173704642866,-15.585698697766382,-18.014362860017023,-12.605560044982242,-9.6856750559719,9.363897523956027,17.071783809564206,0.2460558046107129,0.6941297190203578,0.17202581157514282,
-8.783949422662955,-15.255633335749087,10.182827781606697,-5.855186584941254,1.2386128630831794,3.8654874931534904,-2.5645476294467895,-10.43996110869931,7.924930989144856,-1.8447148064032568,-33.0212711845116,3.4858186121190173,3.17223093027543,-0.5819923609705477,-25.001078883543798,-3.229622392317838,0.009413955305729003,-5.007624396374369,-2.756997623095524,-4.3650295330323265,-6.619077224509502,-18.486361894272925,-49.65110936742796,-6.255653466779104,-20.57465923981272,
4.347092329769872,-13.58130034756646,4.007516404603808,7.481370979907212,-12.249362731934323,-10.962372666125367,4.757644651315319,-11.657691097449973,3.740062931067534,14.917002090422022,-38.49404298041118,14.106951741845787,-0.5990470954189481,4.377644153366658,2.5157171035858075,1.1150500603920654,5.2301405685913736,4.356334357479225,-1.8448745886035403,-3.090728543154826,4.837954186652046,-11.992159337238787,-33.461847659071964,-3.5264535552559977,6.717842493426835,
-5.08930560051673,1.5510240833650637,5.199931054802932,-2.0508293382322065,2.1540701884341837,17.290443400308394,-10.434282562642782,12.842547407789468,-11.006965373916403,-1.1214197033126283,-38.76290202088568,-17.178551425903525,-11.786787659133518,5.192998567878939,4.9686724952434265,2.888634692410605,-5.919913107222513,-13.191298706152555,4.8630940420231665,0.6305779167185771,-4.174841866503017,-17.744229412246792,-35.84119922007835,-25.15477382358621,9.737722135942494,
3.8702359643066138,2.6537456051595614,-7.4324215714236965,-0.11826632973053523,-2.2177562374843425,16.737174772010295,5.198954300903837,-6.81503165694721,-3.731638874869971,-0.14872197461401065,-37.63074005689495,1.1697235375818267,1.1637285184537352,-9.673890766046439,-13.31465795181877,3.803729321998517,-9.460356528000029,-16.806912068556514,5.340849426958541,-7.4916027334002235,2.410836851649831,-4.902342536227807,-27.44920639985802,-12.021943250179133,-3.253057226016049,
1.031222536423505,0.31693197885609536,11.278548056645814,8.93868984642167,-1.5172182259426514,-5.862338384538524,7.137730526627692,2.2885707897670016,-6.894067738311625,-3.2493681793991827,-24.789723106100613,-3.438735210705967,-7.078676781319404,-12.19409871875499,3.4062506187084893,-0.7267345259441894,-2.335187038262934,-3.1355131626620336,8.785377038497861,-12.745744308406856,7.039474235674797,20.986234488361802,-0.36522929937226567,0.27568652088145384,-0.29309682322447767,
4.83756613056237,-8.030335585945538,7.408217905704959,8.746372078284095,2.1021098256560484,2.2832626129929423,-5.848927090859713,-0.3196045377128749,6.452148897233023,-2.7884436794332563,-40.56999610782533,-8.052550026900532,-3.490436772938529,-6.233169090663837,5.92395163855163,-3.3420019441303768,8.361073115612196,14.187632035049024,-3.2139675934133436,3.1376570604963883,-1.1987790204583355,-3.92579726387432,-37.104083947886615,2.571410900270911,-7.219833880087483,
-9.860690887160075,-6.567140183343843,-1.557563244742068,-9.366140781796965,-7.942719810223171,-3.8131673440278964,0.02381351726990983,-3.105236267919544,11.871912391656336,0.49221527756397093,-44.64283274624998,2.1477765036595478,13.475400251660536,9.936842187635085,-2.098049937661075,-0.7225306147426667,0.6427497003520983,4.657866151049895,-7.17401158274533,7.363633572725469,-2.9261129238653187,-11.049050249273105,-35.46639204696042,8.529346416946685,0.19407828704625887,
4.234221074056002,-11.341531590402793,-3.32010461421919,-1.930131881026681,-3.4070892214073414,-3.765413226281297,-4.524475873868813,2.813809889599553,10.530487965014158,2.3724230592717217,-28.021820431164716,9.637423620290495,8.51099561808258,-6.894687304262422,-11.209558281522483,0.47611502261270994,3.3928750344156176,-4.6884283820710415,-4.8500464272994686,-5.664102581348337,-2.4829593844192788,0.5082758607158759,-16.79361169318865,-3.7138115166638066,3.700082114524763,
0.2411492975536178,-15.471246777128142,-2.917322621182273,15.201852017549465,-10.396193314194084,0.35052289084608673,0.17428099390119037,15.938674558990499,4.1628408656539095,-0.9297547825907936,-26.961816900798453,-7.096417180170276,-11.219013475800427,-5.596338821165994,14.006322165042652,-2.234542480038516,4.69702840442368,-0.3964618257232778,7.8544960167439415,-4.561155136135328,1.15464845900097,14.70570618186436,0.5049738557945684,2.351939255825283,8.474206257453853,
4.7933649335903965,-5.6267610672649075,8.583780288447509,9.784892736298232,-15.59323972269219,-9.251739536490126,4.320637099470818,17.2194365384764,-6.2651574453224415,-6.735279979749025,-30.153951200306945,-2.52913383940114,3.088985151123189,-3.6706118353605044,5.144101533526909,-11.39380757498851,-22.480138837666114,-17.56348320081647,-9.128272886182936,-25.49928511994359,7.209473730419931,30.459740017239366,6.711607779800372,3.848851446890606,7.777557946929906,
2.9644401841708943,-12.373204792195144,3.770260006905271,-4.963835282906364,4.306035281283054,-13.319764656945031,-6.9219114771138335,-12.795988033727873,-4.019573190022388,2.8885193344766518,-29.840027510498523,-6.934979904557528,3.390917088530286,-4.825182793081031,9.311766234414847,3.901248321758798,-0.14367376616726482,-8.38618306315106,-2.5897325875014303,11.84771129111658,-1.4812905563949919,-7.801363586404868,-39.286391416193304,5.33068231897461,9.610051830126517,
15.52104231622113,0.6065104129794071,7.86904881305567,1.0470966935646753E-4,3.933361385362622,2.425930165383226,-4.820671938780059,-2.2202320089814176,-11.620133774662499,4.265242196292483,-37.66024959901765,-5.317302060276717,-3.6055070381652263,-0.687050938369098,13.868482390629078,-10.546215210866677,-5.332802123897693,-6.857396625846561,-4.153281555084,-4.21404073490181,-4.169616404948722,4.620101187978632,-30.777274113109,2.84188780627968,1.0379400232614566,
-7.220585882580019,-23.225585462349052,0.7174414745026052,-7.296366401384629,-2.3852327287168262,-15.163524786972536,11.362076954162825,3.040191086157229,2.1629581282637655,4.832825360327226,-18.05627803596008,1.6870708288487462,5.593672944589714,1.6747171805445107,7.678260020307718,0.9926773712683412,5.19603502907109,1.331967907030649,-4.177798203383158,2.717573331456378,-3.5720678267721158,-6.314433144538242,-7.407723352506414,4.821496780313821,6.144396070962917,
5.407889237623516,-2.6866763408248113,3.165327124803151,7.369996591185187,-0.09165863003799017,6.336059841318306,-2.7957397728215123,-4.667259234629866,-0.3119735494821709,3.21443701420638,-30.28597525811232,-13.969193113197058,-1.6673335599113865,-10.65210339038126,-4.56413331961581,-0.6188070197119357,1.6376763820445923,-3.4528696279128592,-4.618423926370656,-10.384794827010031,3.1226794930959145,-3.9852017358912626,-35.52242443061533,12.729016073561365,10.389602462745096,
-11.065624779320654,-11.213738214770132,6.781964600977878,11.221982553705603,7.523376997754677,7.994408423756152,-16.212221729463437,3.6727783533715783,-1.9488184727382603,7.755407915128815,-45.50541268922199,-2.554712824995912,-7.393050364518414,-7.4034427470792,-9.035279699551886,-2.6619525763209304,-11.027409654135482,-12.668775138397477,-2.6805426410657613,-7.376740743532769,10.023954588706912,8.315454814976837,-24.72083479738523,2.3194971808112292,9.152572231678931,
5.120710284131898,-18.77283484683071,-2.4415818299060486,3.1559184748873492,2.04250446301418,-7.644392500372972,5.5310675460689165,-5.092917755438225,5.9424211892018945,1.335727514747998,-12.150658015749325,-10.271504417770387,-6.001057081404089,-1.8545324439670638,0.27353806725987023,-0.7649814172406318,-1.2705177608337643,-7.9875159846425525,-7.118193772419554,-14.51527994619943,6.026098280038358,14.534301886012875,-9.492439699829104,-0.990760606186734,1.3530281426475732,
9.456958209894834,-20.54574953822633,-20.50086009564213,4.342922121333286,-0.5231388385677048,-1.8753750797206399,0.22758228831126384,-10.623489048008683,5.154634845212976,5.44220888579123,-28.615826738098253,5.990049624307294,11.400005158491405,-2.4445580241554903,-2.2205262521282254,-0.31016488340177756,-1.501158761683922,10.132958392532327,10.933921825317874,6.1102626810567235,-0.09629835373805172,5.893930926096098,-20.978838766623625,0.41530279874488735,-6.991789197162841,
-4.878158422880563,-13.412870099554755,-2.0785300164958,-9.932246580538154,8.045966329691556,7.748389692708304,-11.373504238028206,-0.4020128045458768,-3.3171272958094487,-8.34574800639802,-30.096896576261827,2.4541288496169873,2.623501180662108,3.1427865688417547,10.257889813916071,2.1424440862051544,6.427779843774573,2.591416392003975,3.465385494234955,1.7204042482513395,4.086577160526709,6.125749184024309,-23.50288384425436,-6.103784503557744,-11.100839869602872,
2.894869510146577,-17.238910448971506,-5.908712742966602,-2.073407079171618,-1.7364346500516876,-4.105597347602133,-1.8904413962825197,-6.9333858620169595,3.768258935839289,-7.428244171199995,-23.599531694176193,1.3824039934294925,6.809786342607188,-12.72753445574574,-5.852358751124872,-4.961995792924022,-2.8394899001641356,-2.960865287019433,-3.893544741183037,-0.11756550921943196,-0.2183840762187586,9.596245921013761,-6.97170580063011,13.817536764518056,-7.440448175113698,
-5.636428191752176,-6.830208880015591,-4.428431799544141,-2.8579018524649533,-2.3672497858146504,5.187138421821865,1.878330979823664,1.201450862352075,-5.3198603917355785,-12.63667825478682,-32.6606928627229,-4.811741081839993,-3.106274113016301,1.6733423452915057,-14.137318538757844,-1.858163591159291,-5.946210987925817,2.204565577279858,6.105266819808751,-14.088209211216315,5.5057089416261045,-13.8156520678051,-39.174798207113064,-4.776909245193416,0.026035710415046764,
11.784998866174783,-1.1001490314298707,1.2089701413178155,-7.283520259533109,-0.15030707642640065,-0.46977935406995736,1.33069337975789,-3.4326401213267173,2.881549917560635,7.893671368351324,-33.61215010053189,10.50286056424809,-0.5594098976888752,-8.860749542128895,-1.7298777357066184,-5.837432875139253,-0.13187217171492632,-8.820302885734733,-2.3318748192938923,-0.143087124926125,-5.120506293612009,-11.439152365457707,-26.625281084995645,-2.51407834019695,6.3536904938869165,
-2.3513605817680303,-20.285148464386012,0.9205977399550852,-3.670655145193474,-6.891686007780072,-1.1644111023990973,3.438247427508464,5.254231857416771,8.882744407748534,-9.716902145046614,-18.036598173098653,1.754878138044423,7.710438298593788,-6.70439161572333,-15.527439908538636,2.579073641096062,11.166715126552281,-3.549355316253141,-10.9632105857418,12.400042217598923,-0.07709649472288739,-11.588646707716265,-41.790311021747236,-11.524175027434017,1.2789978987124637,
