-9.16174387716167,-2.052923217584897,6.372936219992336,-15.388443996886457,-8.173185051141221,-5.192951894943262,-7.520031693779601,7.222228522567748,3.677660756211952,2.5783817140386778,6.76058573930901,3.2814845938311286,2.8055067873438237,-7.379828637188322,2.6785562677866164,8.596172215915814,13.152803946111407,-0.07481005515101888,2.8116744998114176,8.390286858353251,-0.9751900713561714,-9.21035123873797,-5.277504648523189,-3.824151139984978,2.2701005751880974,
4.047648539055344,-11.553044590939706,-3.537548173257076,-7.174749157236269,-10.460759515967244,9.600222183707592,-3.1005121946598053,1.912725316119986,0.6683536164798957,-0.7442214591000316,-0.5342719799868526,-5.0903610857369666,1.6737882192888558,-4.161900862346085,-3.666193260041655,-2.836790722332993,-16.267472340262465,-13.421358767861546,-1.6740823553296829,6.571761565800301,-5.646037702371488,-10.028931369326724,6.740502749681456,0.689950705011655,5.6135303457107355,
-0.5937343603891575,-1.3261360763476504,2.8100578135116017,4.153861733792854,-4.249847526880182,7.620455986914956,-2.603690491826599,7.814681700282877,1.2982374088000448,2.407574130580791,4.116259246991388,7.296066680447326,-1.8436509042214506,-3.7304650265674093,8.244602389117071,2.6323270145972613,-1.3743877428610027,-1.5652120744584015,-9.696362039154861,2.4486337844987203,-2.7491031769751335,-6.759179472833401,10.26594008962674,4.295611350510098,-5.604558016722147,
-8.361473419793137,-5.877262340375741,-3.778497917555387,2.8866411535921106,-14.620969936967882,0.5152158244654932,-5.212985707202157,-5.086483153974672,0.13971858213674507,-6.167329679155778,-2.6185870641909683,-6.781554929576812,0.8095278761939768,5.238440429286913,7.264759989380407,-3.3320696130827985,-13.817358932438477,-19.41420616697013,1.3692979260449367,-1.2203594444538854,-4.3972394524095995,0.7843922682421911,5.6946366513756805,3.938343948617708,-4.195038988556213,
-4.158140116394561,2.6666574493864377,-3.3620444014315205,4.279601841072626,-0.2477399177291416,3.5239314053228443,-3.5085388923741916,5.7390101300164424,1.275942686959954,-1.5093674745689618,2.0468469091633708,3.4065747498157855,4.406760851205517,0.46500512344775174,-0.21348899389278772,3.484380819302968,9.461611616822395,6.008285133564302,2.521257408170048,1.9349634995370972,-8.249218743666088,9.046602153100215,3.807672252033929,-5.322411000536348,0.3955277089479666,
-16.24012628797267,-14.169330613972027,-2.5795317062629075,-3.2743098272828575,-3.8352950894081665,4.198242842023579,2.530762888562298,-3.0971611456772923,5.255157769465763,0.24346517845713925,5.329740573715999,-2.011756059339351,-5.059718974871869,-2.9594259828371494,12.62309319063683,3.867806600465619,-18.27230800833874,-23.87082010852815,-7.012658337222611,9.502844330387447,-7.952464880623346,-10.185144825458226,8.898224727320821,2.619798328070803,-1.8732071098804797,
-1.8677086295783025,-3.4211470859665574,9.301371832221081,9.572197607526327,2.3660481541854654,-8.72024337957412,1.8248484640260727,8.775571965372306,-6.2587880563587746,-0.7981692407960433,-0.7919007175312316,-2.563234883901132,-0.5312172380624777,4.372270503223318,-3.943335794682198,4.838739738294068,-6.743743543678454,-3.7263324908636326,-1.062223707715646,-7.081635468350636,-11.810062375373246,-2.0962994113642512,-3.4510622673144566,-5.08670346649646,6.325392593612822,
10.651572083919744,-1.3650459001167345,-1.3329320525843946,-8.417671653946485,-0.09023121434083942,-12.729948787620897,-1.1089960627567694,2.240634930416236,9.11971208682757,2.8897010590737504,1.1472063058339081,0.037376734344304954,3.0990125120313925,-10.948162887887603,-3.3886423733515505,1.26384785891109,12.271700815724293,-11.55796699134924,-1.20270108918763,7.463797568200217,-0.6116555065931666,-3.4513373622508805,-4.372507138739022,2.0072260931083403,-1.0540661121528072,
-3.4696063964136217,0.778674259664726,0.44605477014793216,-4.244253587811961,-10.541802685903896,7.784721183463187,1.4815475654969077,4.195991451640784,8.332785116659588,-0.7481413033961498,6.400560873798235,-2.6005382226547975,-8.617001164448281,-2.4427374944164186,5.395873531324509,-4.734257332680583,-7.007511845067753,-17.92101254356794,-3.29276172063063,5.7975347399878,-4.2044763818848425,-8.946941401906573,5.75659308695192,6.976179868356493,1.265654068254849,
10.345789229866753,-12.017753247767278,8.435724529831136,-11.592412757643176,3.492851926190541,-8.88935595791727,-6.40901905735969,0.7920188917129882,2.897125372722632,4.929093569306157,-8.636216853543594,1.2990978371041257,-2.868359635080221,-11.712822880459631,0.6926795602668391,7.596245191665939,-6.994740556212619,-11.314845853718241,-5.473175972344369,12.633778980293744,-3.862446186971189,-9.33982021734194,-13.631466838217,0.48108784913303976,-4.178260273103147,
1.2886378821917956,1.897692739634619,8.300683632091461,15.429298520159477,9.284066082167461,-20.11099540137724,0.252495690907684,11.656158460027157,-1.4294736551870313,-2.7737178004576646,6.127144110222794,10.59693861671602,3.0663277329450045,-4.596707832598781,-4.811534452307716,-1.544429534896579,7.480755782964108,1.440981718528316,1.1754404365415099,2.8306091558230313,-7.618833609247523,0.9777658607364454,-10.515725234388418,0.09905826660964498,-3.179716417125153,
2.867695894815636,-19.65861970488027,-15.123535276916149,-16.203622260675314,6.113466868975779,-24.997629162783866,-4.8976625489102,-27.579103130473122,-10.00629317449529,10.711662394837635,-9.881682258401767,-12.780592814911998,-3.013837863866589,4.844276065661661,0.3347473663035083,-7.284276478264788,-3.5057705517880615,-2.4532481828376604,4.727576889608708,-21.8062727098837,-8.448245981854997,16.588803149772065,-24.803735444539615,-1.8217701297602524,-1.3959687165790042,
0.9887550064624796,-10.612124674208486,-0.2715764822633288,-3.347140139342637,1.8467680727344342,10.925728213838093,3.6507551151731694,6.897071701425176,-7.398925111911784,6.9082133477155425,-3.3199864307184543,12.40294692799306,13.060560651783877,-6.487099649098886,5.6356678558109,3.881337950477198,0.010400209050379416,-4.426682595833278,-6.359910482428883,-0.5526505170383805,-3.8406693123657387,-12.172483632039343,3.3295287240049185,-2.5017732178418473,2.763724616107984,
-8.557343433132194,-14.818846156049744,1.6768908096008748,4.563229643690119,-1.4621529112209288,-6.697987233987163,5.650499703945943,11.788680380038453,-13.40190183813182,-9.986598916336614,-0.1206861687321285,-13.457906636087488,1.264411812509058,-4.272139100921597,-3.464937176105136,-0.01603772816753976,-3.0596091531645233,-4.915077604304144,6.3534140963130845,6.533551674718966,-10.916087178333465,-6.863116623239104,-1.8268449559718012,3.8521426397916643,7.01202750544017,
10.255548728928527,-11.368505417129745,4.096558978529111,-0.7280871726330154,0.9325522902920597,1.182298766460205,-5.192770578985984,3.0050330750853975,8.73434807154672,6.661316037007446,4.029242377538711,6.771965312132478,-0.24575747367463263,-4.466260382185829,3.818457039258002,7.477449818034719,-1.1105691994266809,-10.260643232716028,3.3861855662441465,8.837690041566553,-3.3094624047815553,-3.946163203607921,-1.8038651170098885,-7.567430849644358,6.839713674959532,
-0.13155952722811637,-3.221545561533197,2.4392646414440065,5.585566548406326,8.306724316174565,-0.08771781920088648,0.5143571126496581,-27.91480605768596,-0.11330975197000018,-5.853425324016137,-16.82040037031983,-11.464260662725117,-4.971461248286443,15.12319396610789,-3.6906394079606537,-10.868787674923002,-25.260599526014,-6.389737319465533,6.29099944066462,-11.725739655842943,-6.024034453492684,18.687503260418868,-11.140791529392095,2.5069540137576762,-0.5489734288628617,
7.152761245710173,10.995009294962484,-3.8585608144689933,-3.140883183744858,-4.657950621135665,-4.129309105556096,2.055894713788859,-5.6152411881025115,3.3548589109566866,-1.5835476742671584,1.0282672300837008,-2.2523622099392635,-2.7880934984294643,0.15748908566365535,4.13587675588913,2.8949445151262134,1.0996856272117037,-5.704832286437437,-10.720613770486075,4.933063675420663,-4.399676449106494,4.21960353262419,-0.0701114819821223,1.3515761803572552,6.610334596110978,
3.430164444298462,-10.158824812037665,-12.361409294866963,-0.21081405927059943,2.5359847743226585,-10.564002365448687,6.187804544108769,4.5193628353702175,4.371252360020139,2.182163777503369,0.7164362695249586,5.273545914448713,-17.708294885601838,1.5541646715658208,-0.5190302428579423,-13.48603841135025,8.724700627397421,-9.419480833943815,3.32783138323476,0.7058257095614975,-1.713160096703449,-3.7753754296317306,-0.9310284862826853,0.6794788652795245,1.6963386447195412,
-9.158106833478538,-4.566660651457834,-0.8554908167411803,-7.340728190831444,-7.275818877659183,2.382162900082758,-0.28108222622791845,-9.88996056017639,-1.7074990920993616,2.5386427933380946,3.491855045198026,-6.176433583171032,11.607170787241644,7.186503700210736,-4.967037981352587,-1.9635661264786424,-5.424828267872804,16.11952432219388,-0.33232609625045634,-2.1530638092811434,-3.0912510493145944,-3.460537746570608,15.428790773112066,-1.7870235437893724,-2.158997934444137,
-7.44039643746312,-5.4216665973247355,-6.468328955204524,-0.3452020565212982,-3.029475691000155,0.5351078715834445,8.746585829911718,-21.02789750920827,-6.288781684167472,-0.941623990883768,-5.071728092342276,3.1644141369000724,-6.018617538239998,6.913908771370306,-0.42095394961139915,-6.490096366487245,-24.978188008517694,-24.149663337148798,-1.2631580530044018,-9.810745816894276,-8.128534539857077,13.748812776521495,1.207086180669303,0.2827217963397412,-3.6765183158659385,
-5.723972081862117,1.5866694529235537,-19.825571246060072,-6.390685204103057,1.7502808389665414,-16.60995774360811,-3.43108662466891,-26.21028789355604,-12.089248964071063,-2.870281282503151,-6.699491435346868,0.17576674229849523,2.592367753733994,-2.3982614047993405,-9.342280015346326,-6.378864699221206,-14.380334535870976,3.1023800031134083,0.18938012762232126,-13.893193798475824,-5.839283538993974,19.823318238860235,-12.857820039361625,-0.37451475057205147,0.17297717670917367,
-3.066503516364081,-9.79598861788592,-0.7602317598032913,-11.799256631145914,-11.418141043821292,-1.0779275360127318,-2.68152070079559,-15.750299619968061,-6.852777727955017,9.820154430783706,-2.6059651208710637,-8.209269603203994,-4.595608305202795,12.554358716647542,6.930273573019842,0.24329883947567385,-15.330951272333095,-12.844618861398283,2.2623974568524035,-7.039420245742505,-8.425224411368976,4.7517447232141885,-7.306575987619431,-2.5618314356590925,3.3802588908966134,
8.256135543728771,-1.778026116169957,-0.6602308193386273,11.071123341102426,2.148626452821252,-1.198832087640488,-1.1910738356973305,18.09090045437205,6.941838781263269,-1.9713988978011798,-2.8188556172540395,-1.2486189473801927,-3.848503896576462,-4.885900650023943,3.7922286135213126,6.052717723165154,-3.8150427413380563,-5.7523380587716755,-0.5949631026368378,8.200103022779539,-1.0897055680065222,-12.766380682280023,-4.138812631472558,-3.7088412848131886,3.3545160061503188,
-2.341130886494697,-11.533344932574863,-1.0300334188456342,-2.551794752140085,-5.362045927374438,8.252932165720754,6.592231669293992,-9.523103359672671,-3.830923571959582,-1.6704721581613244,-3.083389418992684,-1.123430512077155,4.695320772204592,-1.6659944473455839,3.4593259817471793,-0.9552014294608232,-17.14891769547213,-16.36907358192953,5.022010791246209,3.2298427412779156,-7.736246135177467,-5.905470761884465,13.853152029309445,0.18116661560488795,4.250050145355065,
-2.7992529186663826,-2.4255537554117654,12.186729767303925,3.013369564437782,-2.180384200146688,8.81504598009655,-6.558725788692974,-3.2052450883874744,-5.68899773005063,-10.004160605640795,1.3538199161950248,-1.1404404305566147,7.853245358608104,-1.6482894090358615,-4.6400288766074285,4.672727786435733,0.7774014626765906,12.30334775001802,6.614780820154912,10.773914872635764,-6.088606074185311,-6.671577749735771,3.5271569633331668,1.5430187749499658,1.4723513055063002,
9.012032689595904,-8.760375553966947,-1.2269224382699793,-13.003528635759627,9.397003571199315,-2.7445813063814213,1.2804244822419433,-14.729214838316793,-9.00000444789482,-2.6775388979659525,-21.625276071112545,-5.229621281243931,3.1691478344616404,-3.7344647197145435,-6.554966284193011,1.1210592679717712,-4.13278673855935,1.4918964770265324,-4.128570122204908,-2.5383168609459745,-3.003283822720441,3.273065867891445,-3.183419376184735,5.087631263386857,0.23392058595654022,
-13.211139379879087,4.443982119515691,12.516400614661999,6.883147404493478,-2.9582130504840722,-9.424879758223796,-2.9042558499302458,8.21091544573312,-3.82322625020201,-2.134359902657424,9.4286082131833,-1.5430867115572806,14.412537476975182,1.2859800516640256,-5.331889905968244,-0.6262832809190659,0.16819874170638532,0.5658008545012191,9.549570761472795,-5.153043776397558,-7.233963407948676,1.8106050285769757,2.147701014782989,-6.793046813011809,1.2661848433231486,
13.196275514750987,-11.01260125971121,-7.196309414561031,0.3310574525289264,11.12166379190216,-3.337068184071402,-1.6613562923980034,-28.38734807970729,8.94145057404276,-0.31295832117690864,-12.952233280060376,-3.1838452483552366,-11.382884504096099,-3.88182011837181,-2.4797922237645134,-0.9167892970710049,-10.941711676226404,-6.704431559359973,-5.2920719193803585,-3.5763157394732077,-5.569218009682998,5.278347165661456,-15.825829631170365,-1.104536623721873,-1.2341011643875825,
-1.7108699094603197,-17.21006518631987,-6.069505086318114,-19.820117047398515,-0.641330237222405,7.778123559163981,2.425781543580136,-16.686605289429345,-10.498132059476994,-0.5512492760065791,-12.368904750842526,2.3238593225972277,-0.009945928726326075,-0.31004575362634845,0.9274519692356602,-7.058957187424368,-15.586769109902592,-19.148283396188564,1.2846477488425487,-2.9898683028285133,-2.850867951281498,-11.036931406561095,1.2043095245391964,4.850842908171359,2.3393727895017733,
-7.9559943383315295,5.071758725477611,6.332671325149499,-0.28096639583186916,-1.573190916843315,-5.191588951060816,-2.134328150057899,1.8023283264639631,-3.7504986511669793,-7.869341958871566,3.321042267373299,0.6813937617734602,-1.9005316773903724,5.810138035186274,0.27739841217583955,2.25301324019659,3.7161392178608077,10.048688778613107,-3.5375308141252937,3.043717303230335,-7.629569423592661,-3.136627186661505,-5.863103644896164,-0.26713824353277277,-8.56754769540241,
-8.690511511135892,24.488720179746927,6.311235758793523,7.557806740525553,-20.947694691437686,-0.43265840554353274,-3.3399720943693176,-0.2428373781457003,1.5584321330062056,-9.156872075881067,6.197363937047598,-1.5940568213985165,5.037506298782486,10.851572136668528,-1.7164152840479254,-2.7399694181918357,-18.563063640030684,-4.6852115619627615,4.397839358244812,-13.206407462327594,-8.188140250403833,5.202960131134851,8.480030763151891,0.14758951411399407,1.938668065469725,
7.230715562135352,5.018622576358323,1.5279607801658304,1.4665838323473086,5.400657540859018,-0.16623565095883328,-10.636155926391174,0.8913448559520563,11.494395254328314,-1.3512640943679768,-3.400213505983693,3.49214808058868,1.7416896289957444,1.4973839982262362,3.032617158579127,-0.052646190313109256,4.546931102660611,1.6994408615159484,1.6749693838565287,-8.972152157439435,1.821472533636622,0.47365251262632346,-4.370531139630872,-0.7504804390803158,0.38820167821005835,
-1.2578316980928603,-12.90844796298011,1.1202687010602104,-2.169062394116158,-4.887990713945056,2.6514138367245543,-0.38539811348799224,-12.646561401773392,3.9902448907612684,5.641547927508961,-15.120036181425766,3.0790746453507314,-3.7580469670586094,-2.4013604168661593,-12.33997277194267,-1.4025961709005894,-9.662519450235363,-4.61964951292019,3.9853824110373104,0.3315852005392605,-2.241380210232094,4.549601846170361,4.434025912754464,0.3971101257218,-6.702247351976883,
4.237679972036194,-13.57472996653852,-12.413383137125665,-8.546975924547413,-3.537233371452556,9.694830906465935,0.5781011067518961,-14.08367954954224,0.07557342720251342,-2.49714367254221,-5.3127045602382115,-14.347061931867987,0.8509038923663124,4.759176756667846,5.051018711201157,0.23754185122061608,5.196531250526242,-1.397149495520132,-9.444227346471273,-0.2792059290458164,-6.940206068396032,-2.4450246478530264,-0.1507963227715927,3.1690964489022915,-3.3221984669000775,
3.3941217965779527,-23.1767872082004,-5.43319586056586,4.014338011950695,-9.26473349551532,3.9886499001087374,-4.857608925008014,7.790772090538221,-4.388596291931955,10.45026680143097,7.94313664955573,-6.2392449919303825,-9.938384633453726,6.159876966519674,-0.4932444703088002,-2.1556726568485094,-14.699177505233822,-13.756598019846594,-3.4187463731633687,2.3592500661930726,-9.62022074139322,-7.682227027716188,-0.8149711723684702,5.458856816795857,-4.485123503637977,
-6.094439287073709,-4.097341603544659,-3.659835424275174,-0.29813615346656475,-14.115126354597445,-0.27093004585084823,5.45859031059175,-17.132766310027126,-0.0462572835332458,-6.003458385138073,13.132080527970134,9.320977673437502,10.140770142143184,-4.004889172452724,-3.8675540336242107,4.099028777374349,-13.273813121812806,-15.356326321981383,-0.33355310375011216,0.5996091050115153,-8.30123217990913,9.53162398157807,10.03858254040361,-0.994621492146725,1.5272660200034727,
0.34257963687666293,-3.785273128769731,-4.102416685610527,5.42291232966801,5.039981205348547,3.0591903497716304,-4.995678374581873,-10.902867951146625,2.6028030323067473,2.0998709844266075,-4.193113203474528,-0.6352666190921415,-5.212773652816811,5.3627601190276515,2.0367138065332475,-3.4556830985915035,-16.182812962497987,-11.15820304574249,-4.3973929244516725,7.026310826312387,-6.696863249549527,-4.3232701586547195,-4.202701021763038,3.745352648937904,-2.7907705625176438,
-0.38739268805446947,7.915280355573985,9.070323538076185,14.69562913582635,2.460819210919909,-6.0081242859615,8.463603181950608,2.7182275371650517,-4.099711959006675,-11.782900125176742,4.349147319696367,4.092247952957604,9.531297895421227,4.85609292002309,-6.39609135950656,1.518225526363487,4.225084511382132,8.50278186628684,1.8500221831583419,-7.336210465034423,-10.036261965564686,4.278679639796106,0.14464588356516334,4.42515300737435,-2.9488548059466515,
2.0724698005548463,1.2377472876590347,6.277054479544761,-15.853376258574748,-14.797249083730401,2.445953064398717,-2.978137736408811,-19.420682360785737,-6.958097025511813,1.3094381388049716,-5.64124972946354,-11.750270514956235,2.798564765217223,-2.127373557645575,-1.8669670809344474,1.9490485861300924,-21.19137883476836,-11.6006954973544,-2.799913093617925,-0.2291113209579536,-6.060536390975348,2.3059984659312454,-0.5439785525945509,1.357591107768067,2.342106856767415,
8.61360996495042,-15.3076479935781,-9.46726502072606,-15.643737864854229,4.788440835987614,-5.799126130630268,-12.086080969647893,-22.77174604446755,-0.43675360891667414,11.789992641332407,-10.40745842498444,-7.116715457824282,-8.464990648431153,2.2589691190348575,11.130609145096964,-0.7578371879703635,-8.735699426495373,-3.7666439630920467,-4.041197411553032,-7.878334987746789,0.6886617535788659,-2.7122141357518146,-8.875184245161543,-5.260314873457687,0.6278388734636431,
4.635149493867968,1.2792547682484827,4.679429937766851,8.578119332026368,11.796280321204147,-5.601150311134715,3.287181560650944,-3.875374449482778,5.055504202932311,-4.756951578754002,-2.9222760103893095,4.445436070380815,3.4752897855479787,-3.702575580077977,-2.7084030691594845,-1.803757497601522,-6.168032327682766,-5.5013025766787855,-2.8259755225469485,6.87836167197513,-7.278913305209052,14.998426216038114,-3.999218034499757,-1.3928000162186693,-8.034317136516336,
-10.454216649079394,-11.577620576633791,-6.76777527483497,6.96109111999955,-1.389550615816406,5.189873710323118,9.743618133671077,1.8801194974990707,-3.4042689414884393,5.572848882197483,5.876502830561183,2.036526816858763,-5.397759595312231,-10.418356260793761,-13.56257865394645,-4.131906012075789,0.42498134927131986,-2.460026408300493,5.694461747636727,1.2297897598782779,-12.063003430618874,5.285199092493174,11.939811950030311,0.611452894674108,-0.27548008990464895,
