-0.32199171694626466,-0.08842634655797371,0.027705808532737644,-0.5194668961232771,-0.6198685467068141,-0.4452147078286929,-0.9674941692525386,-0.6470110054229095,
-0.04197414602321658,-0.3209037989173477,0.07419519435665292,0.03985110732780661,-0.5368592782866235,0.03604891091785415,-0.13527203861489942,-1.1593570149998151,
-0.3495333033064532,-0.4382754707461037,-0.19972820755663018,0.06318109992929008,-0.2964218596668739,0.03460890400279961,-0.47824703660484413,0.6558991538836233,
-0.953373543007821,-0.5798557281341357,-0.5680757252068581,-0.40707606863143275,0.02944552021243557,-0.31697047127595773,-0.8632184573248627,-1.1417887682043706,
-1.0722986413343687,-0.714870831165487,0.03756607451878201,-0.126048566182568,-0.43177794575484624,-0.8007579188621555,-0.6547834495394782,-0.5462134988676158,
-0.9878811657314872,-0.07989286191694041,-0.2823685245965431,-0.10305094388604752,0.01621191273423409,-0.5097919162038812,-1.2705935884099673,-1.3228259937306792,
-1.9495500084998882,-0.7732201487298864,-1.0239148639555085,-0.5253612769260525,-0.3976631667024835,-0.996680805640913,-0.8155911694761742,-1.712354734802929,
-1.2702875687155342,-0.699331554904838,-0.6024550504079913,-0.05584322503785223,0.2251677057376003,-0.2878768543411967,-0.7786259026948325,-1.4017579956304809,
-0.8240652184523516,0.19566434766417418,-0.22268705483339335,-0.3625394764931247,0.07657715057957296,-0.11944973112634741,0.18535960366486898,0.17413947133383334,
-0.9861205596651341,-0.051700602403149463,0.1138080774466085,-0.07319406813936855,-0.08954539838271028,-0.286314346580123,-0.5746020211386939,-0.2337606210374866,
-1.1076213433556186,-0.28570846776839687,-0.13087511110559813,-0.03115758806674853,-0.32091136226675615,-0.38255484309145105,-0.6414677675087379,-1.0135962923713757,
-1.203819392603993,-0.6654341054793884,-0.12546220224969282,-0.19855073442032523,0.25357288819525253,0.2738610383959605,-0.33783558901525784,-0.9798564644240486,
-0.09794822273110822,0.10718128436213861,-0.11145752095994821,-0.02526617179021177,0.0064871519480334105,0.026742516980494284,0.007615794825509843,0.044621923460672876,
0.46536054786893416,0.9037820574733181,0.4774006489893002,-0.2570760255674626,-0.8284937835102459,-0.4913264967226653,0.22157703096390766,-0.985028246932179,
0.325571808764214,-0.1857258925331231,0.006884323393238007,0.03275387011112957,-0.27611345616558136,0.09238041178960758,-0.055215916493725564,-0.7677859194575058,
-0.5950082243826565,-0.7445253401166563,-0.25128582163666496,-0.031066350114129754,0.04223434586116096,-0.03406452552505335,0.16109589027839136,-0.6288564969097759,
-0.9751118728282958,0.10241213411617554,0.123788972862876,-0.2612890367764907,0.046660224049545285,0.354895547573485,-0.3551040615130101,-0.48929524794316853,
-1.5895548345892725,-0.8681418500881157,0.04365845193069226,-0.6194620966573456,-0.761709839051015,-0.9711553806334162,-0.931174014741742,-0.9521742803532327,
-0.03945643822624579,-0.3155014098102422,0.29306879792630264,-0.08907299166999602,0.20212428563825172,-0.36230612516639776,-0.2795609137287003,0.14994077318272395,
0.8323382932241538,-0.3218918677370315,-0.15855623808082736,0.2542048813448583,0.5201887690873797,-0.19408328011628773,-0.6073954582266593,0.8011226017572578,
0.2273796535227139,0.39766066261598143,0.32738801762892616,0.2165611279017248,0.4905000620141087,0.4437071163535697,-0.021602263016278576,-0.11131835624875042,
0.16535061830363446,0.46915985313576625,0.4116929399892007,-0.34908483680680463,-0.08204051712265562,0.09510931409221704,0.2996701379363157,-0.7061890230451543,
0.29131828935200554,-0.3645573299908937,-0.27226909642636915,-0.1554136491809855,-0.3317497762290725,-0.1001853140597336,-0.07498752940054178,-0.2940764665687245,
-1.9439063586736653,-0.6433189776294469,-0.32924393553538206,-0.362317758113152,-0.43274936113494944,-0.36468207346712594,-0.3504181520796327,-0.4725671630741855,
-1.226009642660046,-0.5982686761205372,0.0948724303041037,-0.27148638859424146,-0.018406841615707978,0.0073108025423780434,-0.3044772515505211,-0.16186970271273357,
