-69.0854986345222,2.4390170832977716,-1.1418162076463303,-2.3364656363641454,-98.40430558195514,15.490629087360093,-13.690817890015639,1.5215741716068867,-51.37981425722317,24.779529487926784,2.5035999571235887,-19.056471466269112,-11.11155160786973,17.53875811377384,-7.692374570269822,-10.43814256398967,-4.258483113074461,40.962355139973376,
-61.846457506738055,-2.925739812376128,-6.656726589851698,-13.43135003417644,-21.43358509313343,-8.870084242006161,-30.91176301551844,4.194938691524655,-16.02069681171401,-7.400253354117713,33.80117808092994,-15.085372656074123,-16.82853311386817,-5.963910947163953,-13.465510794955794,24.349096109394022,-17.918664990995318,-14.446518383748499,
-65.53127157476442,-15.795394137455679,-37.73573971044853,49.648099218245214,-85.24684109442515,10.813828375879842,4.784783135405801,-2.4767127120456176,18.898022043372325,28.31849422812537,0.6762202565665394,-9.621216309176353,-6.818781414882612,-27.31818753526706,-21.245064086191082,-6.652281271249608,28.611321077801055,20.063294895036236,
-57.82467840647758,-1.3278645649359122,2.470523266059251,42.273185467432896,-62.18916393960523,26.22947089442942,-7.214877627262736,0.36352569674137036,4.3177334734799855,-19.903737500220025,26.38004136540175,-1.0892730738134466,-6.038756157796311,10.562847654921159,-14.068999179017567,5.3585820822185,5.099966908673506,-11.92106355481822,
-51.83200719519414,31.976417930614268,-42.8375384845401,-1.847439709625103,91.62679677207079,12.301020871933487,9.67819067760162,20.621599477918835,-40.03636910446369,11.252040411124378,7.3756620820562455,3.853873916839947,-13.79216586855363,-45.42307410142209,8.234771946535304,-5.798605454250971,15.30745887077897,11.658903957350336,
-63.74130228268594,-46.10260340586832,13.515789016161268,-35.69206382545006,29.812136367099434,-15.339155143732047,-24.156107978706792,-17.27507237025679,-20.1801962538599,-12.63047554087505,2.2144916866072157,6.71352862988847,-36.08600725134724,19.350981787692184,23.542735949449877,-0.9643516271296468,1.1378112104652331,19.37742265715473,
-52.77431402579834,-7.893030021087418,20.287510334879094,-78.80099897855963,-0.7930012736885436,-6.1115250484114245,5.27795089653695,-21.301759722999805,-26.658877095202218,-6.457667955497205,-30.848877763380788,-0.4868029598660961,-24.59973247528041,31.5553068583183,0.9226162169554064,12.647242447226683,-12.164174084456365,-17.43547225009478,
-63.55363813609361,14.45166091143149,-18.55224310153373,49.903942701744086,-23.50385702550809,-12.052983719544024,13.72868422135223,-4.862180332415267,63.13831066309777,8.039429888626344,8.420151929195123,-14.956695275275953,-1.7669224433373998,8.02347991216013,-10.582653079276028,-13.829006798166322,18.079860503906293,-6.772389333985811,
-55.909836242052975,11.012541001783683,19.21880306006486,27.230218057444766,-58.71112113255775,0.6399316393525503,-23.433169684355093,-17.504699061394582,13.023466228088646,2.2962235045171013,-11.084282107033609,23.27535784819477,14.159717024620967,6.099818610914632,15.336404590288163,-5.056092235752448,-18.116809555518536,-11.074752933405222,
-73.70288190288109,17.41422237552581,5.4551611784548655,6.293714066248597,-4.481289300452907,-14.7113042801014,21.121954810286244,-2.068479181029411,-38.210994650106315,-6.134617538555611,-17.962370734532662,-14.911516113731848,2.671341718700499,6.9177574487457605,5.673211590116034,-2.771585797374883,-16.21656548848237,-8.414481317405416,
-66.33254401577999,14.909643308388244,-1.2266046127847714,-0.6186111447446733,-10.361620025927563,-38.054744928641476,-19.68330105825318,36.64100136807669,-55.34486043521976,-12.885577330218306,-3.836423570922438,27.352092292560094,3.179164634767324,14.29965778878367,3.3486254788955367,-2.317978310965107,-67.22677636591965,-9.53636863284212,
-70.17005777730084,12.629289208854338,-21.548953271911376,1.6607008400606689,-1.7984090374671415,6.091759291949786,20.90439841948134,-13.023475092209434,-27.251553027976936,14.171526185650462,4.865431474355378,-12.919982018608993,-10.64104118908208,-14.541929680441052,-3.711843646959236,-30.665008680488747,3.856661729591319,1.300515309244791,
-43.61457383277636,-12.894762940338108,1.450214447542476,-36.506499808131316,-53.4662657167489,-8.17219410996544,12.775775933223272,-13.347513706862552,56.91061504106752,13.576463286130911,3.766151734858597,-3.2386186604959675,49.09787530408393,-20.99113814901664,-11.768960779714382,-15.276694081306502,3.1667845916941433,13.00572267291267,
-66.52114190028318,-6.131038016822654,20.39376189042246,-8.473218617963616,-17.937676314758853,-14.83368223018324,-9.90219559118777,45.796640760804074,-26.145174326584204,-1.324031403540765,5.098465331518007,-43.801264001929,39.465598034009986,-11.271471200786458,-11.61926614796038,10.586024907262699,1.3356425483251113,45.67670767051993,
-46.05932382622379,-33.79613786470275,7.784384569801243,13.158552901796565,-31.1815966145733,-20.007421233548893,-18.47894653303029,-23.403145363573962,-12.171618230550479,-2.592812135424228,15.701447357733292,25.988862324884582,-1.72642355488639,3.323173599354038,9.26728117296202,-1.3066121249072746,-3.460158709709296,-1.002118488820314,
-52.61441214852266,28.10043313623604,7.293418920153417,27.11622475984417,-34.90167063154061,-15.634442838766153,-27.876428106038208,16.230032016810856,7.816513216635445,-21.69176479899871,20.18896069081543,-1.3805417621099605,42.93975269891921,3.925695171807172,0.8231303300952453,6.658592813289567,7.6479090625409585,-11.371211907749919,
-64.84845384690824,9.747201495091293,4.366951831611232,-3.659497517792185,-16.52279564932936,-11.726451127122456,-3.1001097380454286,-15.814148635151929,15.09197748252504,-29.462112217883284,14.130256893761983,9.63852210888745,20.547125228605758,-5.407040035521825,11.675568118011713,7.509512498965213,-34.01148524841931,-54.1827983026749,
-57.976835960130245,8.948782364372615,-14.635955686534919,-7.276441158604765,-28.830815025672234,14.823328412679043,2.8454965969126205,22.110361885619746,77.32367099794776,1.4966253073104865,14.959074519989139,-2.4260434011247716,72.34094206997092,-13.242164442164121,-23.968682633042285,10.377409170349488,-10.781451440710415,-22.544241745285856,
-51.525045486128796,14.543683401585131,4.175267060146246,-37.017303204589055,-8.2815868822162,-49.62789169356282,-20.832368927879912,-3.955707596810463,-12.612639304144263,-1.5717434606200136,-2.714329076416048,-0.17086029642283881,-11.182001328072648,-10.958423646988345,-2.265338359678806,1.5591896490890038,-19.64474902577303,-8.634408100308434,
-75.03365879527678,-8.423960072298332,4.4080256559134705,30.472604613824856,-29.685550231472888,21.627784462319894,0.8295947409945779,-4.911688582007622,-57.38214799784742,-30.68339263148523,7.336527610450062,-15.652650735973324,1.2918174059661378,-0.2879465423826106,30.362851738633644,1.6646647010886961,10.131743961416603,2.925370414762176,
-69.54576325976845,-17.527588194698595,-2.3169412338782864,-59.639089152269094,7.398523408875013,-8.124900134455208,39.51372908722623,-5.000115327799164,-72.79475589664631,32.162581524973405,-35.22776488727067,3.154084324846248,-63.35361412745973,13.116836843571457,-11.329810867856883,1.2061158858692564,-7.955196454454063,37.27162927508535,
-63.03812550329837,-34.82295934681418,-2.128062569928849,-44.424316771644556,-20.552989324289513,4.056510229938425,15.762922022301618,-25.436490992670837,28.65649403421774,8.888013537589412,13.103659736934251,-3.2121428976015354,-11.203322115407062,-16.241492000447806,19.784783485026036,-8.936269892562215,-0.18721123439516993,32.44557351921894,
-79.8835276357048,7.194551276035269,5.909764915640508,-26.173603772564817,35.320619330079296,20.328132727251585,15.023153655257929,-36.85160799298184,17.8312918608052,-5.4220908864178385,-12.647375166243734,5.429138377493336,-22.958328432829322,26.01001285453768,-38.330183654159306,12.846966538013103,-14.650669305691816,-34.32052842948233,
