-12.9367751341204,-18.97252587582403,1.3316938148373323,-14.899767866243558,-14.674897779339464,20.959041824561613,31.05474949984942,7.002328712800539,-19.456823089700173,-22.505424109941654,-0.06666015246588662,-1.121687828277652,15.797919552272353,-3.370629582501944,8.973852159023838,-7.0289629912472495,0.30133816034433525,-2.3424980555316153,
7.5057634859084725,14.441666632366525,-2.6178474165161463,-13.683482647190433,-19.062805487567445,12.803852128980605,2.0930379711195894,1.7203040373899896,-2.9366617689771473,-32.026950874723255,8.326773316019494,-8.123514108466,2.992510044725651,-15.304050991282454,-25.825779119397925,-10.523494267837792,-10.749297581589074,-12.92509879954576,
-14.262277883505416,-5.35424874899076,20.812518598848087,4.638561344076047,-25.20633769631453,6.282421201660047,-3.6276963144161245,16.143309438360784,-4.539443610997502,-16.841794999540884,14.219436425325789,0.31241763932066596,-10.260534957283992,-27.327508842903264,-6.868950842816584,-2.263308455281012,-23.853207650744952,-9.582221498560443,
-7.9876949077439,-10.982674347470638,14.930854313983838,-18.410530207336933,-10.606566539204435,-2.589388827377669,6.64728716652737,18.69466666608116,-16.570159406059915,-30.856947160573384,2.3269080684023744,3.8246944154247284,18.279133861980366,-17.772422139995342,-11.34330653312166,-3.829850312670835,-8.995741114758685,-10.553768676234904,
-15.123899555489638,-8.76710739321309,-13.193818313875601,30.86161727694695,1.8032872038086676,-21.43934787489735,29.18511785789028,15.83877407363292,24.3629634163458,8.531339583057854,-18.860360369805317,7.23607674293753,-5.308061534700955,3.398526609202608,3.496040656381038,21.47004376354301,1.020752844670684,17.868323600829626,
-12.587499694675019,-18.747178158861455,0.18968227774406843,5.575610758526992,6.223157954606055,25.3826624848496,-5.388527445666561,30.209013461810702,-10.36567762025868,5.118843093753424,0.7710486161772803,27.76633301345203,-16.762470707011712,-26.132027674010033,-2.7969460803685893,13.426272194602019,15.894883001064262,-34.400458466370495,
8.186042516659157,-11.659183613148388,11.68088893854739,-1.205691485072634,0.13607152104970976,5.3931868338270075,-12.038421616918624,-32.02567814857047,9.208963136445673,15.072260549095066,-8.06307166012395,13.644538098793666,36.83412054733546,5.444657935097212,33.3708163035699,-7.09391882407207,4.4262045700773465,23.671647712831916,
-7.353470380934641,13.052727363517596,-20.70260062882864,-8.91114571906073,27.599729396730282,-10.135997878372018,-19.81132442340615,-42.58589533768837,3.463664908761516,0.584003090259675,10.982880169450432,-0.6342579704289077,-20.695613970322153,17.218677802725985,2.609734995619729,4.204501810739687,-30.320197122672024,-3.3647466933532186,
4.521339678990136,0.5296852316846423,-13.078551718776856,-5.436935752287122,6.705382919970671,-11.890519822440663,1.0868229979791988,23.583565643550678,-20.76408922754652,15.078917480233411,0.1425388703449762,-4.661978798212389,8.296484998640619,-22.7755565774285,-11.061349141633686,-9.595110632571094,11.055608150392,-9.237671858457043,
13.589295091185988,-33.212839191270675,5.049305630346939,-8.75750178225241,4.100724436065635,5.371556349469354,14.006155761199409,-20.673065312448475,0.6905132987527678,18.77636028976284,-6.053003769624498,10.522031018915081,3.256271386663177,-11.162358661865161,1.8174697288300106,-12.474915367554155,-4.164417266638783,18.787548064346602,
10.187267685028825,-12.47159108710146,-0.9400156168977337,0.4981436002776748,-4.386895517982948,-13.71206906179147,-20.867076727114434,18.00627585111813,11.844155815553982,6.768143351365866,0.2518683834686629,9.153319942655974,0.8369897243811062,14.67796842661687,-13.054365562061694,-2.5038706997779667,1.7281984319334178,-0.49867857544958455,
2.6375943622156837,13.110355079342929,-21.291674040079066,9.595265748024772,13.885833617803806,4.46407079648712,-6.111930599775182,-1.895505262164211,-12.449967123293275,12.942726410110334,-2.6362421079282075,-18.322065872059575,-9.431388617990168,10.789712271773531,-10.836311320656552,8.2428109393062,-14.349681750230973,-8.790348276608658,
16.66936814683485,35.33932223652865,9.94150512653488,19.1457995438536,-10.857813844484136,3.0489419705119865,19.718560741445277,-3.6697462458145016,-7.052643757550052,-21.120998906852737,-5.698423694414503,-16.42630593464067,-1.560151229824818,-6.445597991653318,-16.41815748977644,2.3063423299767805,-22.240329100397616,-2.843383612116239,
-1.2201855435753672,4.832733421309954,11.643290663120384,-12.654878357665353,-20.629549632600348,9.618705198124513,7.116466708691386,-3.4286837040530918,-32.312526059992464,-39.11548749136694,5.2682632335838635,21.5492418317566,6.35910881063366,-14.190698025306022,4.586779757040663,-6.701943398343533,-1.512667888588806,-15.208005487254827,
4.981031960545598,21.438631649696237,11.336307923825,22.35926723594758,-1.816664972915181,5.686961736771312,-6.497934933759107,18.061879434184963,1.7254849199611175,-1.681598765206163,-11.240392624295863,7.391732623063588,-2.3456732501839004,-5.521704260127136,22.882568930375278,9.983205521507365,8.54333441899449,-1.3542234619557152,
-0.39918781170719975,1.8673691895893787,-17.985225055301456,1.9578714492063205,11.551003454383162,-13.072756938182184,-14.432936183076194,4.6450455918234566,-12.66871376506088,-3.470180468477182,34.20909973151386,-17.0108886695747,16.741786536751512,54.71185598287653,-7.205281124252777,-14.162787730156962,-6.366754523138988,4.405502997805179,
2.7019669247141334,-3.8667117582133863,-8.384678866045688,5.314197060505561,-2.131839398332409,-18.335768880248384,-1.1403721487300442,-8.256232336691875,-14.879662443114787,11.452149667109518,7.952994263249247,-4.290927466339889,-7.584728745273185,28.193375604608818,-28.3349486513991,-2.0132916995741112,-12.718207585693454,-7.1856419375736,
-11.930761508130656,-35.29659200034237,3.870756895261608,-19.92952601440219,-7.003278349294341,6.662922806181983,-22.383915428744153,-14.030325490422248,16.599159878931445,35.2844098948332,-22.64797848062833,-11.638792028192766,-6.02159290999615,17.672239076531262,2.8328620590481197,14.832426715335645,-2.064813779367079,-3.4799178960010644,
-5.464347003459694,-16.699280291912945,3.955432235580158,-2.2488018884505627,-17.7869982535311,-10.97724704034945,4.479119361761361,-10.15591805601193,-7.684570626357559,-9.786179344700491,-6.211548363096566,-9.552383199579529,3.996689331922466,10.953323313667779,23.395193200935392,-5.150695144824654,-0.10983516846037258,19.88702150196118,
0.7238237061252244,0.11304738413620993,-0.5214246361561194,3.6660162881677425,-10.980800030044275,-3.0399032840717894,-8.35626613829141,4.182007732710369,9.024345859546182,-21.00662082935541,-11.767860540344277,-16.960837242449504,-5.606073634293017,9.766740507255498,18.71866157777474,10.235902705341465,-15.054999770925773,25.793639307021838,
-8.815245853018018,32.28877465937123,-12.328053829129464,0.6834155571038616,2.924445258844938,19.76981794521493,-30.24046536396294,1.811057342186373,-7.081370914257912,-2.8737132494832807,6.615081725355076,9.40936495758196,-9.86468665651262,-28.848762726489614,3.793594528883747,-3.092914572469344,-20.208082821921558,4.081051892952611,
12.85867105997525,13.650292612626549,-15.157137511083828,-1.8254013777178826,23.175763911329934,-14.117785939143776,5.100210342492746,-7.594405222493757,-5.259298856571973,8.180767421261695,-9.376825835015678,-6.5536688471896705,-8.14610639854678,5.400507550156004,-11.995401260029752,4.749121356646238,37.37557511766107,-5.911572753197564,
1.2049186584399634,-10.349191809843955,-12.679331144097738,-24.94142592263531,0.7550100631051628,-14.194193055766986,9.315885045133976,-28.923361422535287,21.234502222700606,18.791831918865284,10.141086365088135,-5.913324612039671,-14.807626969070657,-6.097345331587134,-3.797223910008887,9.096855122467456,-43.05707743029857,7.214381703804985,
