0.5537139476987345,-0.21329065836859373,-0.10805211841775593,0.039802565671161166,0.264970621582892,0.2944599803554008,-0.10885431695916165,-1.1001784283916554,
0.3209017302714936,-0.4658780326394778,-0.09423415385619359,0.7129742089115969,-1.1235151078158545,0.4045662985973605,-0.215504913766243,-0.8245576576417871,
-0.3092463651468352,0.18119477791290292,1.2240132787912583,-0.10500741874109781,-0.15179893473277417,0.16664654931536854,0.6840241731942789,0.7003983514736661,
1.703949862992416,0.2964884928079168,0.4308513431388307,-1.1312014563527741,0.8910236270527427,-0.43504394313915745,0.38121055966132905,1.0982400091582698,
0.6595570412083412,0.5728653530510291,-0.13336179694482606,-1.082038475965843,-0.3858465497982385,-0.3628391918081389,-0.7758131941501044,-0.950690851012675,
-0.34192790586543514,0.05992583366475268,0.26600765318700714,0.2618742214388185,0.27158602656632863,0.6507934979571451,0.352435488057301,-0.5044905552617476,
-0.21101402008021664,-0.722093823321234,-0.6548979489419086,0.3531218751109042,-1.2673492960988937,0.20391909488855064,-0.26317477231008324,0.4269339619942068,
-0.7405258533065843,0.2005952752511965,0.19778123243059856,-0.12178671624324257,0.04085803993027821,-0.03452183547230883,0.07804217726892988,-1.3495046953611138,
-0.7251701259176152,-0.45340957892085626,0.8671041380440264,-0.5699219145525614,0.13521602621447304,-0.7129941906027306,-1.211401740842053,-1.1319426742447578,
-1.4529733647893697,-1.2248965973093342,0.9988237219449004,-0.06932622754764939,-0.7918879158579382,-0.7090908664756255,0.25622925278085684,-0.21336167844441611,
-0.9663040753335267,-0.4770986363106942,0.06216370519621476,0.41751379791026944,-0.2058127274600138,0.9825667461434121,-1.422618625597685,0.6243540425272255,
0.6373007628365095,0.06377036542555649,0.10951390793505225,-0.3217683163559429,-0.08519802989282715,-0.5684549565665632,-1.0473007342522216,-0.8750038185433962,
1.532002697780256,0.35549755705654634,-0.44658594020509834,-0.9004563161266244,-0.12168101784046004,0.32898568703727094,-0.23948672654100342,-0.802455048220469,
-0.8204555342514154,0.535270469119883,0.21214556611700694,-0.1073145949526298,0.3157421821157991,-0.01535425532738808,0.13511582757878024,0.25469545630927326,
-1.2859079869213985,0.2093457346981178,-0.307081196506396,-0.8195113023822773,0.07943746481806585,-0.5402986874252285,-1.3251314341826481,-0.29562468930345354,
-3.685017423724783,-2.149741590271647,-1.1851343741600826,-1.2590332118284666,-0.13086768104665647,0.26063939599865976,-0.057039211409575026,1.1527508363955536,
-0.15647731622232475,-0.8144886946617321,1.0154620003965842,-0.18695109741081128,0.27504148714112125,-1.542132965524121,-0.06399045012095891,-0.3324736320996816,
-2.2242554278828806,-1.2075252119260633,-1.8651653823576488,-1.2853681249349185,-3.082677424336793,-3.0252204568904624,-3.495600593037548,-2.5967217802463773,
