0.13437876101350849,0.3182905029942915,-0.1326685674624699,0.3425796871087359,0.2618351462802395,0.2445254481000315,-0.5244902273920112,-1.3354079928517657,
-0.45068667719359196,0.17151191731484627,-0.6593648029313899,0.2695982659518499,-0.8143685445435132,0.28992452793863815,0.07054534618876872,-0.721998421791231,
-1.4149981113637788,0.26085682106352376,1.9208992679404646,-0.5829172714430159,-0.07698367123829333,0.5881160481046268,0.5975400106989529,0.7466741077726385,
1.7618450701405939,0.33536270772743165,0.10957009231371322,-1.0934776439398586,0.8402298069693672,-0.4158913897507944,0.4132454765482857,1.101743212108691,
-0.04979964329704757,0.06485742700270328,-1.1129650149421386,-0.5595695508167732,0.6452984468773253,-0.5235846522271331,-0.66788906960096,-0.5574902266919655,
0.09399584891042383,0.7966066585781202,-0.8399581287045558,-0.05463142649416566,0.11028654491147627,-0.06825212693781173,0.14519851552030114,-0.4532175083476343,
1.2600599679881497,-1.113027685127498,0.11952567080846285,-0.12481308884818054,-1.8203107199933235,-0.7228666630670747,-0.3028492259950692,-0.03955773973723392,
-0.3962350805405411,0.021832177938593822,0.6033593888323892,-1.6888339086656303,0.30955006820354714,-0.9126763120617684,-0.30608393678572504,-1.1750630974163347,
-0.700758591544842,-1.1402387042474522,0.2473579839247639,0.05853794342904434,0.7125872894260836,-1.210967814336932,-0.07255454898932903,-1.124110107050141,
-0.6530457451871392,-0.43090687674460904,0.9033069097489606,-0.5707015666759312,-0.3843172943656795,-0.49475593055050926,-0.34917905444802294,-1.1337581565895332,
-0.4391563334446037,0.18414413144737118,-0.5796299476256525,0.22409070052958988,0.4740057546971301,0.8166935964193316,-1.5570018229239495,0.9967429462006842,
-0.08377352764898792,0.7619647659226595,-0.5188720191968134,-0.07326954518012709,0.060193534530593756,-0.8494188894813416,-0.8561871087253053,-1.5201241442364457,
0.8386122006772921,0.36139098718217266,-0.2352753482122286,0.012589550363463126,0.33689794067411466,0.0907328765106009,-0.6815498484510113,-0.8915688440329265,
-1.0477991643434184,-0.2589654237804857,0.8140557295422283,-0.25849034909558066,0.08939959309155585,0.14270653261969168,0.1340232864154532,0.15894852783975225,
-0.6679743708332052,0.18856566337832814,-0.040831520589975544,-0.30994993239529023,0.04163576996606724,-0.8503526573866571,-0.6283489313281065,-0.6466440357628539,
-1.985957908954447,-2.3296263577141274,-2.1925498125763285,-1.3446306937299597,-0.7365107224827238,0.23180505713647587,-0.4405137289397639,0.5200215859191588,
0.5520921740315485,-0.16186724627917007,0.8568602100967408,-0.2692667230358158,0.099305703483595,-2.298620516052281,0.32530130686509273,-0.4419589923329279,
-2.244501847145831,-1.5083648645641556,-2.061184559756826,-2.055465258734995,-2.8625369958738194,-2.3182215284186802,-3.411861805229652,-2.4452519345130836,
