<<<<<<< HEAD
-3.019499249038277,-0.17392433817588615,-0.38893242952234514,0.4357888335510287,0.1642323653745513,-1.4872968642010165,-0.4235174416164971,0.7370660298423115,
-1.1079867163134223,-1.1182011351316585,-1.405065317101598,0.28284474885794303,0.5343342748021532,0.754382632256501,0.5041194272658547,-2.299733426643889,
-3.7029748416872286,-0.5316698850622089,-0.2821441976111774,-0.2535570329485369,1.2765675057253216,0.28213394529066727,0.2572883831782662,-1.5323484875064988,
-0.3519467018486109,0.530597817856657,1.8569246828597252,-0.8933822872632482,-0.9248194672068507,-0.11467899547467761,-0.014063378123561985,0.8546764561768088,
-2.961539775076669,-1.3215798294710566,-0.20210584876575605,-1.5275317889537257,-0.011372314266806722,-2.1973095678645835,2.355963521698654,1.2918399404481005,
0.1269989170514272,0.5637418308667247,-0.8070070932344644,0.6765593670246012,-0.957795953893775,-2.8902007939726797,-2.598615492017057,-2.662369876911995,
-1.1371633362686329,0.34565687642329845,-2.776872010703516,-0.9548099258847387,-0.5725826565622106,-0.7545783012542548,1.1120950588243128,-0.47907284865181027,
-1.0366922158351768,-1.1351589304142462,-0.7580393469064981,-1.652111121540914,-0.9167750358696339,1.804093106336243,-0.4277871552809884,-0.2179689418663434,
-1.9753014093575765,1.5761611112743354,-1.4199186156390313,-0.5513397136021141,1.8226383305871663,-1.3706335091914534,-1.7457976237913202,-0.44618123911363977,
-0.8565039978937137,-0.07677418559840754,-0.40889867244423017,0.10246490358275237,-0.7842631850694073,-1.7424930899999564,0.5028069570629742,-1.3553482214403823,
0.5493972063631315,-0.9555941546730197,0.43198112026220337,-1.2748448268930457,-1.7025906059610691,-1.6641512477543565,-1.7865894376734417,-0.20374216068626916,
-3.26135546661424,-0.4313059315058139,-0.04277965896664641,-0.08398470466055462,-1.8119612990425784,-1.4041557485691674,0.6903137987652672,-0.22647814990673484,
0.4983952786771459,0.010309439410904014,0.9255049849056539,-0.5743931646076723,-0.5065527590947727,-0.04413436366354976,-0.12494921310210157,-1.334547030422842,
-0.29590222274963046,0.551047149410088,-0.38592328031277906,-0.5406081608162463,0.3347599135980292,-0.8708433851296518,-2.2635963543666584,0.9073990828277766,
-3.3985680294817198,-0.968399300531987,-0.8418043194795857,-2.2680004438554118,-0.9279898440281399,1.318039005114024,-1.3174192737690011,-0.35111957554158346,
0.006974809143591661,-0.2532461446355351,-0.42695527651622334,-0.7577000206632657,0.12362005945172397,0.4784071333442077,-1.4860598755274392,-0.07722024718589413,
-1.123732545205636,-1.9444020394302004,-3.850115156294492,1.3043338745355193,-0.3055512086767012,-1.4611355077514891,-1.1692338235435147,1.2377963986595173,
-1.7920175287492508,0.43589633995077975,0.023922140899826996,0.18235073294150428,0.530707458151664,0.6954100122850159,-0.5472919128915917,-1.1876009992846486,
=======
-3.3537584857591862,-1.008817838193158,-2.1006875950712978,-2.16968242091059,2.115253560810664,-1.128344932283742,-0.9280197381934259,2.1138826765359044,
-0.8174606135925766,0.6806500026955107,0.7879228323333289,0.545578342299332,0.10547836894724154,0.09284427944815539,0.7378177465397513,0.5615864911503163,
-2.935889245192136,1.0996510637273662,2.911277076585697,-1.5281387767938377,0.9536927528455591,1.342230189069239,-0.43370854199850695,-2.274236872175727,
-4.991045696269851,0.018461794742929832,-3.9732139881130917,-0.6776382083097042,-0.11421703216016396,-0.22240154178761964,-0.7138095254872784,-0.5599810842379672,
-0.8517647148940055,-0.8259861525919856,-0.4438854429821656,2.23137610776158,0.9576958409151765,-1.48981361290966,-1.0436022604036126,-3.1012463133779096,
-3.812447245841997,-1.0878367596394847,-0.26147130354169057,-1.1078254255099622,-2.153871674307982,0.9395369664515698,0.12117678107210082,0.17107466548388814,
-4.42505847767887,-0.8210391923138749,-1.4376754284914988,0.10415331059891345,-1.2357805327467026,2.208634508232082,-0.7358401213451182,1.0965584705985394,
0.0346272273628943,-1.7993137507941601,-0.924043805499087,-1.1540446904514572,1.7844343231757156,-0.18148885687978755,1.044189868538567,0.8006186065356872,
-3.211564515341643,-1.447722980087011,-0.23711935024531314,-0.9938071036478376,-1.146368440634223,-0.404299080450367,-2.972786957743691,-1.0715446261676527,
-1.7514343844019662,-1.3614803874399237,0.24666835642615484,1.0916311753912986,0.8773968963797422,-0.9571945230701421,0.6907756898731188,-1.236049508845289,
-4.092638252239784,-1.8456535082978602,-0.7376679630662291,0.40807358648161574,0.3188371096747633,-1.5696797724446632,-0.30469704780879747,-0.15749133156276407,
-3.2591388048565353,-0.41542816453077785,-0.506697981518474,-2.1949304458020684,-0.41419092042616,0.3786409817263805,0.12385051266187588,0.31261597425467885,
-3.524265389654679,0.3214925570672028,1.3239940324708097,-0.28523585060505474,-0.44131770808768217,-0.8230971617337886,0.6069382557838333,-0.79134362639264,
1.0342908683041572,0.09898572574667278,0.668919404354498,-0.2243251808739401,-2.121940892656926,-1.964785166012166,1.6013848607320906,-3.142022452921393,
-3.5337227749801676,0.834747458704289,-1.2392505165045322,-0.5012986129563293,-0.7672210975930515,-1.5862469331234341,0.9873634906471062,-0.9541190720388998,
-0.5925909771876493,-1.0216546896283842,-0.14912735187047801,1.5236869128157629,-0.3800913275943627,0.323936034178794,-1.6725758545056428,-1.0406858317935308,
1.4234314081979411,0.9448698089472434,-1.6130299556878134,-1.2008350213994357,-1.8997270379786202,-0.981490647169098,-1.7446276959457145,0.7166966093182832,
-2.939545747645905,0.02928096074998238,-1.0505111180409408,0.27520011921582505,-1.07424494184371,-0.2381122754807062,-0.14792536018731386,0.8000692471087683,
>>>>>>> 4dd39abdd53498238fb91fb1c9a298e29f7e237c
