-2.8506370743910376,-1.0770223617906833,-1.2101135779612044,-2.005311361437831,-0.7198107968522752,-0.6406601544610291,0.6789360551829403,-0.0732713028544128,
-3.401386316696472,-3.8336550276097996,-0.782899317517485,1.2768382376733924,0.31899681882077346,-0.2646790382254959,0.8667436907722516,0.14763099394767154,
-1.1077228742048215,0.5002010636648357,-1.8469111396188909,-1.6423449040311529,-0.5541543890675803,1.0915020916467695,-1.0405701232570097,-2.482050181205737,
-4.428264262723527,-2.5285770393222355,-0.5864681053663511,-1.3259739481466852,0.2660005605308722,-0.2576093168369765,-0.3211880625638519,-1.3229300098271906,
-0.5988062848448493,-2.3410590207406847,-1.019823526465709,2.099610899540525,-0.9598829090560062,-1.408701111675051,1.7593832184922622,1.131123793083149,
-3.4084319501291755,-0.2050329256738887,-3.4898754214003307,0.6631993871039848,2.362072890273857,0.28687042499977716,0.23590445286593434,-0.31175131956107655,
-4.085664017330837,0.08730209404023831,-3.383626210146072,-1.9476356878582688,-0.8103481206777465,1.695792232239033,-1.1867654204476434,2.2069685945488073,
0.5033392796692484,-3.084664716142487,-0.682534600034623,0.26330910333805946,1.1935197440643162,-0.9586367789325928,0.48804875631031575,0.6000821130578682,
-1.4643382280086783,-2.4307779233879,0.5539488167532195,-0.10815092842360868,-0.6399318185537942,-1.307832732507366,0.21659586396434158,1.0650736984088771,
-0.505486547019721,-1.7633596125445967,-0.5999622093391022,-0.4096883174821006,-0.5858855013850203,0.13339334724931948,-0.1126448280485309,-0.6579076701412,
0.30792599614672483,-0.7585763916526717,-0.10802448055311438,-0.887941260205677,0.26957582584950474,-1.970631956904265,-0.762443218119417,-0.7651586580806696,
0.18043227609499632,0.2087176315724444,-0.16341004877883125,-0.3515718474383902,-0.028352741047614823,-1.634405767854963,-0.115803285910318,1.1803142365853478,
1.6442648556497512,1.4386083555901874,-2.6878218748850315,-1.38396403391337,0.4563099368371234,1.1004753690489242,0.13438176775571825,-1.478464204557294,
0.336665575369541,-0.5601865700362305,-0.3896683803774362,-0.342839958091793,-1.1253280840422777,0.3414478219849204,-1.365992452619281,-1.9277037868279427,
-1.987752710384175,0.38401784433813774,2.3926287903483665,-1.8188697613904514,1.5343835450049672,-3.7309114373269283,-0.35079160094888096,0.7224818007490862,
-0.31186810553935534,1.4979067911013546,-1.1855511883766248,0.6203217850581402,-2.3480962476227614,-1.9703892725093763,-0.5972411963917611,-0.7922594193130478,
-0.330718575308589,0.8765591630955287,2.039050242395797,0.038042665259336625,-1.2618343222897745,-1.3158575234086336,-3.623403869502672,-1.2975304969814665,
-2.920292087669834,-2.3410640791023605,-0.20752001779235407,0.5439725176745547,-1.0927810137861655,-0.26428626769404845,0.04913040268003865,0.6998741476351071,
