0.6903006005026063,-0.6313276269635949,0.6213729670912358,-2.7535728640987607,-0.040119408814874545,0.1674305676370079,-0.9093789051822785,-1.217505633144233,
0.20859128622362605,1.5385190223986238,-0.7542608936823858,0.019109289886043216,0.22379185017846215,0.04601981571607927,0.3883026099779257,0.7388130165210945,
0.1667942143033271,-1.7867261955228486,-3.1341742355079347,0.7452726617922115,-0.4687344292799324,1.184087959093139,-1.4985388119047591,1.4094923982258847,
-0.33425085924981346,2.109085904820886,-1.9862911563664414,1.1122042125323608,-0.46157069274921697,-1.619219496738882,-0.14140999860879153,-1.4766500005371148,
-0.0074162266332322875,0.3431112274483987,-1.3943820437884238,-0.6461968380174556,1.8110958983513865,-0.843968389909455,-1.0830737930834209,-0.6549067683343225,
-0.9255047154366535,0.4605073307984106,-2.206182813710753,-0.24765456628293533,0.42573283803247425,-0.0515430718161995,1.5008896818205875,-1.1814698336067728,
-0.6267154190130915,-0.6400611323687241,-1.0268889474509395,-3.3924415433940114,-0.8296407443098319,0.733684196598295,0.7021951307989484,1.626960876746564,
-1.914354066515101,-1.4079824677656183,-2.049181591465767,0.34479255827413247,-0.5472021596292087,-0.5145849182324004,1.832755405559588,-1.7859128726573956,
-2.842461323885512,-1.0310658196960334,0.39353818677137453,1.3468455175385972,0.8007562987490685,-0.74151524395894,0.21708429589173547,-0.005369755932392589,
-0.9771268595107837,-2.9555467571916383,-1.1242592963655347,-1.9588323892361212,2.8212484723675617,0.388254810401911,0.5118790312102193,-1.2044870517512882,
-0.47197489312821916,-1.0486271171859147,-0.5090174484585176,4.856192094350352,2.504655026961657,-2.34386123519924,0.11560329497930596,-1.4246599918173275,
-2.3742152279116278,-0.08250655151073998,0.15481894849923408,-0.3189230540609706,-2.3204179511199636,-0.09729770000645531,-0.1940135762887756,0.3538183869913755,
-1.1660923872487243,-1.5848093356750246,-2.7871408822234156,-1.0796109231736521,-1.365265738359003,-0.025855184293478137,0.42438017370437775,-0.36894170867926357,
2.277989541387789,0.4054626875969939,-2.19385772003168,-0.5862723238699854,0.7084591200858955,0.3437813173813039,-2.467551380389016,-1.2119755244935941,
-0.3789844138035845,0.6495866596679537,-1.8589573941043622,-1.9187066482650315,0.8386557388268622,-1.5856624348805566,-0.06442950367637162,0.4856297635695187,
-0.8426087137710937,-0.6989642189250639,0.07245729079423961,1.0035050432572459,-0.7116314052122302,1.8950051265984202,0.4547148546723737,-0.32983936103663486,
-0.4508610467259301,0.4284760047582106,-1.2065107342518469,-2.107760760381585,-0.47737963069930706,0.8411848462690718,1.6227219005808757,-2.5520374718652996,
-1.5544358148996766,-1.2215418825190316,-1.2738065344400362,-2.1045983172359803,-3.059013347758605,-3.137954190426843,-1.462635511369825,-1.8771017940056107,
