-0.6321111547297777,-0.08168278286388911,2.2564614395950278,-1.02866909460272,-0.4116430113680391,-1.180430088196442,-0.1779902843277143,-1.4562449701669766,
0.8383518178732016,0.2473979261105416,-1.3800520894769208,-0.5214476406379976,-1.3860371690921856,-0.5918184032868898,0.40406841745676336,-1.1404587004080582,
0.9889192075061422,0.5644509449986794,-0.49709469093021535,-0.2752575479332939,0.20297321558863732,-5.790808634414946,-1.5216034788516628,-0.9348180704863547,
-4.33008547294289,-1.000949893963029,-1.3077045840436838,-1.2249994186736823,-1.8312719490518872,-1.652708546588521,0.0882778612251798,-0.9626086896135065,
-0.4672972569949978,0.5176735420609543,0.17326735554931277,-0.3748277951178674,-1.0969094720553758,1.175311261063299,-1.0380127717007872,-0.7388200169026948,
-0.7605126128078612,0.8738438704442861,-0.8718634335377503,-0.15588058745698435,-1.2468834879554413,1.4790886631159195,-1.0588804080046086,0.2038830713537024,
-2.662915114166574,1.2428639888559971,0.6341574920712393,-0.9100781048990658,1.4055093116953963,0.8253800097099252,-1.2761690780597994,-0.4013452168879062,
-1.327574152854857,0.3344778599494607,-1.0190307300310242,-0.4340566714280096,1.4420442112934733,-0.6819361467777978,-0.5207544188308187,-0.6988501004238202,
-0.707821111361836,0.5715879004679512,0.03628074951140436,-0.09947580984361429,-1.236360308430188,0.16112200123516418,-1.6534672363847724,-1.043212416156925,
0.6630235884930431,-0.4779172035247815,-0.3346040144086986,0.9295380680589246,-3.131576724688946,1.7472505835621943,-3.46183498084391,-2.2945052161061423,
-0.026349196282355873,-0.1274361942496924,-1.6008340781781432,0.17028899818763887,-0.92890932868704,1.279021213813894,0.5113816833031517,-3.2445610993321337,
-1.0691751416309332,-1.144398559719368,-0.6907387834732165,-0.1207557011742288,-1.7388733531926919,-0.5994616991179047,0.5998195860270786,0.15297229451161742,
-3.7045625486331666,-1.0662189426321578,-0.7928482292156707,-1.4798986372928342,0.14410917272438423,1.025101442660544,0.47317661440161407,0.2969706949664951,
3.019394153656869,0.8552006228943747,-1.380818737133898,-1.1642549184884947,-1.429578931245597,-1.5165740414596514,-0.6066590840349011,1.2321927252471327,
0.5759906811094915,-0.741319079930401,1.6190545862144965,-3.053100138336879,-0.35906960280668826,-1.7310442131828854,-0.07643373741667969,-0.43293254726824293,
-2.9365850266874785,-0.4048930444373762,-2.1642096794224477,-0.5241493483444913,-1.9447084285553746,-0.2257693555403138,0.9153859941491285,-0.050965864514879104,
1.724869107557775,-0.3715866784134888,-0.21287863858452705,-1.3407081193860313,-2.4857585677710334,-0.701361021676364,-0.8519314983334096,0.7689718539869849,
-4.535988010475561,-0.9298751765484394,-0.12304448462184125,1.4163983733620291,1.8728828781729703,-1.7702870475220076,-1.952222220396786,0.23761279492737997,
