-2.9174697468948123,0.15642554432044256,0.760925488549848,-0.4617485517027843,0.46421258443233515,-0.6097644980905901,-0.5126664645085638,-0.8500378708320282,
-1.0575615901272915,-0.578063317087912,-0.49638565442070604,-1.0068485296323137,-0.4689752381479318,-0.3703350319837738,2.876735249847217,-2.160449398082983,
-1.4831912955070286,-1.4929299343207207,-1.2400390988931513,0.028463379265286755,0.4236097453150208,0.043735554526532716,1.0098642178875117,-0.6454980551556814,
0.5426841995809768,-0.6288760068699699,0.4360007360801305,0.9283626538900225,-0.9271844104747237,-0.34467340965599125,-0.6280665225468269,-1.1667569887416218,
2.256278180884498,0.6054060374820486,0.41100745746422324,-0.899644271870537,-2.594834277416926,-2.0806311205110952,1.2794472985638483,-1.5767178935160704,
-0.2944473146737438,-1.3601050232912975,-1.4954269212230917,-2.076398236589405,-0.5056144192428109,0.1730849958115112,-1.9166559384396835,-1.8467187218013965,
-0.055033998203419095,0.02492975951059859,0.48365900690141894,-0.007870987221450097,-1.7887084736248058,-0.7896947815700938,1.4044661596814567,-0.9321472820063553,
-1.737816136869323,0.3516812641329955,-0.4548693929559097,0.0957644243633156,-0.30565775666046713,-0.5814584673772664,-1.5722248209561214,-1.137682363289753,
-2.607627776289353,0.5278395413588339,-0.044523303055552244,0.2982406856874213,-1.7422930405507986,-0.3200971563184662,-0.07345777851519855,-0.05498895822459524,
-1.086144638701526,-1.4358454637317555,2.2375965225619012,-0.0022344244526913033,-1.412478182675718,-1.4742925383369647,-0.1262492137820191,1.8602636697078336,
-0.04842225666613679,1.3950595301818267,-0.29459240619079874,-0.9284732917674412,-0.7428815144282561,-1.854782009946741,0.9527099837483117,-0.5114554830091022,
-2.768688350982546,0.2125709905486103,-0.11711243450015929,0.4185662429931401,-0.8510510180185015,-1.1600649753384025,-3.4628462909804716,-3.1180079957045703,
-3.5818975493392715,0.3658720505155555,-0.3119979196663938,-0.13472552216384837,-0.7280703080815238,0.4007723474579983,1.432597223770243,-1.4576749441896129,
-0.41001487545367543,-0.24287140007857216,-2.157938603923315,-0.3752689365844395,-0.582539148494379,-0.5175033491407944,-0.5787713724142167,-0.36340992030030494,
-1.9183932381196385,0.502283199032172,-0.5718775131059594,0.24386934376440053,0.6915966800342214,-0.46007986836033554,-1.1237529264511739,-1.0850265801777612,
-1.0283444983981846,-1.8805656478934967,-0.42056108577650897,-0.26458499507019384,0.8589623806229221,0.024572077950660274,-0.8635051686783372,-0.6113147059684164,
-0.6038645279830765,-0.9569718553414606,-0.30670410857719904,-0.2222104008592525,0.3683575540515266,0.35315895721171764,-0.25004557311696085,-2.585200202524586,
-2.830748390897058,-0.6069593706570682,-1.075028560199911,0.3028709028387918,-1.412154452928109,-0.416726713949265,-1.5620974976720636,-0.47498001909130105,
