-1.8507450805464427,1.196492493121559,-2.538823223988945,1.997917675130006,0.35272340449055606,-1.7145577642362433,-0.5195863212347028,-1.8368767325522857,
-2.6490174584721755,-1.22882335038178,0.14846274231241452,-0.5918623453696935,2.7392062404238584,-1.2855458402079998,-3.7515753879557234,0.9104291761497264,
-2.8695001039110846,1.4385628284507896,-5.336387772866406,0.03428013370605687,0.6699300335586583,1.4941439312103868,0.7764162460023661,-0.3251401023350643,
-2.00614198745577,-0.9163389648613434,-0.5347468433246667,-1.144768384562913,-1.807978112971181,0.6995986045771245,0.5055328105526626,0.3928337397765213,
-5.799439934444605,-2.7993056236012985,-1.1783668735478119,-0.7856809177863526,-1.5639626281696317,0.07815118704816745,-0.05928259923342913,1.5885625609664222,
1.6688516425446336,1.6145450672846755,-0.3413965879649692,-0.28808658721344693,-2.7761455266403186,-2.723074920776717,-2.5311349668804195,-2.128270522767418,
-0.5272460569617943,2.348620703436125,0.8900780171172702,2.4108921970744346,1.0977539721412304,-5.382063111992181,-0.5429288307564222,-2.933027036116001,
2.438118692191578,0.9964468744751432,0.8523685568471236,0.054884316708971675,-0.8191416706263581,0.6703262076739265,0.27596317061735215,-1.9312101577757632,
-1.448736785037184,-1.1867615652039212,0.6513612982328071,2.680134220369982,-0.2330482090209875,-0.4252485639462723,-1.0849158787721571,-0.0037376185265231635,
-0.0950726367023049,-1.484715143330331,1.850892746686291,1.6246543586584388,-0.047214862286536055,-3.520630998031426,1.4655487969684218,-1.130050413611058,
0.06860260089387635,-3.5232155542676105,3.0370994311801116,2.027298941615011,-1.1944595791062207,-0.9081483962942882,0.09646424993500846,-4.695598672989231,
1.1578868637845723,-3.2321552129768287,-2.018644350990935,-0.5740253581898915,0.5573947202534596,-0.02692226547027684,-0.10907016692938121,0.8187949875965618,
0.06140321097313986,1.4729237183035901,-1.6648033917664282,-0.5113981854814682,1.2210112677000677,0.5372872891071336,-0.40118026690423975,0.4755337357039068,
-4.2858423710580595,-1.9280109811803248,-3.1967882666582734,-1.2669910876865602,-1.312463514332474,-0.8579717191725195,-2.472712845250235,-3.391755771666016,
2.7885416058061328,0.73360835723006,0.9720765686564385,-1.6833668746011075,0.1954142548068037,0.9103012746055144,-2.6596198931162154,-2.6502931259324227,
-1.8996021262587395,-2.0856645459247525,-1.021151468763827,-1.7252839100906807,-0.13567549584632493,1.0573421262826226,-0.6692936924465289,2.441844269152878,
-2.309334075661374,-0.013086596801556424,-1.441841452628742,0.8848676748142219,-4.617977207052619,1.5474076648970028,-1.781906376876066,-1.9704556513820253,
-3.6801098255525266,-0.8045113928422041,0.7927383421639346,-0.36999574818017905,2.246200064133636,-2.334135613073943,-0.5379004592589973,0.00738033208366268,
