-170391.72805060094,343668.0754524753,-398723.33194285294,292148.29028945084,72193.1779834166,350185.1602350047,-59011.1738220254,-158677.84645123783,-241778.24204369704,287639.2715335395,58759.876482475884,62328.34966179511,295096.09344512684,-245375.1297818347,-227489.69973489,63188.88211808869,66106.39263063273,-246078.6329691514,297393.2035581662,-271753.1957328828,-72059.79877178711,-197773.9050047082,64481.68227564527,
-48461.079813720295,108791.96313618045,-137427.3173263816,93207.89943703827,22223.143566530092,115154.86119792306,-33.61137240961216,-50324.611133728016,-79732.96463107932,91766.32781361652,22690.86088407149,26353.582737324647,92044.85026778527,-75565.07668948149,-66066.65047093965,29730.28284051948,27776.729583622026,-78705.45235240305,93083.8791812975,-89841.43224218146,-8568.200521873432,-59745.15542622624,27290.526490373664,
-58430.72522580901,41953.51586631581,-108188.20208777934,33577.96217655113,69527.19514753639,41832.9516241849,-59106.72146650223,-31103.044113666834,-62307.46398771386,33524.76241355676,54513.44908512277,53886.27807826885,33205.80047715267,-64800.269877735154,-18803.084641601134,53335.51875938795,52892.38713133692,-64035.99207052179,32922.04873731265,-71820.74979197237,-61290.06922835544,-62279.741126339904,52905.73663178565,
36634.51715320757,-132954.22816978698,89879.51689040654,-115314.33760237877,32558.255409568716,-134348.1902203376,-17318.513108508236,49993.05992004534,61126.10487349893,-113176.43688821018,27512.553697028332,27450.756538230802,-118162.9516243545,64973.966256354855,106248.90258059264,28891.08900188451,24846.662303179215,63509.26725525923,-120095.30668179158,65990.74334807931,-15840.04258800171,44213.90942711127,25756.45429605449,
-98457.42609509685,225757.66392257984,-218470.1958884358,199613.05553332702,-57235.077205437905,238068.39395806333,9609.90446900633,-86763.47570201471,-142261.12007316004,196101.6732327734,-44034.345710277405,-41883.22595714969,201194.40919827437,-144506.96673483224,-197895.3174504655,-44004.95185769677,-39183.446774962096,-143856.86734469293,207820.05327837632,-152489.34225514598,4511.765597342842,-111713.45954725119,-41261.39059683001,
-4350.453671836701,-818.9157844758149,-9953.327333235953,-919.4847572103221,4467.140937187727,-970.4850373180423,-2461.562560217562,-3073.260384232476,-5502.356891536877,-924.1990617656403,3742.980807202592,3744.2690519347952,-992.1968606377116,-5185.412406068744,-5090.449852550244,3592.1144203814665,3698.45541237731,-5411.6428464899245,-996.9912241750095,-6204.371548417767,-2836.0604119898294,-4953.755392126665,3668.069768150017,
-9046.611067542777,8352.003249213441,-20306.943721590345,6885.863434417016,6733.466454361861,8549.220738728138,-5005.368483946263,-7076.020647088998,-11758.282204993271,6809.359344679442,5604.346504219686,5712.251247592907,6856.021709625903,-11598.064199108745,-9371.982828920132,5724.452985147528,5731.709877675097,-11809.888519912593,6844.827432467332,-13307.759571663139,-5684.388090190387,-10248.736764943123,5682.958131882019,
-550.3319995591139,-1074.3156225023617,-3576.4640911379447,-912.1860392178412,-46.457899732788704,-894.0759295325582,799.1377131395415,-1359.7575719280683,-1772.1040869086914,-929.6530782486393,280.8460892305577,464.5831055402092,-1066.7775148714875,-1301.2919344568777,-1888.6850791922584,630.6280850725756,506.1659224767347,-1592.2963257584329,-1079.3131482119506,-2045.053977881744,439.5520288632086,-981.3489881421235,506.48659702242185,
-4718.430613423605,2469.1934971921637,-11145.952983831803,2025.595489228569,3392.8639681862264,2642.7976871143574,-2284.7548859821795,-3783.2566413646236,-6328.032070241093,1995.5744947357514,2956.0041425520762,3044.527846680762,1926.0238746482087,-6049.297425672337,-5191.83267894717,3071.4805431404156,3038.6235887665084,-6269.9835450450855,1934.1768699472757,-7142.711726281101,-2739.4576105629144,-5405.664589597194,3010.1037617566612,
-180717.3362992744,78598.41236753769,-192075.71530410205,59572.26569809639,182487.09999012604,73809.36647556092,-264831.9303860216,-17085.6589975545,-142809.0887026607,58200.908849196865,112920.00823790424,98244.67734122799,61552.699474743895,-170024.9267236775,-82513.8303810935,54631.760133951175,89612.62688219045,-154943.06389146412,62399.39764833529,-146109.59432339843,-223376.08039567343,-168372.6567273298,85152.7731871282,
54704.48400859368,-178570.91913824243,94485.92780923155,-149729.71258026068,-6314.6694432926815,-171937.20774171356,35088.398564748495,52086.17713874049,63118.927811176945,-147770.07770875783,5954.808731423311,9898.582589858272,-156027.2518308336,75798.21642859295,90124.62623426811,13652.570432053224,6893.894156363336,69666.28806048066,-156477.82285618695,71447.58779518724,36455.099167164735,60041.447577433195,7473.428785390572,
-163553.29273198274,169306.10860173422,-352485.98106794804,120381.33388377875,156651.81867247235,175825.24925168298,-117967.6986659165,-93437.71755403787,-213478.6628365542,119331.3592294218,119319.36969706528,121100.24810789607,121878.1947554169,-207316.64169719984,-113144.0562168951,93707.33482687017,114985.44468391789,-212005.2160858234,119286.42858637382,-232329.88404738242,-118013.41396446216,-182610.03103001797,111415.01434282877,
-155450.73633685074,437635.9525286141,-390852.1434297726,383349.9980561939,-99156.15865977174,451888.7107971375,40671.55154337824,-187814.553936227,-249478.31451840742,377015.119238228,-77851.8894516715,-74904.97352174744,386912.6981869576,-258440.44973099738,-331598.4639384017,-67300.25615387099,-64569.276493022684,-256484.26400357203,396940.85330381425,-273378.52130177803,24844.337658389177,-186982.7788587994,-66746.31394092426,
-176779.0899863759,537843.2109065888,-503580.0511477695,479382.1733978968,-195024.42850396692,565780.2448408715,132906.407909436,-240944.1032550389,-319001.32021610736,470554.7628770492,-144604.19343673112,-138221.45831894557,479349.5824830362,-320756.1197737809,-440029.51809279935,-123521.02590065224,-123973.69261139898,-323467.381147522,495633.11986796453,-345560.00377824926,104268.2896055477,-221034.88361973266,-127998.16082985111,
-40574.84564677351,90874.56273914952,-100234.04965907265,77179.64640746026,17355.686945349735,92815.61012451706,-10952.879549468233,-40686.26113292291,-60332.84604260795,75943.34872479578,14737.282136635391,16124.555375874108,77873.04730574884,-60575.54911559589,-56959.49992732015,16846.578652481992,17233.204113661643,-61145.9326203028,78330.64093531709,-68037.60193830902,-14829.681340130917,-48026.9662854715,16835.948271274443,
-26888.058064581506,60466.55579724364,-66954.39264876534,51332.318690130436,11567.43363477804,61774.27235795948,-7022.956935419875,-27205.147242263723,-40231.46752009481,50508.85560765873,9886.355695132406,10861.534628973393,51787.29943048648,-40307.02659385897,-37937.466523676296,11380.536172566466,11609.235096498036,-40738.63341493086,52071.90376687441,-45389.1523496927,-9665.320656725884,-31911.853747542395,11343.175240828929,
-3177.5909084699897,384.4257301280215,-7259.638101361234,208.76164797270263,3912.332464126323,545.9214465958948,-2229.5996377867104,-1994.261105390685,-4021.2693769498123,215.61365933185166,3362.1195220970008,3437.866383480261,85.87553526084062,-3741.682372693437,-1651.4604373193893,3492.0151110144866,3379.076577361161,-3939.4454507975397,51.56863054243502,-4570.548866610357,-2517.2481147317944,-3572.179812952929,3375.478857019666,
-43136.02401210806,62017.0196949957,-56311.6382825919,51317.44244281571,26021.643607088674,58660.67238552247,-56402.36080844046,-20344.65849359738,-39866.45692700124,51083.70846593489,16145.200185334706,14090.13609593852,53657.171604534786,-49532.9480255266,-13944.758781089933,10157.309593717686,13618.01855106869,-44693.39795205131,53276.04994247523,-45735.95082605345,-54162.202316525414,-44409.788048061295,13562.839694871649,
-33359.86324723394,18328.71748147161,-64882.02103324949,15023.887208654001,39315.56119884614,18297.742156210286,-28286.747156288366,-19488.20735653257,-37449.71189142644,15016.776511515909,31155.586895182383,30103.721935987258,14948.67747974774,-39386.02478453327,-22895.774114374915,29311.837449454684,29817.70684794539,-38440.2669653071,14924.99570422549,-42633.37539384677,-28315.370013626372,-36610.24450530922,29666.70306376494,
2717.211372021376,19271.727195704378,30125.8872714476,12134.289137861875,58022.583637340555,13296.44484398073,-32289.793573348405,9645.832827738714,18254.73560065642,12748.33832708701,40436.49630646256,38378.29639188902,15361.558484359373,13193.376173673352,23775.93576101699,35177.05529557356,37712.82844839099,16078.739484089338,12963.048893352126,17371.62650163008,-29622.987396234465,6032.0513849654835,38351.511246454036,
-10593.494335795607,-10249.899570232312,12430.680050311263,-7896.065311588834,26683.604401094904,-9021.07981420071,-47177.60020398691,5533.844812953485,10782.284968297628,-6095.82809017192,21649.928260963712,20926.563603483777,-7486.095814521121,2028.7103746721002,13359.801756700994,24767.203869161673,21290.80232287957,7087.126744199768,-8826.076983170959,6283.273270816845,-51972.42629620399,-8585.068909197022,22346.615600968333,
-165315.25148926518,-3982.5411827505477,-236338.24322680657,-14168.38665318925,415898.80414849194,-14342.662715824721,-330870.43091501493,-40815.84639538065,-127103.0793424771,-16281.439483495915,311501.23704295914,305801.2888224774,-11345.577091146404,-135333.2921976663,44916.40336041409,284244.34986480646,293013.5579137484,-131861.89468296684,-18964.36788250591,-153874.056571158,-309670.26272501156,-160731.21269449923,291636.7808474313,
-4349.092847496578,-819.0595639642354,-9952.505040196287,-920.9784104823581,4466.5734318743425,-969.4192731824917,-2460.688639919255,-3072.6013563433435,-5501.702722098481,-923.4586640521924,3742.60584079885,3743.877580476187,-992.1576045766058,-5185.085720262944,-5090.618518802497,3592.331054997424,3697.69230324312,-5412.497777400057,-996.9566995405813,-6205.1722278508105,-2836.346428381667,-4954.216919218042,3668.6742254553938,
-7354.374629057665,5110.20205622184,-17389.20841981887,4243.73328919048,5418.164223140688,5172.398517733749,-3370.1240200671264,-6439.4590630143175,-10185.104212582533,4145.777619853423,4548.679128014207,4673.250729508738,4193.894673245156,-9877.547233968331,-9333.502992659438,4504.538160098688,4704.674208656261,-10162.051435954727,4209.5256613764195,-11400.48453001329,-3930.4574219851715,-8521.284012326578,4636.96401691717,
-13443.065365661132,7018.2251873012965,-25622.5136090738,5983.337363247574,10912.475848181157,7423.802966375804,-11721.66807943635,-8784.016742864165,-15199.326066757887,5981.838036407214,8740.376953231676,8661.860887832972,5876.363294481665,-15506.627036009188,-9192.28577252418,8546.452771489658,8552.20249809145,-15478.564391877238,5816.511171817163,-17138.88358048625,-12076.557526528693,-14360.79672180327,8479.735475801415,
-550.6901580103029,-1073.8970710204635,-3574.5693672405914,-913.6545379920449,-45.700916166345635,-894.3037682370517,800.4770140868314,-1359.182911865975,-1772.4358232746063,-928.4145027367763,282.16871296867924,464.70014146825713,-1066.9934426159828,-1301.2989982298586,-1889.5690003564507,630.3775177104925,505.0611807342986,-1592.2720722527329,-1080.3016505369815,-2044.943007175694,440.1714887614865,-982.0710171966089,505.74541689889156,
-3455.237038320712,1785.6639117604755,-9027.011385506867,1545.7825371994218,1885.7654894771479,2057.6640358237473,-1246.434535243648,-3336.5176335048077,-5124.227401966892,1509.3267932325734,1794.7014103883637,1940.5410915074779,1408.3656311110956,-4785.856645611259,-4346.29582740003,2041.3810592637506,1968.2278186017397,-5032.64034468693,1415.843230401765,-5775.575546960522,-1671.5297091114696,-4089.462154943447,1945.0564059855603,
10.79529625535366,-38263.79494510048,9395.442525004813,-33392.52074040271,22819.01715589149,-38711.7941236131,-21420.993778904216,10315.122256157061,8052.805416668208,-32742.92718885549,18249.64640769887,18100.79819491311,-34186.80964007843,8566.688933427937,30745.558589108696,18118.481203191364,16989.172925679977,8420.61368296413,-35051.485158245654,7884.880981992407,-20683.510173279097,2028.9759101762797,17225.166380520546,
22937.261877158704,-58223.02765319629,43544.91892193786,-49275.60645739625,6962.4630341256025,-56463.87876698357,3586.6684300549405,23553.00677939916,30050.868709370436,-48494.536127472435,8142.174215859572,9171.895235780861,-51191.16576488529,34060.10781724878,49626.92555571593,10605.941366919475,7989.578586248381,32215.903531772703,-51754.495839822914,33011.13852842993,3274.5992456178064,25514.165318074094,8356.615838518255,
-674838.2254833877,-111720.67027073,-957916.2959788198,-133794.33760930155,1192443.3984616376,-141631.31924189389,-1176264.8670021778,-223990.2671765857,-517749.94002887735,-127654.5750803895,893248.3830939564,867846.1572884303,-141881.9887116832,-609485.5509819213,88459.03296085085,848534.8655097546,839505.3907709928,-562186.3945467955,-155311.88756483424,-649693.5782802522,-1146363.5453646083,-666618.6022631247,847745.7006627563,
-189130.17527188227,324140.07442879677,-433993.8237026581,273095.4863889302,116807.44430269607,332178.61419243185,-97942.0013353724,-162385.9095222958,-256565.5791942682,269983.5423728033,96298.53132083509,101265.03728099163,275107.79745804204,-259480.7652691396,-196624.06517167794,104546.56093943791,103653.68101332577,-260643.008864531,276060.38790516893,-292525.8039282169,-113347.72542861372,-217295.27749306607,102694.91844341577,
-146458.6105315592,231561.40090035298,-325837.9796054509,194136.57306411953,93382.10349631164,235244.91449077916,-92047.05139258238,-116596.20455137746,-192858.16604305612,191390.51035515216,76078.77614721385,79332.67967062461,195886.73126718684,-194566.33470844082,-138344.05118080077,81037.79349245416,80735.17750914383,-195798.56408058025,196122.94526291208,-219407.63911518131,-101420.86626181258,-166203.46792304245,79791.15407955361,
48717.20563709999,-152041.85794591025,152717.41686122812,-142659.49906010763,109330.28677179015,-168429.39716777904,-71580.33853940765,66151.0358278899,99706.10382977415,-139404.36313596473,84695.98052803463,81573.75558262295,-141805.5993001933,96958.59618875304,158375.43499220724,81200.21790744414,78521.84339701048,99082.1970284364,-149571.716402677,103080.41480353377,-65829.96467173466,61879.207467771375,79948.03901259016,
