-0.24991901484420176,15.598418477544202,12.997589047398998,0.7175677223430256,16.79101005003728,8.969545936393349,15.471896854117968,1.0073355903576529,13.671735825736295,-16.949279964412927,-0.11237876703346542,12.482079421289553,17.096521102318828,-2.1132914140494132,4.752888818888712,-4.203152762615855,-19.929155629701214,-17.052686666048857,12.104141650373203,5.6805326760260355,-3.0623340066090305,12.862312533921573,1.5468747114610104,
-1.0347438021289097,8.65023093192329,6.1194400812725025,1.3445093687784515,9.82025488457344,3.8600089530198627,7.223122555066811,-0.7453400497194765,7.0768535643737245,-9.014503636433682,-0.27218889003727187,6.592929274089923,8.841829388642394,-1.1157284229429507,2.6120936999545354,-1.9668752914987893,-10.821691165523402,-8.662483935342632,5.348722106727178,1.0303143106554504,-3.005473690344103,7.001430629667562,2.1545238431102525,
-0.17518794936037846,6.3438879985833,6.698037997274409,1.4382237658185442,8.075293635422346,4.7394556984647735,6.9559651065856185,-0.027806017076127225,6.27560841300331,-8.322184260961679,1.5904199541610136,4.712272815612556,9.221009623089353,0.3345618262088,3.5973385725573412,-1.489369412380724,-11.215072596441933,-9.59724737475376,6.167131460545894,1.3635296714301561,-1.3359903281624173,7.87581448423132,1.7500912056209497,
-1.0499188686978709,-0.5793215539506592,-0.9811936992642046,0.47016310640527986,-1.7789636898334356,-1.192256034693357,-0.23772558580314587,-0.39679584164259535,0.2471609635435343,0.12347304076997517,0.6109661202043505,-0.35146360792959536,0.2577205642241137,0.5480045092912504,0.12071374458769438,-0.6962915756270784,0.6716658249849606,0.4433469944481669,-0.2272126452362587,-1.1716982129977072,-0.20961268595250165,-1.0382829968012988,-0.26091920681305447,
4.91343867171354,8.247287405405853,5.217448960874405,-2.4947828948160407,7.26821286899532,8.833595415435797,6.962703367520905,5.868947040860495,5.069910567230276,-2.7987490061299067,-3.5298553858837254,5.14402248014716,1.5091586991222743,-4.865277467269045,-0.14322346517302034,-4.167088423612386,-3.8801540177012552,-4.5045432348895185,8.480942772015707,9.225139134888414,0.9292562942442402,-0.5926118520009186,6.296218034730611,
0.8646961059640096,-0.5347637673375943,-0.42968780426384107,0.24345826438723242,1.0607510055194116,-0.11807420452217743,-0.8376778066230269,0.4012707593042608,-0.9426319207749521,-0.9783477209363889,0.7856946274995349,0.859603128322501,0.29498173098724095,-0.748497837725026,-0.8594078310461352,-0.8903371673069745,-0.40162472666184734,-0.3256232800583182,0.3209149738336491,-0.31773600822095316,-0.032228463249511785,0.90357518953411,-0.7971237003727879,
0.07213807758958383,1.0247726358220948,-0.17354236252664615,0.5102386255276204,0.7810787842643733,0.516386048011189,0.6299467431852522,-1.0175274356705835,-0.11799490643499404,0.24080157571109267,0.4055636512379505,-0.37153173526872807,0.906236590120174,-0.4398142390757563,0.5460659928530843,-1.0791396674433855,-0.6532583649915389,-0.7681935885603878,-0.2030475807403693,-0.23590670969556665,-0.6844842567555847,0.4467685714136518,-0.3773417836198526,
0.08754769500686864,-0.6498945994392421,0.260068665425604,-0.29468275501966495,-0.11639500532964508,-0.9429029181148473,0.15939926816849814,0.5851629392611544,0.49305899010638016,-1.0207002247851142,-0.32814577787639393,0.4404457469443212,-0.3158425679946639,-0.8108191164849179,-0.8114438962036944,-0.6758364500105403,0.3239747612532315,0.7346183947939655,0.5638652695741385,0.16477162270644433,-0.08781829367498944,-0.6389349279566294,0.5689224860777706,
-0.7108804436483597,-0.36386961469204754,0.1963742655512721,-0.6973531115706403,0.9365937972377396,0.4261738008304434,-0.5883840718639444,-0.6650496484504254,-0.3788717062249442,-0.2735414329654995,-0.9692966096947295,0.7978389764895123,-0.39425638971770166,-0.21238596952073419,0.11307879832726679,0.12445123832558255,-0.7566076646807226,-1.0265104992485266,-0.6676787161109393,-0.09679017051244229,-1.0396733142922365,0.5747616200471376,0.9343311949402483,
8.618514026654784,151.0832502962114,123.99565836224254,0.3445087250692963,161.064892276542,112.31008175939763,141.6929428472804,19.07488552593421,132.9240276368335,-161.54241749891418,-9.048150001816598,120.47898382989568,163.97869888307088,-24.22538610579876,51.457889675221764,-39.103767308886354,-210.0223861319673,-170.5868889776316,148.21711368345638,67.54237011440038,-34.5547712078412,121.2639031517539,25.409476358718177,
-6.622608795275608,12.717929629048944,12.270859863686825,8.898404864804569,15.020666416209302,-3.1675226766360116,10.696588986244846,-5.893789337103097,14.625194816910188,-12.358135819261012,2.4738349103734922,6.581190418117569,19.802604815979183,4.296266842763299,7.835011211529892,0.24538063177155667,-15.433146922283536,-14.88022896414556,-1.415107230651181,-3.456191246963064,-5.898315229682695,17.266385960223293,-3.6411087740298926,
0.6376832958139019,-2.211688543818907,-2.0312596529996276,-1.8815768047533925,-3.2673888191587355,2.498474096490299,-1.9072580066521176,0.4933879618736248,-2.517052839189073,1.7260757748729325,-3.5865828676186484,0.8173183536464693,-1.902107364414551,-2.1230113436143823,-0.606420386476255,-0.903873798900071,1.5443078533342425,1.559384279146303,0.39681431876547507,1.4182737415708886,1.3573886954081593,-2.767414389914253,-0.6412400720171948,
2.200009414892706,7.347486163116276,5.7233060438748735,-2.368257946872241,9.3169283215109,7.126747505041057,8.641017473659456,3.388408129504784,6.348803139600584,-8.274903527325096,-1.2779500157840868,6.061117548243114,8.499679807637701,-3.283010326249597,1.470708027182252,-2.1637007049475145,-10.07834194371424,-8.846230890976948,9.268536831078679,5.124960057964488,-0.2263208515055212,6.290044951146795,3.5715232402062744,
-0.37185146571699157,5.996557439793444,5.381236012292661,0.8367437417138703,7.107183328470688,3.80781110245901,6.593282932134725,0.7411693969936466,8.07939026933947,-7.126241728991262,1.5970928694988291,5.753484718177087,9.598732564160777,-1.101588905152038,2.44923650091711,-0.2891010708651259,-10.262563241215128,-8.289232023285917,4.234378178795796,-1.337221419126591,-0.9357104892773086,9.11392644772857,0.49644396067246255,
0.6732401029701004,2.7692595465094443,2.146222811874358,0.9196174350180429,2.080842695253898,1.3567824289009884,2.867114059870337,-0.6881502610784742,1.5147054575275638,-2.7122346604144383,-1.1489303018693329,1.904045584208347,3.709330343750432,-0.0957769204264731,1.7454571925105884,0.08611269403148986,-4.102318269438925,-2.695870206478417,1.4721134485632923,1.125013430468394,-1.2356583149933267,1.863699789504302,0.7255751680153256,
-0.3213836785981197,1.4317193632812408,1.0972820690360083,-0.44154870067252955,2.345788832269142,0.9049104291466608,0.8361918610895843,0.17938276787171917,1.1217379477253349,-2.415989452264242,0.6171770682946716,0.29917200445572967,1.9854484281611182,-0.2672878987265518,0.38148007945537493,-0.49685547655442136,-1.5320399176512567,-1.533618557889348,1.8267846322384154,0.3882030256981092,-1.306230954050382,1.8221523762730447,0.26610420164746496,
-0.6840358951286054,0.7955969836956585,-0.30694593994809316,-0.4843427400363951,0.33241764700816134,-0.22969488050969067,-0.683034840567346,0.7835220802303329,0.430285873558458,-9.062976569864671E-4,0.771076697357207,-0.28048654645696847,0.4723618158340529,-0.14611771734672319,-0.10014485204530217,-0.4464898637106463,-0.2480631162442934,-0.3799889321600174,0.791249826556269,-0.7021462967447297,0.4073833569670946,0.7474816350228549,-0.9095402458672028,
-2.5917236621724293,-1.1993492076040895,1.0908845273532695,3.135420094843569,-0.2292157569531458,-1.4741075392206908,0.7620967036083198,-3.305098967295934,2.7682963795510602,-1.0311853066755554,3.7049559561163616,0.3644097888160412,2.6501155200565947,2.2512112859404536,1.4659914053630794,1.1576076978901728,-2.498991526232062,-1.2647844904626437,-1.440682777577018,-4.170126949695023,-0.09094980593124444,3.5678323703212427,-2.437457319129718,
0.36176021872614206,0.8534246934107427,0.8341089263589236,-1.0775924731639475,0.7452254303165113,0.5352052999562221,-0.14205338044294294,-0.2132200415097297,0.22919929897603,-0.11878762789160872,-2.4661000196980027,0.2106910410204317,-0.5847578365890104,0.47436689936058873,0.16520866060414244,0.09577679945940511,0.9335059478696223,0.2619208448550231,0.9604017497909598,1.5909859520031837,0.29144419927344495,-0.354898897079908,-0.12405076481449866,
-1.7830759768581241,-3.044495195417277,-3.0506280399368046,0.9023709841442268,-4.983102614721137,-1.9929359202683774,-3.176291380605431,-2.3947695783378085,-3.7216699807826363,1.9729707332866573,-0.3140564336462706,-2.588292008195941,-2.38028422307975,2.213253089944629,1.4062884044521955,2.5710346562094233,2.9786225768030135,4.116449812038193,-2.236728157538799,-3.8098197933356945,-0.585591699723917,-1.0920145793241762,-2.81172975208059,
1.0927301151629965,-1.3281244913769297,-1.8340534551659302,0.16160965154288584,-2.4113197102167176,-0.5364223442834201,-0.7494032754766647,0.5953635698568828,-2.6313229858114866,1.0212915409738061,0.2160009598003603,-1.0663472559637843,-1.3854957745227232,0.7258175677044111,-1.0404634857285122,0.25421267729687186,2.485975630564936,2.3494475413815055,-1.7660054021384084,0.6890945043695976,0.5504585677213876,-2.4456365795245154,0.45256818350660477,
15.835679712408838,-6.098978595022494,-5.970252847338336,-14.053201526539098,-8.401385310075465,12.865452749232407,-4.826901381099344,16.54394537934222,-12.360319686779452,14.481827649238,-6.185194801074019,-1.0245642210492238,-15.742700844184666,-11.364203171847073,-9.303290702479533,-5.376507146657867,13.236079247925824,12.891534644353756,11.47408575549215,14.562361669889397,12.616113694089334,-17.51683328330229,11.436427509397287,
-0.3578731636718039,-0.079123257917384,0.09744671283460275,-0.20179272724633487,0.7350720929315925,1.0125079159855466,-0.18091986521576536,-0.5082110014237587,-0.5116788378625865,0.1370399887925798,-0.3533218595583758,0.5284401546941624,1.0005653621519488,0.12026237153861362,-0.34566180512097405,0.15508672519399896,0.6579596321607628,-0.3939211498943521,-0.8303282099763799,-0.2553697614952991,-0.774000002248193,0.4271005449176359,-0.4716855940721912,
0.4425668927164969,1.0266901239527093,-0.6184237333829861,-1.0848682949853743,1.2557882015362838,0.039446151986454056,0.45946543453614047,-0.4652105430637062,0.6226809796561277,0.17364868996046426,-0.9980931123802231,0.8284191434299715,-0.23390190678971773,0.1628376177800071,-0.5613206416445363,-1.0296451797985846,-0.4475369359018853,0.06865554815024771,0.060378937878949955,0.24741791556385045,-0.6285265364514996,0.6537141104116593,0.7543237994180815,
-0.15562454454648414,0.8004063421412236,0.1816651914638448,0.3211700913709648,0.7073584235674599,0.70144243355516,-0.39452980070306704,1.0888226109537729,0.7053886805756534,0.6961055309550619,-1.3234781607333275,-0.6278423725180844,0.4658734674430991,0.5738190732681475,-1.0732309219539975,-0.5147550305728354,1.0246207665799274,0.010857863786156191,1.1353335462188496,1.0942407551298052,0.45101629244585006,-1.0342865287936966,-0.5058022472762027,
0.47814984295082447,-0.07507658709653442,0.5809503515717178,-0.8835682328777947,0.02260844254633834,-0.9554583507723172,0.44946477367814697,0.211394128378566,0.9283355617430399,0.9275060843587123,0.04479338324275235,0.5445389965236801,-0.5297358399582438,-0.7158187126020972,0.5917689748025378,-0.015254463660516113,0.5833822832888685,-0.7126125505053871,-0.9340601537100129,0.21756134333322233,-0.5250293743760234,0.41010289904145647,0.5574740852173465,
-0.4956067706313583,-0.8046784750879109,0.33325762277424387,-0.8639569822548162,-0.2790321095496714,-0.2626059538069268,-0.3414662966726238,-0.25113088715300175,0.7052466428123458,0.9048081579278089,0.8587640151377519,0.14266722005017848,0.8690904193537582,-0.83901450133123,0.022678206566331845,-0.32366567255136314,0.3978336900080568,-0.5739806666383246,0.9994681423653462,-0.7778964432461036,0.2386207381251351,0.007892029581382727,-0.7317146026227817,
3.506087874240733,27.123928977203047,23.609070070152192,2.413237970603247,31.472047068729868,18.59379197894495,29.746622976401138,5.080472346432505,26.37145933899261,-30.650075665053315,3.4818414126482127,23.047535240654504,33.6856825212449,-4.739553302078411,8.43567809846111,-6.456215503822038,-42.63349238784851,-32.727440424179356,28.22341077906915,10.001979803037756,-2.4795693471200226,28.540382403970003,10.133289412536577,
1.517406735882569,4.240909863163497,2.9850571890409086,-0.3095427221456613,3.7281942601489257,4.4133276730338515,4.012061790155753,2.9818540121716213,3.0573098160850947,-0.7415298222843631,-2.1111218460502523,3.6203153011429574,1.8823046229127638,-1.0205256754053231,-0.6526215580682587,-2.387112768586857,-2.841935365813494,-1.9825665467612932,5.065817718754377,5.081759575974352,0.7861427372629941,-0.2129934562626754,2.547441999815357,
-14.891181208078638,-33.07943048847315,-22.751565935825695,11.602780515068208,-33.025606175799865,-39.93610765544935,-27.958068092082634,-16.466439394910193,-13.315340252126338,20.26284038539265,16.487948947292832,-28.747991272659693,-16.773891029896525,12.099196334764525,-0.3610372597643792,12.236575851840685,27.10211297665374,25.331305990461924,-45.44908060492377,-38.72523307681538,2.8197679168986194,3.5026071865909927,-14.390859804572273,
-0.9541572944042023,6.679722552227534,6.358756863838134,-2.321873449555433,7.320934630817104,4.73742267662149,5.824166602126188,-0.5915297165052307,3.568475828389398,-7.969911018716329,-2.853224312488317,5.1942631933149,8.839292455845948,-1.6583996941984647,2.5019490227668,-1.2765177844877584,-10.539182772792579,-8.317291979839032,6.7571187117936775,1.1596335476602204,-0.9408482818394689,4.827061420540706,0.25105187489966757,
2.4680526190486787,-2.1402656978893133,-2.5777228757011943,-4.015991143036577,-3.881501466937036,1.7631579982142576,-3.434254783966342,2.3724704220554895,-4.871349346793213,3.5502465459346193,-3.64864765199962,-1.9140967082308442,-5.707915294568461,-1.9616179525054744,-1.3909634755597136,-0.8598602844862214,5.078188253146479,3.108085802331969,1.33772308816605,3.509375073336,1.3576745193819366,-5.018339032613942,2.255091577489983,
-0.8893349204457607,-9.782642383336558,-7.586917034717755,0.8363533910941775,-10.330154017631488,-6.521946483294114,-9.71449701000952,-2.052496031902483,-9.504045158956961,12.280746333388596,-0.47544686241698025,-8.544949948868675,-11.108091297488754,1.9953120218726264,-3.6882344841921344,2.811461568224781,16.402512500665548,11.835677587335349,-10.161570804651168,-3.8336852960564736,1.2781900650400562,-9.173594042637415,-2.863239619026203,
