-2.023654234468085,-0.9286672097066622,17.096509542022446,8.149356907701353,1.2652015127380498,-2.6214382345400713,29.070924636856667,-0.38657538425578675,-15.446854488903687,-6.776149185661152,20.367524960981704,4.353919744020192,-17.21602746877967,-8.584816078142131,2.9744051088317462,13.012981761994848,-7.718486821724471,8.228787976352015,
21.204482044153213,-2.8743941290548696,-29.912326143088226,-1.4990917546430884,12.165276912508403,-1.5497453154256604,-6.661120965266314,-6.568770902094193,-35.36978069460086,-21.396916058752982,-7.17083146326006,6.7592766733274035,-34.764658524560495,-6.694894777679827,-18.95404997843645,-12.924649345888984,-30.331938756232365,-13.844936547934426,
9.391770032501233,3.6642663733315515,-2.7808237322371423,-6.905218912056288,5.092441870080193,-7.647203748824328,-8.414100901858141,2.2256100174339846,-16.95048031213953,-3.728794752297481,-7.886052114144555,6.2044756292238405,-11.972240606255143,-6.337720126196512,-11.167521872374975,-2.351392604255166,-6.581064625737618,-14.370288611107307,
-13.495392578828982,-21.069490860715465,5.006213179742666,-6.527358954759604,-7.8359643241275965,-6.791163726070128,-26.603954011063593,-3.9615075070854515,5.819290636743118,9.140929590796325,-9.37229914108802,11.603007071593456,-21.549426512653916,2.9737132941727236,-0.5117413204294108,-13.658680276917666,3.8973363280848474,-7.6656193537783786,
3.6864759974793353,-11.972145193747277,-6.266470888191387,-5.568013395075842,3.171938432113925,-0.5022165760315219,-11.715086584270328,9.663889542807254,-6.390301955341911,3.7504811489666254,-15.765550962384538,2.60754604083429,-53.60563328545127,2.809309031984255,0.9486267440372563,0.9336505228158738,3.8557153970799303,1.5224823527432456,
-8.48261242799191,-1.078358061357629,11.784899360153492,-1.9923028422501519,-0.4210222487729993,-8.50193938167195,-0.5379633854624818,13.100896507531768,9.127400619665373,1.206201983730425,-1.0300965807717013,-6.746352620630763,7.196087404853077,16.8993225567831,3.99289980213374,10.754066267745998,15.807017952372949,8.376218538670184,
-8.991799858630158,27.089910236536475,4.203734491366024,-4.5269963861373705,6.547415607522143,-4.832780953780149,-18.18029884113689,4.034513565698934,-29.575130145015095,-10.922951995689052,-1.6471871490945964,1.51156384957019,-10.010303997981797,-10.448162351650423,-12.622307897836164,-7.454274601750375,-1.7505819994345149,-14.225787523710492,
-8.665494047245438,-2.31235811930173,-18.77613762529517,-0.8835520292122419,4.839148371971181,2.473490268530085,-16.313164045796874,-3.9856657382347302,-33.42214819105893,5.35266906624177,-24.86644285217212,1.4001556095792707,-27.86163921193492,4.786766828739846,-33.31095455850331,-9.0722691595187,-16.543497754656276,-2.8847981294204144,
-0.29570487385675354,4.428918921713842,-7.0663375889400255,-6.134743613818534,-8.222017552531671,-10.005368144021206,-28.01638951872568,-9.34458642165207,-11.566834071115412,-7.409914284162548,-22.50819964902326,1.8989799390731914,-12.945791705683739,-0.7147420737351937,5.083153509048793,1.5135330881880489,-3.999476428862048,8.641569481120934,
-5.234848304395204,1.6310162435200262,-10.167476940671985,-3.2394043082746387,0.2760610616735657,2.4043586864159576,-8.539985425968071,-10.92146263603184,-26.35335591477835,-13.289265820127863,-19.27665643227931,8.024320215732159,-24.00133226604131,1.2818933442999736,-11.661799198425324,1.7424804891080574,-9.139165005818244,2.3553342089062554,
16.87192342934801,-15.184429708260726,-15.650889348075557,1.1431284781709572,-14.995339295146467,-12.248364483780376,-29.67278842111362,-20.95085357426452,-15.04369282894613,15.791908155691123,-16.3007022294275,-6.462854500425611,-39.43269166201685,7.208209600140104,4.584199792595869,2.2421702869278124,-15.389387544826635,1.9504214233083963,
-1.6040486097042472,-5.058916606470055,-2.2787731588820406,-7.555986916543203,-11.324164885414037,4.268521491472226,-23.203992719192545,-11.046902053195808,-25.15295635188206,27.50438715995635,-41.25735458975335,-1.7287262426017547,-19.36968778542835,21.60654172696094,-30.77955807643911,-16.881144465579858,-4.2357197528331225,7.451515279017163,
-3.806394796557842,-18.22158598239657,2.1713569265101333,5.648004713207306,-2.4407070492051397,7.868880086218052,-0.9318302154099193,-5.764565773625955,18.126035918096303,22.583875859051822,19.451764776573604,-3.425491907131764,-3.7430214800234394,-12.464610374223582,19.52125306892263,5.599350250312449,-1.5142321677116135,-9.267753417055228,
8.06569368189436,-12.497373892625369,-1.5705437595823675,4.766596397964375,-7.675501532683174,-5.320088430409016,-23.20680699096322,-3.356262676607495,-13.916766120576707,-8.780791559273334,-4.61175816567077,3.7979403344362157,-25.251478464240154,-10.829927733139092,4.428978776989714,3.8154414355920236,-10.329534351500516,0.18530871712904678,
-4.519517008956359,4.043021792691407,-28.006527615648768,-23.462918207321174,-7.705938065248771,-4.651698241104439,-18.25687238426488,5.434866650879673,-41.25015399035643,20.072783390518754,-32.74160715731655,6.537193244770749,-28.481134073013745,-2.4252426073156927,3.6142271512694135,-15.649656961584656,-30.829526401155565,5.267426063605159,
-6.398170095171676,-14.25283967333332,-5.183491384773637,7.786482560531674,-33.58911520658269,-0.6838728018668938,-18.085185101968882,-12.820258524640325,-22.884682785548165,14.326344084615982,-16.40299070901928,3.6914651249257657,-22.123373227991873,-21.683180112289453,-37.50977803767214,-19.204185405681635,-36.946170272306425,2.9501969301383917,
12.424231008471107,-4.208819398519218,-18.244902313296365,-8.38163141816558,-6.911602373883019,5.853048756531101,-0.8429474758600751,-31.499845571192388,-5.982359304895571,-1.1464336424600714,-7.465462856923674,-0.16649732393195613,-80.44447460641561,-10.539619725522988,-20.023870844093537,-9.202268161326732,10.472412947968627,0.3396500021678615,
1.5689017207765372,-6.56992010935265,-11.213406360969953,-11.495197604617434,-21.98757222020251,-0.9433440929191089,-30.275236825116583,-4.874920270070885,-28.364788046950565,11.00218092035859,-24.200700513641834,6.8763682273321916,-9.547627358138323,5.317093854310745,8.067687089613596,-5.405592743496276,-22.60038838139722,12.250636631615953,
-5.62408109439228,14.0542658499498,21.35908064068034,8.594696671086814,33.16375450688627,8.463827774477906,58.74922765800149,6.8152594958565995,-5.769570981194286,-31.477414668302245,34.34943740735751,-9.633234559683656,-1.0464125994571414,12.530456316442669,-16.102092386544594,8.91518642361517,5.558151509821172,7.701105321602622,
-9.848907625037532,12.13797887083934,-4.5925252749945145,4.927674721266596,5.962489832705288,2.9824601945307623,-9.57967046548759,-18.47838650915958,-34.172682868151846,10.728459858507824,-14.146829953490757,-4.757991885004446,-19.718861576396144,5.917618990104448,-35.665816460711845,-10.665332379042448,1.313386408925536,-2.0376108012022716,
0.9452496754744839,-10.516782604997147,-36.877094511796926,10.519844584797992,-14.438072860445264,12.047634888444941,0.5026891629111331,-50.04525652199599,-11.483826665470332,2.6146337757273783,-19.879238575744203,-1.391219261964696,-36.256728843586025,-14.155192299067382,-30.551523022171487,-23.52313429159039,-7.652214603621509,-8.084278261768025,
-6.8762528218618995,-2.8005385231372655,2.0222994218814097,1.9462672383927548,-16.63868300516623,-3.2166565682419748,4.68710929119627,-10.690234680875887,-36.836846034066,-18.22876837295242,-3.5885323965694105,6.187383880352461,-21.616846615516454,-0.09494548012934682,-15.88104550294758,-1.3765981180999418,-16.324636865404948,-4.785078518641658,
21.25414605186659,-17.58864539558567,-2.9377125185960984,-5.984187062357212,-3.3243468144379107,7.66385159976832,-38.0414295231999,-7.355244871644992,-2.9557826685951047,7.970712249971962,-4.983125456135216,-10.216629676523322,-51.2515434594721,-37.40811509203039,-13.866585643348602,-18.487227793377595,-6.009737714729089,12.461473040691976,
