-316.6823381556816,120.61423876486563,-132.36773393082137,-52.691788312199,285.480505864577,466.2731359437538,270.6712661350569,-174.48560156241135,96.10809334151965,-79.05615125798818,-128.2995601504859,83.15230014216311,-45.81986260981721,-169.27357296998736,-30.93316883686657,-47.57719495298287,-11.296731966374121,-230.46633901528241,
-159.2131155673451,-71.55594883459204,15.614150775772124,-84.14463257065806,-2.4662907374981717,-164.85702319277058,182.09414663574955,255.98553060093562,39.066109344687334,-6.349253727870768,-2.4577908724294373,65.4459164940193,-101.72927630132074,78.27314474585363,-20.102418839201974,88.77541354780323,63.97961455324342,53.318419384056476,
-99.35802311016597,80.86195122216397,166.35063814860183,70.07446408808191,-158.74721197155998,-429.0582151052464,-73.41250738314635,298.8103214709128,72.6525105172786,-152.74898970099215,-72.04571217184626,-8.149175393197392,-132.6516707999889,193.92029417348184,140.41741825274735,-195.61349581372542,-71.3335776211317,-22.134281571243566,
171.04690432788598,-140.20188152287955,41.89340944258057,54.04472052218397,-114.62031096438542,-270.88849400712724,-190.8801573495366,-3.2570488671883915,61.209149087661864,-77.55776862798436,83.64108402973864,367.70628027655175,-231.00453139288618,-5.65321220407052,29.92225265967491,140.10970719654247,-142.39574089382526,-270.4039847444946,
-169.22068103965486,94.62940585506067,71.88682505668396,-66.5138673099238,165.86616661945425,47.968514002145476,230.87919053549734,141.4824158306901,-129.52136455856345,9.629025977481128,278.50196820501736,6.426973653760064,89.34116266205669,-79.93885505272723,-49.836040881991096,-198.4562580488903,-40.50790381181205,84.6069145894404,
43.00576118277348,-122.36595980812191,-172.49315610414274,-76.34180623385237,153.32193413740498,79.2999650608489,-455.50557894491595,346.6060768451294,43.93807963443893,12.350169863291502,259.74849605515726,117.11340124699444,80.76094335544515,-129.06031277820597,173.48408087818515,-16.615136129231352,-51.220752422302354,-411.9835033655339,
-80.87921091069198,-32.88623399897831,-3.663336607074693,-16.381212725192967,14.737344539919743,56.617820971478764,-4.77362863312894,-83.51369820309213,-46.5741700736823,29.437669674372227,-211.5222457771986,-77.36083649858894,170.16698764092436,353.537589287937,-72.59692349523125,40.73523381612835,-10.31379468864515,-24.76031294567622,
-21.283395569874937,-85.23613573660656,-11.906167264409888,184.9484272028635,85.05328012134754,149.64786326885482,243.55741550075166,-203.35973063381982,25.41081090224662,79.03338509657092,52.66751357616539,224.29170681141767,-246.75488712905357,107.13254126834089,-169.18170923371585,196.25708648210056,-150.19850982704997,90.79769914160994,
-184.05049676104164,13.41199164552022,8.927708604550439,52.17276970811793,90.07153595327965,223.15351500614648,110.93882167110993,64.27953863295537,42.510442488576366,-54.586313628784374,-190.94348381395272,-27.4336957944102,-231.7009446733369,148.66837914018754,-136.86278480848597,-133.3498867943073,-28.878456437075652,-49.62049999430183,
-60.92379076147062,30.06766880907484,-13.845724674419955,-137.11413838540574,-145.72086183761814,347.01262822278466,-14.451314492610596,-362.2002804041757,190.58407622522094,49.859221458280246,-207.33149133382736,-45.70066827796612,59.576771915796996,-214.55103851039252,55.64487418210463,-130.67274375788637,84.43233916030661,-156.03365500370813,
-38.871232738541664,135.7364128162489,68.75941030311235,-78.05197867401567,128.6113560128754,-84.5882390933444,-56.46032920850274,-190.5875981796406,-211.92256519947887,-63.94121772326779,39.26345825886846,49.28325435562577,83.91426528732786,-18.826863803462555,38.39986181212347,-112.66990833640392,-122.09250321161959,-39.86667430708297,
62.092482914698685,52.4589092845282,-103.97468415441186,-83.99859837048,60.882619127443746,-116.77663779411367,152.44077123726134,-196.2110171873192,76.95735877073356,23.613697192306994,-165.68760809533822,13.11951250220011,180.61797117373052,15.469323096170031,82.43065983514849,139.04977063824688,-0.8850235674392234,258.4826718076387,
-1.5438849495270965,-93.56064973169626,-212.78318298355666,28.118976212801183,-273.02575061152936,155.6920000235218,209.23830831069301,164.4855585669664,-115.81703045966829,-15.849297549032714,-72.73783997537224,-344.6123758845716,62.439283152998826,-33.69393320414737,49.75722749576923,249.40524183794486,191.0719621018062,208.15058513565648,
-109.5860471703308,62.40911276663606,38.17971665602855,-151.403456491364,25.509934089876086,-39.34291006351901,-172.95566291818983,432.07362576122296,-4.9702911731511445,86.19994632957366,41.129818581112474,-241.3331289069636,-101.51237516218201,-63.009856886239206,61.712320848671304,-370.0333916095345,-10.899631647664158,-4.275619454101149,
70.45134133869806,-41.863649066184834,-102.68762371977746,17.55199277692753,66.51411983285246,47.125511815095805,23.736285887878328,18.09335010100141,182.55123817655962,67.48729119167784,96.08260595083851,35.38592199436516,94.99090295666988,-371.1231665575896,44.88103583957272,27.922841152077265,-66.4967894698034,64.82125694573675,
235.16007938600166,65.77316368622373,-202.72313150618757,91.03895218222414,3.266215329136635,-233.26667321852264,-85.65101106897885,-21.7438012201592,-129.73467323148614,88.46300087296656,39.87521884854558,17.346551628626763,229.27785945273047,-132.05302788624766,-61.828161972715804,-218.6400303208222,16.368749431010492,-32.326318838322535,
296.9050821843203,195.5418153864848,106.83955055738204,-37.68810402390187,-195.22195926646282,-351.458347417686,58.72067238349074,-80.86047518227669,71.43581004776655,134.76647811649337,38.99163408686334,-280.5373680479408,-232.75977098525422,-235.91656951128257,-160.2117933324252,-129.60650516638498,100.84907843653573,165.210407056511,
52.27145037315348,-68.43703142626163,137.41846824134143,-38.956172817483235,-162.7039525805102,43.02142880516746,-279.84993718403285,-548.930355877556,-36.808734350590235,39.16403599252093,-218.61039159569978,95.02190562182506,129.87647554333418,371.849522304846,98.53636108821094,-90.18552729137558,-26.361390037402174,21.073159461288533,
-64.0190529247761,-95.22464479871047,-10.15224716796228,-3.2485512132698435,-131.60693249779126,317.56527104117754,-460.4807127014541,75.12344999148576,-96.91102251401887,-42.96469270494292,-80.70553751803232,-105.28167128362676,34.43276456568253,-7.7479397825281024,30.456658898215846,175.4901263432977,256.27908805742095,-31.73643751836711,
39.75438863454461,-25.448029037945428,175.50145351281768,-71.16307044617014,-56.989735657971636,-197.5235150489978,214.36646986273328,120.27761434306264,-134.02131705521037,21.88290966294554,71.37281518312214,-168.59838308033594,54.10613160892263,59.003218196746076,-84.66556230597611,-25.8211666224948,95.96632004809611,14.623857737880352,
-147.21878223805683,-85.99825427639615,129.62655861870456,108.93252473664283,43.364845531351065,98.59840320362123,25.529743396782543,-34.44034868740013,31.031999866851887,-95.44643067912742,-149.57016950350334,-5.230509901701823,-138.33264660951363,-16.387618429527315,-97.18069321727315,13.501628841053707,60.587777101655554,133.43424762069688,
30.54601370993473,54.86874157729053,98.19097883594908,14.689086333140914,64.82598392296806,10.572189894191277,-56.242449491913064,-98.50610240370706,-74.96638510482059,-66.0468251454877,114.68360433917681,132.09275297535947,-201.82949912291016,-189.40023199093028,-102.09717661226566,-53.026535373316996,-13.909477031928258,-228.45549974646005,
176.35518797068542,-20.346772409113147,-85.60529742658073,127.40211085871454,-50.08869642386736,-571.3554270773851,-381.6362071376866,-162.49669420423177,-75.93056584377538,-121.12278835738405,108.63605032426388,128.79819316650153,107.08602190683668,-80.98073766341238,-36.52024867601429,165.71064902066882,-62.4143495560349,-5.974988215279249,
