-35.393182138635666,-20.749230764000576,-19.328037562101652,-18.616271691924165,-46.94124312680733,13.489700724865617,-1.506438348201807,-32.41384614972027,4.750628350638278,-26.366876115725187,-34.96333073321206,6.967787215634592,6.491852350051421,-44.60533974958013,-55.33224065843406,-25.827506918823705,16.99640779841222,-52.77122423255216,
-8.369285141482047,-37.934865828283705,13.763810345145052,-17.003951901616784,18.698379244716797,-28.437332134912392,20.28307135726211,37.271576028969434,-0.6440581114869489,36.606299719723665,-5.219049035099123,-5.772523296855311,-3.8596559676425506,4.301992762811418,-28.51857610224333,8.872829396573646,-0.41369247007790727,2.4905411836859312,
9.073095279942104,12.568283605761303,15.261849595420601,0.06287075902745852,35.72166864883139,14.431919664613106,6.225761830982023,-11.400847959232825,-1.054375277138461,70.72811534142396,49.11183789929249,-31.836304275168445,-9.077710388928331,-16.259026985919732,11.313083054322739,-10.01913688052278,-24.814210649201936,19.225702559655392,
-32.27705128775665,-28.134892141876943,-50.971437952980985,-46.19240985890653,-16.761952326240102,-44.243914081755264,-6.758525222509772,-2.484550400360365,8.138864942345528,17.586988490028503,2.521594608602492,-40.44634062080765,5.174395560055562,-17.2222050994898,-48.86683560464819,-0.013058757304337937,-49.01145182264793,-8.150863354822734,
8.051882494172366,20.650668529637088,-21.421388601388433,5.53622956859924,-37.61408577542754,-33.33633793722322,-25.702440165321693,-13.758420110594445,-0.747076938967291,-27.81445839069014,-37.8151139403505,1.110330401629461,-13.880330425929609,-13.481645393016635,-17.46524818491832,-61.27605958453208,-10.362494267811256,-6.813323779775752,
-23.305434711530317,-22.621006581263327,-27.596148239595482,-26.937042778563907,-5.486705531032682,-42.748204518880414,12.135505169210388,6.84754055002585,-1.458142245585168,16.60966621957471,-59.53845393252024,5.687460568167714,-19.520379246062568,-5.682636766730884,-5.05942400097813,-9.875111235410605,20.16815465710923,-56.62829268157539,
8.176288594555094,-20.466355058497363,15.830820775909292,-12.398216631344917,-23.92000392955171,8.663378423367815,-19.793309534461244,9.419746442778525,-4.275728593277202,8.028629181827272,-5.6023279851569585,6.695510801336852,2.137532265519874,-42.86695062591912,-19.194459856900743,-21.512536985818308,22.68527680371467,-33.66005662762266,
-42.78399596208108,1.0858856160927546,-41.02596148753263,1.3752152019363586,-5.65121037462532,16.547127691382528,12.629632139971589,48.65891520272861,0.6988600224156662,-17.237653755963102,22.981482504783028,10.116414616496293,-6.059115221206647,-43.044404525424596,-68.54797481024146,17.639493521112097,2.4232027613079756,-44.17462702678496,
23.167068672421625,11.43887949910205,-5.5773444426550185,-30.86138407992792,-53.25118211321194,5.4734567095374125,-9.664517142279564,-16.28104067700803,4.4579750057148,-73.13554812589173,-66.95468000889632,29.548644655588596,24.347358420031473,-6.840721015306389,0.29477595446799587,-23.36311298779283,-6.877435691149797,-36.397885520868584,
12.225902286512255,-5.7461243161231,-0.32723751339833784,16.303568847571324,38.6061668913969,-46.00367266567431,41.076301832891104,-14.852895457294045,-5.560542887277451,27.98168665913815,24.107307230618922,-10.30068755264649,4.750820584917386,-5.356866163742091,24.846560001176115,20.5822013465019,30.13460345784684,17.136789723604757,
40.57335859701997,12.23714535626544,22.346774518901242,24.68620201215139,56.6351860107759,-67.65332396749504,-11.86023401446167,-23.58548075247619,-8.792866258087308,10.281697465324758,37.562369320909156,-17.536592767888767,-10.002336937523118,18.02152399026246,-38.95405053109079,41.62830497191638,33.96701225138604,51.071951156296834,
-10.534207863135203,-12.827544019823527,-23.246257457320798,-35.78636381519282,-21.841466192864544,-27.608272501329434,-41.01939214141136,-36.68715990836504,3.3852796389495023,-38.94736720264443,13.89914327685158,-3.815344449618546,10.665755073198659,4.1411321282240605,-27.983187370036166,-12.226004079373501,16.141592769546044,-26.260866005493245,
-3.271891572382189,-10.05903361274242,-23.71851947837741,8.164564624882418,-20.502000165240162,-18.000772447776292,-18.929703090749594,7.823083397212855,5.451217942054903,-57.64299904269169,-40.5820557005144,8.765723069509376,-32.12203246830066,9.717005597524665,0.8722762231427206,-32.99051142813161,7.879783403648132,-38.17150056057254,
30.428702418915645,-10.050748822900989,9.105885501105556,19.977019079095975,31.34665090676451,17.719582546251292,27.381585817936166,-2.3237445189337858,-6.197893067563274,13.961551923468758,-31.307038283854396,1.6397659367011044,36.175632478657434,-5.710605968203836,11.649163750220746,-25.415296721264262,-22.129881727077645,15.083284061659647,
16.502727148626153,6.375173688330338,27.069415260932946,4.729513036576533,-25.701317151480445,-36.550876247256745,-16.594916084459275,2.2725263987878206,-1.4007744267113464,-13.985226170173782,-1.6249987522637737,-4.681278583469803,-3.3090302910796217,38.68171949160136,20.045156039756215,38.5728734329631,-13.288474975275385,12.001492210046317,
6.478349609259699,46.10095974307323,-34.81722311194468,34.055785852388624,-24.268996722869513,-16.947462202956142,-24.059720253412802,-27.53875306367496,4.737861109638951,-12.288904685114538,18.46890105424502,-18.861652522714945,-4.603918067004665,-30.944812853242478,14.850896661052872,-19.31263160557163,-16.11756125812684,-0.27256501196966393,
-10.849465753100134,21.898000173981053,-39.40929431005864,-4.613461609813588,-13.304192558352783,-23.389495183084158,21.10633763676562,-24.618129858517207,2.255355255499029,-53.2925793048646,-46.731738431787896,-57.23235734546382,-7.582961172793104,-26.96894158791689,-22.59159614313273,-12.76145421070409,6.582054861469603,-3.4264868583400827,
-31.6791520303343,2.1615893497608973,17.491218244170454,-15.830100008132362,16.996594108700478,-24.886324525356407,-4.1557481064749755,37.23505459013553,0.7426872538822852,8.712615072322874,45.4488477650327,-32.46128083052363,4.262972849527105,-5.517087876480069,29.535818384063063,47.054099982914416,26.173875535444328,46.07262586780558,
31.113832902253332,12.463786079152495,-31.62191762230067,27.489144712882517,-0.06060362803746096,-15.840077557254032,10.435513515484892,-16.930533135863005,0.08792457347040616,63.04923223363163,1.0911353044265988,-34.2043855666531,9.176371439223379,-31.920510496616828,4.811338540287609,33.792037508169415,0.7883112085631038,11.84730186436576,
-46.74276725674274,10.457852887095495,-12.495987836902623,-53.75907761006022,-13.67910030057019,61.28957446049098,-27.675406994426588,-5.111762221891087,6.120050403379419,-15.268985852874678,-71.79842584700839,25.292102441407422,-43.94518853720318,-18.012477077365634,-39.475235752257895,-37.26116682377097,1.6681890382831257,-62.50996736314228,
-15.17517539472026,-11.808474404593337,10.04754719181785,-2.3410155188176707,6.265353566934291,34.11835618584565,-6.525366205574467,7.614575939456689,4.386094795664699,13.87113799328509,-3.3458538663992816,-14.318577915718581,-2.0056541394695966,-34.981041635628436,1.8459606057317757,0.5330537656759633,-19.759062296782204,-12.723308548754073,
18.545828309614624,-9.56750372195946,-2.5270522716415758,-3.7445725369128025,-18.620680202162383,-3.9937539205782757,-15.956102740245237,20.61900102115104,-6.324200966584002,-9.160808008271704,17.715892022401245,8.536942447169118,-3.7539492213790204,-20.63002368222016,32.419200349999095,-16.425250169205025,7.1489216614809035,7.432063199797982,
-27.61537149120806,-5.279722821377165,-4.454205715509281,14.102562971589004,9.79125887883982,-15.302426232200085,-25.804792118705702,-23.619914753166647,9.387310258474958,-27.555899675319065,5.335664470690557,10.16631190798817,-19.701603148585868,-19.28656628088879,17.7877698251022,-11.61947517212184,-40.330652828253385,5.662578053474325,
