-6.303263647208479,-1.3644072554145532,3.5516824534185387,-9.889880685976797,-7.593892513023444,-0.027289019487835492,-1.6813960944419075,8.960253063977529,-2.13039729504534,-6.6290893883273885,-0.3072681646409526,3.859102486364522,-2.100553247597752,-0.27864709030448626,12.78859933258962,3.32853015634139,-0.9620268217856626,11.57789572168376,
-2.801459505409853,-1.757916888820968,-4.529923049226631,7.250147346508544,8.47984244832307,0.1740002797931101,0.4710720459522016,4.5390824884441745,-3.1007235829372335,-9.99195596537117,4.115785113646278,-4.648308155616371,0.34200643469371095,1.6914117180268764,8.848763857317918,0.7440890626269624,1.2100478296031938,-14.475070920290717,
-5.275996191857847,1.8015044666593727,-7.959424068104795,-2.8131993594223994,1.5926441493978853,2.2915166547271038,0.8037777773476458,4.067706807723693,-3.835986449876749,-9.815362734497478,-38.729534854666014,11.967724534066676,-13.96410967048003,-0.40968872166741377,-6.516989131646139,20.855642415289385,11.334187418018665,-5.311872991404998,
8.811143159058208,1.1160885244396133,1.328417473824467,0.2932137737031108,-10.810033273383246,-12.88802792732442,-9.159892280673946,5.8223343786888835,3.195183626721746,-2.8791503871654913,-4.541274292864446,1.5396067878475923,2.815639883316026,-0.7718956597076195,0.06008576101230319,-3.37957271651948,-8.24736987306725,4.064225154437729,
-38.70509753898186,-13.349906924710902,-7.422581532576391,10.976522187014893,16.359533831822795,12.6762469248321,-2.4643397836596197,-1.6334634341231542,-8.271003992507032,-10.434447384953227,-7.325238244879683,0.9819399835735055,0.7102623702570382,16.39275766808054,3.9517244823807802,-2.8233462185560025,-5.07851929256922,10.584945749023776,
9.053631582598607,9.295001721857043,-9.045813379788983,-6.014337492872297,-7.826345845211508,0.2917910247233714,9.724992463427206,-1.4420408563017157,9.39295110886523,-14.484530871084099,6.6544953701486556,0.05779972125616524,-0.4182838624238122,11.818078720742292,5.761594623235833,-7.764447737172128,10.137405979614078,2.649121670924631,
7.261867816427104,-0.8127634868908857,11.534666882920842,2.529847211905485,-2.3195568393737944,-5.135757682243405,-2.642777503110749,5.590305087620831,2.6365131128156247,-9.93417187847592,-19.01393826896207,-3.734966521591017,-0.45948783361527024,-2.305473861815087,-4.385252210692397,-0.7175840811876086,0.5310767073277752,-14.531270311006528,
1.1746442711921037,-8.543186398729755,-7.007856122091899,2.8506325275961775,-1.286928685494511,-10.20285605729924,-4.776597907872424,-5.456067644812803,1.2555095657925024,-12.793806653737882,-0.9492385146300747,1.43324813537564,0.21393859412899527,1.8084439477082428,-3.752212050803099,-4.805961088977166,5.1970989618811485,1.658618444399219,
-0.15638301136492525,-7.686107448319468,-1.0850609858358093,0.23206577911191656,-7.815847491447386,-17.8939037446113,-15.164346418294047,0.32102748405601994,-16.881737017942097,-5.880945555482088,-5.7060921296686695,0.01771422788125774,2.0239180978071327,-10.0692371024145,-16.08415606105816,-7.121199908127719,-6.694027225473979,-14.042519904900717,
-26.853255992819633,-6.761279485736039,-11.313509287420748,-0.5674792210657467,1.763762753705464,13.70818083104407,1.793225739570554,-15.43396261489689,-0.2743005698670748,-4.5564532522794945,1.5010858136339287,-3.63887630635304,1.8859183379937792,-10.00607864639714,0.12883066674919405,-0.03763179472331296,6.118121661742068,5.825549104562971,
-8.738000387162144,-7.0816045852782725,-2.548876711759417,-7.457930553383581,-8.594297081928236,4.085644085567806,2.1213616931456767,-3.2296635086315204,-1.1261084607839384,-9.25880097030203,5.8242180296540225,4.756787792709702,0.33073517260938545,-2.4394660458234108,-0.03559156517007384,-4.026223722169261,-2.8523384892718737,0.12528436041159846,
8.52800723458965,-2.456332617182619,5.585268954683327,2.940239003321864,0.46194743343213934,-2.7895044497698502,-9.681955999333995,-4.208381028923304,-3.92952206224691,-12.806025780003159,-2.373092487037871,-2.6087056675343865,-2.3693366644367058,-9.798844245778747,-1.5080674445175717,1.1383941981975827,-7.478242387330001,-5.8983417432806196,
28.690836426375412,13.60239538393221,3.296201820709155,-12.011744394512906,-0.9696036071337297,6.095461311306283,12.378654342234073,-2.8751589981242405,6.678275849930144,-11.105817089180555,3.706671542612728,-1.2128302890029574,0.09422163829503197,1.941768157653957,9.41910281779423,0.39779837555444497,-9.381016712230435,0.00277657750796639,
8.095838394191142,1.4847086305577828,1.832226137922966,10.658128534186979,-2.6995309807019603,-0.017966334563021345,0.7182822541442658,-6.4571580652067615,-1.0645225230986006,-12.59886339257501,6.190387057490099,-0.5446946944054496,4.034871584380305,-2.1501815617923428,-8.636308613727467,0.7679828671965975,2.7803800115248722,-13.670472403487189,
0.2298639176323349,-7.436976522278642,10.726381041898431,-7.218705019333585,1.8367698223453033,-3.0345561043656004,-4.405205964993691,-15.554026362701181,0.012238114135782168,-13.995769046152384,18.568097271402554,-5.141912885299486,5.13956069974021,-1.2689695196128232,-8.533747308030994,-9.739487252129399,-18.326346365828186,11.71280952285112,
-7.752264404073213,3.586518292557519,-6.708271563534474,-10.02643425537568,-2.9894521225615156,-3.1138040272435643,7.003094713847142,26.77628590503076,-1.4314671743997345,-9.673583588440376,-10.935703975289174,-6.550763333718022,1.8605621298407988,5.257739447989004,14.028743521694642,3.8036313158736257,5.674943680858164,-1.5498140737973913,
-7.274548813355288,-0.6530190451333221,2.224575662169619,-1.6914306201757978,-4.713851888279273,-1.1344957138559852,-0.5626033244884212,-4.153663829790237,-7.725047895694367,-16.40870868011903,7.818390862523648,-0.47264772219668033,-1.879730706655753,-7.621449524998967,-5.409965528200574,5.823252555135856,6.201413730886462,-7.508365280171871,
-3.0219363905769927,2.1629646806531797,-5.383491857949896,2.4176953481882584,3.527681812175985,-0.9305317573291934,1.1394866715006358,-6.677576156285712,4.198821862104766,-6.575335994246243,0.9421297098720771,2.643633926287332,0.901442239486995,7.721688715762248,-4.751554202446617,7.70207895648312,-10.677844714688106,7.036432155367937,
10.814880101560755,9.065675473545408,8.111909698971148,2.6568069030237513,-15.368975728154672,-14.908252499735449,-11.128853634715135,-0.47778417010710766,-7.641885501026611,-7.3336306222869485,-8.876958467451642,-2.2089064923988744,0.9769189304348707,-3.1039720721613118,-7.070189114547134,4.441293466642959,-10.653061128301314,-2.8916212824838077,
-15.349469751007865,-7.668319233142868,-2.424327843034375,5.2315315026193305,1.8067869232635947,4.030538747583515,1.4905162594145727,4.762277572457652,-1.2386856767214576,-10.274495880832132,-6.090748369902321,7.285368914286317,-4.850142410425257,-5.072740411430393,9.011522046180371,7.3883527089835255,10.446822219934777,-2.7268850039590493,
16.1455256109984,5.0924256912373975,-1.947343208752743,-4.964609417029665,-14.715457652009622,-12.256822621770553,-7.746697501207356,-3.2113587079649966,6.423978087297298,-14.798484591807819,18.93964392429335,-8.933810448019365,8.079256278779505,-7.082116413707325,-0.8511232685558151,-4.661353538620427,0.41590256470549086,6.304579837907456,
-11.503234767168058,-1.055617021355921,3.3732341377806616,7.468768511659696,1.1294877070592717,2.2438369081587775,0.25783100046282836,2.778880887381188,-4.304981447084467,-2.7958734732415733,2.6530372111422253,2.715395787511926,0.5754227031698659,-2.2572988900378497,-7.197323061664506,-17.203960680356026,6.857732114460312,1.3191536669832185,
8.698499142058065,2.797176720929985,3.781110482098655,4.678021473243433,-8.227921864684564,-4.76369424053978,3.9107117629171646,2.015027592139678,-6.84141998282289,-9.446919379448437,-13.776582385753342,-0.6656004997151231,-1.9734299514601172,-7.023042021571602,-4.616888328121934,-0.724378555801742,2.4907586228356737,-0.8179385923600624,
