-51.7346127587372,-296.5533688413438,76.12507175765577,43.669766175511484,1.99362947690914,196.9659266722091,-360.8935749196616,-155.57143263987126,574.1094245258388,-47.09455701703952,331.7750832010396,121.83276783377814,-226.03001404510422,35.866176529417515,232.4765892549314,167.12027828269876,46.74170334082183,-138.42459068922042,
-341.8320295538147,-31.67761143692747,-102.59166707868583,-239.00108548715318,-0.43107529462618116,-552.6953102669656,178.88681659875456,34.999308384093055,-237.35548098729905,-108.41118271793667,-364.2642919792029,-342.31084657241877,140.3538133985134,-82.38146819423947,54.985554043649884,-167.88117130725988,-372.8253573838523,-154.2257331554032,
-134.4484820460896,-376.3276590736671,-6.477114584562355,-256.5895010372143,3.0603903991548753,330.68506975707464,-184.18693523014457,-168.8403970685208,360.9677387705769,-281.22264093073386,379.30205515921625,293.65523820869123,-281.08800320823366,-41.1979227045306,-0.494468634789223,216.16984677748297,-108.19462271072673,-108.32974984652863,
-24.45238700875597,-58.312370508830554,-146.37935195069753,-595.3851040520657,0.7525900202058856,105.19417068930845,-330.42024518711685,-328.52170216004214,153.01549871614637,-264.247749841483,-29.765332598813412,-0.963252517876795,-11.974780130168174,-110.27783234974937,-7.213069381683436,56.858652947973475,254.69542785778907,-239.7314014283669,
-171.89235716473215,-700.3635070544442,-205.43363977207255,-398.91711363347594,0.06784309223551555,-405.97649025802207,-319.0077885524477,-253.36971598827182,23.100962581083213,-466.89540773370544,-178.11683052523577,-130.13720254337707,-164.68431759448836,-89.67228603589035,-5.215333236042551,31.89545722431038,-100.02571253500746,-367.0359128129472,
-366.2978140856873,-12.838880793916772,-186.50872555091624,-160.3899459450401,-1.1217141320609054,-551.742507042247,203.25270577885266,-236.64330399411247,-397.3897647434228,-148.04890126040945,-305.5790163592695,-426.71205616544637,51.93706230236384,-202.5416377457117,-9.803482158630136,-152.80111814870892,-354.1145402231238,-303.68244970769064,
-439.8003129747595,-24.980640787013066,-129.9234490523635,298.8382487527804,-0.08266063953395424,11.573993710752188,231.96151552204228,-12.969142761651046,64.65356668436701,165.449262047286,67.6795047815741,-68.09795369894756,5.8704548595267125,139.7833813014554,45.07161607173224,17.233718331804734,-291.3078346024514,-48.17269078746157,
-46.79745586243336,80.51222613213658,126.71200508607976,271.3988812734591,-0.1601980808670437,-234.81892729521655,201.1712784135898,267.00514889937335,8.682101839871576,409.1557988715473,-216.3490398534675,-97.12695623173067,176.47874123778067,41.29733248962655,-28.687615200918618,-1.7255213150533668,-252.4546064104503,129.53250505158437,
-497.0333641039414,-56.574284960653486,-426.7968164047528,83.39059529198263,0.2509593762627101,-356.59192293337776,77.7003663171614,-103.33941996243391,-332.8477466231016,-279.2785262174853,-361.9082880728439,-385.8213642471234,-35.42256603674461,-221.8632851249671,-177.66644246307635,-110.39993656340971,-485.99877532766993,-341.2096071770561,
-181.63149529698893,-304.07080705673764,-262.80694971874675,-248.72194353567343,2.0875294772659805,-504.2872240061921,-185.6019686453099,-341.6653584267606,-216.60181331013723,54.07845709014517,-430.03664940954184,-337.3157368359476,3.6839465590341,-89.31741784816658,105.38722315106915,-25.154563904642444,-256.739038794236,-311.68737866999055,
-442.066569027115,-636.8562905151308,-313.82719234767546,-844.4220125834548,8.028080789045848,-623.2548692419263,-168.36230909438717,-332.5129166843575,-277.58021845373656,-659.6921610964317,-378.93666691219295,-426.2206609178219,-293.3847959899507,-291.75285431060996,-198.87860825955144,-195.25825759310507,-320.15315618028444,-409.82637136011044,
-17.411589742616602,-35.049380560742,12.116264142937927,233.9502328352693,-4.099454161153274,-459.5139682187923,-32.29681960321928,-10.073439231896677,36.57039703376921,49.295147083635904,20.731651291146992,-170.77719003128155,100.7261606348269,113.52543424980236,-13.495903778928433,60.67175352326393,-234.5944480037403,2.0090371248603933,
-286.9838207902118,-306.0861568881114,177.59245764021028,267.64698999237635,-8.876766502460166,-401.192618348996,238.41825451690738,-90.54538279383236,-109.37130746163209,45.84030952079532,-230.00547134104272,-111.26263442848995,339.92772974956114,167.04307550599256,60.26721194319027,-112.95562829743754,-146.05203035939795,38.00086033451603,
25.563259169712236,-31.490712124686848,-73.62320962660839,-51.77603246329964,2.869789494786448,-221.70529953387123,-303.28595635913706,-61.17644900491874,290.0959620560656,-158.18005692379376,165.72421516277126,106.14930669114919,36.40962171926178,-1.991006162652035,-58.17415124407994,169.38733848275564,-18.721694259515086,-80.8296023664942,
-464.1821293705994,-350.8766891273489,-296.9559765180221,-196.63736985238288,2.139070967072934,-360.9986698471087,-116.82663515609826,-220.26960252088014,-341.68356765285694,-206.93757773113563,-203.68060970262695,-499.73732417670334,-193.78808128394448,-397.80898129910963,106.09475721298784,-185.29431020574148,-382.88832114453305,-377.1917620214232,
-350.0270900653034,6.942338339498413,-199.09302379715302,-322.31503510760973,-0.3393772291167453,-673.25603609405,132.70501650209036,-205.63401295800043,-371.8669783389805,-304.00925170495674,-393.3397973754375,-410.77677902626647,8.20164777590589,-334.3056602604558,-22.626614653889984,-252.32329666605816,-393.12479005446573,-408.498351949622,
-545.9353760124543,-70.62240037115,-301.37619763228923,-319.14506798382257,0.5811956628892452,-744.1994685005217,92.36596639601302,-297.42261880311315,-578.0706069104983,-304.4970501741694,-635.1185209531288,-565.2735963806045,-82.71292909204024,-252.55814492251153,9.101239243801425,-370.53826666050287,-411.5568393656147,-404.70024517823146,
-40.67020250531952,-84.2464189054757,-17.212508262049468,-185.3715589893475,1.3707555005393601,-205.0635647638968,135.3845605169389,20.060572882646312,-54.99091770903668,-150.80997973552718,-84.55915651776422,7.052046201511351,-31.859648456049186,37.03428636396522,-116.9939321506982,-141.81936504801027,-71.57134171111541,-164.25471819140813,
25.10257423531197,56.98618541099737,125.52636640915019,498.07223543509,-1.6034049623863036,-86.44953942450206,298.3202295866585,252.3577317787326,-160.33726789518843,134.3830216273038,8.079557383205566,4.339617303665976,2.7380555607340287,21.205975879211774,-29.06610849108996,-101.32199667217316,-253.90698681926054,176.54892372338188,
-200.9893757972831,-143.1421135369972,88.77850754733745,8.452686248825817,-10.579612716427368,-228.72663892022365,255.45014115639674,-129.71046530362378,-30.104763281838597,35.748371321803084,-124.72776039645001,-96.32701546220868,197.2043159751038,38.77693462915108,4.803061770636054,-21.088339640061108,-79.49921589543145,-78.58917366144101,
-342.44215311654864,-199.2568547345177,-192.17463673383537,-71.38390984097445,1.5608625834687746,-500.8772876832603,160.6571309350629,-94.4760428251418,-298.0109465590284,-226.89575630311228,-270.320876063864,-408.95012837836475,135.85828103429975,-81.5188624095808,-118.7301848015249,-43.499967094602475,-456.3960889946624,-307.6318741217853,
-172.58835705458776,-31.102587397840153,58.21178543207013,258.22916681036077,-1.9264617804221487,-412.7007966312061,-51.58946267263587,195.18950697040552,49.2870581126377,356.8241445982779,-267.1827622839825,-209.20247076490207,175.47384849851855,196.0414121486801,16.801619933782533,1.3358597651891138,-329.4866370274961,234.02459464181123,
-113.36039561790746,-709.4682513645948,-366.13025144852355,-659.0488891243036,5.797554556491174,-264.7790275442122,-198.84713063703794,-543.0914107937831,-72.72478085430673,-573.1275090783324,-234.02659182747564,-97.12734217729754,-401.7959999581143,-139.4725936723025,-91.15534550846884,44.98605224548428,-125.61371393464024,-443.0701278328579,
