1.9513772617185536,-0.04994053693156693,1.3903236253685423,0.3206223302155151,0.7977846302279337,-0.6084022121648274,1.8682893431775416,-1.6246711220856798,-0.059573164048242366,-3.8418162800374716,-4.055551947014827,-1.5147803729022535,1.922753365634082,-1.1616954796913708,0.7650883671108387,0.1456904362183587,0.04414676018130103,-0.6761355973713176,
-5.464681494386387,-2.034416358430854,-5.166904508375956,-3.3745958996141456,0.4174967296930392,1.0345067189780732,-0.16102443807789818,-2.7213391122517803,-1.4335686109348191,-4.401316996815332,-2.5841061885962304,0.2851401750563197,-0.5330291711151895,-1.0410368114219273,-4.41590573643807,-4.776860701287767,0.5586530530020397,-3.1214101363200917,
-2.341829112256167,1.7620842229787872,1.5398882084225667,0.03156097670615078,0.0968668538387284,-3.3895123695214395,0.19725943070523932,2.587534060698525,0.09383360072803548,0.8361043843730543,1.6186529818473374,0.5421553203091798,0.4958343774819058,-2.9511621466249327,3.3286101072354385E-4,2.1713674319025316,-0.7849846277204157,-0.5274761931776558,
-2.186201841446718,-2.3811159188781663,2.566151906644403,-1.0515269939350087,0.8392619617516274,2.1849072050243317,-1.2424780734078542,-4.399737957918195,1.2197985960371542,-3.3099217147622704,-7.31153496508181,-0.42850668915825,-0.18967087317329803,-1.1384844005307118,-0.5372195551702329,-0.32409779609517936,-0.8450394635220544,-0.22026513009603757,
-1.540818698062119,-3.6718453157852182,-0.6943402646743492,0.5009641574606855,2.554682869751251,-1.1759279649368715,-0.8272005879368293,0.7264519127282042,0.15534757526800239,-3.204173649938025,3.318381497479333,-1.2808889724812793,-6.632640574824252,2.3991473300488,-1.3232173095054416,0.3621282724329877,-5.507804559486679,1.7097431393637676,
1.5597354142821191,-2.1307689451282363,1.0498146474327361,-0.8042951992509647,-2.338343763725819,-1.4156440172128752,0.8549812973337911,0.7022939105940835,0.19633950251715945,-3.1979205245134796,-3.002934178517813,-0.3161918184250144,1.0337578232857465,1.6186182289319209,1.0446915787899202,-1.327362576282529,-2.4765047394825834,2.0132803810719926,
1.7757443608827952,0.08272035595669544,-2.4296351129002765,-1.540077535732338,-0.3963237354710337,-1.0183966808032603,1.7912950885777819,-1.7447429734953532,0.5416281037454452,-4.714824088028061,-2.7647617193247505,-1.827117678937387,-2.2740316244861667,1.4960230003444361,0.13179454026882154,-3.7036715212351132,4.255776135530562,3.90716596367108,
4.2722476422182085,0.6736543117374639,1.6315345067789724,0.8771157352073992,-0.21595500444082966,-1.3696434805765338,0.02706400425494142,0.9434473122082349,-0.2606849071660563,-5.489951907410491,-4.31839715963305,-0.771205742716511,3.2379104590446763,2.2995985414067137,2.20680238367221,3.668443162922267,-2.049269624070068,1.2082525416012835,
-0.3072696007481409,2.3685557141775946,-1.2725265852511107,-4.30877665666475,0.5045510457999983,-0.3461915464703442,1.1130124555148988,1.2725428132017595,-0.7219338314428003,-3.159007069813494,-2.554102304331081,2.1601715409917,-0.2381040377537681,-0.9518454780198845,-0.5277514189773304,-2.135873831377596,-0.14056590938331967,-2.566960446898958,
-4.375164030288573,0.946919020330546,-3.4052394819322753,-0.21700167913892043,0.8311040900323006,0.6841574660155463,-1.7884591129327991,-4.401823259375077,-1.4734439376139339,-4.160153589824259,-1.7302746600285666,0.8958899155927292,0.17712840202667207,-1.7673204418040702,-5.686581761747878,0.5447662454602082,-3.3689551652047536,-2.17132696339181,
-0.08874305940688601,-0.11463195186181345,-4.955690130703529,-0.2328662132851274,1.5344072143222296,-2.11754953180635,0.4408881355394624,-0.715232513807155,-1.4559259893928465,-6.2344344442936075,-1.8379095299538732,-0.39773676351657067,-4.455187786081467,2.3713554097888925,0.25323476785942206,-2.372866472653506,-1.032023400800796,0.0985262834742826,
-3.1822097566442924,-0.48877100954259306,1.4513864960718978,-0.26030270830947855,0.43269931039564513,-1.134160275714534,0.8940929145350935,-1.5217208805415736,-0.8200983215167352,-3.876959134096101,-2.7629691933932996,1.1117750488847034,-1.4527675446519737,0.024156185406502287,-2.6596945500926363,-2.264547934289767,-0.342228133787333,1.629304239872129,
-0.5038400083333148,-1.0601901261785016,-0.10542407040177175,0.6134133785960676,-1.4361168784169713,-0.9802695675890165,0.1051153170314375,-0.19641080117953133,-2.378588193523482,0.29730347571205573,2.1144663010356175,0.049518780220388296,-0.6448180372598484,-0.15132882834718647,-1.2093200099708887,0.151093717266307,0.02917473192990564,1.5221858931438723,
0.5513440682565758,2.003197371207936,-4.573038114225249,2.930848832960751,-0.27116033668402406,0.6873034472656797,0.8459924241261515,-4.024837978892651,1.35576984202316,-3.7171203020652714,2.5665426652427676,-0.8763475645385624,-2.8840296982499236,-2.3131359596943066,-2.087735561518049,0.34411664231558214,2.1709079332041026,-0.22023752528297869,
0.9142369457904367,1.660758674720269,0.9023321376039264,-0.8793543640501132,-1.6274105403116685,-1.267408159412826,1.8585062585977439,-0.06097976898205644,0.9362352419157074,0.16099409441079907,-1.4255952535769425,0.6915763957418508,3.520519780942855,-1.3622632902059504,1.664243403668296,1.1462308149033336,1.6237213609712364,0.654639352885376,
-0.12949120278226886,-3.9276166724866375,-1.1380054315622332,-1.8211678851200443,-1.931961485610397,0.9272311227773353,-0.42459852500207035,-0.007960126833804105,-0.02014053729977565,-0.11491413738860314,0.7130963709831198,0.28161317763404375,-0.9421530975387847,-0.1906921121073967,-1.3985495963353163,0.2664012069983569,-1.1136413554903417,-0.4427547519202888,
-1.772876404448172,-1.6324457163612243,2.3684556239895973,-3.15310785127981,-0.2775297120208831,2.9628249745450534,-0.47204570817090524,-1.990212206556945,-2.4150632165088934,-1.4563553193729104,-7.395513518547494,-1.256988123057515,2.8654793049636575,-0.8808314828088556,-1.7381434610794892,-2.5253641718003434,0.8350601185702891,-0.7967917640304424,
0.3555290868686994,0.8809556887093988,1.133164796893244,0.2060331488131128,-2.634770030219656,-2.4081737392505937,-0.7726112501040567,1.267987160777701,1.3292220263771868,-4.20432885562081,-2.0391483780946635,1.6928681086970363,2.485909576441166,-0.3379384631747436,1.3285750610588256,1.4170973355051584,0.7238233314319048,2.269950373295567,
-3.4541246030324184,0.04109332414821606,-1.5735319671442707,1.650298011400859,-1.5076375157215678,0.7486147751353703,-3.157407977893783,-5.439606891074335,-1.1451945385420017,-7.067514953577856,-3.406327910698654,1.3626243200035484,-2.6914467421647386,-0.43253851991398024,-6.657781389541877,-1.869819726919032,-4.541601070456778,0.9254610450362326,
-2.9623902588651054,-0.07385517680014855,-3.6794144754657974,-0.2390047262895811,0.45273390352201925,2.368574120286417,-0.6118705863018219,-3.4177195442631465,0.029126408727897832,-4.492745184392215,-3.488242049425624,-0.2503306353172997,-2.3520590867949243,-0.6804677512796893,-2.545738262196444,-2.2654899548857257,-0.2769882724483733,1.4041003352989982,
1.1740335150402623,-1.1946825630818292,1.5883301433378876,1.401519969297485,-0.10343722615401243,0.7677688447599391,1.5183692865455005,-0.9677452693694025,2.224424747573975,-4.6512750091069845,-4.72867444014492,-1.3818778443459083,1.3968107480471903,-0.7061468632602302,0.7667855253552383,2.321527700838244,2.464682403612294,-1.043080835119852,
0.6259786003436217,-2.280682717122895,1.5330178206762628,-0.18417559941265305,-1.7023113087188486,-1.8151091218313153,-1.7915184655674798,-0.7193870971991688,-0.12328980558778109,-2.539861877705522,-6.2814032484384175,1.673269407793573,2.037702323050615,-1.2503331511092075,-1.373439150905047,0.20668045391723927,1.1040019375625285,-0.3024730604490065,
-0.9536814174189552,-4.105611941203623,-2.898424693479163,-1.5132267615420767,-1.802053374691337,1.534907173764897,-2.8643671686520564,-1.6361398603052895,-1.9933365383938328,-3.429584590375722,-5.91054548727649,0.3956354942408801,-1.399471855305373,-1.1189102379628895,-0.5361954504939309,-4.180619193482237,-2.9004059441409598,-1.716174773037797,
