-1.2733998381460283,-0.16014297553854207,0.7191722787613279,-0.2262775898696666,-0.4521345821873688,0.07498514100200367,-5.041044278157244,-4.395184629419287,
-3.95711013177515,0.6665913425901372,-0.8893826862432043,-2.50091956956037,0.9233185134539217,-1.1858343199553123,1.2676967373414405,0.6624686617598922,
-1.803126544551435,-0.8422912563621431,-1.3505021429214943,3.001676810507583,-2.258308498197679,1.8006265251047961,0.37304023499394434,-0.576543887550538,
2.6890774974006795,3.0875567838642306,-0.2767201493956186,-0.36245227364093363,-0.9647211968767552,-2.256018141867758,-4.204754192550885,-1.920086900478349,
-3.661690119487829,1.6752955649914276,-1.6224846621075266,-2.7786141001935,-3.6484223901957793,0.4857936161742977,-1.2483362088045291,-0.1881666385307691,
3.2188232749461894,-2.339577310221955,-1.7535331057327845,1.2981676723438471,-0.6381574956935263,-3.5707779058379825,2.1543048260275426,-5.000963989611183,
-0.3671779363025837,0.7264171829847457,-0.28720189327218837,0.8072896733635522,-3.915681222173581,-0.5201922333134048,0.6911133623119416,-2.099177226560406,
0.7908592214644096,-1.6042229902765024,-0.014384592785557673,-1.1410128978521825,1.3710005745229903,0.8314564723312827,2.1518921830514515,-1.38984381699352,
0.18324888285681307,0.05297046468070287,-0.02427626447850061,0.13569155794340365,-0.11642645541850374,0.1015412900486026,-0.0724080048346929,0.14602060829777133,
1.632465490086439,0.7092065370919199,0.37607541484983603,0.4542274856432241,2.6725062166270668,-0.6215746630659655,0.1537529496833953,-0.6916190602439167,
5.9145465581864105,-6.53647079871647,-4.629729144977025,0.6482096841013697,4.904452132881488,-1.5503947828881566,1.7880077375851533,-5.191646968503249,
-5.849430616897207,-2.419423282101266,0.41901556913602006,1.3760614265981728,7.830641595903015,-3.8157552774601515,1.0950296055341695,-0.6283679712384617,
2.642144216677242,-4.79258181968111,-0.2981378267917919,0.39884540266854424,-0.1568699756967254,-1.9049667799343708,3.618701581188819,0.14790825311620556,
3.1368526235499448,3.9090747199706612,-0.69305893252903,-2.0530266252758915,-2.4835904130198387,-3.0180971518155673,0.23279754286987453,-1.7692670125339953,
-0.3845693838680757,-2.7946441042590067,0.9381926163612753,4.0595248018387515,-3.4404850538737657,-0.9249311148653184,0.937030074743671,-3.798502778478561,
4.858892873150066,-3.2993218229578525,1.3367166042604488,0.8704783465628723,1.1358868775935824,-2.1829342343630915,-6.209892221679087,0.01941008119114202,
-3.8477381026063906,0.011811255727755394,-0.7393054091893821,2.0035586319866887,3.2768456942176902,-2.511476258184103,1.010783644203578,0.7685219980388553,
-4.028841906198611,0.3979231478003324,-1.5273097685511416,-0.540888959357126,-4.07728793543587,0.0888262196147872,-2.739328963456664,0.8073084541448093,
-3.4014168569825074,-0.5829572308890372,-2.0559816403687154,-1.992638259992282,0.3860902551401817,-2.8691419871787938,-1.6573954697463844,2.4135473336822137,
1.4752006534239468,0.2820238858808568,0.4219089250732379,-1.1040117823899975,1.2255678767058382,3.515599747821302,-4.66823720989175,-0.9760829689854681,
-4.471176101228589,1.1277100965586613,1.0341516990857818,-1.442569169408576,-0.4846787517748259,-0.1127510430842835,0.024045277520720096,-2.3810065965203515,
-2.23997871250511,-2.6127561531544536,-1.2287366627858625,-2.178152134165478,-2.0091828104143197,0.2931833873871133,-2.442475767530405,3.282499488309176,
-5.070308004540282,-1.0340728068276241,1.2411308533873178,-6.810907978230624,-1.555925890966837,-1.0545495053524454,0.8428286358190045,-0.9503030964758071,
-6.115722797918745,-3.3674540604120597,-1.6972621433120103,1.8759572367682755,-1.0304681391316535,3.522036614314686,-2.1646222010590472,-1.1771704881836513,
2.92019656393333,2.008744270099037,-4.353595326457047,0.15806658800916784,0.5453669253321121,0.6664884088611192,-0.04782839128306085,-0.5523473170499589,
