-5.901043442036121,0.07282821474734884,-0.7881857678813523,-0.8983030521107047,0.5747184404412599,0.18540865671421528,1.9987489301431685,-2.697052404731695,
-0.8602710716875829,0.3778185693285862,-0.7410883563527177,-0.6106037337905054,-0.9569468554012749,-0.38992832462747434,-1.7743543764042835,-2.834714681134274,
-3.4931248134636546,-2.0303878014607903,1.4724905378926345,-1.0876275943680958,-1.195446424472784,-0.6428796574397377,1.3421456730342862,-2.778908608740642,
-2.994350806169781,-2.1417733143687623,-0.45331903268493023,-0.3012348856232047,-2.7739854266843,1.0818135053679512,-1.2197425767549792,-0.6781426160567424,
-2.7045830374642654,-0.21297242665488456,-1.3761407236800458,-0.7617495857265637,-2.5376160667900662,0.8865562916636229,1.6520298963673843,1.314482230036122,
2.734802228860303,1.7912612824784744,0.22465045894617386,-1.1777027064306866,0.3119687065357687,-4.126819193413953,-1.8515188128066407,-0.3448388079219505,
-2.575297693923719,0.3651110226091199,0.30219348931505713,0.14439626820851598,0.7382138158666166,-0.3018536322343389,-0.5984659412553553,-5.1724141844919895,
4.980278939118923,-2.1429066430284456,2.588914630651429,-2.2183261119040703,0.40105340691995617,-0.17455042803426643,0.8580430505667962,-4.864889616250974,
-3.148777786484633,-0.2523661765623049,0.8395036225414413,-1.1050659102858171,-1.5985119295599928,-1.043093659086911,-0.814420212060171,-2.4570852814084447,
-1.8326479628342045,0.5533048183693962,-0.7834952975279517,1.341706890774668,-0.3617855634106926,-1.6848855811846222,1.1540046666433381,-3.222447416449321,
-1.885215265911762,0.5682500008183694,-0.08106164926719103,0.8202536950741737,-1.6031886063760348,-0.615904086558887,-2.6592388120184953,-5.77644341587042,
-0.9310710621674616,-1.6281009532429727,-0.4862012264208801,0.533147119384078,-0.1371127735406683,-0.9199346633827007,-1.9081008592477622,2.1572322556145163,
-0.32070174148220293,-1.3301138275893718,-0.047863147866749736,1.1174011358781786,-1.604278824648849,-2.2204918831194855,-0.5343041678189457,1.5184700827206203,
-1.8205803371387128,1.4203802493191233,-2.5178457519707766,1.1975994244174222,0.20870495740316192,0.03132153018838083,1.341770393128762,-1.4491868460122277,
1.2508249327475855,0.17563202129695757,-0.7769146776698258,-1.605694050092492,-1.4825622634871372,-1.091767111041195,1.55808836937242,-2.794302815605151,
0.9867228078674809,0.41482619322711134,0.18713107760297307,-1.7348092901347731,-1.3494507868147183,-3.0122522826513807,1.6256049183685164,-0.16654699355462235,
-3.753249256011906,-1.2844265099507677,1.7813037993073486,0.9696914056118521,0.8495389772886605,-1.7694127698688251,-1.59280416307546,-0.8822137082065462,
1.4676725459013649,-4.328738633066466,-1.924352679259427,-0.42457416546365323,0.8574362858402155,1.062624738045221,-0.6334817391512346,-2.601301554647361,
2.625964886282627,-2.9625543636764573,-1.4016166030819213,-0.8157683535258806,1.4646848405454662,1.9447606127540356,-0.5867606237505936,-0.7985910975925409,
-2.9649391916554406,-0.4878898713691463,-1.427475604430337,0.9713268490818279,0.21236144063145665,1.1167832194956322,-1.4678367493554543,1.0975710837219583,
0.951786161240275,-0.5636974641134739,-2.663713511860195,1.0679085515836433,3.612066098500383,-2.5290286779569153,-0.78738341025161,-0.2673965489463231,
-3.58602688683496,0.3108749165096285,-3.4239749412987157,-1.3513608524207215,1.445143262232837,0.37247356389480835,-0.23515616570252204,1.089354346461102,
-1.4809986531448105,-1.361375291837033,0.16508121261459713,-0.20146877027819865,-0.32549652566998616,1.2744973721719812,-2.3602843258485624,0.039707903354300356,
-3.391500860699435,-1.14384243106011,-0.768982241987645,-0.5772147869033324,1.6380148001217325,-1.9869253408826615,2.6893116787029507,-2.581559504800076,
0.8595121839731132,-1.1826196559206021,-0.16934568580101905,-0.7142532417481603,-0.8880447598198272,0.24700213990308809,-3.356355036834328,-1.6404342864111918,
