-0.9042829903210531,-0.2825734375124264,0.24708080293226017,-0.3959462167779263,-0.6171235792757322,-0.6435932104372268,-0.6383444045330524,-0.998900487241133,
-1.3555501791359323,-0.18633162934247324,0.010451798862518461,-0.20623440045164548,-0.6486265365518895,-0.27151102030966456,-0.3596329898600248,-2.1176649051198178,
-0.10221469131708737,0.05653987200480405,0.6902262027827751,-0.41712091354416847,-0.2486457959553312,-0.2900035243637499,0.27318998073166245,-0.7902241962191786,
-0.5933562310367854,0.6246013487384879,0.3136872104649357,-1.1695231329994256,0.3656825808414382,-0.6733529099802179,-0.26334644991192835,-0.3566955695946399,
-0.9500894801082636,-0.7775713075210317,-0.5902540816089105,-0.030520808230135255,0.14591625700392685,-0.037717452503307616,-0.4795431958204467,-1.8264770212775099,
0.2512086412869029,0.6431006582628472,0.1554445220744235,0.062255024601787445,-0.24438097570613637,-0.09372121960262052,0.061544265837541405,0.19696256043407798,
-0.5205994336712505,-0.19141089502504263,0.13421474677252662,0.8911488018735201,-0.38077387272209784,-0.025765740893242316,-0.10273486353847656,-0.30804504623558815,
-1.3530727423840938,-0.5442970303896827,-1.077299873938399,-1.1343003979418007,-0.7449651215130088,-0.020613243035082503,-1.034168235724021,-1.6479063329706098,
0.3435921035021099,-0.35140483726749067,-0.03528957327285409,-1.1791970375870653,-0.17058820440256775,-0.2923112869621225,-0.8207616063801921,-0.08979015375715192,
0.1884035164194569,-0.21476796711063734,0.878126305647819,-0.05451407504472704,0.13808603445438153,-0.578489870745997,0.039304177475269916,-0.16113978488860495,
-0.7686380540757557,0.38995660369810264,-0.4207055269809228,-0.7073461470315325,-1.2604519795449167,0.05813376465618523,-1.618852737391663,-2.4741712679729497,
-1.102933640833084,-1.651528765874847,-0.5336860631001523,0.5955118724567192,-1.154702485330766,-1.6514379938850337,-1.5060959951075672,-2.348512028797757,
-0.9385349537507119,-1.0462074859568002,-0.028252854599488314,-0.3564739639418688,0.1411701741472975,-0.23073818765081833,-0.8344745523868953,-1.1365315659123247,
-0.780584868079798,-0.8088949450225414,-0.30191394162434865,-0.2658573519337193,-0.540878388389975,-0.19935465339693528,-0.8373397228453884,-1.9404721964306917,
-2.0382692147062573,-2.082165866103381,-0.8280798605220461,0.5383494943511644,-0.2856401367415872,0.08356719951320796,-1.6855445778127964,-1.1569010034835345,
0.18809058648271804,-0.9411527975535637,-0.6288769185305851,0.10613182784888824,-0.9307599966758761,0.35852064038244974,-0.05251749029426871,-0.5324260008440739,
0.6878471633042191,-0.2527606693490564,1.5512751694055193,-0.579376261735067,-0.2891804510344659,-0.379130814027371,-0.8117724237491273,-0.26256627739520483,
0.38737473613057305,0.01099305446946199,0.41506530333899716,0.7985944925461024,-1.0116815577855218,-0.9469255588233574,0.36754144808733485,0.10305844574488533,
-1.6818216462049436,-0.8814076110811301,-0.5779247814179016,-0.6145925889615285,0.07579732045489852,0.054873713156649274,-0.18289761052515036,-1.9608817111845036,
-1.3956529442471046,-0.8688934507021772,-0.5054261884924373,-0.4816579178849558,0.12753808364045557,-0.011448587646407117,0.42012285938034655,-0.1968136496328784,
0.5061512366704662,-0.31006656095502944,0.06752300494290976,0.13782938706623968,-0.935202831024315,-0.4006185798419022,-2.026804359092204,-0.5778945390556585,
-1.835775943798779,-0.9934252289192239,-0.2745262003028775,-0.3121729127757622,-0.5890964810336194,0.28629290026051807,-0.2813055392706493,-2.0559049730549463,
0.1674286093513468,0.7000724221920694,-0.569719203912701,-0.6084283638785944,0.7904882597857855,-0.31810172625050326,0.6678720252547746,-0.7221574610465056,
-0.5483373863558256,-0.9446973264424084,0.051534919088744115,0.05048695736215483,-0.15896862911872933,-0.8628439618356967,-0.917240679995703,-1.5187988751448802,
0.3963185145893726,0.5610291394589031,-0.16579284100873093,0.582258279401652,-0.509739375093966,0.11005356937009066,0.3660299490827987,-0.0503550738947606,
