-1261236.4773151428,-459253.1176414578,137121.26756269255,-52402.05761856952,-603375.6735418466,376292.84258162003,454576.74507065763,-614498.6547064687,48437.88657945109,-284475.48750818236,-98733.94174061707,677745.3492403807,-215859.9679086261,47266.13974488082,75859.4462956727,382984.60731355654,161784.9543918801,-273836.5695547715,112531.381453358,-137675.13444220668,-224327.5348659082,474063.00597920205,-162001.08742478275,
-595295.7200697856,-357817.3420410356,-87584.94746759393,-70401.46158692351,-709858.517884782,101207.9723278437,364371.61645540775,-307779.6882058707,124968.01715474272,-187768.87693815748,-155652.25480479133,177860.51705541337,77193.53929051312,225994.9255891603,6881.843019504996,318277.5974523602,307359.1627638125,-135485.51394510534,-26238.617181941336,-160280.03706557283,-204809.65481165666,337765.8519816769,215722.0265148198,
-94196.3007289,-159268.46797909943,25641.48144445537,55114.774286033404,-57731.64213997964,84757.68420599078,167002.93729388306,-110715.44791823892,52711.29448265003,-74118.06462060376,-91415.58329695083,48636.82515410708,-57584.464331999974,-39459.26364310676,78546.90132792463,194000.57660264437,14182.670227391902,-51555.4396684102,10766.145918931605,-5749.2912437498935,-66614.3893141237,42270.82127561167,-44290.353137559636,
316037.1305923284,-101532.3191376469,-130538.03529977138,-41921.275564539406,-203050.5713615025,-122414.01397078129,156600.75889214408,102566.60211474894,113938.89458969513,43844.41218001416,-133187.43760285724,-317359.34865684103,138126.72921206392,140783.94436927576,-3182.6245683710854,129728.67117385156,162851.6527705887,9430.790336029562,-123546.45922602345,-1871.2868555873895,-48812.98520748401,9582.983152282643,258413.00765054623,
-623442.4747037101,128224.3418539521,266852.3324663808,-2207.511575121789,-44282.26846249737,164496.43447758834,-89317.44230174477,-21925.64133761571,-204513.46275852714,50634.06291570848,107410.95735795792,391509.0378289657,-305538.6712442301,-250448.85221407248,254390.20906777124,-201791.9741472875,-132952.9408486443,2529.5819597456257,72187.91955160844,-111734.34225387541,47324.33522285326,93221.95914904225,-380074.1013465738,
11459.130656968118,5339.7677507837925,5361.333641175863,11522.622614439455,21412.955833957967,-2454.876689140918,-7689.60325149968,14605.28259116195,-11493.958458199184,1788.7882502400837,-3269.885709156309,8546.382831092234,-4139.617827287882,-20355.15930035017,12999.118510436103,-5639.101320778935,-12160.447083025807,11637.480688458714,2664.5096060772444,11419.881831678566,3116.5185801915877,-20216.278926335854,-11988.082055394587,
-48631.97530481734,-17668.066175137883,12808.30560161778,7228.682818609217,-6672.601681117045,16858.257529844188,14099.70000774349,-20651.726086784536,-3813.444456078978,-9371.728162784919,-17207.220041802168,41512.676207996556,-23696.12013533027,-13090.023493422417,-1916.1590690885014,10575.118478756754,-9900.834383077543,-2568.684781372254,6645.932360151552,9280.864576083639,-14581.35705588128,13210.535058425829,-11982.790829689002,
-29503.952005077153,-18912.70167383977,-6010.49881173012,-1520.5229289058097,-29107.644081200702,12712.802350261833,12152.687950439667,-23380.1286597373,7559.040342859954,-13328.538899315397,-11957.158039610007,6815.326141899969,-6855.37853410849,7556.322868750665,-15150.796242830025,12165.227921646903,5593.564763961552,-2140.391490355148,3686.524239778603,-3767.6191091009914,-12129.36356478675,18049.322768184615,8638.75463123249,
-24966.24119809198,-11468.555000432158,4149.6196817208765,6031.253105396993,-6368.589371922149,9560.425059978954,7056.433457580122,-11711.906806947443,-1888.7303093876985,-7554.494294931785,-12378.409525249259,21041.050972064542,-12666.030290093226,-7644.669785160352,-2909.2385808013996,6244.393674824396,-5884.904153903848,821.4087454706583,4653.04470706331,4730.892186891503,-9412.65068271762,6213.9619145305405,-4649.759699796452,
30821.612568961435,-334610.2565106422,-5808.633775273055,-116932.05000384884,833887.9130481397,496712.1735114039,685484.4528736606,129780.87335013412,-186.10831396624388,-89714.6832531177,132460.00013344147,123753.89751659449,553552.1892491885,174155.73372971898,542525.118123077,756059.0351880802,587702.4619694806,-100480.11796090516,-25341.29665076008,337924.7622051692,676112.6119072799,64405.086628850026,-953210.602563896,
813590.7606488165,-166006.63438943579,-285957.23555411084,272467.68382370914,-257078.45896837823,-259219.68923926237,117533.84091264702,236931.28130148485,152415.06004547986,-35916.9921509012,-223972.16475623148,-520382.18454327417,474643.9228670113,86437.24907269122,313428.3060366464,238375.15347089816,175846.2198917553,168138.21823263846,-53335.21720313307,-92857.20585037071,-10672.953334317539,-248249.3676917914,356172.1657616733,
-715135.1970255281,15661.940379981976,-19637.57027566305,-373362.9858676436,-24024.657341059818,-8403.782663952057,552003.7877099972,194052.0576542099,-48714.53271958821,59092.04308010157,230592.57152669522,236679.79413665883,202802.15708394526,-38338.60475649691,539872.4415870933,366427.89234441554,420095.71632570715,-305744.03511300316,-221338.1778401241,116134.31816402171,275144.50976550055,23413.886520265904,-360508.19481950544,
-903820.0510115694,62180.68974107346,226451.54579152723,22675.520745837202,-8790.848821829975,204512.35849559252,-97119.85358135485,-143028.38145826172,-331155.40666347725,-101345.62643520493,197556.36197228372,759798.3623447168,-159446.16562010147,-291884.9277261993,321988.9620348004,-113037.53636780243,-54257.60301604548,-39016.29263060638,120643.9322992289,-66810.50308785283,31214.463144367255,128350.2358913634,-447116.2959404074,
-924287.9019358465,105297.15408055764,262764.07207877457,141434.61060649608,-233783.5839379222,31085.013492623475,-145019.2887005189,35012.76646808095,-522518.91363422846,-67117.66186955705,180618.3974034257,996446.5553618739,40424.131918517574,-433600.1266377793,798282.0239880685,-99259.23867151391,34608.905367828804,142208.90347631337,31125.812775800532,-161270.63690844548,9985.26543763148,57063.859559755445,-452807.0612031992,
-354503.98112815525,-149704.60931918444,12013.341040579737,-24695.32254462766,-231909.4200829116,97557.79110589287,146742.8656853854,-184219.76111921092,32516.387533705278,-86292.56188390931,-41379.688025119074,172641.0959441924,-36305.95851171198,49491.761217918145,2263.1670899049245,128336.51994749343,77567.317537116,-81783.83052871107,21664.795123951044,-53993.942840122334,-81287.53366928568,155834.81720426108,5403.818495818166,
-237562.9115447164,-102302.94235961865,5935.065834577238,-16242.880976296925,-160616.25353215542,62890.6857603707,99448.98676534384,-123703.00755501018,23223.337868547627,-58288.10135071184,-29359.102964695427,115363.57421065688,-21317.84115111042,37021.15326726695,-278.4945723602799,87451.73213507008,54097.11896574897,-55060.75065043996,13887.82695073961,-35456.53464253712,-56953.09731708927,105176.34407726921,7384.655487494935,
7179.389553780315,-17854.501458138446,-3370.763617393873,13290.416150680998,-18072.53141467018,5864.484147852013,15002.729678164407,-6481.019621952688,6638.575763540783,-10029.444955363022,-15679.07068125544,2354.170744110272,2188.669617518695,-5240.350179752658,12660.17060954397,18006.734437262447,1150.0627689012902,4264.867083830171,2646.613607429901,-2920.5478858499296,-9028.240040675279,1688.3430233425192,4870.184351426111,
-111019.57710193425,21029.284808337834,62842.30004425448,-93781.64373332802,228668.5142787899,21948.967017637493,-35652.5475463143,-71360.04861738063,-25178.42722937182,30927.27608684283,76428.98729739079,170829.53524081156,-99001.96600143753,45571.646539188485,-55263.39235110162,51525.427650320016,-21228.18094940711,-87783.32455999596,21316.83536740054,14994.81614507703,3493.506920352283,21872.854400856413,-151014.50841857333,
-12075.332375513031,-83620.79463490425,17932.23281070075,74940.60744966568,64425.766795920674,40248.629017490624,12792.441536114959,-38138.70327699416,55726.850757722335,-73818.0105271888,-28001.79030156888,46240.82945951012,-8088.055134879604,11890.812707980935,24013.11115518444,101704.05328452218,-35304.72157464811,4032.710117543802,45363.38222934724,-5429.612786275154,5608.300222069808,-27498.91988440987,-54578.36904892402,
-44957.764159550825,7712.083712190846,-17451.857814058487,-162518.10918983517,87410.75805908466,90827.94489594235,43133.89159852501,-107960.25476379866,40106.45274945295,19039.31978337281,21188.616557881633,-86394.54697810569,-124175.4067099908,80110.86890558735,-194062.95830045894,-22470.89275385062,4311.216707299055,-77178.04939114154,-1527.604010854655,63810.97073802418,63601.760848748505,83157.78618878535,-8988.3849187952,
76637.18312501432,-659383.0742902096,-243611.5409788404,219041.8816549789,-390523.2072819479,306852.57428972964,154182.14919998398,-552409.9972192643,351908.32572362205,-579546.5266794389,-56203.89537051118,-90486.88477772516,174795.3427901351,346292.8734897397,-476631.62341643637,427783.09143846243,120666.61075715053,-26183.70791094807,212123.2781004899,-177426.43100470895,-310583.47449522885,159786.88448521477,213126.2919106076,
-206928.11165319625,-381884.89215605776,64791.44720120662,35526.312444785784,207545.34244249391,279071.15086946444,871318.0503374707,-117894.16643896353,87805.65202967107,-82110.38461451024,-191255.78989953114,-56283.54279658604,-46673.42628933443,-186395.08207559335,583076.5261231473,624380.8293840588,177086.63097531808,-189787.92192434054,-168499.5946774119,146078.1875904784,369578.41560063325,35068.37687683069,-181162.78169307148,
11459.000342407882,5339.894769902754,5359.972943904177,11521.42115567756,21412.60343536482,-2454.188923776111,-7689.408484059843,14606.618032718094,-11493.036530329711,1788.867767895849,-3270.9909652115243,8544.74534888616,-4139.069263108053,-20353.5639668808,12998.091289309024,-5637.607805728221,-12161.537908656246,11636.202945631323,2665.4284632406875,11420.163011940756,3118.1251649857422,-20215.902325634826,-11987.580084500945,
30608.613223260883,-20727.16324054396,-4940.623211062415,30278.78039069184,-6517.593619645525,3650.7463306781765,7000.0965713710375,1189.9492141311352,1148.1720152599498,-19659.608623416814,-10915.106577527742,-1547.548988098376,12507.299391487453,-17932.611236860444,35912.74414388037,23372.84394000757,-5944.632417243042,15548.999873018663,10289.032162620191,-6129.554603318107,-5202.201831839342,-22921.920773687718,-5373.694949135746,
64890.81704345375,-5398.963322699647,15876.516067308487,47262.99587550742,23608.38277863396,-13345.405133564253,4990.02118092284,31744.999541252735,-9190.65663589001,1380.3739907587749,-29430.870720688385,16416.178245009676,-1688.571663683106,-44821.32956753979,55568.71395313109,15698.71528074457,-37287.64989025009,19340.434779548643,-1777.6232565138127,8468.55064666069,-16313.364280982158,-40893.35110910839,-12825.65922444866,
-29504.7522469487,-18912.099655740676,-6010.075728425569,-1520.5670554677836,-29107.890294300083,12712.256325843378,12152.993482188522,-23380.635316145996,7557.286746819972,-13328.572656587308,-11957.593748785723,6815.6304773535785,-6854.8372727224805,7555.3386203665195,-15150.937974776387,12164.255614245674,5593.01241880906,-2141.4592724144827,3686.8512842832383,-3767.009414988245,-12129.460623241072,18047.964531516463,8640.099197543179,
-16789.8072375487,-18525.581432447067,-2286.4786949888853,8211.480885924928,-22102.229704037083,10055.969738144335,12379.08564887177,-16134.496552651415,4162.905943864257,-13102.589003600158,-14509.907034470449,10399.452269991838,-5364.894486917987,-2406.1555953808706,183.98415877005758,14461.429821598118,-926.9833712503463,1576.716512438259,4283.660326190369,-3020.497592183092,-12592.76149657045,8331.29276128345,2939.4400130804624,
102892.03243319361,-17768.398516165307,5385.768509134675,-15479.458715980447,-1191.3255592357627,-71705.22458110556,58251.95753220478,73888.16890499613,17436.329636318304,50416.24298511084,-45065.16670914304,-46428.64350045159,46799.38048083355,37324.08671666331,10458.845032515856,29295.706924111633,24801.529086379385,-1962.903780645237,-65187.22359340562,48845.78176133521,-26403.903615623436,-19800.920576346558,53029.37354631523,
161402.95915177188,-31103.283608358415,-66742.12952777604,-60856.69240839095,-209402.15276336577,-108098.49120476595,126897.63122420192,120143.44295078501,33551.050662403766,52467.25815708335,-72785.77397957948,-186648.55941735572,117896.02625331076,84245.86591640628,69060.83532720369,55586.2466724058,146933.4096873905,2474.4410275548817,-110082.39168249033,-18685.9863273693,-22389.552513429735,10951.662777081565,196706.39374557417,
1341181.637370018,-2077725.2891619825,103685.20522717747,-526445.6058325649,377849.45410614484,275215.1268038104,1610934.51589733,5044.708279859955,1148260.9844168138,155827.90273496055,-2176014.594261685,-215042.58470588262,-2036281.3354931152,-270402.28930121067,504902.99678627687,1994956.4489026158,-651941.1195083634,-1337028.7584370961,-745378.463540411,469277.9356603793,-379293.86668879475,249860.82523804498,58548.817360687295,
-1193348.2367674909,-660825.6978321605,12733.960054677704,-104174.28235504357,-924108.3636290112,246823.95276041358,656389.3729011879,-623087.4415100933,209630.0470880337,-306424.44119255594,-328874.201922428,598810.6638047385,-76435.51083119567,256776.15861170227,-62103.48947344188,603624.6191785376,289324.76246505696,-405992.7759269087,-33484.33795762779,-157468.7365367188,-450695.4751636714,579074.2053953187,178870.39470372838,
-464749.2659126701,-170287.5089680526,165610.25958662175,-25216.939178584686,-290464.3600231965,-58937.221341461125,360104.96311155433,-14541.348881323298,-80305.14167343892,74007.82029757003,-151260.48362853282,391384.80029100773,-27944.549590849772,-47025.700300360695,213147.63212860996,183613.6894025193,116869.26332553219,-182201.21704733308,-152999.04976491144,26906.88027040219,-207444.6175271489,154957.07799399836,2405.965461826098,
567489.8662986483,-154641.01373029785,-157537.195185989,-71147.30812509694,12229.610029770894,-49003.69243356988,33278.397463974594,1954.9847929067776,175551.46888668652,69742.00594512613,-177631.52962510101,-441378.52979027195,-38757.388382116114,176782.33442440644,-356025.69558628614,79609.5247341414,19820.8779018484,-50870.078517712405,-66136.87864038767,90647.22345466503,-117082.1664049857,725.8473922799632,400096.92713871197,
