-1261240.4410205705,-459259.33973950864,137112.15251679585,-52401.07581853505,-603386.7318578793,376292.8825954359,454576.175608286,-614503.1570625308,48435.092289501816,-284484.589447467,-98736.28776910102,677748.466106069,-215855.51048780282,47277.028680739066,75849.61260179985,382988.6717003302,161790.19944770617,-273832.4403775347,112534.22870801656,-137673.56008952085,-224335.0767347141,474064.8155182624,-161990.85209703768,
-595299.5893232088,-357823.46099565586,-87593.69777715052,-70400.15292137266,-709869.3676973324,101207.14162950472,364371.3450694669,-307784.6445518951,124965.21109258024,-187777.16068097,-155654.92311570724,177862.24534163886,77197.9068704747,226004.8513555246,6873.787426411685,318281.37482504896,307364.5821973558,-135481.75723065002,-26235.480099462664,-160278.51743733478,-204816.024165582,337767.44951825263,215731.45294418116,
-94197.95393361733,-159271.0338229436,25637.583881133065,55114.95631859745,-57736.21868276691,84758.26572299423,167002.5150185727,-110716.96128852507,52710.17991061495,-74122.25140059006,-91416.31619467208,48638.97867495253,-57582.61584036258,-39454.265039440805,78541.79729832086,194002.39529334026,14184.663456213695,-51553.5394661388,10767.101190762767,-5748.623428253222,-66618.17965000954,42271.685682034644,-44285.71721478498,
316036.625544982,-101533.08251151511,-130539.29295141957,-41921.378930931605,-203051.9445099446,-122413.4415533331,156600.50075679904,102566.39453912107,113938.58965758988,43842.860215449466,-133187.48984874328,-317358.0942268355,138127.28648603128,140785.79081562677,-3184.884516301611,129729.31308770699,162852.12581880402,9431.495234076394,-123546.32973630582,-1871.0750298974378,-48814.593751262844,9583.323877428897,258414.68034790215,
-623434.8087417582,128236.2309799348,266870.4342694246,-2208.287575349407,-44261.05758395799,164493.56888469047,-89315.4288900817,-21918.732904199383,-204508.30968588375,50653.594038459305,107414.28230846122,391498.7963852794,-305547.23957425455,-250472.16769319156,254414.176720521,-201800.44444041216,-132962.12531701513,2520.717383874306,72183.55945812666,-111737.44228059571,47342.10412796865,93217.91803880186,-380095.70810064627,
11459.371469777903,5340.159073349073,5361.843929598104,11522.459711304618,21413.64389187656,-2454.6227216604516,-7689.652524580556,14605.72158993749,-11493.765593248972,1789.1639735729273,-3269.6316908413796,8546.580915678378,-4139.893463037001,-20355.613407797708,12999.260858692585,-5639.292191789775,-12160.853993710098,11637.310615657136,2664.231182462507,11419.791255764718,3116.6841128004257,-20216.339078565077,-11988.537339838445,
-48631.86466873999,-17667.867351775374,12808.477795311923,7228.460193589573,-6672.262359353521,16858.74117976774,14099.557330764685,-20651.287583274945,-3813.322787637326,-9371.809248557181,-17206.943773600364,41513.321748446986,-23696.253679421818,-13089.935218778883,-1916.7450213761347,10575.11102122744,-9901.147637053778,-2568.647282359256,6645.653533427589,9280.830223791032,-14581.699888849462,13210.578678085109,-11982.761614728995,
-29503.89689848776,-18912.616193230402,-6010.368739335111,-1520.5286306101762,-29107.491587906436,12712.782057548511,12152.70232353214,-23380.078800809504,7559.077413219134,-13328.398712214834,-11957.134004993868,6815.25298472965,-6855.440133121307,7556.155513978337,-15150.624495996415,12165.167100161907,5593.498636117506,-2140.455116561403,3686.4927712899594,-3767.6413875060225,-12129.236183323357,18049.293778277915,8638.599510708887,
-24966.103344180203,-11468.326026767996,4149.89558095636,6031.121350444318,-6368.189444977818,9560.666048039657,7056.373978162591,-11711.593805432805,-1888.6112902576606,-7554.345306418435,-12378.222541620831,21041.308834495856,-12666.189878532707,-7644.852390138381,-2909.326784281201,6244.305312899918,-5885.169996933915,821.3415123348368,4652.846007100145,4730.8422280710565,-9412.665051342026,6213.9460437771,-4649.958224005142,
30875.37247480653,-334524.9732178731,-5687.924699163138,-116952.29554783273,834038.9856957799,496728.8375705229,685486.5480134597,129853.0429667971,-146.65905465243344,-89603.12909654902,132499.3012252441,123737.62477216223,553491.4090877916,174021.96808863006,542627.9519098675,756007.6718026821,587625.4006348131,-100530.70018155432,-25386.990121878393,337903.7496418343,676195.2616923603,64383.88484208579,-953338.247169037,
813590.0969206435,-166007.70108418114,-285958.68081392994,272468.040693451,-257080.34092555026,-259220.16046499228,117533.90188966921,236930.2189575058,152414.54908047686,-35918.185871313675,-223972.76541280208,-520382.38482183154,474644.67826702824,86438.68576552486,313427.50766177813,238375.72956515467,175847.26268186682,168138.75907107475,-53334.54388604632,-92856.9516788902,-10673.670695741097,-248249.1574816332,356173.5692194156,
-715137.7351599876,15657.96803410127,-19643.44606506759,-373362.44983032043,-24031.72391511118,-8403.526969672672,552003.3477995578,194049.3230692809,-48716.301298490085,59086.05564991989,230591.16930098244,236682.1376676812,202805.00703419323,-38331.44594937345,539865.7362775557,366430.5452521353,420098.99577638163,-305741.31852231175,-221336.4492317186,116135.33084325533,275139.4177575725,23415.089920930528,-360501.49123472837,
-903822.4031201195,62177.09341342415,226445.82315583547,22675.35868001723,-8797.294004640495,204514.23140256194,-97120.79638602688,-143029.8598964031,-331156.89823337,-101352.30604242139,197555.77386040488,759803.0062291705,-159443.55535154598,-291876.97000631335,321979.8444507318,-113034.72021529275,-54255.12700482725,-39013.259643758756,120644.86145173738,-66809.53226168038,31207.87696049948,128351.66874785516,-447109.02095594717,
-924290.1424726017,105293.89315979119,262758.08203719574,141433.17690538373,-233789.5224805844,31089.974338185362,-145021.22593919237,35013.40821676127,-522520.04825060983,-67126.22088552003,180619.21850849446,996455.7794498173,40426.55855645062,-433589.9761572732,798267.7002939685,-99255.86153560359,34610.17051029446,142212.79362197113,31125.391449476334,-161269.6492781574,9975.365489145302,57065.84128991329,-452798.0676581282,
-354505.3991944076,-149706.84405191024,12010.108453086608,-24694.903780680066,-231913.38693938724,97557.63777629269,146742.71679128858,-184221.48008026625,32515.372737366066,-86295.70231818805,-41380.60024181603,172641.95771143888,-36304.360656014105,49495.52123743055,2259.9465206160608,128337.93738008289,77569.25172479956,-81782.40608906465,21665.88270728336,-53993.38291232496,-81290.04050843355,155835.43203803877,5407.371412211386,
-237563.84332557264,-102304.41065479239,5932.941444946996,-16242.606589157604,-160618.8599467871,62890.586931893034,99448.88830182,-123704.13580763461,23222.671240759573,-58290.1661907299,-29359.701527349527,115364.14336241018,-21316.791270644717,37023.62544958324,-280.61414907553376,87452.66391958845,54098.38921767653,-55059.81407640768,13888.54078834454,-35456.16668800527,-56954.74670008867,105176.74844435483,7386.9912804533205,
7179.28594726385,-17854.65421929789,-3371.03416632113,13290.365146841143,-18072.808425485135,5864.675570961214,15002.652518851482,-6481.014452859978,6638.519875534115,-10029.814485720091,-15679.049224258093,2354.5398974437167,2188.782544703714,-5239.911527736716,12659.575659993427,18006.882299295918,1150.1343422227417,4265.035004915844,2646.609741389507,-2920.502967393575,-9028.654484781377,1688.4272884060874,4870.57556039215,
-111019.48432674744,21029.458207025647,62842.42262218523,-93781.88221500692,228668.80695560918,21949.50120849112,-35652.70926280675,-71359.59790297705,-25178.313615236755,30927.119170108715,76429.27489182189,170830.27092698813,-99002.08040810311,45571.82462578181,-55264.11200229707,51525.44951814482,-21228.48790227253,-87783.25258543449,21316.548660639335,14994.78988341414,3493.0726180682063,21872.91595310841,-151014.4003676544,
-12075.408605957262,-83620.85464414589,17931.862470120777,74940.16328247018,64425.62684174024,40249.7796183834,12792.054463038672,-38138.047851144904,55726.90060777294,-73818.98050830777,-28001.335453642554,46242.626932984516,-8087.991058504712,11891.952418012395,24010.881148013945,101704.38284893875,-35305.01646298657,4033.151851154156,45362.96413656218,-5429.55975783177,5606.842685096611,-27498.66181835145,-54577.42526711428,
-44957.94310798501,7711.84585816085,-17452.410090302095,-162518.39905191696,87410.3112952027,90828.77654687868,43133.59443889112,-107959.92251063704,40106.401358356066,19038.335150532028,21188.871473362095,-86393.15226979226,-124175.22109639112,80112.03190700526,-194064.8751859205,-22470.527823850847,4311.167879366164,-77177.60148175854,-1527.8167280798777,63811.05823405677,63600.47312044652,83158.02901596854,-8987.383756877765,
76637.10796332406,-659383.1776134615,-243611.76176329938,219041.78645483896,-390523.3991003275,306852.8576770095,154182.04595100394,-552409.9002076681,351908.2981994101,-579546.8946689535,-56203.81696515026,-90486.39858949248,174795.4219925064,346293.3086369201,-476632.3115370197,427783.23030285933,120666.6129381667,-26183.54055305879,212123.21586461057,-177426.39555905,-310583.94011800335,159786.97367704654,213126.6695943752,
-206935.89547746838,-381896.8507212465,64772.69648389595,35526.220512420725,207523.94363197454,279076.2453729456,871315.2912833138,-117899.7711462887,87800.61656668686,-82131.72651330632,-191258.2159576877,-56269.84232524823,-46664.767360155725,-186369.6404302131,583048.3119856202,624389.9075993254,177095.20464551618,-189778.23259365492,-168496.06603766535,146081.37850837866,369557.8795724787,35072.90435491112,-181139.423451712,
11459.241155217667,5340.286092468034,5360.483232326418,11521.258252542724,21413.291493283414,-2453.9349562956445,-7689.45775714072,14607.057031493634,-11492.8436653795,1789.2434912286926,-3270.736946896595,8544.943433472303,-4139.344898857172,-20354.018074328338,12998.233637565507,-5637.798676739061,-12161.944819340537,11636.032872829745,2665.1500396259503,11420.072436026909,3118.2906975945803,-20215.96247786405,-11988.035368944804,
30608.605055995224,-20727.18075605511,-4940.626643295229,30278.818855373276,-6517.622128512855,3650.6559221679186,7000.12499846685,1189.881540829769,1148.1581051133478,-19659.564817495502,-10915.150758620128,-1547.6793081728015,12507.310279842408,-17932.66201348752,35912.8844976707,23372.83252990061,-5944.59046354406,15548.979866836506,10289.075242523671,-6129.553149778443,-5202.114079800507,-22921.934615899536,-5373.73264238205,
64890.93921949613,-5398.748664789366,15876.722254683335,47262.788093778356,23608.751515664993,-13344.965556543395,4989.894540453106,31745.422786761916,-9190.530792232828,1380.3497935440814,-29430.60673526309,16416.748287724058,-1688.7173575265372,-44821.308558794924,55568.23465083167,15698.686379553183,-37287.963285316146,19340.446405835377,-1777.8922963221178,8468.510841072792,-16313.634981843428,-40893.32129284962,-12825.688362955108,
-29504.69714035931,-18912.01417513131,-6009.94565603056,-1520.57275717215,-29107.737801005816,12712.236033130057,12153.007855280994,-23380.5854572182,7557.323817179152,-13328.432469486745,-11957.569714169584,6815.557320183259,-6854.898871735297,7555.171265594191,-15150.766227942777,12164.194792760678,5592.946290965015,-2141.5228986207376,3686.819815794595,-3767.0316933932763,-12129.333241777678,18047.935541609764,8639.944077019576,
-16789.74781594198,-18525.486894424226,-2286.346166565916,8211.456387944067,-22102.062388254664,10055.993422208549,12379.086242415047,-16134.413384859703,4162.950022040668,-13102.46934113008,-14509.861305070133,10399.442239576798,-5364.961767246589,-2406.2991887141247,184.0884773143798,14461.37420004132,-927.0703604451952,1576.6622622273467,4283.607655361039,-3020.5207135024452,-12592.676152408822,8331.270348961409,2939.302345827784,
102893.57849998507,-17765.899563069237,5389.088528901153,-15480.40044490988,-1186.9244438986711,-71703.85266134664,58251.72578056104,73890.82048270348,17437.54457025237,50418.83398864218,-45063.64830536439,-46427.762536331444,46797.6157127749,37320.962027921574,10460.217941872534,29294.42495318086,24799.005646515936,-1964.077170032897,-65188.90478253794,48845.19512905102,-26402.54567730832,-19801.35697912558,53026.28253911703,
161400.7925092709,-31106.623788514218,-66747.3112585353,-60856.6288073584,-209408.1231706921,-108097.2946155157,126896.93568300302,120141.73994578552,33549.629078472906,52461.47071472084,-72786.54557906715,-186645.08054028018,117898.44065293914,84252.76845844302,69053.37497407304,55588.7251879899,146935.8724149947,2477.068282752166,-110081.31840016267,-18685.10251128432,-22395.01595007222,10952.880005024257,196712.7516857119,
1341172.8480095523,-2077739.1206866126,103665.1050087393,-526443.1627399927,377824.8909534918,275214.5550344732,1610933.4691924825,5034.298246283789,1148254.7286836866,155808.17617663366,-2176020.083683719,-215036.6712694165,-2036271.4389022312,-270378.6779040751,504882.36330455507,1994965.3171094696,-651929.2614661686,-1337019.810277598,-745371.8782450779,469281.4136568954,-379309.83655041555,249864.7095694011,58571.08473404263,
-1193356.3738816213,-660838.5644171634,12715.552447865462,-104171.54335440065,-924131.1789279438,246822.23843488403,656388.791491542,-623097.8437315658,209624.14882690948,-306441.8846342723,-328879.79923507647,598814.3477602657,-76426.32634152324,256797.05910395592,-62120.48849026041,603632.5702040584,289336.1484001993,-405984.86519643065,-33477.75403946163,-157465.54008341383,-450708.90730474604,579077.5713848805,178890.23987431542,
-464754.2501529802,-170295.38897538997,165598.98047369777,-25215.270642558986,-290478.3336738644,-58938.248603102984,360104.5995160277,-14547.705847225023,-80308.75248969487,73997.11986214767,-151263.90223866602,391387.0913098062,-27938.92422942838,-47012.879625826215,213137.17919302214,183618.56464635528,116876.22971824429,-182196.36428434585,-152995.02628955236,26908.83865081655,-207452.87118415954,154959.14419972277,2418.136079863727,
567490.4038683049,-154640.1016183079,-157536.18212400118,-71147.97106370606,12231.19299300195,-49002.38231537114,33278.044368504874,1956.4443709414302,175551.96637626755,69742.33088044863,-177630.63942741146,-441376.96456673,-38758.01768029229,176781.9220006672,-356026.696927747,79609.26113885568,19819.71375254754,-50870.223990701386,-66137.80579249306,90647.03596529964,-117082.64520105574,725.8574188539889,400096.3935757757,
