-9.772728623725046,-16.89933905128196,56.12377522455557,12.562383564715716,-56.441260295466016,-24.236770446636182,-31.073780276664724,-38.9418372209343,50.39967486515609,2.016972714662714,-9.138134550741903,-6.824551307906868,-28.043104369911998,-30.302539235060163,21.515772774245473,16.17435854092796,-51.37180384503121,-6.312440015513583,-15.832514365155797,8.92526205986386,49.01244649566253,-17.887264532910567,-32.310732081618966,
-4.906869151589584,-5.19694254549993,22.642960989345376,1.4870999400056404,-19.184946472721627,-6.827933401847941,-13.81145827217283,-13.768691053035022,16.690559426625306,-1.406258247102212,-3.305373587849119,-1.6642545309500019,-11.072960841761718,-8.650577058964688,7.187287996647684,5.66323673986294,-19.698309230512482,-2.097336753853754,-7.389247417614453,5.708465074074551,20.506321410708765,-6.853652693334586,-10.511253445952288,
-4.565736461879988,-5.726714459723825,24.01527874301586,5.0857603696917515,-26.26155831572226,-14.057451652163564,-13.296819398255023,-20.33170790670486,21.715453245936548,0.36869116462891305,-3.086069065787021,-6.295025237230667,-11.845859389042083,-15.78164580862022,12.405909211457644,7.454761754538559,-21.145802502739276,-1.504482106409313,-5.3901970291723496,0.6374540777211548,20.06757232022959,-6.599207717179838,-16.84670464059277,
0.6864852666544824,1.920461248236288,-8.402435343813963,-4.183825220096491,7.818764593796434,1.9751736333993248,3.3704448832087524,4.4474367209888035,-8.455305995208686,-2.4642873749673413,1.1985800773230233,-0.2913148659136499,2.843736827062116,2.8355332393566415,-2.907893473091096,-3.190795776729076,8.232968688453271,1.794758486597301,2.578798480808055,-2.4984874159379427,-8.345429342653166,1.330739405984882,3.94797452540638,
-0.0029818175598539344,-0.7976603130545867,0.6580722651176286,1.2423291980783464,5.3000147530891235,8.553499432479512,1.347412270842948,9.902101734816068,0.3678272654320771,1.8525516403753182,0.4468810739266399,9.35603541170726,3.701168861731209,10.006056638208197,-4.475840312656152,0.52438828669498,0.3279808717106253,-0.6817432478747169,0.6969135037285503,6.372903934135371,1.538100168252277,2.7534511646272204,8.877753679432038,
-0.2965255761381583,-1.0199505929466681,0.4729098257811205,0.8827581389303164,-1.285206101239848,0.3293792008201068,0.2231331318217195,0.621378883446798,1.078881661843862,-0.862882660285996,-0.8963171856759229,0.17711949833410542,-0.7455655215200624,-0.35222562524521217,-0.7207802721896557,-0.3529361719101881,-1.3585465579970593,-0.5710087172326543,-0.49699239877827467,0.32201998366410817,1.3109478854013497,-0.9200240775065771,0.6171693226810044,
-0.11581371017048465,-0.302866467593798,1.7503591659289421,-0.1577267835298177,-1.1199683060817496,0.25014382089551096,-0.28478211216963245,-1.7079935028860174,2.4518768795818926,-0.24950508703323804,-1.0835826037924747,0.4189544824177553,-1.2154949808355504,-1.3385330979580143,1.3453125980722327,0.10310475786011705,-3.0278554218145612,0.660861269616243,-0.6470404117169476,1.21418260872533,2.6045996131866427,0.33024958901517476,-0.3432808315949228,
-0.6698846028877279,-0.8352685270955017,1.36976789531562,-0.3139933968913562,0.033116034446049276,-0.9655494795457781,-0.6123759584614247,-1.0062879086521688,0.23475573055715054,-0.4206769278151617,0.8221133708037303,1.0092769903781664,0.6867356245742428,-0.9133641313966974,0.37131211824306953,-0.49398813898805527,-0.6859293528260477,-0.31630937627229083,0.31219543117627296,0.11012894540323342,0.25629581953506575,0.3038615609648691,0.37324686736628654,
0.2674654170575203,-0.19015353430661766,1.75580226141058,-0.2780944192727569,-1.3496001630651582,-0.5257545821819741,-1.2975432592601792,-0.27814697915133907,1.248921546948359,0.9199559632405508,0.4568898442323953,0.8118807045042642,-0.7882478318469582,0.30907936091230465,0.616683895135532,0.9679687899086716,-1.6620568810218295,-0.9606112843454483,0.24800530184734804,-0.4992834632900217,1.426617703185378,-0.3865067397659269,-0.4065462593680371,
-16.371931268042133,-15.785748497068958,-14.451997475605737,2.4161456170895503,-18.02243726696998,-42.072725774026765,2.31332154681289,-41.18475292352303,10.301627198796036,21.124214288391087,18.11071041173554,-23.656517418572008,-29.965670037030876,-10.489264107995151,27.988913179096656,23.36640865309587,-45.034268157300374,-6.583177392673616,35.0098060795445,24.753950584251804,-0.8448321298001249,28.961803942996653,-42.011707716909044,
-1.7513202722994143,-7.858033941128308,9.883727985282063,-0.2377387406892394,-6.284578162449008,-10.372197971146624,-1.159286453949863,-17.86408942134534,-6.610379680969633,-6.528408006220599,-13.012560382704054,-11.724557316678771,-12.3470393405524,-19.762464578324533,5.1306509261893645,-10.396056714133152,-2.636046307247972,2.9870625741837733,-11.140425801802127,-16.374395761229273,6.130373539365181,-16.44704718445764,-15.51750651435106,
3.066005664096676,-5.818517620064598,9.673951013092312,-20.329401840167957,1.1630530683986189,0.8580168828960572,-8.661836250348076,-4.650961038386606,-0.5439551247424679,-11.456905735577145,-6.8766577353155,0.3313962074797506,-7.859453507543171,0.10876372410378414,-3.618670316132927,-3.5971341978401554,0.21462253062616676,1.9362361479958319,-12.109110466998915,-1.4278455641691565,12.779457541610796,-8.4491821143643,-5.638394480871846,
-1.5770978959422115,-4.811440814806644,21.054759426461313,6.9839859196890295,-16.724283698633915,-8.942120534902095,-6.854618081715487,-11.94117759074266,18.67040485701931,3.3342185844281946,-3.836331355991018,-1.516082699386494,-7.27888534393433,-10.537055128191673,6.4955513153282185,6.835308084331216,-15.827607501335564,-0.35305175326059535,-5.539075612044105,1.5718839786667191,16.113214672420007,-5.476925033748025,-11.550157644558265,
-1.16667756340728,-0.6018361078822446,7.066687031398481,0.7055342088775179,-3.7929559472163743,-2.158553154875334,-2.3853710945324096,-4.103036971518859,5.13489364366712,-0.35827407776781317,-2.31563072012274,-1.099091664421023,-1.9073882836787026,-2.3451607833411554,0.8122267819255644,1.363853558503499,-3.764229909351962,-0.9968749575766416,-2.6262850939508673,0.5019465407945021,4.756674768899835,-3.274895252447787,-3.713687136419559,
-2.8591535195492104,-2.759558591413981,13.709048094238197,3.7482993498376573,-12.331939741844801,-4.310448904933849,-7.215972966415392,-8.633675202010368,12.383438611576127,0.6057043563041827,-2.8497201098151685,-1.0417026131145972,-6.7161402097231635,-5.537534444966409,4.796649150540546,3.207890451606901,-11.465733047893137,-0.25226926039231673,-4.128417232408869,1.7481469012490216,11.698618391080137,-3.4405739300955442,-6.2850000856519825,
-1.9358133224646465,-1.2644679674516976,6.154098668056551,1.9976516169388772,-6.942354423879822,-2.803362891888152,-2.5776728925133088,-4.455098673196211,6.034956272179452,0.3837979497300279,-0.2929686317573018,-0.17777988993412006,-3.6255618447826055,-2.348834373766262,1.5060137538167273,2.400970417462608,-6.742365247456439,-1.4960181970431063,-2.4079833657679464,1.2070849700689643,4.74492254345284,-2.4349619599033643,-3.2243047417514594,
-0.8759854963885536,-0.3540906627731705,1.067720567294106,1.3300518254277447,-1.3707625830501904,-1.0873206135352664,-0.12371497471550545,-1.4922493046328518,0.21465796565741546,1.0732073199433263,-0.7507399243890875,-0.10583866175577185,-0.42899476290520494,-0.7422993649924264,0.07906208047683073,0.5773714366764309,-0.9353349333366449,-0.8548688428832295,0.5765408463822287,0.5351663455248598,0.13860181844105463,0.7523221211140693,-0.24012375239875156,
2.0833194891301465,-0.1815312796979981,-2.4338842773245415,-3.8249007583056764,3.530333863899969,-4.15947475351678,0.8377851319129834,-1.638270081091742,-1.7394104947538,-1.4599712486056102,1.1483905388204974,-5.100475278097156,0.8035429444021509,-3.636438838341197,2.9644962048621455,-1.5122611682136264,6.402868914464129,1.9748818933094154,3.845345710144387,-6.8196478263724485,0.28341812672158856,1.515122592845341,-3.1764943802694976,
2.013665094013397,2.8725293616172953,3.0969362906524998,0.694226310247062,4.709952648175749,3.8067711425417077,1.7645300350783215,1.2250694391119215,1.8474438429654547,-2.3639157369653603,0.19409008279401366,0.7263883329777906,2.2300883999704424,0.01417876617841973,1.1833281963097517,-0.031466628625929305,0.4635888822655237,3.464947443787239,-1.9058388500600347,-0.01449939325977203,2.522232828462667,-0.3730684118546554,0.9367659803914558,
2.484459055710833,2.3960097224498225,-8.85948839303017,4.015028937840505,3.6998323806455815,-0.7966507039390526,6.442231671974383,0.9669336279047792,-2.670672633754837,2.263821564984322,1.5237784648203703,-2.1225324938288823,3.746013051018899,-1.4754738347273424,-0.5872379681497516,-0.3750449133473381,6.311086027165544,1.2270511096246313,4.118463274523764,-6.085413462956967,-9.276199562896606,2.8485837081748087,0.7547879652677068,
-1.0610940252963792,-0.30024936795546253,2.180973250635689,1.028567056052319,-2.38552754267054,0.4561271614019285,-1.595640981830355,-1.5620760233426372,1.067263136244951,0.09060558543395755,0.4956189581856168,0.8890499678793046,0.31888230286414987,2.1445470658970693,-0.5982271498621347,-1.1547749054660688,-4.093351974237066,-0.5295048853819257,-2.1867878188952496,2.553143308752539,0.9329374966314432,-0.8170389055161758,0.2624360891584391,
2.6017442853221793,6.461566523774962,17.274422102610423,57.48371266461599,3.218565129841419,9.286326863814542,28.500130284137768,14.54206700909577,26.221883835001986,39.414252770996534,10.35391006363221,22.74690606387587,19.78525033295809,18.08010395989339,-2.2275221159608196,20.38558818812787,-6.705838309786363,5.5163686089570945,13.486672717661698,22.640223513808568,-2.857021020796044,14.083232257172327,10.86273052998732,
-0.7312994048937274,-0.6824707328501857,1.1682345692674974,0.8232622904140502,0.24954601167526852,0.6402190816926874,-1.2475728347079615,-0.9386225853601232,0.2886730091950844,-0.22156415470520202,-0.8291797692021547,-0.498058740865504,-1.0446428309112796,0.18928577018748527,0.30854027024601066,-0.11823732666667948,-1.1270110258185482,0.7001313297396952,-0.11385468734632959,-0.16431321754727168,0.48420461132205767,-0.3710388906758179,-0.23754916964049363,
0.16919944196475858,-0.06421317031049911,1.235087667081024,-0.4666476691504031,-1.5994158522812187,-0.431950652014195,-0.08123439171070307,-0.5921274945932573,1.0167561778180485,-0.7619687582188873,0.8114615101583229,-0.8956106057095078,0.4784105123594902,-0.9161966691798157,-0.6013550496529805,-0.016174336395683084,-1.7816559406974823,-1.0060333790318317,0.5741226078706486,-0.43855872837234017,0.4805179885227317,-0.5835942141996947,-1.2727004463497193,
-1.7703972488245427,-3.346887577199956,8.06408695472002,0.21675121881135598,-5.1474343265446,-3.171772246797086,-2.410570239456352,-3.5650340524301094,4.228587497509273,-1.9985469895609027,-3.090145591817406,-0.41342233745469015,-4.360032511972848,-6.267946685408977,1.1997546625731783,-0.29626511306419123,-2.3923613450489167,-0.0015873689999492337,-3.8381055063640823,-0.37105359906996266,6.419958577046289,-2.75412685648455,-3.6620063734347554,
-1.0852756197715454,0.7517383504105389,1.075825116746748,0.5175809076188227,0.43486182080079966,-0.1564554296631162,-0.6117764606877548,-0.34697321418968574,1.0603933587780712,0.1791903712981584,0.3008870824177924,-0.010214969624541537,-0.35188170660777485,-0.25622976001698955,-0.6407908770339131,0.29390160983569147,-1.5165337765315856,-0.1564063723818094,0.647530944483963,-0.22258203728464596,1.2242941751532548,-0.5234046459920653,-0.7371259399805429,
0.07008824531322108,0.6003048056404787,1.9266946135386784,-0.7093536233976641,-1.1903802235460408,0.08995209724921627,-0.8998727639768983,-1.414752156973836,1.6346241352715822,-0.1094209981379047,0.019473169847554775,0.9891658592271237,-0.8815317560449992,-0.9997981745591517,0.8575922218452365,0.17824857641086883,-1.1887490224800363,0.586855690088779,-0.0456457835176618,-0.0683931176194674,1.6735356596550945,-0.7907326143622425,-0.5398252831783323,
6.577991135839949,15.3802997609619,3.6720206415604895,-4.94456028925499,-2.5444654432835994,-29.481769081957665,11.065277709878517,-25.798946570421975,10.94803425458359,-1.86196116890296,9.610111177380839,-36.00389906592084,-6.366561454388351,-36.92000760622702,29.223010734016547,0.7599531678326278,13.626330751012308,22.242313256345863,15.825793251050223,-34.765818739834074,-3.9757984273759144,-1.7329390724166849,-33.261191590617784,
32.00968083765647,22.397031679773978,33.30430924876285,37.61015531024501,35.40256193337341,24.9747153661204,44.84299633198137,30.679883872893086,20.720582739295928,23.500552725153852,-2.925555593666077,19.777570889150343,43.90365865485949,0.8779777534908084,-27.925485594957646,5.091246033085667,39.01549896129274,30.547724340542576,-4.613878829498073,-26.673954476721693,13.016425749110997,18.52215024599941,24.780040559073765,
