-61.41418535752376,-42.623654573398134,-16.031106964704783,-74.89121798230317,71.43558766016571,-204.06279637828857,-73.3891170030911,-135.4557280557046,-137.42540181976764,-70.916553163068,58.84901141390941,73.30812523742019,-50.423147804444206,47.7355123189467,-66.88945762662725,-18.61604691020891,-13.21004862204642,20.426184566100325,30.96871116977963,-84.42231306085894,-89.68197746373471,-29.967474546689942,16.669644073217334,
-16.112486671378928,-39.1012111230792,-106.2067892261857,-51.13643784258298,273.8133344662417,-613.7890760086021,64.74576523993005,-229.6203393046465,-222.51646223513671,81.1488373517452,-107.850422027918,167.75618785082364,-244.56639169467599,152.84510886040925,-115.33758960789801,161.96003802166675,7.2998298533806265,403.2411745295434,21.907828601796002,-205.04991446448875,-269.03403877161685,-11.705833201624287,122.4058307954828,
53.810596700729036,-29.354412372106832,-191.508190821381,-132.35521561857564,225.44441829388708,-400.49294512193563,-6.424450487413416,-280.4736273114636,-341.0876799115463,-84.9859666336888,161.38784458108105,234.13758028640382,-211.27635140476224,109.72215049440888,36.15182282029748,168.69915254868775,-203.48821468479133,278.1473273350012,117.79759659605104,-211.8641682396916,-238.95772587580927,-7.971747784885876,170.98019224949357,
127.59294573458776,-31.21095989927958,-324.606059300372,-132.01682628873974,459.3792050213426,-810.4169477860088,143.44940121573597,-420.6588111933503,-466.12570105681556,34.70343676545252,31.036049846928425,335.2291217424458,-451.3815639181165,228.02659019758116,32.982601324597546,409.0028069576863,-244.03176982653667,646.7424674854623,138.95920420202154,-358.6332739801726,-438.2567715126232,-24.697694765223897,289.68093367592655,
-195.2883152042315,98.77595778141936,384.61977241236224,282.6370129575391,-194.23358187083286,-223.23403765235076,109.58554620438163,222.89440762469042,555.0356238927926,448.1168419301087,-849.5823651623343,-299.6259358951783,200.2033023700289,36.35154459178511,-459.83800188580614,-267.3081706776722,667.1937873541982,103.32952841742457,-397.7769686903129,106.84825488917828,100.1607764058423,78.02910098871402,-151.67165349570445,
-9.190554454891469,6.456352431770807,2.50473513509508,-11.58643293045776,0.24892877777712355,-18.82238690193014,-8.018131006646348,-11.608793120900561,-11.34619320166563,-16.670566790213304,-23.310853579686327,2.797784499415935,3.5649007876377974,6.998239154963526,-15.261084963440618,-5.055433342412538,11.544133727112019,7.6066161816635836,2.904498712519459,-11.2547984301243,-15.046495300571015,-3.5862162102971973,3.9395268834364545,
-6.424198995667596,3.187863985455589,-3.011897143089367,-12.456701980850944,-2.793786766597898,-9.144653644671582,-12.97566511981565,-10.859886752725519,-18.342405621188554,-21.957400129098836,2.850699496647024,9.068276624049561,5.0222384701529625,0.568213603243118,-7.590538676755806,-5.074288649484137,-4.1267342918399,-0.6679062747899587,7.398269193647395,-11.11820778465152,-11.034757725924894,-2.6407945423757337,5.512461592232289,
-2.4868423250086424,0.27894696929920954,-0.8267651510087464,-10.127835759047137,-4.817155357916226,1.5816561930093176,-8.598509087018307,-8.467654146508554,-12.619643747021163,-16.262274204280647,-0.5689475584978829,4.136893733454255,4.572156603876073,2.0659504463178058,-1.6644631788026996,-2.942235436443467,-3.3181172078817056,-4.771020944542922,5.787347368323168,-5.889348375873686,-4.0596833472273675,-2.3008964462172337,3.2138434494958976,
-5.062592294003731,1.3108788158714866,-1.8834279533901257,-9.881366863034923,-3.6958829710549796,-4.750643599955513,-9.970397272874933,-9.285972444022503,-12.215570094421079,-17.10211725480697,-3.2704011508785973,4.9528716402185315,4.001552369434443,0.39502368461736187,-5.36445640807934,-4.5741968289099795,0.43384148017936064,0.45014333504371823,4.622387714408627,-8.790244432596266,-9.120201947497208,-3.634585087993773,4.590433473537979,
-26.51087055493627,-33.91424854048683,174.19522804277554,-67.94719674127998,-147.6005942185233,259.37942636965295,-98.87115420408163,-34.45550783289565,-92.79980982870623,-146.76068968162187,-25.57307992814269,26.671925588568822,-60.54574990694481,244.33787074959875,-19.418319195535187,-26.197020612801417,-81.84930258990282,-437.7936653973013,197.82497828556814,87.03021969442031,34.664985621831526,-179.03946521631963,55.48854234693966,
-85.25237456978134,-248.39863141859578,90.08958499087528,307.5059346802359,436.1338180639373,-806.224750152866,230.4084340515881,-151.8175824648558,12.15155602029895,492.0253739509101,-783.7984931631314,-136.8054783276054,-287.0056561925112,255.9853012251879,-242.40125417824544,109.11265934318745,400.0888854004537,491.95166096747545,-209.2566149118708,-209.51623639663777,-200.85765370052167,-331.3985250475046,35.80890432881547,
-91.86882364021163,-125.90944038808018,104.98380183514902,346.5566127499566,-64.06986863510639,-138.96162517352934,10.667761661662375,348.1433519378129,357.4013069632728,474.49104504383155,844.3154303263221,180.28163788094304,176.5894355384542,-234.99625518499744,-84.19993940391116,-251.75161998617736,16.852131387757122,68.2497230809781,-130.82330018176285,-25.793337369736253,193.60875140286234,339.4544627427876,4.984166041453686,
64.36160383336873,-18.752896968634822,-237.04598262694253,-187.95012297825446,240.78461284342845,-297.7139676398271,-62.428313977648344,-240.75581083519998,-369.28336296269106,-160.57798752490538,471.89607738983943,273.8792038370323,-107.78313055140477,2.589006441557126,170.5477544108204,122.41676818814004,-279.23429321921964,80.55476005682064,162.7347256295144,-155.77568695772806,-148.39789653205094,32.44556283008451,150.59294352326202,
10.980994697007336,-90.88349049906572,-270.7488344873851,-18.304487382122993,660.2318376840861,-1024.532220627626,158.2978368421947,-288.41045331122996,-438.0967701833167,246.43224352317847,190.68647476422115,345.34117538066545,-487.8589431622546,184.288959754047,92.40081625450813,377.88206740010423,-154.25859428200374,563.2380222487162,76.31579282464064,-301.6245863921819,-386.3380152361743,44.50342709975978,163.79092624325466,
-2.3397025775425018,-11.51356683676861,-20.856207482133534,-26.50424180032097,32.9801710260581,-69.01204195337483,-12.672856249627053,-52.265015296392725,-51.72707473185558,-20.036891522155212,25.437323205747703,28.159846460276857,-29.184562573516285,24.685588911689006,-6.735428696347092,14.40977114841457,-21.15168586452315,18.067686829880046,16.352005487275466,-28.570868053303276,-36.62818657945163,-10.630355413166393,10.81728704711681,
0.9922588847049536,-5.027002292274025,-15.764695708598984,-15.906411922761725,21.134631615375586,-34.955405337285804,-5.66811222206433,-28.8052241040559,-30.302201236554318,-13.845674790311515,18.0377084799607,16.38972936086277,-17.250420562398176,13.546816131544665,3.108246012414834,11.753407366057836,-17.358477122504787,12.024039172321768,10.693450188507125,-15.145119635235353,-20.106999738970682,-5.398890736850506,8.093161028556702,
-3.8636328072302604,9.740877382874261,-8.91876962825266,-13.965247991127919,3.4902127443507074,-33.339283672799475,-7.207832482894895,-16.43645002166169,-20.606575285541005,-15.062210079744943,12.512726232276124,25.477681971784136,-0.15239346560251463,4.441299847178155,-11.301649623378037,2.000529622198317,-9.101603182662314,24.2609010450419,9.263763993723336,-26.156780391187016,-19.257397649523504,10.7812301073447,18.21187186000858,
40.91384224469923,-118.37194138465443,8.67490542462536,113.48036064665754,45.38688801892635,390.5237581681577,-1.6861281063330003,68.47960706355815,87.73033978966225,37.204545976948744,29.32847430697198,-157.93202422633684,99.2699066986682,-94.69590265170524,280.63186661024423,73.71678171887096,84.95699877929961,-231.99355184534343,22.10289163196995,170.89365365409625,160.74815755483468,-168.48977407985583,-127.6732653254459,
-35.45113376801985,-76.41840238126908,72.38412210654384,91.89945506874044,181.2521867460287,-357.3350000081915,135.56466143129518,-25.74302300844769,19.416361014191313,191.97187083861638,-452.9972842972063,-113.58823134850513,-227.63186687602322,130.56437151536517,-139.04130699580443,75.8249949075821,265.79799870798587,179.64276869865515,-107.54826011436394,15.049062538047236,-127.37479760992215,-144.86066185622295,-45.8700896371378,
15.869824880484503,-63.818369607469904,-105.206015254788,-114.86056222315017,33.14791403528796,57.48067655624649,-121.25399777826416,-104.35648051068068,-207.55990180944713,-161.61887843709724,585.009987490998,126.22710275176416,-75.1021689791714,41.40980815925808,150.2187776917118,39.27473357933366,-309.1858931526116,-149.04836495393383,153.96295003156263,-44.293455233416374,53.041464897477326,1.643620522417295,-15.933306288303008,
132.79395946942824,-158.9644342593862,-171.91599034820598,-133.55017472612363,-121.70592322811875,360.2596589058192,-127.4963613870157,23.870053495633655,-356.2070186694695,-415.2209647072627,373.0439743214467,174.22506867829412,-179.50606195060666,92.04584463702075,341.7583403595491,157.4794814609526,-537.3424676185024,-372.4586541483754,227.8656882726518,60.59566839340606,79.2766680357057,-482.39255371138194,162.21920179084626,
117.54822121588529,-430.75972228755853,-378.5766648759461,263.65367406969835,410.2864665340529,506.93718208285213,141.39806792095436,209.42390966648028,-138.34572077362932,-254.13546602022177,281.2995291864585,-365.7517116415892,-145.1383674027072,282.4786768147522,746.5960723710655,425.3129518419929,-258.8455470165519,-539.3148650776533,-12.029523368895417,464.7057087615623,171.79201973437384,-840.1260865985226,-340.79684534429316,
-8.51241379216523,7.163585433581878,3.426836115458448,-10.376929490267978,0.2282332676617734,-19.224168964529174,-8.46395189508177,-10.889455823289396,-11.370767105705992,-15.491394653114218,-21.818538260448204,1.4265838609906116,3.714966632855229,5.805998175115729,-16.612207695525065,-4.535430940521622,10.695312384692476,6.715170015439077,4.566742311311937,-11.804430749168755,-14.81663115764515,-4.342440409769931,5.33818427113976,
-15.900943031988467,2.8601586932326795,26.06941100542446,-3.4517927318382067,-12.208496691926118,-5.677798984172312,-12.635788159677155,-4.5422144869564125,-13.96559511051038,-23.19812804552235,-60.35245744816567,-19.427603739935495,1.0516671396034942,19.27840397342279,-24.183440236339163,-10.499529536865461,28.235268725343207,-17.758983631597122,3.1196747488051293,-4.109819591186201,-12.591916521839146,-27.698375874987395,-5.056576099031893,
93.01782276034128,134.71218320970124,22.245518281294352,-14.33512172714265,90.86406569757409,-120.96489726539176,156.22460140249183,-2.71573795566678,44.23908197356992,66.55084297319945,-594.7646071993175,-93.12044350961402,-176.66058330982088,96.47614593364065,-12.072694256818915,125.84381202062852,56.139314379641945,203.75273422139406,-70.88789655219387,96.71885151174415,-132.78414085455378,-37.55876497927275,-8.613086358727891,
-1.5159862216242497,1.0573051494353425,-1.1897571177826531,-9.214580114055082,-3.349895488549522,1.4663759237474991,-7.658351270142467,-8.568244903460242,-11.67735960745735,-15.146720723907638,-1.0817746735031477,3.2522920279698493,4.418065712091486,1.5802878361037103,-2.7189500329432503,-1.7237026845318673,-4.328881582054181,-3.6983364432283956,4.612865598306838,-6.185894555614892,-5.3263149132646666,-1.1952756677931227,1.8088397326093417,
-1.5086565204654212,-2.7944213476197266,-6.486828661402658,-17.406179800539928,-4.864265102204137,2.9651071376669593,-15.948898294376722,-17.7597194176675,-24.843277660136277,-29.311131248120017,7.8447379816791845,6.593453785181389,3.252446210799954,3.157594590683879,2.7630382835725396,-2.369888791535372,-12.595399051196301,-8.439156335675033,10.95451150791142,-10.683027680124772,-7.308881652636362,-6.111913389466763,2.9285483092947837,
421.8880575899071,431.1838710179891,-831.9013787140246,-212.81508399122674,953.7275143470705,-1650.4261462449215,501.1225478572917,8.66802740925584,-328.5080231879218,630.6082060139601,1435.5854645873621,1134.2076894009067,-825.8963173608122,-203.7670385495743,397.5235431245403,665.0395095038247,-1289.0737049513616,1418.8728583305233,159.21706283195164,-422.37406277079504,-512.569831630092,1188.2082016157926,545.2695058345485,
28.839780785053165,41.68000439899568,-206.65464592145315,-21.6665245804195,460.32668667885616,-1031.4720768986074,116.1997671251948,-244.0859137951927,-414.34719906831526,226.50479438770486,136.45509008401342,497.0417674736805,-309.9199407589011,134.62568283850035,-109.57609852965888,207.12276088081214,-77.32326786297081,748.3178325659156,73.28275771120602,-424.3702535669707,-423.7847154991922,142.37711344492743,386.7007657506749,
-315.4971387681408,-295.964628167905,-129.5241788705586,-524.79461675403,-409.3777249825409,685.1725925995686,-703.385444398858,-582.1680565845156,-623.7083744910265,-655.5645420798315,1073.5483218639715,441.4896504151915,226.83665414618181,-188.93096254573243,-51.5969061201018,-274.592255546011,-601.8101402881917,-61.61860110861166,696.6231875205698,-532.4178731891908,-52.39324685351582,126.93309807681796,112.65583350591422,
-1320.4434685261074,600.671491481001,1834.8287394426854,-1144.3545989289541,-1801.304735774123,340.15137414241497,-1140.561279034125,-834.657643580845,-88.66595502983428,-1261.9075031477282,-2497.5823546048005,-1070.3657415602684,655.8148928614316,155.77613579394261,-2137.8570143715765,-2144.0517227196424,1199.0896140676498,-1750.9389497758318,314.46372986205785,241.44529416819734,349.2848206865855,-14.91228963254044,-643.5207432740133,
827.1452792151701,-1158.6624538495346,270.7517563482706,2597.1902292914397,-51.086334010527175,1793.9537173097278,1179.4725395228913,2171.038505856236,3506.567584932056,3146.1122396692326,550.86210817512,-573.9198117491136,-888.6359870195862,436.05490502835335,1275.7153346675289,1496.6111136842521,-343.5726449330459,868.4330803572716,-1237.684711944154,1501.105440036748,774.7280369443612,308.05655318820277,-1010.2274384067244,
-199.1549663988843,808.5881477095089,392.92116935795667,-397.85006194884824,-527.1876810919356,-809.5467637871693,4.432086302732702,-347.1605950989889,-12.358492568280907,183.81103717425142,-950.7451256381123,546.8094144582531,100.78514562799593,27.606247727721154,-1438.9121233579042,-127.11813487710559,312.10317508463186,564.6012669245141,31.500097643993325,-654.214110885682,-505.45440874120743,548.5584301543653,873.2987888911637,
