6648.472524065372,4933.622607177815,769.9696127583101,1093.9265581617233,2872.5254946590394,-11396.82150741575,-9549.100231935798,-3854.4376099799347,8448.267318247372,2031.9001328037107,-6725.509250529976,1921.1712668115654,-612.5829986076832,-9842.76279917668,4941.000244892627,-2727.9243161274403,-539.3179630885571,1211.470120158411,-435.2041679375842,-8497.050196358417,-6484.332250867943,454.1154434142821,-4254.711817387375,
1914.97566414482,-468.78892216621693,779.5855215978024,52.983802836739116,-1139.644318385894,-4425.751782951621,-2178.9086640653336,-1066.4928826105374,3111.6266216436998,-1942.6922997349707,-3383.7565502333578,382.493633135104,-1650.6574378389496,-3550.0564180401593,1674.0891893715354,-269.1688865482587,994.4691603612243,1121.4644044481768,202.52098000195883,-2880.273622494895,-4168.532489732355,440.89480186526356,-710.2649659660049,
4578.991633180746,3168.644495338074,497.51261522651225,631.8171576904882,1058.1385473157814,-5502.256284784498,-4550.413642249445,-2999.6255702078047,4283.136163892309,47.55130513701989,-3993.669822385344,-137.4516292491204,-564.0359916236852,-6266.1005665022485,1468.7283024116819,-3109.467773436405,-1857.152710110168,1479.697228063494,-1559.0019424374036,-4223.153222417295,-4009.750094847632,-895.1739774429104,-2296.5993828352184,
478.0697723260888,-1499.2011509283427,163.8751948041021,-357.17350742144987,-2017.4339420608483,873.0668472038388,2000.4160500029393,226.46653367466948,-801.6178371583217,-2524.6304947311255,29.796483064390006,-886.0583585147606,-345.28865241859404,1135.0761514247056,-1327.752761893784,-260.9955851605774,44.91817891397877,544.6728339502806,199.02788031996104,1801.2844030072645,-467.85174137249584,-204.5417436808345,1281.139335589924,
-4139.107645085976,-4313.389660876343,-1958.045983996251,-1034.4521088814977,727.0706708422165,3843.4921029908364,3400.7342177186033,2831.4717717671465,-2484.2415752498982,1626.564492558516,1028.7342971582382,2150.231318341811,1618.9874345477315,7523.1456284938195,-422.03331473449384,4326.011083514189,2032.9344842785551,-2211.5806246226675,4064.701917704039,3671.2097182789403,1873.3441858920053,2452.18729339897,3983.710634628851,
-44.51664742701517,-156.80477803900138,167.1041647032158,-205.03787215827933,-288.2729610376358,-922.6850339647312,-526.1012595291605,177.42431820556237,680.49513347342,-365.97248857388314,-981.0641470215761,165.51209433952238,-592.9756239514925,-1252.742043429524,411.023134967216,92.79434788965374,262.36987209527615,132.92266991579837,218.95633637059842,-994.473688188951,-1453.5091010891224,73.5146586055058,-179.87528585306956,
33.88150786762879,-148.09432385203831,65.09803026022325,-129.36705486308355,-160.7690724708189,-893.8120182681405,-513.6785037191809,159.93576165858317,631.9841832803526,-231.98828025364134,-800.8221156780596,206.4176371680684,-420.7438579975669,-923.4487282779049,465.6033642568642,150.80979599626096,274.3437699674914,43.796787954086334,318.6061838753575,-825.7783620316786,-1166.5265659217866,158.65949361372057,-106.14931044998335,
-27.01453157711087,-116.64723525642486,9.87511880846172,-182.99901443257951,-59.66008978801207,-261.56115085925086,-194.56912498541337,228.37983000710972,218.73655338759656,-11.047790118792745,-433.0410545139742,109.82385325055283,-116.09995438548317,-477.8824053243453,39.99182071347411,87.07668227190109,73.45296559606653,16.034856530662132,268.72132757906087,-320.9737988345386,-566.7594962475232,54.10070073882299,23.213922918496216,
-47.909736015688104,-119.45847467466409,37.13613317596217,-140.67670961093467,-122.91792141890596,-446.8483181331889,-243.2130641013955,184.89234984396137,322.9342889005396,-143.8440214237309,-506.20115863669923,118.43018579294775,-257.37373133380794,-566.5576711767246,208.40475706059837,110.1605857545962,139.93294283103884,17.86919400197473,240.00451992084228,-475.7823979402846,-743.8678387909755,76.96222666720301,-23.95803329286734,
-6478.790955481873,-3.4357802056688485,20273.00624271043,-7933.243365979489,-40736.74048837138,-18495.174090431705,1270.377847202523,5634.241041810064,9325.379614391006,-39944.50140339916,-18160.7882549557,-9183.60424690697,-22565.28711744649,-50964.97312040932,-11535.435963729806,-10836.654193603408,2154.4042167668877,509.23444760284315,-2011.805504759194,-12050.065601358812,-35836.8071273283,-7099.351588990245,-5035.052672619405,
-3018.419967854883,-7218.886777462174,1433.7579333817532,3484.561069936851,-3965.570076987361,-1970.3479018805072,-1780.1734708804593,-3872.386645576931,-307.5563928866456,-4077.279620182174,1520.1265149769158,-2857.826555017327,-4802.5770741506985,-2280.184631911017,1041.6317154866051,1192.120179397899,6379.536075024978,3687.041844831654,-5983.176564891044,-1433.4226285047205,3477.7935047580117,1048.715200286831,-3613.1995058435814,
5473.56775184358,-3841.489883338064,-11642.33694490522,10046.466138137257,30811.699291689627,9431.328667158994,-5715.569093469063,-10717.601086833693,-2589.3012973170557,28079.341591660017,11644.24204534793,1621.0551909043631,15288.829274817208,28303.823239457353,1884.09802434482,953.4227604907865,-3367.3221975508095,-3182.1225565364707,727.4063815155391,10396.57150676726,31427.346292920836,6776.215116088814,3148.9099290345503,
2534.686318196292,3247.154315910286,-1288.440138931612,527.4549938413337,4031.1741320162946,-4825.65898687808,-6341.67188528748,39.24444824409099,4951.420402033824,5208.606127522174,-2634.830598177488,2992.6203391957793,2768.195037998942,-1318.9890935132814,2515.172333057917,-139.52880463210306,1058.604847023776,-1085.8629939096618,2864.467266163054,-3754.8903215201194,-133.7198916980634,1966.9243246453811,-1031.49189765659,
7395.047091303758,-2002.79466222226,-2707.3318058312607,646.7423237282886,2510.6204354670676,-1860.573291878558,-1208.4816314606517,-1819.1284506947777,2878.056786516118,1523.3052379237067,-4341.971104161642,-546.1753427871274,2984.84972066243,2888.7057933502438,-1266.7026576275791,-2685.9556035342002,-1889.7477485297327,1527.5529990571351,1746.6294349399145,482.76783986280367,-29.11392723408929,1370.9839412827578,2335.245996605486,
959.3931970279832,1062.3897421939516,268.96100191061686,211.25846281139883,577.8587863363858,-2198.0703361861356,-1976.2080099322102,-641.8568026573989,1708.0265942942278,434.69433003495675,-1250.3819508811357,470.8796315230932,-318.6985495123225,-2119.261183215836,1154.1295930146898,-370.448470881962,-53.12807363396561,183.9576493951592,-180.95159166266174,-1944.9553692238694,-1393.0834994938166,44.23154577081636,-1023.4699918171272,
406.67157168697537,410.03205754620626,100.34818948970748,84.80934994524905,250.15135463208188,-938.1203468555531,-860.5869250509261,-263.39009080283546,732.1923479719464,198.22328960346093,-560.6902881715733,193.9459590885636,-139.82520870402792,-925.6506833684439,480.649607344576,-153.86894187560628,-23.840627853541395,89.50068078932551,-61.42663910895811,-842.3230103405434,-618.8064424326034,22.03132327555731,-435.62451946877576,
-161.280707908881,-150.175741965096,-68.57289766604815,-187.07882155206775,-91.77544905207819,-127.67998555401039,-24.483572861458526,335.35889442734407,154.7703817429637,-102.30635611044502,-401.9558625060352,128.69243632039561,-191.63280189656808,-319.8658390352182,149.9544834698491,178.14695793241327,-22.08527492046825,-87.4677424186711,345.89903785686187,-335.49432858578723,-710.6503709896583,-2.248759888097332,148.6786293078381,
-1114.2131456349905,129.91891128948564,-1391.8835787833864,451.8133308689531,2139.6654240921634,5616.552667443667,3781.639332727913,137.05868382444373,-3419.4833592507975,3083.9025109066106,4535.489904767203,918.852278206682,3263.1980461123485,7587.8688453674895,-1070.5869521422383,1597.883668759058,-336.82975529217987,-1266.307062208354,559.8323244700831,5060.312176311034,6089.719078939069,377.83632289170424,2271.8514721879565,
129.72727558272476,-2857.2572685995756,1036.7411795364621,-2100.1225409205676,-2714.1429045169616,-4415.617824409606,-3509.4057364117366,1431.6223346543893,5586.1563659979165,-2858.4094352791944,-9444.061553895555,-933.2165881215764,-3696.9127572300226,-12843.741810835436,-1595.3630253858923,-1588.3187862518223,-171.62541203810227,4648.67638211451,-1120.3181597517944,-6014.118389274232,-12446.617838176084,-1411.6825198360316,-1452.2054854644723,
-15220.393196868528,-83.3585800896587,-794.876803700601,1011.3553007093074,1488.653243233234,17131.427800941176,7081.220652519877,1551.5929312410237,-11915.366226673228,1713.2945419220346,9817.770758032078,-4437.25034947331,-2760.127403773213,6431.392617255463,-4128.684282419751,2142.4541981300763,-2857.4857473343404,48.54119346649195,-6890.767622445605,3358.6085622218284,9787.141792724498,-3170.532219807089,-2183.6481720536376,
2433.463421453263,1118.4515434509663,4799.277266500509,-6613.103402349119,-10795.861365753968,-7451.002921287711,1773.2976816993216,2065.084846743506,3083.3176692664456,-9623.333331148466,-12873.079120487795,-408.17475395069016,-2816.791402012213,-15943.813799362066,-2002.7892481297204,-5923.267958228588,-142.2170357271198,2608.1837257248944,1740.9790236520769,-4773.779059157825,-18939.07308869576,-3833.842091858545,459.1753696618813,
2144.9977109632973,-1594.4882114731377,-2675.5570879399147,-537.1482489862706,4121.775101461844,3387.2468796175654,-3595.616517661235,754.1720021832564,258.9513318899314,7137.100038588581,-1658.905107349805,658.4374869935764,4793.799426810114,-2175.6271600395958,-1299.1139277157195,-1175.4266863712478,-67.98087047753407,-790.5000738833546,861.5434946427176,1173.9490700807444,-1314.9407129841443,1030.7753504761454,1902.1114679546158,
-44.18590813350603,-157.24705435659703,167.254810458195,-204.14134334491766,-288.21746507279045,-923.1469446026867,-526.2718586397848,177.37853040781198,679.0794180659719,-367.58379234591877,-981.4822096733675,165.04803457130498,-594.0955534502752,-1254.0596310402384,412.02813956483254,93.12201899384827,261.4978501354371,132.375113557863,219.10802394324043,-995.4178886238403,-1454.0761523278284,71.96572730170118,-179.81462453348416,
-108.61897131862064,155.1519941534438,271.08298477980486,-86.89722769303062,-199.21171150722992,-1097.6866263603831,-703.5120468385304,-86.57832014541862,842.1377767456953,-316.880422221281,-1010.8190905742963,233.73621216686627,-794.3893665928249,-1502.5922338876414,702.2723842119776,-6.357682129231294,148.09926652796923,32.66268290118998,-138.29338638265662,-1370.83228573218,-1588.1692684606878,-83.28427264924156,-413.3071018846595,
-9122.99604895544,-3324.183262755363,3191.704254422096,-3222.8172355760626,-5399.799792827333,488.78263297099926,4699.925730132435,6553.435573010285,-172.52577643600713,-6199.987070587166,-1044.1607692639288,2974.475745975148,-6983.491516641619,-203.59563326970684,3360.9529841338313,7482.881070794412,6714.740270414541,-2200.327031946796,895.4753242581008,-4676.356863182138,-6445.184980175057,263.49187500083957,1570.1084665607048,
-27.82759339218285,-116.29703963121227,10.608604283359332,-182.27536660108342,-59.17904748062375,-259.988653175622,-193.57446457965855,227.13177323990436,218.9442824605632,-10.494438775055789,-433.87531786768017,108.7147162729961,-117.20741213599881,-478.9041019212791,40.90988115611758,86.74766210852866,72.18517850643055,17.344283056104576,269.64876555458665,-322.40330825995005,-566.8547754703989,55.19979730198008,24.303682637137154,
0.7172252273032189,-213.04805178358885,-39.47427581447112,-238.1387148505522,-82.35559097752397,-235.17327202116826,-194.52616648957527,267.214620590585,212.17828141412608,2.158955338099877,-559.4475580077514,94.8065375615855,-92.67997128566587,-546.0710005003018,-53.97087131296699,61.01122730283483,11.019198077250541,22.55434152367312,331.0971663647046,-332.2008935850172,-681.3112472597253,21.602929972212085,71.18382389066853,
361.1199392016476,530.5379296184972,-3421.688637718796,608.520008971336,9291.09480158633,1942.5081608880948,-3504.599628699037,1208.7842529408279,-689.735382682181,11967.518689993567,3721.3230318649835,4354.799488211193,7149.127685631482,5426.823161759007,1622.7792001858818,2440.9055443777743,59.38777583233381,-2504.9848976319045,2529.022308556229,1568.0027459423993,8355.841362630425,4033.68737879639,1090.2932474724705,
3298.4591343697775,-6241.121201677214,-9240.189139595064,8934.321594486986,29949.889910999038,4881.861845600012,-11878.459627545983,-2055.169588524403,-55.953777383066075,39931.546671209966,7591.717192225327,12710.46437722466,22911.14729225277,26530.966731372035,8396.990967344047,6659.033105248076,7131.144072125123,-508.0784146063153,4002.2945464269037,5122.415136113812,26364.239830500523,12279.250528074668,3121.0460470012017,
796.0850828162202,11199.319294815929,-1895.123724099484,3038.2837067611426,6649.898988991653,6814.357523547298,4892.029033628908,37.39545913550732,-8111.464221316817,9810.664708792467,14562.024721154903,-439.90284076857756,12699.541615936205,13718.075774940662,-1371.2959906446451,-1397.6990499787828,-2206.4691666424883,-2086.7301834954583,-67.7120527067101,13868.59327773067,21591.020181405667,4503.466264127574,327.5918389881299,
-13.052566268003488,14121.91961685112,-8834.636709681696,-140.56648514588292,15345.14907568239,11006.892607395544,-2064.8261289951233,6114.894033849558,-5390.914457025771,19952.201932853037,14971.03388346704,2003.250317285556,21218.569726368176,14874.912339733151,-993.4714672710217,-792.835457107585,-15259.121701875938,-18012.513826410028,9926.183049534093,12296.52361662247,23779.23638138369,291.464551650431,3442.713879744048,
-594.426392841649,-10211.238299044335,237.9852611423086,2401.624111522205,-394.60067670444823,-1936.971060973315,-3841.4248047899882,-3961.615270035665,1414.2636482010482,26.460455892227635,-4621.038079559653,-2924.0491292753477,-3284.4929798638973,-4652.534528047746,-1072.9159942469505,-654.0320814649614,5481.114971917462,7001.235436644723,-3970.5694412273656,-2838.9611315853663,-1515.5885121566268,1965.8560185329063,-2449.1869943592,
1579.781431602812,6544.493003338031,943.1576657585993,-3120.1129698416007,-4276.674174419243,-1613.1619578805555,3817.5215645757235,2783.4491872532767,-248.86644324968123,-7738.738840128751,-3003.642692139088,-2402.5570708804794,-589.1925920358718,-7302.334736089027,-1931.9589638338614,-3310.051084767463,-6519.394958804058,-1011.9734026736992,1232.5033418199403,-1412.5162863300495,-9168.878127663336,-3968.899962668421,2103.754777181617,
