-1192.6210412018772,-5737.0813006192475,-3733.6205502510634,-1935.6914658542987,-3031.005629144346,-3581.998905603514,-2764.8023558926357,-1935.4798166595926,-1593.4379467368035,-3525.841876595876,-4248.409861270919,-6651.988320196297,-1338.1481970576388,-6098.204680512277,-6182.841016750089,-2808.5766244974234,-2453.304562943471,-641.2390241579053,-5144.1722727335755,-3239.3459127171463,-3393.0891717795434,-2537.987641664394,-974.1515623243736,
-1524.2058778935984,-3218.184351612101,-1689.7463152440328,-575.0177670620387,-1197.213264441809,-1640.1388009094192,-2444.333659690777,-148.29295663443065,-2270.454170167901,-1342.2339714452985,-1132.434634252858,-3537.8549167303086,-458.7818094317659,-3020.768556904731,-2552.0545484056324,-1658.288249143523,-813.1590632904309,-568.9879619443708,-1946.7005888720605,-203.4033547359394,-2136.665655314157,-745.6503011483779,-274.56153741368837,
-120.76770522524767,-3884.371599392936,-2828.912859799106,-2159.1373372642634,-2923.7754292271,-2696.9043829725415,-1213.0702218128927,-1286.7418451870556,-1294.2250522738593,-3552.1446685006154,-3710.306996454061,-3694.639270363899,-1842.4571075014348,-2954.2262065826308,-4075.1896819412045,-2278.777751497566,-1475.8287605719386,-1598.1600306675714,-3454.4546767495676,-2846.427163000265,-3147.005251578465,-2403.713761259645,-834.6694289832764,
-334.48873064226376,-2062.3082939837996,-1266.7012883945627,-968.5957681007666,-1344.406203245295,-1074.7444269487576,-1218.2868836265195,32.38324458963285,-2316.9572510648977,-1677.3935737129957,-1101.7544112000899,-1605.3131804457346,-956.2149452601702,-899.8739504229184,-1236.6324470653065,-1441.287040987021,-416.21074230387444,-1734.5065076689602,-818.1808873867712,-545.6856625313816,-2367.903538241664,-1072.0541993642485,-479.0101295285306,
-6106.916009274589,-171.70442719236428,-4566.6152566718065,-2824.2249000204965,-1025.6747440002548,-325.17400097024125,-8819.59267782787,-230.55839134714643,-2475.758900608083,-1832.5743249293982,1920.3043792951794,440.6478901048881,493.84494417725847,-951.6636719043661,-2503.9661144588727,-2076.1385713614286,907.4207528253212,-2200.3182817841966,1378.5853072509851,-2030.5192759637152,-2680.2622645627853,-1112.9156778611762,-3489.671122809552,
-135.6787273519887,413.4921638861695,207.1234144617329,62.54371324268894,460.96118687578286,70.89934394385509,239.92405158939277,152.68116273168334,25.10991004164216,497.1103125744863,272.60536278595237,365.10364686169316,151.94484769552653,79.96979829171717,148.85627034573685,417.9014732648084,447.11420708601514,131.86471422899334,310.9002011502653,150.91045076022414,485.95428339598936,217.9435126124725,-6.998430406023472,
-272.31031792061145,-152.2461228230738,-138.1805797207848,-101.58376077507883,105.94622738825674,-195.88854952385438,-164.51482263300184,4.02932911725327,-266.3481385920038,60.271262979227295,-20.150758562426827,-163.65001870076551,2.9370758450482137,-316.47342816411293,-248.835283276109,21.946479636472823,101.4021042071918,36.79091401327173,-123.86498589450676,-11.595773618097168,24.491285845983686,-25.198146250518473,-73.40729327711257,
-8.28905254078465,191.8498163807568,155.63205395058606,132.54958670758776,173.23922850507608,110.35076314346857,115.12631123524172,63.5596328873189,142.6182576813235,214.34496247958393,168.11779573649224,157.96785133662934,120.1179162477363,88.76305312174141,168.06349960879638,164.1246943279557,80.19561412130076,177.30538919256514,124.54061310493894,161.53224462918908,230.80452882494998,144.3623735014655,79.54489350040504,
-95.98159119432201,-23.34659630215304,-9.8926382313688,-10.352043530921382,87.25259858815444,-64.31509527969061,-16.394024530807744,12.410466405159575,-82.95851548937783,77.95013742117642,19.888019397939683,-40.64715149425888,27.32819309723757,-118.39195805670667,-61.464718193524334,51.771093558340844,53.949948208966774,66.79300822275317,-34.923823947638,37.38325631073838,67.48543269080577,21.84238695212362,-2.984151148970809,
-160557.73882293844,-48559.37388757563,-165470.87560753437,-66382.36035794465,-106831.41332573928,44740.6866454078,-408012.0779690792,-49661.93817206772,20176.229053546103,-121991.74035286106,73180.52201367755,-36767.957894461935,39453.96829276088,-20465.71365209857,-46407.2309337093,-192787.80359010986,-72301.01414283032,-38752.97783653631,-529.4601295898195,-80020.10654653686,-154463.13817275522,-23235.496023151612,-71831.56564739838,
7582.028008531544,-4741.381254287884,-1454.9781027965962,-859.2557195596598,-7488.4188828680535,-1303.9285682218147,5623.453610897152,-4179.295238055858,1253.7705243916996,-7496.815038481348,-8734.812763318061,-7079.736883083859,-3175.7670985807567,-1928.7712986353738,-5028.755768717233,-5649.12496406248,-6555.813652110336,-3883.8988516668164,-4418.726895883714,-7700.709294361422,-8233.292596861203,-6396.3116966253865,-965.0816048341256,
602.6195922240975,-19962.446700149125,-11282.872111172543,-6198.15917723607,-14532.941052555545,-10114.6939749365,-12261.58861867356,-4716.209561606997,-11416.566512693209,-15652.14987770306,-13140.554567574367,-20778.997450248015,-6286.874106397255,-12602.740806263648,-15123.648422762568,-15465.585852580243,-10130.012671947234,-8370.092823900764,-12492.776239025574,-9708.803586439522,-20484.51551966226,-11109.98941263795,-3346.213554455897,
-3096.6409523998736,-5700.448851575593,-6383.198580160152,-3337.4315915819075,-4808.657298799041,-1772.6863248861487,-9910.576375313214,-3173.091493711722,373.2954505967074,-5956.490732442258,-371.60349871073,-6173.628106171931,1.2069594543871727,-5017.703033211427,-5951.005724785594,-6625.315801440449,-3353.200724580192,-251.20003187931508,-4182.910609671476,-4317.115964299015,-6297.255721982033,-3048.249841063411,-2657.3306635242798,
492.4855647159504,-3761.5412253629056,-2208.5281308224703,-1779.422366837638,-2305.566963734527,-459.2975591237068,-1182.770159857393,-787.7129668246382,-3896.287659148291,-2690.3462478458146,332.42002764679773,-4706.763302462295,184.6824032891969,-2002.2146474246756,-1416.0109109937348,-4425.968618477662,-1506.0910514869029,-3269.8256526151986,-354.4148220157033,-1863.1925725585959,-6496.819555548612,-1883.4415362358352,-1547.9017985585517,
-439.7222991314155,-1904.420151412054,-1251.743324057846,-698.5928536276581,-1018.3728866757154,-1182.6912538789668,-1044.660629980795,-594.071915673905,-667.8935515783188,-1196.5377590651199,-1319.9996587659507,-2156.773893127463,-484.1502393599647,-1941.0381675210358,-2007.083263866905,-989.8054655802781,-722.6592565600622,-360.1132469843652,-1618.404195365171,-1049.9898989486173,-1209.3346415056778,-840.4520894088855,-361.63946335125104,
-160.50478194204513,-831.0523161235836,-530.3724118854403,-286.89550067963313,-451.70848424673,-500.1593555818473,-456.4585297758849,-255.2611831364719,-275.572220842041,-523.5799724898976,-566.4243061597426,-953.888669195387,-207.19225350864698,-837.833642822345,-862.4979192694273,-444.7046514314352,-322.64730904607376,-155.88177818679665,-700.2817497811405,-449.2029693490181,-541.2095077247894,-362.8242540993885,-144.17540779745664,
186.11164824381115,44.47870485558717,95.31481767237548,81.2302541850255,-30.446377561942246,33.020850779426894,162.70985255953843,-70.70994678193556,277.9955884412651,-3.6867434295902863,-46.54234031508812,-6.5550792599214525,13.294485880010514,8.700098543736136,43.81335034458582,36.929243377036364,-108.59577941382877,188.96782629749296,-96.14267082514776,5.77746637378089,126.13419426141921,35.15485115167978,95.63096608349709,
2598.288499730495,6342.527476275058,6108.886237096543,5433.480399260427,3952.8479026083037,4127.5474911460105,5657.918068210833,1463.6743784955684,8294.632319844352,5865.95245476909,3747.2108645761673,5227.142283559191,2965.78012061596,3919.5363832290786,6081.364288644799,5085.025827466112,607.6920659395078,5369.256803021993,2894.7255121233297,4900.3280797748985,8361.018468071086,5050.435471897594,4355.063067676676,
-551.7553560181245,-284.0278125366786,-265.067942793799,-413.9217114830735,-151.7956592649957,-518.4171264642904,-922.6959697920236,154.33359186297997,-1224.1888998518057,-193.39019475697245,165.67613634566231,172.87316178267278,-372.2611420078777,229.8577647414978,-78.09026418164342,-634.1733373358385,519.5960973555332,-1367.8085717221097,233.19476548394965,-212.5146975783636,-656.1541556804539,-565.7111234240242,122.0808833959968,
-1503.8663697992208,1729.2314111185874,-1124.41230198902,-653.1169195458789,125.05850975014839,1009.7064901748813,-5792.730122704208,1467.6588634263562,-84.96694225658602,-86.01046380571564,2933.796736955498,2968.6102966698763,83.39463831281606,1814.729744538226,125.51333943716803,-706.6164542923636,3321.6477854286536,-2410.101572772071,2749.9348418650784,-113.64244143231596,-95.73599545562166,652.7605826033991,-1330.9055999779002,
3210.2822642429073,879.630251442883,2381.700494311368,1989.509624405103,-196.69748822136228,707.6950635933425,3338.3719920966455,-36.757315002861695,3822.855344487146,600.2805985230382,-988.4857661622952,413.304625409951,-40.099662097779365,1178.882246148165,1532.251811559724,1221.948466516261,-639.6623360457947,2476.5578807234597,-814.8173283927684,1471.899120515585,2253.188190901101,1224.648018092318,2818.2534158081794,
3989.1893402959304,526.3544111348408,6253.540339113894,3061.3705118820053,2270.730100753437,-119.60627297849248,10922.751982731126,1045.1885970883518,-1625.9543921755858,3441.3581475321753,3.6440609830487642,440.96775810205946,-699.2658861006627,976.0788872309633,3754.5754938422465,3490.859775552034,-1032.6634636965257,3595.2458665911345,-679.3469643398095,6561.347284190401,3690.695179114259,2544.6279848585655,4801.11403683195,
-136.16130215604187,413.4632231603502,205.3455098052494,62.98689771089798,460.4907542288236,71.66657154846578,239.11235759796347,152.323606865013,25.15482328508135,496.6582574293141,272.50034196907427,363.7699895541016,151.60351760160395,80.70213063309306,148.857009693848,417.6712023167264,447.31043686930724,131.95481675623486,310.5458066911035,150.44053359753985,484.9050980738043,217.00558186099425,-6.3872565805446655,
457.3498833040972,908.0242408412864,578.3579861507945,218.76576526139624,567.6912714288342,246.55100510738052,1087.24891158526,175.05832935995423,592.7194669526909,698.6518788783361,127.23910241729611,797.6785452180885,125.27108686859731,491.9260960302291,434.02217186758406,804.5353604174279,609.8999965587669,161.1873699151517,531.1572019707927,37.80731171432759,877.0509077872267,332.50589488113434,113.7553245602727,
120.94935992561416,3311.031280339271,2728.2789942642357,4037.7052812129336,2288.1824490078925,3944.6351158082543,-1073.3229661180412,676.3400561932871,4252.803597853704,3034.856224802753,5589.793555079259,1766.7680881985277,3223.7577075766126,2532.6074320593043,4407.825655220198,692.6464537260595,-142.8309202579821,4143.49434765417,2386.1068665679345,3376.1933290225566,2817.2988139963063,2107.8903925939626,2442.715168847179,
-7.272931101116575,191.1835299814398,155.47225418820926,132.1704378473196,172.5675970106157,110.33415080909465,116.741449779635,62.38203500827149,141.05220065673586,215.76093495347513,166.99793582789894,159.3581385636836,119.60454724132651,89.06494174064044,167.5276009562551,164.0694115361545,80.73298245954786,175.58263371429598,125.85712850115421,161.0909505885957,230.72471220714615,145.8454048119371,78.0072023732215,
-39.859861190437236,230.26097002585598,128.3841212370001,149.2069111171197,180.5693613144298,143.14470341851535,55.31615325101786,56.46452571753287,278.40961618639625,235.63281318928142,198.87215939202002,173.04442658328566,149.77204681141475,71.91293900376735,125.09191056505792,183.86987089947135,105.43354439304714,230.72888482699753,134.629591030713,134.8015504954202,293.45182729900785,165.6035144529025,74.20995489926932,
-671.9567269417903,67.60850852870922,408.6249749890408,233.62609497825196,1018.2626829098388,-233.0380641190904,594.4202177807458,1108.4773230658452,-2043.5892474953405,1020.2606017489253,597.0272962177702,183.8684895920553,-52.658230887651115,-123.23528719704166,193.1538476579127,971.9410664417529,1258.0361923560042,-683.3618961397281,943.3105474134582,1117.4572320804882,358.64695925268245,488.75745755884117,-121.47539094258937,
547.7991962467772,25.919576938919878,317.3634356206038,468.7738668856881,-30.234126929395646,538.6788442417898,-132.29932799312883,603.4489924536059,-446.5664564645471,179.64722334662812,520.129179436669,-179.2044316494011,69.63854078464044,354.9060591248612,295.359671166314,-191.83284982253176,178.7685369019069,-739.5460651360779,863.9982479321895,531.3538125440314,-546.2042831043724,121.77353650555379,272.88651708787444,
5834.352745320057,249.03483976568805,-7314.744588787103,-3373.6639565342443,-10957.249224717081,2469.23612677878,-15764.138878529193,-1988.0872174697663,4186.510331107532,-11105.89455491954,-30.446385895653346,-59.50805654886679,-3359.2423727382597,2760.56492852105,-4790.076949661853,-11120.401077288947,1522.9837759181235,-10711.648397995734,2821.884626022705,-12718.518105891306,-12826.238905696682,-5846.2416170839015,-3817.753110033648,
-2465.4045890547072,-1111.100133283907,-663.5813903212606,1711.6612255487266,2916.0849372731445,459.9469276076562,-3966.6459254654787,1284.4745286315442,765.2285281728151,3672.5660318812675,1950.2363401925647,-4464.161837262346,1960.1930796927638,-3225.2284652517756,-1821.546084859102,820.2251443547036,1881.6481871883054,1855.9302453629552,352.9881701121712,639.2307447967423,1256.985425699626,2043.3887551008818,581.6524376200016,
-26.56249841068498,-7223.390609160127,-2671.1970350184833,-1142.403901729163,-3413.6232259909675,-4781.169410669329,-1761.320182083393,-671.3866188306769,-1942.4887657089034,-3356.9777535439716,-4987.66272980472,-8920.109734083382,-2198.6917851218063,-7430.493556968151,-7604.548775809712,-2574.1068567026573,-725.1983967771864,-967.5499248770119,-5795.232639446611,-1890.921449654073,-3363.389859429412,-1900.046594121081,-263.4319748541637,
125.07868845498352,4575.048848952236,5891.8343198446,4842.0179922083635,6896.8394068748885,1426.6202474559045,9368.505220693221,1953.3088881236213,3242.7855128613464,8466.658899950544,2786.3702676469247,3645.500462412378,2769.1062047769005,268.97225908731826,4464.348929449465,8999.316146959587,851.2513987718557,8076.919340566107,967.3434260546177,6711.195845213517,10943.162598286299,6331.150357305229,4401.783954130072,
