-3053.2293951941538,-5593.47669095631,-3285.198918942035,-1370.8286391523047,-2455.3801821354655,-4946.246456051272,-1953.1347275431117,-2650.0934495168613,-1392.0478232196965,-3400.7526894452876,-5960.394190621503,-7519.585933104626,-2337.283718726148,-5300.0212336881195,-5494.393976480277,-1428.6540317512863,-1650.5270204754488,1034.0726315128004,-6428.104743357754,-2483.5369861564427,-2298.893896185928,-2213.2336706185956,-15.744042509872036,
3413.7363516549785,-2547.818593020169,1176.407689704519,-502.0490346236925,-1954.1488885084884,939.8326378733448,3222.04824463269,1413.2322862122076,-2211.966593048686,-6131.404349250521,1531.2960035332428,-693.1826798362802,3659.902006053761,-4736.403564572019,-1762.5464997981721,-730.4601158464653,-3810.4457615968818,-4417.508917187984,1018.7242305939218,-2088.8812381720754,-5518.621378805673,1898.2886576027565,758.6047841071207,
6654.81746325302,-4599.368097153046,-4359.98775730708,-4967.772911563249,-5124.391330875788,1658.7578934381208,144.95594778881647,-1299.5048336879975,-4728.396418444449,-5761.447508436875,-692.514994794069,-1024.7652838558015,2796.034164472314,-4206.790732800495,-5192.649117056658,-6582.212966352833,-5343.906646124236,-6268.441101613942,3918.088776146012,-6406.698155480915,-9206.434588139105,1890.2632902614705,-1040.8159041792014,
14634.225452116352,-360.0447209439848,3423.5991678317546,-2588.0205360117,-3934.574186734687,5782.946383263637,7942.25570924448,3646.240933894754,-4789.989166496343,-8313.354525469718,7625.4533636048345,6878.555134983471,8472.57701610899,-4582.311253933316,-2645.3674575998093,-2483.0634978928565,-6486.942296856879,-12128.239423562603,12098.650028926351,-5076.037453438998,-11204.656434156537,6073.507417008422,430.60822821324166,
-12954.73165495287,5921.645393821163,5745.058121469658,4078.543079835757,5517.108217255865,-11597.427662879392,-828.9405633176756,3346.329548423619,2147.0647640802217,8279.483377752287,1197.6782744805014,3639.110609872024,-5330.414341505901,4106.282766259998,-1484.8661541346723,13508.678744702622,9719.405584702878,4766.184572715428,1481.6652837851102,8915.118700853003,10473.674319363612,-1460.1057958940266,-2238.1079577775467,
-893.4808698681687,49.69076068874362,-210.75978110919513,49.26547906631857,474.70683403371453,-63.731375067499705,-386.1400273116195,118.79646336614746,380.36171212210644,871.6943875884349,-81.79482604698661,-352.2734790706981,-551.2801872592377,217.19294546483852,439.98940269852045,331.42778192138707,510.71194019681985,553.1679680282808,-725.2433422437966,181.32795338701865,952.9747965094324,-528.6445402181822,-527.7884968378543,
-731.8987070310868,-279.58685702746834,-370.6746693941832,-89.76068516049067,92.26285816077994,-288.5289232408797,-558.3987247941033,-46.12761133888181,118.71556621259091,319.46334192616666,-274.25245819901136,-601.4620692187481,-478.3934412132027,-102.11389155185623,-46.04111716452997,-42.551525676943676,168.74299435057867,156.65587700402622,-635.0423056625233,3.0065895345625324,209.92677774225567,-356.0210817603692,-429.2131208146359,
-206.90959602926196,204.35340273645,87.87727115441167,184.95260822546962,137.08382778985876,71.44158345842537,-32.21105943709706,2.671026388960157,214.70187266236283,437.17175421867887,1.3588197684999448,-28.19324504524293,-164.88379219272875,306.2687352722075,183.60530345247582,87.14628200755267,201.4035694482249,325.77502296455503,-43.74065572079564,268.9718680070392,406.0622658284258,2.14962927175895,42.53234978054541,
-365.51827913624464,-76.14516234985027,-127.25112177626175,17.061161521397622,73.16460805979551,-125.76345912134204,-228.2231854328343,-46.137923437096966,107.57930713726667,215.10060770146146,-147.88981349768937,-290.6722860644043,-224.23588756684057,17.78498581302908,36.557987769391104,12.026204764720674,118.67849955867953,190.94747797501415,-334.19386349246315,72.56636172230475,200.3277716951644,-169.47378735362201,-122.19885221381627,
-475946.4290235541,-68466.98008692864,-135645.0090817141,-71318.6503631695,13579.69506605933,-181996.6433261603,-566926.0410306199,-39726.955232176486,-128847.30765266436,32366.494230262266,30458.51740179685,-63081.47601847459,-18776.722619975077,-71285.4087443128,-157179.14813448658,-101.3331592936365,-16672.542680345206,168108.18793184418,-95605.82188981729,46177.43803727124,59232.22412048731,-188874.9783759712,-210203.66199270668,
-7875.446930862549,-5992.63321430933,-4855.109360671499,416.032291780648,-1644.6975489562562,-6283.515779732754,6161.819528925045,-1208.277388895579,5527.543833304897,7466.945885717695,-12061.003231631168,-13193.646584067657,-16040.806892083778,7866.043474994183,2684.4190691882545,2042.459529920968,-5319.317978886634,-180.8135901937511,-10706.04188733964,-2513.470789600794,3001.2622392509643,-11433.157953472573,-18397.109652990617,
-11680.864542940924,-36286.332815897345,-24168.65931944929,-10697.770434348738,-19210.696228841025,-8176.440980849856,-10091.702594687158,-14271.30068146163,-21759.362875629748,-28338.63608210842,-26269.440673414763,-40665.64930257102,-882.7558262419727,-16192.023322862538,-11171.32833950312,-29150.373013891094,-28330.094179424974,-1329.7222941083194,-38540.09681407441,-20695.024545711338,-19239.568355987216,-22767.045757073978,-981.4838459863255,
-3738.736031593639,320.69112879038323,776.8555843480151,1316.1469029054879,-1455.2155096579882,-5575.03588753604,-2684.799434963924,-1308.5567420435416,5087.427747731356,1226.4566899330832,-1750.2047436523335,-2224.0909647434955,-6807.064033113395,1241.42478078685,-1987.25542225886,2526.312825511653,5470.532196362165,4337.295495528206,963.1286262039765,2812.118120258047,-551.0844663802869,3067.4453894184717,471.69580156456516,
28677.79709963529,13006.503744860764,23012.042230774856,4791.808756601203,36.0025868470969,3527.8316016306967,24499.2218752233,8681.382476448223,775.1320703898054,-7923.585685875166,14221.386875151495,22674.731031058225,11947.71148443379,-3416.5611578133953,-1306.9742700002091,12600.502331138216,5886.676968601636,-13490.459633046985,31561.473631036533,3911.7992206874624,-13672.373317123864,20888.899897298037,9988.727614521842,
-813.75016919617,-1686.3548884792765,-692.5301704676551,-345.83122063129025,-740.4272838370504,-1684.248966461452,-336.11406158059043,-558.8406306559251,-498.26535645247793,-1174.2127560095323,-1620.021336784554,-2097.407589830183,-755.5867793258363,-1730.879163080521,-1754.9654811016276,-164.67461023786788,-363.178414017119,18.27752055009488,-1792.7615320428229,-665.157678103162,-760.3197075702323,-617.0852037389207,-6.49134895827379,
-326.2844251492453,-741.6036891753777,-285.23059501554894,-124.81849820312229,-334.04752515145367,-715.5355803603701,-173.6774144204232,-235.19297818756752,-171.87971698010656,-520.9323437437656,-701.3982242814672,-940.512632179044,-339.9736541297074,-750.1630682502906,-747.5245413507527,-83.25716314168446,-148.65171513739347,9.663232693401143,-810.64705039308,-279.71650947355124,-342.26524809405174,-286.0050314568875,9.451484500495656,
386.64326943016084,297.8404079101375,441.77197980877236,215.40455012475257,-27.534465366714613,-59.73244105527103,663.9864758845458,-173.88759898557845,155.56187959517274,-238.11769257382818,8.876754878116914,216.32374167863242,389.8218581269401,-6.674977490913898,-48.252392795766745,256.1456322475635,-88.75604027255669,270.7354987765202,105.05410660787922,101.1291430227082,138.7201385368717,245.13310489219555,599.045870744237,
-8989.273663507352,16540.043653344317,21869.46586560446,16762.182094619115,10023.09945452833,-5892.388091516471,25909.828065290927,2894.14872758259,16813.219058799423,5049.109951246762,-1254.0895168392572,6113.764249102871,-4250.4877007593395,9666.700162230945,12650.762812183162,21077.241615703217,8825.051871298658,12178.454865162923,-5088.569512794704,15417.545388225588,18537.63064779354,6148.739629768221,15159.092490896488,
-7767.054771073299,-4769.146759621249,-7981.091581517664,-2241.633480859427,-1794.4423546324929,1625.916678183759,-3947.8130371465813,-2165.4896125989053,-3972.1076122734953,-880.9727738999792,-4377.102793996146,-6120.101826216678,-1749.4786738480514,1464.2617137354798,3025.828982378271,-6111.717405200555,-2596.9672470147025,2989.206865011908,-8509.642983758835,-2334.379501579016,-594.561646196299,-5015.400345217967,-869.8518632540472,
3568.044070676538,4436.070539376178,330.5862425332502,-719.9452148384116,-395.243223320199,3866.2000057153646,-3155.882791489151,1909.6925395390112,1842.2764430510706,-414.40132300866804,4275.506898274761,6177.124242144238,2087.4498186640076,3763.952305424181,1295.759846140244,-392.1600962103055,4465.969487520835,-6085.595103543811,9999.623964687795,-1175.4023684839435,-5571.000771526405,7052.669208432368,-639.0839407739503,
773.5054109951983,-2346.244335024578,-1702.6714398628044,-74.80723617799103,-1669.0765750413054,3100.5385620184675,4736.826955491409,-115.47516367581119,624.745127627918,-286.1090661844971,-2649.205494715769,-3203.2833709410966,764.262862071942,2374.191850619608,3050.5666178267675,-1738.0482811042991,-5911.659849111894,3982.121852281203,-4433.874027050872,-726.8990281800851,2361.6479513787376,-1459.9013252951781,949.6433012484033,
13307.354597810245,4048.203510871775,5029.610037570908,1466.8874408235783,-399.39549575225624,7011.232712854935,7998.063045535743,697.5840551140889,-2671.051100361764,-1533.6045494472696,3631.777391965313,6589.646636627391,3840.5888403354384,482.6769684405615,4515.228795855722,-932.5932559066595,1993.748719953041,850.0667184998089,9841.106591395466,4677.99769185863,-5714.703134121902,9664.806793359285,8792.735838066734,
-893.9634446722222,49.661819962924426,-212.53768576567828,49.70866353452768,474.23640138675574,-62.964147462888924,-386.951721303049,118.4389074994769,380.4066253655456,871.2423324432627,-81.89984686386465,-353.60713637828843,-551.6215173531607,217.9252778062145,439.99014204663155,331.1975109733051,510.9081699801117,553.2580705555223,-725.597736702958,180.85803622433414,951.9256111872475,-529.5824709696622,-527.1773230123755,
-332.248597661001,652.6243859068461,578.1916150424701,380.16652333787886,644.8502053695015,-173.54709277697503,1297.297086144448,-33.81652369649646,511.74057669944483,681.5197890230551,-267.6297830188374,203.46568220366066,-118.82345582858267,394.21650627325215,672.913061380806,988.6190551775525,566.856210344902,917.5413577962944,-620.7134574602649,173.60890007652245,1519.6031732718425,-334.9455975474407,394.01134897967023,
291.2587852321034,-3251.4271305371344,-8661.104940576883,-4152.416291040923,-4297.142548661894,10090.274339437263,-5428.998115751204,-10020.941282393678,-14211.61372619611,-18268.718669882244,2102.469805910026,-590.4787708969513,26823.681464489247,-6704.7845158219925,-2472.445624037606,-14714.022205920313,-13163.082182432432,7711.700452302261,377.80029504350404,-6488.838065742934,-10671.800957550346,4518.114497439266,15280.673339786299,
-205.89347458959398,203.68711633713298,87.71747139203468,184.57345936520122,136.4121962953984,71.42497112405151,-30.59592089270367,1.4934285099116118,213.13581563777453,438.58772669256973,0.2389598599068742,-26.802957818188798,-165.39716119913848,306.5706238911063,183.06940479993455,87.09099921575141,201.94093778647203,324.0522674862855,-42.42414032458064,268.5305739664456,405.98244921062224,3.632660582230235,40.99465865336152,
-29.6591210328784,315.85906352539945,223.91006510816257,233.35554708446935,126.19947265297169,168.40942092697753,218.48973808982024,106.38820255379437,347.1236901817566,498.46755194034927,138.28227837396602,106.68422899949161,-140.4576747587427,366.9013538092492,153.31007405228345,175.46769557067205,173.1909806437708,203.9137146907323,191.97597712741492,251.19806486865545,430.80415855377754,146.22527103502907,11.487672905523512,
14281.012818194595,5147.2063950508045,10973.364142465167,1868.2406487303945,-312.385815045403,3903.2263395014993,15286.24591072995,5497.680726660113,-2234.1587713026383,-6483.148689427165,9155.576577744585,10851.188363597785,8672.140871181793,-3021.076172283126,-655.010233436645,5027.929538789809,-2026.0112644785283,-10635.282115693539,14453.73486793111,-527.7131239813353,-6408.298577711278,9094.529559590768,4223.87603324641,
14886.412419021008,4758.81239208534,8879.555892155871,1713.981999639382,-2218.6182918678055,5999.23487951532,12569.058694507356,3756.4169781589585,-110.55796530972027,-7045.7580592514505,8008.517338244639,8958.38058168634,7911.134852524842,-1340.4199337043467,-266.63000795972425,927.5470503561512,-2814.770241904449,-11450.58847785045,13957.220397262532,-1982.272795428413,-9111.67413472356,9157.18122373446,4752.429264147724,
23913.544156187407,-11698.769409975233,-20365.680333828856,-9272.85296763693,-20372.73399697801,12471.155010327575,-30547.30304029465,-1444.1716353514262,-965.6412218524213,-2725.0811421055287,-689.6746676796965,-6838.32441249782,-9441.006100031296,3471.674058748494,-4731.549855304987,-31889.33244762006,-3797.963232700195,-23296.417659385523,6695.6971523508555,-22493.79014716464,-26999.63762948788,-6295.517359411257,-14573.737279490348,
-9398.553153412327,-6063.565066228805,-3596.694929400536,-694.155563122788,-1558.9207959989117,-2583.554666013981,-1944.9441044596815,-6575.872690321841,-11514.571255178207,-896.6410633965063,-8536.21284166189,-10778.386293095406,8409.695824832506,-523.3694994613227,-3259.43989499211,-8657.313653262012,-2347.1425849480815,8557.773898083984,-1114.2400313814967,380.796832161089,-2987.2964585538575,4942.032236104664,8196.631479790189,
-3236.793684434116,-10933.63209779105,-7195.634068258716,-2496.8636268709533,-4623.464808905434,-3781.769883875876,-3709.088510345685,-3787.464205490405,-4804.061452824452,-8036.098852724716,-9633.101389443957,-12634.238937935423,-1137.8861517287748,-8705.006760731883,-6327.918175734326,-7924.954371520944,-2157.835313839717,1100.1591999021525,-9845.575042872111,-4109.996071106908,-6384.8095931616435,-1224.1344237810501,2008.6218496469091,
30214.994708212806,22404.12064614978,30272.95852827196,11062.790060203426,7974.919546372314,3236.8952624359035,21275.948332085136,11663.035152378809,11193.845801174992,10310.591943264575,18205.7537250063,26484.746502692495,1856.6272296187262,1544.10402849079,2250.305265020273,23979.32496024363,16941.47690087382,-1868.5621473495094,31658.824191719992,15423.215177376724,6275.7126941608685,22679.366648060834,10987.04465191369,
