-124.80370875018716,-27.840193981366955,-86.21917953598148,-15.001962535118178,-126.83725811343932,-24.264076330585894,333.7740979278813,-73.4599956494335,-58.716077686523846,-127.74578928752426,-63.042500610064565,-56.230905196238844,-97.59610142233764,-47.38286996516175,-292.4776745217145,-98.72785484968432,-3.7615197743112256,-89.41804688773841,-22.075775425518376,45.668272506386984,-117.35394125645172,-239.34671277583706,-139.32629450651262,
-89.00725069261499,-149.57901586471064,-133.27878507784007,-34.386493330084555,-121.42471344369771,-59.68579597940342,40.19305497145666,-130.62078903828737,-85.74060203381269,-212.65870519728605,-92.8587218433596,-96.75546623365572,-149.33724266864016,-58.82846726567407,-152.83627410582474,-153.4789619570538,-11.278439934322625,-76.43711150381475,-122.82447325249055,-45.692253714812274,-165.31000755481531,-181.22368077081256,-153.81821599592217,
-48.79682247448592,92.78580112086281,16.378685666298317,6.294020333815361,-19.579492884492076,21.95512519217164,269.6240355816154,52.36665931404737,26.638838088242466,42.29973647790337,8.349204535895126,30.679636526748652,32.71984205421159,4.495611677417027,-135.30949605802493,7.959006617583236,24.554459467006385,-4.342019922647391,66.59181545520742,88.68429073416691,27.27701059446107,-73.08942498546766,3.752839740366332,
-19.134862673360324,-80.96446006730764,-50.572975337362195,-8.899202844789626,-40.78256323648935,-18.944468355170056,-39.68221641672346,-42.46013911494138,-0.24536650150945513,-90.17880448781273,-23.92781608133386,-40.69841557351308,-48.0870595465103,-26.650400367119044,-38.20976677632555,-74.72017212981063,-17.461655783972798,-16.226181053923433,-58.24380779013312,-17.779468929394973,-75.50267125082792,-68.51735341813769,-41.915586542393434,
-62.22598379094309,-263.6134094325632,-211.3431417251912,-46.066811001752825,-166.5478841903836,-156.06876084049168,-91.1479637162608,15.034019415402376,-91.20408989177197,-231.4101709449171,-168.1741481402472,-197.75149916368022,-131.5423958897645,-101.88152618814546,-80.69276948976025,-58.19242202762548,-30.63863520712416,-67.47590486616986,-173.79574448392668,-99.3522090776783,-254.4833022240939,-78.03599900820828,-44.07602357661221,
-1.5802429759311194,3.950822477107948,1.6802937013890316,0.24579344625496966,-0.34527336545429094,0.38363733425142754,-6.108115442447484,3.1608170453072546,-4.42374956384521,4.287810974534826,-0.4222065310866001,3.247538995520549,-0.008259597804291311,1.1754504015123786,-1.3574162246589658,6.6983158420781574,0.8088329355583267,1.2522598174406325,3.5059635505959337,1.0625506583724542,-0.7111725792256031,2.3610909778107874,-0.25560136852334925,
-11.287864412282634,-8.731511320845803,-8.085661994560903,-2.444138990598339,-8.6974353172595,-3.0790557379916628,6.122984658292846,-6.160941428366196,-8.063953970248956,-13.037587242984767,-3.5792642587272234,-4.879125996619421,-9.856910912675449,-5.522556824155834,-17.849654546136478,-9.883258387743943,1.4663960879042308,-4.763684782971348,-6.191994511262871,1.645298535089137,-15.137901041559346,-16.80764128598831,-13.01053392402198,
-0.43237936053482323,5.238684490089708,1.3684499393965461,0.008596533488607673,2.4445814104761636,-0.751654259154306,-1.5035373412784148,2.108279511477465,-2.076073283579425,3.0797349645774776,-0.8248858019465396,1.335156893802866,1.0950007749000592,1.5058179590568008,3.9524519569190093,2.6480628533488058,2.2400943525981476,1.3441922418881462,1.249271667002404,0.05514042793550677,3.9837674162454864,3.333914223189709,0.6226744655059485,
-3.5690296393342,-1.0013709020293535,-2.5030411414844376,-1.7986518444014519,-2.1158384455057737,-0.6829944401751408,0.12179415093952732,-2.9594455992999196,-3.559085458038984,-3.663305996953397,-1.2785239917814615,-1.5816844187806427,-2.8014563966462727,-2.032572998228218,-5.870746022331088,-3.9960234685836573,1.3889112606340035,-1.2393809842820103,-2.4697378399738263,2.2957416995433766,-4.634771186703221,-5.486742884835249,-4.490514101993077,
-718.922935381047,-5451.581273786548,-5833.071954123113,-1308.485366801813,-3676.367133459568,-3355.881089321758,-17.297019770608564,-448.91178266216355,-4044.0300288162916,-5723.746774403024,-4199.792857223886,-5213.6674507602365,-2885.34901322562,-2090.0179237680654,456.58771040210763,-968.1834557898195,-827.2605073876184,-1786.765426627231,-4854.589915370728,-3525.1273515299204,-2382.159986130159,-1156.0361790026407,-2704.298887034448,
89.70948571345046,137.35745113005436,147.0933368101336,99.06866486980086,71.36192689419458,155.18615347176868,192.2833430878664,29.649129228477612,203.5133892822214,78.7596742811005,197.67073103938242,94.87479945543652,143.51835173029588,36.75543411143681,-46.77498775926418,21.53534704364789,-183.3368116634069,41.79453902793911,160.95029226699464,130.0558138585873,93.74139962554881,-97.0835365187145,85.80684170141222,
-162.79914845318686,-522.8626506824626,-458.94013975315397,20.015287324796127,-397.2579952734845,-139.34314366076143,334.7606222644022,-417.9712026218965,-135.11937294893232,-648.7327645113533,-178.93019403718594,-354.0686675511284,-379.16622981809815,-135.03028957378393,-486.2394907089258,-400.94958200749255,-268.1958505124207,-215.78434687281853,-388.99710479495997,-137.35252928387163,-461.98589775930424,-646.6759927120125,-366.9711834923212,
-114.19843237433345,-257.53274749475133,-244.86266465117671,-44.9527842267781,-221.70388132001122,-99.48485867655032,169.66032313165636,-73.90250847739004,-129.98175201123473,-317.05434940515903,-169.14856104381042,-243.7951667293654,-161.62529555095836,-125.69358311225928,-141.62598820397955,-141.88381709769516,-66.24806566339167,-115.97385949407094,-199.67090238919658,-69.4918014320006,-230.1601254824769,-232.11737746479443,-187.70359202816329,
-31.06910741298719,-350.13888117364036,-208.38116599569275,-1.053244514214614,-165.89413738256195,-19.358818869206093,-144.04098030554255,-256.981110504531,-5.9996851195993415,-322.80860304599486,-71.44911599052891,-205.54811400972986,-184.3847821995874,-51.129817588637614,10.741546281580106,-187.0812890512793,-264.58277788447447,-87.80970394654788,-248.42459997402545,-158.54646478372837,-246.49614814321143,-231.4704997866031,-140.2018040991028,
-41.453285311643924,-25.659039792442954,-35.57001425568883,-4.663194874552863,-45.339447453390015,-11.644786234541861,90.6953812438395,-28.101329837981908,-20.903051597300692,-54.60862772751341,-24.14530762660909,-26.310493084852425,-39.53180064048672,-18.488751059733012,-91.97492776692563,-37.54364534926915,-6.496211530041925,-29.48098066470447,-17.67532373233901,8.056999157354557,-50.504720756997195,-81.10506342260614,-48.82816085379165,
-18.03069166106333,-11.460235964913807,-17.15457157208969,-3.0124532429622826,-19.788590536864476,-4.771000603204083,37.739425616687434,-13.674140340421824,-8.521890748579105,-25.890960418044788,-10.792117978367498,-12.890250396590584,-17.301358942456538,-8.006930617949703,-40.15772171438277,-16.917632314655812,-3.5410441731445204,-13.85316756617864,-9.252071946354956,2.398976166080131,-22.728741670573534,-37.20595084559396,-23.214622195828778,
3.3707670593650336,18.250460731287536,11.449785983510544,-0.7449714422949769,7.2864324062838906,6.082389636195289,6.8792644055679215,5.835929452278467,1.675583726404643,14.169812280876641,3.9431208908511266,9.77785627190027,9.443117113057438,1.8058010531381694,6.995238180217503,8.636965167996795,5.16953300237309,3.5369270890272375,12.139483722151247,6.383744639833151,13.320541799036079,10.918017409363085,2.997828167206979,
136.64147545775663,460.906084077742,286.1067330650828,-10.185842643640136,248.74547708674052,142.9565590921955,42.68029954782607,112.28147464440696,40.89988005123739,408.1085493339126,121.10010286744757,321.1055035577468,181.6829226071559,128.79782262207948,207.7413717186243,259.4066367276254,182.24353839712666,114.76742193519767,281.7169546869306,59.202335118949286,381.06266622460566,320.6665332073493,171.06850488139725,
21.335280920266047,12.133048960229726,-7.500967921011432,-6.728760592014369,1.9625340176677697,-0.7159880058736408,-46.26307814763718,28.524966439346404,-15.025338257692221,-32.15156353208832,-5.7139567817509205,-5.763222265684078,13.268460089768325,-4.423754165258943,44.9228185273864,21.612005031764387,-9.604250216755226,30.134471479096206,-1.3498198185966208,-5.941301470165336,7.225583331625346,32.456432712049036,-7.4290937124080445,
18.40955490874178,-104.57633786615531,-114.34546107401218,-4.566347593246896,-75.77647133285168,-91.83248514418912,-14.904961316060877,5.352830432096046,-54.42713036609132,-90.19355071738465,-88.80462943039203,-80.48959306198103,-73.46252113218716,-10.709545458561267,11.955200537104936,-3.048301666995762,3.586352752787996,-9.7151785678692,-73.04024807598189,-102.95424591391888,-71.7657664601447,-0.2280146858687117,11.879438903532508,
32.06749171513988,324.1077598215953,168.25720483514507,-5.463109638641513,121.21508871174461,74.73961478183627,268.6190514653822,67.67385685165443,15.71953451219513,213.41740524755193,9.020140931278586,187.0231138496087,106.92334902937013,79.76086334744309,42.672333770474104,100.6884515934435,123.47607724920552,52.34543246151484,182.56747682791126,108.76044671749807,270.1012613413777,126.95803946244942,30.894700954042037,
56.308480107471524,215.53193901569387,206.30970960540392,-31.385463534340655,165.9342962801392,137.001700610667,-155.11988978794494,-54.18286827063036,32.10683507923874,86.13301894762576,151.34825373727787,179.02699339890017,108.85723053144372,52.10208304650325,133.58575885499587,-110.54790076708858,114.04518368155291,110.07537567697548,92.9883289854502,95.41940003235445,159.5627457927221,72.49287548594698,-12.493684117652325,
-2.0628177799842407,3.9218817512885855,-0.0976109550935731,0.6889779144640696,-0.8157060124135914,1.1508649388621743,-6.9198094338764955,2.80326117863702,-4.378836320406052,3.83575582936251,-0.5272273479645595,1.9138816879289078,-0.3495896917267419,1.9077827428882592,-1.3566768765478212,6.468044893996103,1.0050627188505215,1.3423623446818782,3.151569091434185,0.5926334956884155,-1.7603579014111486,1.4231602263325904,0.35557245695553463,
15.151372309442452,52.68350926315095,32.89541872882989,10.80373592828883,22.32718798335649,14.896685590790142,15.546901113463658,24.974905355479006,13.656293375272202,52.46588652323782,11.706504719916097,32.491273514086004,26.27944665234187,15.217691210477996,12.278310792446456,42.80178648251916,3.4509833922042032,12.42251869924456,41.46089518630225,13.967694711323329,39.07496483505136,32.42863337467404,25.34228506413235,
33.794821540654674,-4.735811563509347,6.962231087441525,-50.68681142328915,20.968473270973778,0.030049864733817558,-101.14085260988142,-45.392899284599466,-58.05022506897493,-45.113933582016024,-30.125399188330576,-33.37088215360684,-16.648829449769227,-10.001226481302888,152.705256827639,-33.89173859533169,28.22566718161248,-12.397612215628355,-29.100435813569597,-51.81169536417368,53.49988711794947,64.43597955706146,-72.40779628409815,
0.5837420791332099,4.572398090772551,1.2086501770197027,-0.370552326779628,1.7729499160156694,-0.7682665935282541,0.11160120311479316,0.9306816324299413,-3.642130308166892,4.495707438468573,-1.9447457105398942,2.725444120857398,0.5816317684904183,1.807706577955804,3.416553304377754,2.592780061547597,2.777462690845279,-0.37856323638109074,2.5657870632177713,-0.3861536126578377,3.903950798441671,4.816945533661415,-0.9150166616778467,
-2.8593395307889513,8.123754380979054,0.6833659042882069,-0.6706761120536343,0.5001548690143596,-1.4823291547548596,11.189092637316394,4.853683832702808,-3.3826637640070354,7.433336372407424,-4.967364738584376,2.038255445985813,-0.7006797337311654,1.0082572993899896,-0.8023190774810389,5.877708814010574,7.0631044989858,-1.4026205590206982,4.615099604682971,0.22903009766023463,6.519348836050857,3.9086384466497632,0.48033025955473174,
-36.88404926136568,-117.26223421458285,-67.54260849222591,-16.40353773785832,-50.358567301625186,-46.924067549667996,-119.21644904057382,-71.7357345084585,-22.83730598934165,-110.85487318559267,-45.64408292073753,-49.99167970154596,-93.9870575511948,-29.516597983448545,-44.20811233688848,-99.67502245092352,5.526803503393932,-41.07367015044963,-80.66008481142335,-48.99655752222844,-118.41910588069138,-76.84312943842936,-52.801260032041526,
2.481210079148698,-38.96531469731912,-35.76348403317542,-1.6994902696516594,-26.624561564070465,-15.007514299746079,-38.32943365950948,-57.64324524793218,-15.856831382831464,-51.73636891500235,-31.6933030348023,-18.761784249352647,-52.23813600035011,0.1707338910360216,-1.1728719451586902,-40.33096269427609,-20.183579923457195,-20.817498937151488,-37.42873699178033,-47.608846951413824,-23.63773680731406,-38.33624790620371,-32.310628769015615,
142.3481699005192,87.0175028821744,-161.79019051383452,149.93775134213078,-149.04240552484066,-125.88609838793225,341.95975935350356,221.31847726761515,123.56688864484035,77.63474994974653,-98.92890597346111,-39.649971037520416,1.64407238611049,110.85212588699947,-77.3394088193226,317.0577725069768,-308.7539623256155,32.87669703012172,97.08212649852477,-171.0406237611141,52.151079817892565,-109.9237569986879,272.1873100805512,
-171.02962487832787,-354.7368925178678,-287.0675361478223,-52.40521552529244,-234.52012462379844,-60.14728346831739,-16.439511634724283,-332.8384806601937,-183.58637644781467,-377.19807565938686,-168.58171704525344,-194.96835645637103,-312.50822487681415,-74.17647234204846,-229.2055211297236,-211.2164105656609,-131.2886659074048,-232.74077099925327,-258.5704254546882,-173.15828768903964,-229.34083423075487,-351.4946800302812,-303.3767855565751,
-200.0461793206373,-26.414466111106755,-165.45635522372652,-12.59285047549786,-215.0586022336539,-74.60352779498342,495.56970539255406,-214.11753513301065,-156.76549783156477,-267.5836923433627,-185.7109986020034,-92.89739055107758,-242.34657644408978,-42.33477809268201,-445.7872774362557,-202.45788972521788,-6.8158752869335215,-144.2632324935086,-79.29250620294594,21.77005224126485,-178.37170082665182,-376.6781817165494,-287.3263470515118,
14.659261248776026,311.479542247388,244.18095001775052,15.898500496988659,175.94018969630727,101.99292284123918,40.91533153441096,78.37093602174983,28.187064799562553,330.06684591638435,79.42188401251822,235.02092065202282,124.47090256482356,60.93014450637984,36.86406315862172,143.4270592663145,196.2776697200937,44.15330658116952,228.3496159821952,99.3322911066252,235.99392061616464,165.09892548818945,117.56746259680112,
