29882.60613915251,-8472.02750847467,-13484.87654570838,-5776.781754197252,31534.820693345784,3062.0623193413408,21838.028680238822,20408.087225851115,24460.616534981524,-21663.729371000663,-17913.338103932158,-5254.025403646582,1107.954107482495,3150.239915868092,-1405.5024183085918,5236.646195620897,-3295.894631128541,-26489.352060851106,-9022.47092265582,33374.822215702065,25558.54430884289,1479.0301353554926,-506.8474826034147,
9348.82085678994,-3542.0584463634627,-3895.068777736057,-2290.115732582444,9814.315667151466,-72.02032120714526,6618.257067236021,5679.748167642754,7993.698806976706,-7334.649168633831,-3946.245058452509,-1440.9636693749235,-727.2602406257859,1461.9719454423873,393.34304415643936,1579.2426153531926,-1444.4504577833138,-7566.797961941083,-3224.84602053337,9971.017627985339,8334.060589526505,1706.4789089838318,-71.24648965374853,
4969.005216521867,1194.8335592548196,-2435.7974687438227,-986.516000538203,5077.419575302796,2305.551559153657,3917.968046798018,4342.551202910438,3771.3057325888744,-2139.6020725117446,-4405.01351123733,-1732.0657433917531,1264.4811168129938,891.1194833362831,-3754.9790565321814,-687.8803687643801,-910.5782635270434,-3425.929972150141,-3562.3329339574534,6114.9124433281595,3061.100976489131,-2248.546125075248,-629.6646360512237,
-10709.704727463586,5703.197544619532,4581.346710345074,2262.7210024890683,-11047.74493120952,495.7424425518235,-6822.679917772175,-6802.598809722584,-8283.842155397362,9441.615271545545,5870.133158587807,1467.5280533456921,903.0087540644013,-910.9293192752025,-2784.1445918070867,-3191.674882620958,101.97831214728004,10724.999089596728,673.5739113459204,-10513.128211945135,-10127.962166314795,-2292.590407623504,-468.9473100774809,
1611.2655703570895,-9955.746959313314,3701.041134888428,-9853.398489228382,2855.3950977243535,-12005.868987304666,-7424.373900183969,-5361.700512992523,1170.0835979045855,-7433.617055369256,4667.816027742366,385.9596339747686,-10387.794122266758,1862.086776687894,8364.8906029566,6361.857169567819,649.5392182282521,-5610.801010031287,2244.7869567010803,444.1033977267034,5967.918889248746,4428.18469007046,1454.9981336462847,
68.15446395411969,46.86488594386329,124.76238535605803,-78.58287063396799,73.99827660971555,-295.52449757886507,-87.54276604919272,18.450965906486765,26.722382427507128,-70.56330664639832,233.77099617020502,-12.893882799899906,-128.97965386517987,73.75361722218081,-118.01435185044268,15.304765256896697,42.67100148905277,-25.666795242298768,-134.61264090451226,-0.42607046263605675,186.10334156183725,-23.119100687817404,64.61985485243864,
244.33840880233043,-111.27108854089985,0.6128492271387956,-87.67032914593028,271.70004639004395,-158.82340986932877,11.31272739984927,71.23288290176615,194.08636755157139,-267.61616423828696,98.11270696794804,23.944836200847085,-84.79263292975322,66.52925069169747,149.7996892996595,70.1548918388149,102.7210809865102,-134.4507350191236,-52.780130851629686,113.59947325401114,298.6132026521756,172.3866003522822,112.8964902936356,
-90.2753921290476,19.75545899288765,237.71468118174835,148.81355951948098,62.54059790196721,42.13807582426817,-249.65400031503214,-136.635183551822,-181.19567212903473,131.45683514875287,115.25562043011018,271.7666857675412,168.11129835805966,-192.5306731267366,133.90713035935488,100.65508471749641,291.3778817789495,105.14744613067074,199.03556400708413,-83.15630547178294,-177.57473058902485,45.039544787437364,111.15807547260346,
27.1360747566052,-2.935145714082788,5.71941522428393,-15.182729512414209,13.341109884929908,-19.698556044466663,-14.078408857996228,7.536439094791904,43.45019425644801,-28.89930766868921,68.97145176051224,15.040612664964572,-5.020208227908886,38.3669738309045,55.89420606684336,22.096436408671554,49.415118850077235,32.76285257889524,-3.8320746547695794,5.505035051518508,60.34684900969989,55.33129968840246,54.16048751828694,
6421.652111409029,-8527.08549461418,-3979.343536719169,-2253.827111582484,7314.0390560427995,6314.859551016834,322.7116563068572,4978.4555920609255,4467.98380842842,-12902.158367199543,-5805.747922414347,3053.0726214392475,-175.53753781031773,-309.7138494309489,14336.156350837919,4719.723972691001,3198.2554352847847,-6047.212902755944,9218.178292331475,6218.657166983106,8156.45097153282,6007.499116384077,2097.5168934880153,
-2192.9427403225245,-14585.677728729552,19074.007817203998,16191.28219980318,-6956.456564680502,-27817.4796076595,-4535.3264000363,-16028.306905186733,-1066.029778220916,1040.7422759418728,11001.061602201791,22355.55927510913,1231.8436966845088,-39692.294295500404,26783.897523696945,35909.64201773942,-2566.4966957511797,-19004.50457894366,19401.689638258136,25342.56539694964,6593.584841095757,-2874.427785194996,-672.7526239327717,
7564.678224742594,5842.947110934652,-7090.095177784774,-2350.031294986599,1407.6626774651186,8456.625442743603,8212.511161939263,11721.713807783866,427.7005071199198,-462.3447808968412,-12747.131585897932,697.4208356170659,6086.049602833275,7921.373062990672,-17024.89630340206,-1818.1563036272023,1733.3606991767022,-4952.747970664753,2690.751046189623,2619.813174881414,-2091.0713814909604,-6243.055521244796,-335.2278182045018,
7075.362764607067,-1748.8978345565827,-6953.289295875132,-1756.6009196530915,9677.242048309454,3746.4903227579584,9274.966526855373,5455.7450383585465,9065.647517597428,-4936.010763906453,-2299.3208641738065,-5219.595960214629,1279.2976654302938,36.1684534368057,568.959728745476,-1501.9259161151867,-3632.4693799368824,-4638.433526207186,-8603.043132574685,10700.797539628336,5508.252777868591,1876.734114387553,-211.390381468423,
952.8312041262067,-312.7675876565257,-4890.244292202177,-1197.8038845178792,2685.729745400255,4221.549543022663,5512.858035319288,2334.6876352037348,2867.3762445488924,481.56006227140233,-1138.1253860602405,-2953.0921179450884,787.6439437237553,2123.371634393994,-899.9753937449885,-2725.6938363331005,-1318.5607583913923,279.9124852196464,-3462.934046528846,2785.9225122758694,-382.77688485370203,278.6833057932397,-1773.4730852244702,
2070.772119568732,-568.5145779342829,-904.0182126548214,-418.86072111821744,2161.629560588556,184.03327636947802,1496.7792861168984,1380.535464970581,1692.168874661611,-1493.3901663371596,-1220.9860616342621,-361.387609318474,58.84540126890614,224.7717699667373,-94.18031847531167,367.63874585425793,-245.24011331904538,-1813.5990575013232,-619.5384216407306,2285.0087100978994,1752.7449287115383,120.60433420287815,-39.09721788868567,
510.09531411909865,-163.14998339323432,-212.0561043409177,-101.66910278288954,524.361447562498,27.470232507964976,360.79838594213555,333.02320112687505,412.48702957412434,-377.99224056411293,-284.50505923716236,-80.2906520272929,-2.2908790959390846,59.83330229082363,-8.356887586380921,101.15060801302087,-59.99434357234265,-448.95549266388576,-135.74996109604123,548.3253433913032,437.3572040302386,41.18747098095749,-4.919458446297861,
55.70464747372828,30.267841002810464,14.829450076799564,-33.89285234463705,46.61514056296162,-72.5721791685547,11.000312815949112,4.840054060021664,91.71300282047967,-46.10565273070308,133.59535334094454,-9.684678970299325,-10.223650141826027,32.34915802981015,13.397334230276593,-8.916064370750455,-1.1620693619721068,59.054308325282285,-111.63517881488345,48.84450206937363,109.0671398393386,64.91848340076747,43.0348943761407,
5182.303162973064,-2245.0396209794094,-971.5860928305464,-2133.2264886440553,-832.5186015907094,970.8115888290545,345.624194805006,5450.468240786012,-2696.3870626634853,-2144.190898329767,-7714.310014373942,6841.976070322073,-2195.5994913884156,5855.679318201184,-4636.817303568563,4639.581634738413,6519.740516890512,-6307.852364878285,13455.21129890583,-9150.68332099178,-1145.5013570108692,279.50735149762426,-995.6946432270821,
-1704.7228133754636,-453.61393554381294,-1031.7086009456575,925.0388187565078,1254.4267585438208,-685.1449452155955,2367.7945545144844,-2124.1494898196415,2387.277505638539,-252.7653431080116,1153.1644598933015,-844.0195249492474,858.8043214639158,-23.336269653283377,5383.802661739098,477.0094346462468,167.9763501599059,-697.6585419779708,-3083.10091318095,5726.712681994841,-640.6514120319846,1783.7299783616572,1197.615371941429,
-5787.592952565034,-3768.65823791123,3541.1812179564076,382.5516390039699,-8716.30994474132,-5818.353341441933,-7468.119790245064,-6381.243029106897,-4721.573777537847,1115.9407655358584,5870.706377695395,685.5203329582719,-4422.1468364486545,308.43455354895104,6650.803678621162,1379.0847906914871,1154.9543234751407,3848.705172928365,3229.707208886772,-9025.536720226946,-3434.8686942070863,2730.7190399247856,2724.6460444042436,
2117.342351669932,-5330.662228966511,217.6542445837112,1119.7249186070546,3663.421991628318,-362.14873036563057,999.1726322418378,-170.76891534658418,1859.7711771841628,-3879.5380075568532,162.6283239125588,1173.606914695114,-763.2558774312336,-1733.7269150514703,6861.493384654374,2414.167305119788,555.9465711544902,-3029.1007267721075,1373.0980248900632,4926.870756198477,2870.693438082613,2767.967914876968,2018.814830290502,
-6801.513706032666,38503.73317327036,-3135.471562613215,-22833.94538277517,19264.436694049054,-3646.7256567943336,47542.41422643354,9311.985903543118,802.0082795607032,5374.464678787683,54732.76776873554,-63460.801943417166,30253.841401987414,-26478.972885535422,-11606.846684172164,-57045.69613644321,-43269.87682667137,90483.52694938304,-103088.1040073382,34990.99260804869,32735.288223112046,10598.383276471992,2711.197795100053,
67.51897545668415,46.61379397178256,125.5759135807895,-78.37278071563003,74.95020898826091,-296.0874810320514,-87.3153249472609,18.373787635727247,27.438677500874057,-71.81529988040155,234.68805948015438,-13.167533849414603,-129.47703273631575,73.3368400872079,-118.0609270387195,14.59231265307453,42.77307761305967,-25.192856800957422,-133.03600878886252,0.09246995980400634,185.9008732477009,-23.61430123913664,63.789622477213285,
593.1243529019247,333.9967404007522,-263.2592509763682,-89.31230003310222,427.8000862386207,139.49752813788245,452.4721699665289,649.4245636043325,370.2969441887587,-115.58069038517753,-436.0963856560902,-227.54440412009757,72.0198647097012,294.192324908736,-784.8386683087833,-121.13782987466064,-119.76939619404334,-391.6394293585028,-359.38605864974096,616.4059502924175,349.7910152321862,-411.5702750100203,-69.0166322000259,
-1996.4560583995712,-1249.9482391504123,1691.4744255842172,176.15787943644798,5199.75266060542,3211.7481601723102,879.8093944199109,-452.30903680344505,616.1973917323833,-4400.680586590794,-3697.2301038915,1665.7455397488004,595.5450232446354,-61.81911326734595,9753.379407854927,2341.7366941660584,1673.2447774151105,-6269.7719817579355,2664.406141829132,3981.490956950399,1116.5831632452991,1774.0653892642208,-3428.840977223675,
-89.36114303487626,19.677074737200442,238.61374252118907,147.7513292728837,62.362710616851295,42.62303724423997,-250.10632534694932,-138.09446076069898,-181.54355493150888,130.81465682134595,115.6619844823789,271.04329028769615,168.8437129299642,-193.11946515519662,133.9264523332777,101.45269779346788,291.12868654887,105.68757217034212,199.9736069412607,-83.38084557024008,-177.11377729704657,44.77346639843438,110.3511642298686,
47.57147166545057,-15.851028960237294,514.1825180675384,194.69740075780265,405.48819757114774,-98.9632166530261,-371.1860308280681,-185.54718208097512,-224.32156062136926,125.55205905457282,215.80054588412676,435.12127625249184,313.7487851404624,-474.03296208467117,148.59884809759689,231.21962971063317,473.14699442068945,-52.9756583313281,164.94020286642214,115.68712338685553,-224.29697124516318,29.553667650471453,149.35982011650032,
15041.460913198727,-9431.742607428741,-34169.14951677391,24283.039804957167,42979.3286524115,55410.439343566584,39056.68536559188,-254.2454245149916,31537.88482098012,-10723.870685950507,-22175.161938884263,5169.992295680524,31751.4228159561,-22559.115712160194,71050.16789599373,-20290.963727789447,10505.754576234725,-4510.5754667425435,10356.512858864951,22536.78544942444,3656.335998346485,56312.600370989494,10159.601345204495,
4856.499686697635,69790.34986594236,45989.50648758366,-226378.37457881827,-18953.88816915481,-161768.85579303227,-112734.43203303829,206.57650342448522,-26448.373086877033,22183.608428303403,114104.43343269617,5203.220927959942,-96278.48760222556,124224.58958762643,-293344.0163029857,-84809.97827661874,37367.63180136707,82856.31426156111,7454.330553072951,-298194.3021792329,19997.149839973757,5400.7226320932505,-53949.62847281066,
1204.4608927808506,7358.929193320822,-9775.167215548001,-6475.997384653069,-2830.269856911114,18777.459390475364,-3571.880320664556,11431.100856225747,-8300.93442015997,-312.41534424623944,-19861.201330678683,-11087.148755818343,-2620.566616166822,27802.06214056659,-12196.48011664217,-17913.812419001246,9437.698387784938,9554.564651464938,6732.568213992004,-34019.39555252583,-8280.491756581649,1353.367238251669,4708.724975142485,
-16071.324446488268,5217.849238698181,10126.251570714074,1475.8121800870792,-18918.49678112021,-4074.175868378807,-13379.688479529703,-11929.779128846769,-15975.256224997263,13114.458206106288,10539.269568758431,1896.1653898556272,-2837.2710884885223,-351.22579060795715,-3938.306247266427,-3199.7002646428223,44.43530998112086,13221.758245422696,5298.7211872823,-18496.911181173793,-14372.21911531556,-3408.2002073050244,46.202482147102415,
2935.6963603125478,-4825.913218169678,16306.417032302648,-85028.06520814344,-26745.92425237522,-53248.56806574002,-45817.265482203904,1916.7436577454114,-23819.94096522653,4884.685029083571,6731.67308477156,32229.358610223382,-37098.20144161251,58900.76038443228,-78993.26537950303,14119.724510113057,28845.409592767577,-14396.121620381544,19448.313478512868,-53414.604215500214,-8583.51711765312,-23689.692247882078,-10956.958412129528,
218.25898780573854,7.1395813526779,-251.78789568246935,-35.884810355515064,235.15370881078314,264.2395949280957,309.6184305301702,239.81867897331801,253.25433886943435,-89.71879902565708,-279.58807869624417,-147.81048448010742,143.86748667295646,0.1843700012125579,-28.825818609376036,-57.620233776682895,-119.08523577970344,-127.01559790013472,-161.31686985837115,324.6582167481584,131.29907038473743,11.944871389927087,-68.2716675251969,
