12636.918995635042,-4343.103571237413,-2813.6668633883332,7321.362257605317,6739.038378461808,4139.940969388062,7245.49252091295,5144.118900234936,8456.174682604238,-6797.432654723832,-7481.381282983585,7319.203474200823,4842.856527381892,3824.050384798405,-2819.7756420769238,3379.8124397387555,6287.764306235187,-7620.725710887791,-2219.6911682690766,11190.434043159004,3693.01040013309,2914.7595972380595,5475.559677171247,
3907.001906471633,-1643.1590900664557,-912.4812997289494,2401.6219483481664,2273.8523641281695,1084.9780439056858,2450.841345117504,1275.9060617756102,2898.9199206042213,-2319.86727744738,-2550.3883244884278,2306.282215724597,1514.4826711186722,1363.7351960390342,-658.48108864051,1295.7523718417401,2429.495571714016,-2480.3205660074905,-993.7686779532202,3736.681005012755,1205.6359715385538,1132.3501454533316,2134.519175354131,
2287.3355736885314,-84.7019360482648,-1029.4746391684325,1111.7492618195072,1731.3564376670547,1667.858644771577,847.0100309160484,1085.851769248649,1922.5430717646336,-1166.4609835346726,-874.6413982616078,1293.7459929069635,1301.1822599410655,411.73438953105074,-321.5972227321301,-125.71549965453437,839.5385546523839,-1698.2749574501918,-588.611410509526,1849.564450093582,323.5856998527446,284.13466185538636,627.5441078042109,
-4427.161753767491,2134.4680018298563,293.6045031997631,-2653.51800980639,-1996.1515879224673,-477.29313502597546,-2573.991986951875,-1851.4825218935569,-2488.126663843809,2326.4655440236693,2967.273906552882,-2497.151511605911,-974.9003086247654,-1543.519768773164,1247.6451107221174,-1789.1563719516764,-2114.5684883006766,2400.3476643953313,255.15905549459407,-3694.2570808762475,-1596.4925987963554,-1065.2534938825556,-1976.2688885358075,
355.45020634309157,-1261.2079667919472,1471.3431865177095,-229.89686178639343,2089.47827940638,-2910.3457532015814,-1345.0238610371548,-2658.3675406068983,-163.63749150974266,559.7778860227894,-2780.7929209738645,-443.97807768632276,-2023.0531949525025,889.8499497082855,-189.00304351893678,2906.377225158021,828.614027747896,-1940.143152886139,-361.4868434947601,-233.83765872677026,118.23229424715863,807.3255335940261,1019.902474424749,
-4.358897554039675,-17.324959218774477,11.43716593255037,-25.453147575251972,101.95019732068899,-36.76682529954147,-10.61369507789832,-49.299247606961764,64.80971089390214,20.75743519753287,-38.6041863893387,-29.61146598352191,1.2654151606872615,4.65373362369823,27.074314203308703,30.963680298523936,90.0814603886271,-71.48005108519703,-16.444042326837156,-23.904828660338435,-9.375884647434495,15.397501786646732,26.79348108024853,
116.40265656535972,-83.3231617523171,16.51142888701359,89.23220033389477,102.54107638103648,-20.672077425905208,70.06009796414098,0.5108466121335915,100.48772447969553,-50.91906761747064,-77.64930734891979,72.89230479261704,15.765833392268133,47.40584265061863,15.685229629604837,72.52434726596177,132.0055449681452,-66.64926257585236,2.53045288095283,66.26341482008512,36.45298406731739,59.3476073532562,102.64136837264111,
72.75544408649972,34.978607108334224,21.848083074933562,90.91335057065803,70.43672314011661,27.122090116776832,9.64339597424079,35.35440116978928,20.614627480459877,63.12057176062913,-1.5969535387104214,78.31763038426898,2.4601772258235215,0.32083385213648713,-15.757553228341678,25.329441800010144,44.20992903089274,-1.0917621389021557,83.69791436227867,-3.5898053880528624,-32.71963835902675,3.763864808211524,11.92189649423932,
20.937633305415883,-10.8413937798544,8.071159709667254,20.438552764232078,25.18190621044404,2.495951140423384,14.266731779799093,0.5257730410370267,31.83193371345159,0.8475066735737843,-1.7121344283830664,13.312149465781511,11.387789851642436,12.000845842276043,15.980168990541753,17.619843040815006,42.017411827977774,-0.5193376369153114,3.8750282684937924,15.069284125190537,6.832580257096146,17.89154991203228,28.544079132898265,
5616.408685309945,-1161.0361838024892,1141.3722719019154,4156.106559011894,1229.1275528007104,133.13850796993998,2556.3545397334465,3239.362271763015,1487.7226092263434,-1157.2132044090201,-3308.1803401389157,3524.216932602251,-532.2822985068536,1612.175611231757,-2304.0912663758254,2623.936367336899,1976.8742741342223,279.22109837031945,2696.2867677356085,2492.4148318826856,1625.8589750494154,1486.5753112771852,1064.6925912573597,
-4675.103115240959,2472.4673232822097,1944.2224860777217,350.79318505645404,-9241.675025275134,-12049.621624461766,2281.3319347636684,-4914.543184232069,-9875.749116556288,6147.298189440928,-617.1611248977882,-1298.1658663738763,-3835.539574566505,-1633.0368340147916,-10404.85764281889,7878.342907390003,-2447.168088670999,6285.089327479293,7674.179962634296,-4919.054665041869,-4483.189493255685,-2253.52745960969,-8543.510257860513,
4298.44814719788,2043.239582342326,-1913.043240079328,-873.1093436715298,990.8224162842388,3800.3485965504824,1150.6012610874973,5494.242656228017,2554.112360663608,-509.61973626817854,-349.2741590098805,1667.2244153127604,1613.5723143560065,738.4534741577576,-1850.0338825172919,-1879.6015519227587,-3466.725209615756,-1992.8725645139994,-187.30740071903753,3660.514827873331,1904.1905234973644,-1326.1329338902815,-1977.7680519432954,
2375.5807143004945,-1086.0650349319012,-2087.0761214095637,2007.7226259208737,1809.8133328684385,2517.5427900437494,2718.70593954171,637.0554435942244,3688.4814802005462,-2726.9780660572414,-1251.6356551057534,1491.1549061218375,2707.8098763375347,1340.9030190296996,407.70712813542724,497.96571564733756,3406.9342337899348,-1921.5091039599768,-1897.7426668054502,3281.755970866879,641.2048084466919,1387.8259441778066,2372.995809998181,
738.6777961520659,423.97346010441197,-1609.7780094834072,204.88626527500253,656.3777329164393,1472.6564158920269,1569.0043364039552,859.4265222079867,1649.2265440680349,-1134.3384816661116,-189.59746949420452,395.51676547341845,1295.1524039033193,522.6433706842947,701.18681615603,-319.19515383294987,1162.9595890626802,-685.7235102122914,-1657.3039215749986,2186.359240564158,448.08758866488085,516.2751027087955,937.8971992208251,
876.1955598405959,-299.1134640757675,-186.8744960929665,505.76567665537794,467.55887532701814,284.0300362555222,498.6238471354354,353.06793225557476,579.638878341465,-469.13017132409124,-515.054323392722,506.68014662955585,329.0857515667151,269.4273901330038,-193.36328773536704,236.65582602001345,433.28825452157804,-530.4389230535911,-150.25160892604805,767.8044703070101,253.9479552624793,202.5813246692992,379.53226421001966,
218.1947420664181,-79.0781645734686,-43.405658863539216,125.94333639357417,113.09032893207339,62.886434685473155,124.46026942566913,86.53072049739667,141.87620434632018,-116.35960202200613,-131.74482362444672,125.21290473575758,76.84769564460498,68.23906913735647,-47.45675061200682,63.45299913704482,107.5113747890802,-131.75012518442787,-36.022890664676346,191.25552533533423,64.11518610986087,50.333205307174666,96.51184556053796,
25.179835163315587,-19.971710148085005,-4.155040519943744,34.85854887947771,44.15437332516312,8.718201159964277,26.966166229419883,-13.239621059924644,51.74143354845634,-23.373388282805898,-6.474923768848917,22.54401125321466,28.373847126849142,7.107829334245144,27.218914711195712,16.21346275145276,72.12925894037052,-15.98368201180829,-17.91608802340145,23.19462696756398,8.079975957915513,29.04255756960897,42.74089398693556,
3492.998531976426,855.7482698734549,1271.9348690491668,-3376.0274621560743,-1393.2360053915252,-1214.332861272212,788.3293501993609,4303.460769211574,-572.2106683826075,683.9464426089427,-2373.081807664008,1148.9740294390929,-2977.0338146222043,598.279051452082,-2247.518008251825,-133.76646603781145,-5841.610053343599,-1379.3245788713261,620.7690114142517,3126.5212706616257,2294.5150044616607,-1346.6855912035112,-3027.283458027858,
-411.8773083631178,-674.6554365218168,-848.5532610871851,690.88290932932,-190.08163428604766,120.91370338129539,1052.4050040078118,-564.8727244017836,642.9276328056102,-730.4884427413623,-337.83891087384535,-131.99718607928676,980.2896589105753,778.6596808170564,355.97516474087325,896.5408199548181,2332.897941380722,182.17178427012777,-589.8714586280436,898.2322074143282,-141.48160596179463,610.2037744847419,1092.6178147108633,
-2896.2712753645123,-634.0184821662723,1450.8582164576799,-1215.9253359869351,-1091.751937492866,-2643.92578024617,-1649.8996746915916,-2248.8107147913374,-1757.5600958575762,1266.7759997884034,261.36602545458953,-1930.6372986422757,-1908.0156027024295,7.546680913341477,554.4853795349131,964.8336911243666,-473.0553033562002,1324.6510815014146,459.4555192626656,-2872.450432381783,-791.8258815747491,103.51657065435435,-67.16417041451736,
1987.924533911491,-1090.7519715739315,-315.9501188761287,2363.980061287489,1038.2704562035494,257.2138444284245,1540.9032747089045,323.25174764564014,1553.11360421307,-653.4310577943452,-1146.3985989964365,1717.8409172009656,554.8559499575895,1202.497379454561,-499.935985527195,1351.138355316544,2025.8978557846194,-754.5807578016663,536.8774667133097,1702.7492062601627,126.06917206803338,712.9967521487364,1707.973159299822,
-29562.083991585638,-4184.113628552726,-3731.4857133630603,19685.67276841503,20561.504933628858,23695.35335865789,-1699.8207583628885,-34188.55560018422,6860.004497072427,-1770.1127209109798,10198.26567919882,-12085.211974805623,27603.865501182645,-7428.535080400768,26039.807727805266,-10256.98598544465,56369.832490636894,10499.23481742528,6375.457829063214,-17363.404967039216,-14553.102116034288,4004.0311989955135,27460.28400714869,
-4.994386051474983,-17.57605119085518,12.25069415728178,-25.243057656913596,102.90212969923421,-37.32980875272819,-10.386253975966508,-49.376425877721296,65.52600596726897,19.505441963529492,-37.6871230793892,-29.885117033036558,0.7680362895517069,4.236956488725341,27.027739015031777,30.251227694701424,90.18353651263389,-71.0061126438556,-14.867410211188032,-23.386288237898288,-9.578352961570817,14.902301235327315,25.963248705023215,
221.67016970132997,61.66596204760545,-87.83929155750143,-37.72271881823353,196.71999488271132,180.36736536551987,39.177728018399435,180.39134791196562,214.2613386121884,-68.54046169774755,-107.05499668433087,37.77693302193072,129.23220918189963,33.78804911651406,-42.83847822657505,-45.089914091943626,14.006923325030451,-222.7496932593725,-99.640911162425,182.77735144091972,59.18137621119225,-4.630013192169327,-3.562923157181591,
1160.788317777992,-2493.136430353143,2163.131087062002,1060.3630882081306,-1077.828661335,-797.4766802247757,1004.6574665628161,1462.5467927805494,-566.4880557214954,-1452.95482953552,-1040.646583122877,11.984257106434042,-567.992693147837,1027.9964337816311,-1700.2623377767834,1251.9243336256304,635.1702133681739,73.71100320350358,473.2869744087554,971.2900521072708,2038.858726660146,228.64640200586936,759.3642076854327,
73.66969318067078,34.90022285264701,22.747144414374084,89.85112032406141,70.25883585500077,27.60705153674872,9.19107094232379,33.89512396091131,20.26674467798556,62.47839343322297,-1.1905894864418511,77.59423490442508,3.19259179772806,-0.2679581763234262,-15.738231254418826,26.127054875981905,43.96073380081364,-0.5516360992309314,84.63595729645563,-3.81434548651009,-32.258685067048326,3.497786419208509,11.114985251504603,
221.41862493743832,54.430807403694665,0.11052975134226217,227.49644600074902,226.00528643376398,65.47073448779571,58.16145609225162,64.19865859695412,108.73823593358766,61.82104862735796,-73.27268293998789,206.5726678047424,46.95928765766301,14.473442731631772,-50.88055646826959,87.58099125381614,152.05918280955376,-135.2899760878071,120.8189171076043,39.67618106946735,-81.85953189744578,27.36943790919349,41.77335579315498,
8073.51013030914,-18360.41357504253,5897.939795999684,18245.157428520528,-23720.633741149068,4924.644108594375,15625.000799794516,11094.180232877614,-5087.668814529464,-5176.664165872992,-3974.5153724324246,9274.751541052845,971.2303596188774,7643.147514279044,-1277.9416630222106,9130.047722982377,10135.85564312723,20375.804619436178,10045.335760331784,2033.442428774236,5612.163577036732,8988.062201922445,11353.27480414832,
13623.249287049915,266.97494110511155,24859.419400425693,-59909.93493200797,60974.637697779835,-21064.653412371605,-28489.640986481296,7124.380574183153,1620.3679550673567,10161.524322503737,-15204.65515871071,11881.542024902445,-34524.24010819854,-19999.258972436564,26708.862973224226,-29759.94090322234,-42484.99920089924,-57939.05388403115,-2055.751105357437,-8496.885441989976,14866.179441347274,-11089.267499227537,-20973.352314133914,
3092.4783903516714,-1851.8022884233972,4245.844861306385,-1417.494127403404,2026.446047246198,4824.534159400621,-3292.2855529145213,6374.067528892592,1553.61051454255,-806.2736715490488,-671.0500604219914,1049.9628119130673,-2470.335147894027,1680.9609150243216,3859.0258919296334,-4176.550254777496,-5309.521236054079,-1653.1797794248996,-460.87461531011274,2384.3101202055404,3359.4582465707845,-89.90420422948284,2877.4586935194543,
-7938.386843816402,2016.0073342249495,1884.9016876246276,-4688.643713805827,-4678.993603139708,-2937.963903400676,-4392.158575510343,-3552.0464830250357,-6175.418924779386,3801.7687768560986,4079.6929792753663,-4211.237401526113,-3163.402552849609,-3001.552149090831,1823.4566618894355,-2455.629821239223,-4808.481243912028,4028.7663556085377,1539.0841607172697,-6719.574029828324,-2566.8680753116823,-1946.823042752774,-3763.527097332574,
7755.087958822169,10556.424101544359,1754.5164681997405,-36885.32466297088,13574.87520485792,-8717.145519703947,-7672.645985810672,7056.3599505407865,3309.9400504680607,6171.178582998069,-12658.279191399206,-4422.342040227054,-15759.45190263552,-4409.973537011572,-8745.259962116685,-5107.761441591233,-27953.14865793841,-25643.03956131718,-4179.489846158226,11284.761141192685,6167.497623347686,-12146.360991740752,-25107.467603283963,
99.72863097020159,-5.40426284497579,-51.57175123085556,67.34707142990338,10.809580641565178,105.63188357235003,66.83319445467309,76.43579961112401,70.41312390459835,-85.20418941725849,-10.76991148478367,67.81586069510627,76.7629859771924,21.264429061399014,-16.746782230987037,-20.904355900553604,14.451133984595687,-18.68242790408479,-35.146254697605684,107.83363286059662,36.65873528970359,19.035374678164132,28.604137769646314,
