-4311.841008792923,-220.22063297989294,494.4341609367397,480.9471577245051,1916.1191637583224,2431.4089043885742,-4523.387569106962,-349.09884555193446,-8506.494803704274,-740.2071942675315,-1896.6767444243274,-2785.0096525174417,629.5992164825086,-1406.8366431298243,-454.5988478390782,3090.9040453254124,-1374.1892384467124,3724.242873418912,-6850.883876421322,-1358.308719085996,-1466.8578116553465,4949.704794686117,-7889.404990020737,
-2378.404231957578,-248.7668384840215,-1213.7904506425323,686.0181227033696,-498.8561304392813,2432.8957043520722,-2750.1858003974285,-1290.9168246846057,-4912.417130341518,-2220.0346297260426,-1975.401555390011,-2014.617316659064,1427.846861348518,-1529.918445141079,-1244.0773101316133,1036.7844349500535,-1426.433371816179,2889.2481503697336,-3297.751733226992,-1562.0423622263024,-774.7492390944915,2120.1849516485786,-4424.333054605695,
-621.4267854395333,-770.4455637128589,-399.010730168855,1502.2337218635205,-670.3890924874368,1458.431605895127,-1373.123622690789,-324.9412757247643,-1788.7225063016047,-1252.0813448775732,-946.3330476687427,-160.29133298325087,1373.4751523259167,-844.2622512340333,180.1641776356838,480.87348532962386,17.13668928668214,1604.1421588225494,-649.033817299855,-1047.615961280591,784.8335257661041,114.41766310735547,-1463.0381275390412,
759.1945439418764,-269.0081722935399,-1142.4840196174036,804.1975816860398,-1703.9416772477612,668.4582073192419,391.7962094986807,-704.1198750015177,1174.3648293470635,-1571.6861049252877,-448.25239391270725,494.92400039175806,1144.452729412535,-231.6539412310868,-113.43620257414183,-900.7635507133999,210.30315079149474,174.00208634850972,1599.7584737579805,-563.6014080967486,1020.1578547611728,-1461.1311502871176,1258.4365365756576,
-1454.9869570854626,257.4363483453352,-3051.7962291903823,167.4232158465031,-1872.3768405877431,3678.0881397080684,-373.58784257652906,-2522.3131481925657,-882.3961744342902,-3318.232484752677,-2429.2935079220933,-2038.7499831470893,1427.5524631189414,-3046.607832288097,-3582.7247106640243,-841.8225617624696,-2640.035147480248,2666.2802570730714,-144.21631324695184,-2282.066261413066,-1772.7200837210914,30.17137418613905,-1368.3264376132006,
-55.31854125742777,-8.04268906792453,-18.19723734562017,-32.96271019702164,20.79605807841705,8.142913222857509,-78.16346560731908,-17.868759489907994,-117.71855148288729,-27.967402842598048,-18.67930077121475,-61.05270603434576,-4.415693009648106,-17.484819000771093,-19.61985247411939,21.026588711137947,-26.29083913444378,25.167818415649805,-94.1594630525532,-21.536061218341697,-41.93334444601713,46.3331510031361,-94.51792015409488,
-164.3694997712277,-12.20641529396502,23.877317133966493,-39.222912769445,111.54295225674996,18.79812813512613,-192.4104252824414,-9.279230957268627,-329.28652306667493,14.028415306049421,-53.64770082062113,-143.12001260781008,-45.0897715190417,-55.366629059938184,-48.099063798757065,115.29809448901656,-83.41185691048959,103.67067919917015,-280.8858052984493,-29.548078652940802,-129.3200374733761,194.619182170844,-301.4740930055915,
-47.64880413955362,-25.38298547830021,24.282584005635552,-16.6551125205022,55.79393273092195,-40.366296881863974,-66.02582152915123,16.933416945978117,-90.33282611341679,45.362497170624536,-6.285622255256974,-44.84925977144344,-62.18412592424077,-22.595470827228997,-15.405658714382703,34.818298551977364,-37.266899581442914,4.415596727707785,-87.66488792167725,1.963695497644645,-57.957243727497236,46.62250347204266,-87.34583353682004,
-88.81919623755373,-14.609504312252495,8.918983113077134,-23.66576545591095,57.96237095742444,3.381324616214933,-109.13376015807502,-4.7600787958421105,-177.4450243309083,8.445022881475902,-31.044655503390285,-81.91884206118068,-33.47018712942557,-36.382083123999216,-31.450435645588072,56.67061617549717,-50.91238547599378,49.80240391014887,-150.07294404707437,-19.81150276629242,-75.6245708521847,94.01091223018935,-161.6436155432601,
6278.9463161327085,-1095.9783996289843,-59779.008916033476,-16555.475570262475,-5859.969326736842,2205.9728521441452,2422.646661610364,-8003.010087610792,-91.71804998751395,6830.909586514648,-734.8795375419875,-16473.869262428434,-7779.839718924335,-25041.55730929188,-11908.623090382811,-30009.279685898586,-38649.81940712533,434.6869679400943,1792.46509447154,-10721.286806523716,-21430.12141312271,-3646.79501616787,47.878478915568095,
-2000.1965900813764,1286.6635394188834,2190.466342442783,272.4618456156525,2997.5981817025086,681.1360541605563,-1370.4227246960747,1827.632861405131,-2402.818432157288,1473.401100969193,-255.0496720026119,366.89678002789526,-25.830759915239756,444.8414596740123,1519.8421573358348,3062.765685630871,1423.109407295671,335.10747244079255,-4288.886052196705,249.60427015458788,876.9023578281574,3932.9321962694316,-3765.3922900059474,
521.8383121480935,558.0688498530725,-6180.176867055319,-2936.1490176406887,-868.279810418567,1430.69921812092,672.2149343008417,-724.7408390346037,-361.3545858073926,1069.0309985617675,-222.9332735987554,-1645.2329218132559,-637.6837399984821,-2644.8602443492737,-1590.4759003587474,-2960.534229394404,-5143.504211678594,302.13253932906525,-130.07666983107944,-1972.3575215513104,-3709.594311499402,105.94811257678482,-1700.2835771721977,
-2170.276348949664,-570.9716026170212,1171.3389338877944,290.71027877358455,1396.4399405121371,-266.2546021273466,-1720.5432191377167,600.5820316962305,-2772.8358743188137,260.2403961904998,-397.5910581714165,-525.3541814196599,103.00775691496712,619.9219491433201,1268.2768029576087,1754.242719273425,403.73042767417985,672.4091499452854,-3087.8711105221137,-518.083097139306,-159.80090467117097,3237.396410518486,-2860.7439928210856,
-3437.808098958108,867.8267736459827,455.5638193513907,590.5718059486774,525.4666017693883,3235.1170570517406,-711.1059189136975,538.4173025063299,-3637.173540541911,-394.26085900892855,-413.4852407875466,888.6527923212689,2687.6041941902695,1683.9255839665368,3202.651706631804,1600.528642720718,1675.839817810767,1364.356809986152,-3715.2040808927322,-1621.0524778824054,2771.8749556208527,3598.8453754560232,-4428.0872981671055,
-2679.1538751600647,-100.20020512834787,182.77249545068437,268.13508944843414,1078.0025327995486,1562.1970491087184,-2786.71374560498,-302.97615143657515,-5305.519239699722,-543.9699799857865,-1227.4229746699382,-1776.7413036292469,460.61501196731325,-886.7571062158486,-380.01740413588357,1857.4343249037859,-936.5880102373264,2339.1017237379283,-4231.608564980506,-875.9020592130908,-947.9315293230665,3057.5499696160023,-4910.6615709268635,
-1334.5496671498377,-43.47801197161397,88.13620987808164,125.6177115173946,540.411828931662,770.0769127432901,-1387.9008471564748,-147.59780230076035,-2639.572409015034,-269.6938062816403,-604.3573153610761,-880.0718191723544,229.2610405141366,-429.54038832741804,-175.97301737997884,924.3973148467642,-457.9827790944884,1156.4533710983676,-2109.4329733375857,-432.7805225702359,-464.6778083290515,1525.7086185131,-2443.601254487911,
-123.910500878278,26.490590445290653,-196.95665676091832,-60.82913778163731,-63.461039167811684,62.340896719105146,-180.31522397737712,-121.80066402200356,-270.25014967647206,-294.78644073654124,-60.35254702149895,-55.1234944506563,153.35379537215238,44.808993105005975,91.87854147115642,11.947913997696826,44.085589529213706,65.45700268823238,-192.99213310698838,-92.73006575176369,74.90322477004474,154.51281358785045,-198.8347735166672,
-2550.4919388357976,1347.615050419136,-6067.866083104922,1017.8469271789595,-6373.2432466894525,8196.672157994682,-628.0071404705747,-6369.032994631535,-2928.856525817459,-10889.085853075276,-4855.831051295435,-3258.486879615585,5858.950263224559,-3125.492579479364,-4969.27482023541,-2322.1656838052895,-2860.174060059175,5616.060242507157,-1187.495664010624,-3835.0864858483624,-218.547312703682,908.3942251004958,-3141.3524436690673,
-1033.6652445555153,291.04664785377,3669.984666806192,-717.6200516709555,4629.156556887103,-1577.33416908546,-618.2435058057282,2665.0748314691587,-2032.2098026046058,5013.959018212836,1699.663393994794,172.24787473553184,-2102.5042761208997,884.6710642419076,2012.0892787500886,3181.0229246534464,394.7608103006303,-333.3911193219241,-2860.8604321719254,1241.7220662963432,-1212.9365725859623,2756.0373447621096,-2388.948906514795,
513.2342286966305,405.70458605298774,-53.38778462706761,797.6490805164218,305.9183652916078,564.2930835756376,5.1360288588563865,59.18658071449224,119.0122924254737,16.15614595956245,345.9713307128457,969.9012035933804,804.983526138412,488.5805574227717,1139.091363852927,692.1176864252316,960.3104009416596,383.96378887688485,430.5810158587261,122.30762767552102,1071.9305055384038,713.4481187981528,201.30895230447078,
-345.3224026153934,-991.5487728024177,-1438.951333729813,1577.0546646303867,-1501.3051254569687,1137.6860143504903,-1536.50141294325,-1228.96483919383,-1234.5397272689365,-2818.343124730505,-1352.993697304358,-459.7508842826326,1398.3528888995795,-898.9721486141872,-451.7943511355229,-79.60640227479385,-263.06946179396704,1106.3119591430514,-97.20305441077276,-1271.7961006399576,930.5411207291083,-393.15511064451414,-803.3883594267921,
109.43400824704266,-22.47942178241144,-65.59329666963129,-14.042944554036575,-119.00869920107834,-21.737138368516987,70.53524253911944,-27.176317181582643,172.62875629542788,-59.01162725414574,20.29906690363558,31.438720303036117,28.920116610963916,16.036887619650777,-28.092847491938187,-112.8523646371931,27.314306654263945,-85.57087188255655,176.9950287783231,0.4953246485613376,48.07370717987807,-183.59237374767184,202.78838680404976,
-55.9345482408915,-7.892770437426835,-18.401155038938086,-32.30590273244935,19.977814127316012,7.25675173605557,-78.11569069548149,-17.6605018297995,-117.80959651213043,-28.168544023804877,-18.79309686447695,-61.35416794761902,-4.561678541332989,-17.47518866824233,-19.616755134856625,21.082751006543027,-26.85520250519678,25.673406318122247,-94.17914004835518,-22.08859391625003,-42.42054529577376,46.9795012374039,-94.7375411459037,
-160.3775281464246,0.2967594709510625,9.527156005444812,-43.70478912817918,106.87167881884278,26.348296813852958,-173.58371535531134,-12.638438126580915,-303.0466442470447,-9.903152842073872,-44.22792966501813,-119.83974713592637,-24.575879826738333,-38.241937087764896,-14.828384372919883,105.51078684767151,-62.10941721304441,96.98514656069824,-265.8011761067379,-35.81311881732917,-98.95395919735444,191.20415194605357,-283.8620526134253,
111.8303391469453,-44.2552802238733,198.3120720461451,-34.9476583953575,128.5179758543831,-249.78206221019315,116.93368072223613,146.29623144246537,244.52168136727724,287.0711914335266,115.37513036052155,81.32493197052541,-239.89151493622293,39.944891436233284,18.427631988543713,12.073830779816614,16.490730330120932,-179.69231426424912,126.05295857179286,128.92320946648317,-79.23267947050455,-90.39580881085332,195.25945892903562,
-47.437909507038796,-24.92317138445291,23.841578264861862,-16.993267604626453,56.37227966569088,-40.964012689555915,-66.0807931209088,16.542419631092415,-90.7890552359112,45.96439542797576,-6.43645764603852,-44.19845887938145,-62.53490754900782,-22.174546550202262,-15.825846548742863,34.76344049294504,-37.119890413288715,4.657394524570855,-88.06667206205084,1.576410443119891,-57.93508283193564,45.86542371554403,-87.32485270138645,
-118.85974852801436,-15.643046470683913,-57.19098885123584,-10.654257848745015,23.91766422099058,55.472283520121664,-150.41457027315997,-43.85590750622061,-244.99832972603645,-67.82801302362472,-61.577509605125904,-102.59125473139446,20.718852538497856,-51.16921886995847,-29.432047985638732,44.41786334947853,-60.85806754611525,88.34837315382222,-185.71964364565508,-57.22231058729558,-47.66840509651684,109.05927092668844,-215.26750964703174,
909.463465110517,132.1845508800121,11.996258359667884,-29.226351536340673,-569.8253339883314,-531.4125305450821,1215.2976465528711,130.83515534235516,2095.9557971761624,33.790680013798195,528.0659278490322,957.0141616235163,3.879689475662694,736.7159506495705,542.4975924364819,-626.5403109656493,742.9970500549709,-997.8810199994103,1580.9302137524276,300.1936888481919,851.7005572920013,-1062.996382966148,1920.0099658728586,
755.1474796228947,-24.248486157738594,-896.7517230574388,430.64534271776137,-1470.817276384188,560.207496644698,694.9209907951089,-566.497971095541,1397.635566975031,-1349.782601083869,-261.27700918322716,494.7177225249493,915.0374103909503,-8.959849017164034,-85.20324085236645,-810.7913770276688,340.35135229515765,-48.608455353260176,1590.8510867765706,-392.88619986225206,899.1201337325494,-1280.0206873344082,1406.8073854841948,
