-1.2967449688793875,-14.87440148305275,-4.054105266542856,6.586549623566362,16.301639036178543,21.88631786616816,12.701017921877154,14.615097924973721,-3.0909181382933264,-5.799436384286579,-25.820296575676963,-17.352715334350847,17.299373462603473,21.49011878127205,-10.068138499581082,-11.32871567472938,5.308363246490443,-12.790205232756463,
5.425998847042729,-36.99874099436129,-4.100388331750488,-10.275237521197374,-12.069016659238324,23.79633949360072,22.265290857077062,-9.843774614971055,-10.372577749248922,-7.2093899288095376,9.712259372385255,-11.426091171100698,-13.332959662157108,-9.271809635330898,1.0830424039267073,10.337008772945868,-14.164035444874662,14.756344601513865,
24.38099299348438,-4.937839368391176,-6.358479666767839,29.99549032019273,-11.708962891378109,-3.5423116838000404,-8.10916010402898,-30.657789241772754,20.585701365105958,-4.937272136846147,5.8551946722821056,-6.795621633462754,-10.348855138173853,-21.614424989741867,11.751508978432243,8.342638786969172,7.834212730593911,15.454751975170586,
-25.361893379318456,12.35533764140725,4.947640725531024,-14.84880052410503,-8.416707692826261,-2.625944612151436,4.8770238659461675,-6.248940837983679,-32.109171148944476,-9.314516334140269,-16.386184034449645,-15.51300404979247,7.11654156067105,2.557839721680656,-3.7763138622862455,4.794031183584727,6.3163361932938,-15.59646347578188,
6.108465657650355,-1.8934943391249368,-0.15894015738692052,15.517742171992145,1.8900604877653202,-15.094771141851949,0.16013575766992275,-10.29088763450721,9.006422645866571,1.4240587189517302,8.657950758283661,3.4631405732248655,1.6356024261522457,-14.111351551020299,29.095876421543945,0.014886941648590833,-11.49482943333917,-8.620389106512723,
0.07752530219841935,4.6579329676498755,-15.92763004720719,4.806975404339518,10.851160681100458,30.718946507158147,-12.057037776196793,-5.347738003492372,4.571715596951721,9.966799700525153,-17.41412648296466,8.618134543987251,12.014373237267687,-5.303860015056113,1.9828634227243738,-3.4799651491494177,-8.314332594079254,12.72532156021122,
1.3960387018694258,0.024489679204986584,-1.2769510075132182,-15.33375484190934,-19.591132881922594,-4.524458219246801,-11.883380733360143,-29.311249391939683,-7.785466816324215,11.593277319893474,3.2612586760711206,-21.188651836255996,-5.777598740257025,-9.837472052798182,-32.91357851528146,10.19520455937376,-11.757871994290099,1.0857793499619732,
22.146537094458115,11.87281929319854,-19.686944831031187,3.897269460789387,10.877496668722626,37.17675315147344,-18.75592569770003,-0.5244793657873661,8.027680570399616,5.735685486535113,-3.6358560063411116,1.747206419280238,0.3937973338568112,-2.2482004926428125,5.445505933241201,-4.9320634263263345,-10.819839795214225,0.2631058460523087,
-5.43943323744362,-13.546248112981559,-2.1084336167261415,-18.5639263002979,-7.949096723782628,-1.2788288567638153,-4.477228907224782,6.335528427517225,-11.513753307229848,0.20214869535780133,5.111255474866373,9.803832256357655,-2.9396692862855494,-8.655802764696578,-10.627397598364894,4.832229939245623,6.664931673961661,-8.991406011465449,
-11.171867182557559,10.876610724905824,19.40976482247082,-16.62222438697135,-21.42842075368982,-14.849421425897988,-24.024598314581727,18.979140636819956,-19.047637417651725,4.5137305109775765,26.723108438637087,6.847169948392333,-1.6487884645664146,29.565804984535017,-10.992408687846211,-0.1549464268677274,10.39397848967684,4.960320749050773,
10.355506844390476,-14.066749705149727,5.290278477241526,2.566626948162447,20.315586340404373,24.76166892268158,10.159725812869892,-1.5353502638566152,-1.3064756370629838,14.509024942222137,-15.37526260969584,0.3933273118646989,18.7263957015723,-9.343768628004662,-3.8161883619522103,-6.259726325062735,-31.640422659551753,-7.312370498675559,
1.5435863860575287,-23.177783738680624,3.0420071111290783,-18.80145980344668,6.156020553180567,32.278084283151806,3.25927486027907,2.841152221287347,-2.4210022075744955,11.315047094053293,-10.471048712741128,1.8350591061094526,10.963194185220154,-1.5697609120355638,-28.11799905147326,-1.724806919940936,-16.256102383532422,-5.868970953928274,
-14.855878128456462,8.556620944334608,8.890366612261348,7.592552538915207,12.777298825051576,-22.491210699987143,10.354687181807002,2.777301777519536,8.229479391061457,-15.940641274291945,0.7500281919911408,15.127194348381002,-13.627579228273964,6.931566713728338,25.898973045630967,-8.890047740575612,19.71908376694851,-20.249347672270147,
-3.897351613607251,12.35187115988129,12.316605894627708,-8.10317428165228,-5.972687925587317,-46.51203433621208,-15.663384186572808,-25.01341011054624,6.6125319179573,-5.739922213225817,9.108174459704314,-1.5247661072028165,-9.05775126503363,-1.2884802672187805,1.1886378099007702,8.695779954836558,31.230842806887004,14.723869429489891,
2.658938869976144,-5.781375034612186,-6.190059626399563,-3.4332497810369267,0.5017881572990308,20.703643108162655,-1.5671162575836255,-1.5153448219145869,0.8662410667925967,-5.812796154225742,-0.13078054445507187,1.7050292880831575,4.7068961687900766,-1.1231595148576101,-7.200043163117226,0.4074979137599014,-5.915961531774755,-31.588195096445304,
-21.086977143584356,0.9755425224628873,-3.4326136205987328,-5.012025514431314,-24.151244606822832,-9.420666670357972,1.5366858066175115,38.105525948947815,-20.935046039839495,-4.548383350548917,-2.4585014776620007,-0.5076322976866439,-3.801242436287799,40.89587201512613,-2.62569555641426,-0.07201715729361238,26.072368864629805,-27.945379391944126,
-7.650126549427729,-11.204421125054361,-18.376055143305045,14.576276253242417,4.937395335256423,25.947347339834618,-0.9884417560623577,-30.01008137564768,-2.0703997615715255,8.393411912987025,-27.98514911964846,-30.668157657674648,13.59924492428239,-7.012769677217061,-9.769124461006745,-16.376693636492913,10.480334501451496,-10.004568078880084,
-4.201709593556941,-7.866521333597495,-5.986454489513661,-20.47215370919055,7.45430992974776,12.36976843507586,-2.636720799548635,5.961886563615578,-5.606240745792675,3.7109474254929986,14.026608419497103,5.084684225481385,9.437691190972606,-4.817926815863396,8.392315360719543,1.7273190804590923,-17.990761720797348,12.041171421149778,
2.3687003234111024,-8.488170868371746,3.8948633071303056,24.502657108603124,12.62942760484408,-8.876504774084221,-1.936206025328542,18.362330845874673,-16.394839433224384,-4.512087226302044,12.414987366447116,18.74006499153046,-17.905707208680198,10.996542801337963,-4.049891789731248,-5.395961950713821,-6.295480805743248,0.5493358696822884,
-20.280566184298884,-31.54337736516144,-3.7975475458920984,10.636073267211337,-9.785165504134758,-14.299257466167072,2.911399592444085,6.104034778282737,-0.5111395883104017,9.842256023299571,8.103199093792393,4.257898315478743,-11.77880396488172,-30.642408751464586,-20.7247920541854,3.0347520158544654,-11.410278008908818,-9.774104900286368,
-18.713937276689503,-0.08601733295568645,-9.728764374261779,-0.6799273692729877,-10.457526567332854,-11.687864579725955,-3.853075769017757,3.27433833290905,-2.8643586221260757,2.4021326178503957,-17.34011826994864,-28.71136714734593,-13.63682779086805,-2.5251679475094257,-12.195757822917258,6.361359355581734,-2.97786703393658,-2.641080453752712,
-1.9710948392200418,-2.0361537749219183,0.815387662421425,1.6450578242062925,14.609282274843487,-26.96157355327253,18.773252369759856,-22.97340086064021,10.20717346259989,-4.022754240664587,14.028935351874459,-4.706294302131928,-6.335229825486996,-8.895523883837603,21.07238598485978,-6.959700316721481,-12.896015950460825,3.3776601255205967,
20.762884234769125,-18.292885582158362,3.2588356990666285,5.360270462470618,3.636950957439494,-18.559794324685953,-4.162448339527353,4.291820890889656,-3.5594603461537497,-8.58245376665734,5.065439145628887,-2.7747464854284103,-6.464987133788553,-3.093752914766794,-5.7430669379168595,-1.9880478701043445,13.412786290850383,-18.77453321440315,
