-16.477520385013133,-17.506016813125335,-20.79549400688582,-30.563128414199934,-8.961210285828152,1.3508298415278261,0.11829700490620697,-15.76507281852052,-24.965508941099532,-15.41683940719924,-12.589912813018891,-24.37986813263832,-11.706409231634492,-10.25884646056873,-21.61929146422167,4.803939839811372,-18.470808373239116,-14.701101222676145,
-44.588958179834854,-23.739819671438255,-35.16199129837161,-24.819564444800594,-24.078696611881718,-0.3254218984287046,-2.7851322602248048,-20.908889300485384,-50.44051446832156,-21.937962893075245,-37.9694220141317,-11.581380237345568,-15.520015924695468,-2.0968281910821562,-7.632377260884255,-9.322842252960097,-11.225837426384945,-33.02282020107293,
-42.76182061091747,24.119482967600018,-61.912008161347075,-76.66136608015616,-48.948951321725,-0.1504494527653674,2.663975412835704,-31.108586122839498,-50.864609469387624,-45.23951481334223,-53.496370732417844,-28.521305005122322,-52.65784913155129,-31.46124647686945,-45.42375756328015,13.879200466394396,-42.74616554409676,-18.195238841015126,
-2.065059956913579,-12.45599371691674,8.845700517182774,-16.063717405879267,-2.1777384476915493,-0.21562919222033006,-11.669095604053396,-25.725625144822352,-24.89889324367649,1.37738977141814,-28.436236529748346,-28.15274535406004,-31.178255587128618,-11.452285445280426,-15.49631525432585,21.056561732253606,-25.685718429944863,-2.261664912776585,
-18.801242954152176,-4.407045941965064,-20.502388420556713,-41.52343160415298,-0.27192997111263795,-0.8811827584001889,7.851779474219339,-21.30315771111318,-24.801955774349505,-27.096476855911746,-5.104781323315825,-21.309253470172663,-26.69705397635601,-8.963443114704944,-27.74842099099673,12.753086253673965,-15.535329136031367,-12.451011280660587,
5.6139418574658215,-7.776855651494258,5.046181996379626,0.5466848071687563,12.753529173958752,0.6018881369749408,-0.7090536823023418,14.68857102340274,5.097558701537598,13.64791758520756,-3.3322543112553,-0.8510312734779215,-4.639141607969996,5.191362488520363,-7.768005117466606,-5.906341703508082,5.225277123834865,-10.793347102792206,
-10.653628359184264,-19.11401166643677,-7.561665199734033,-3.109142103450301,-20.5011484392443,-0.4439238059790255,-15.084025725633474,-34.98301402535482,-16.22481598432655,-8.533853545666208,-14.865562039541778,-13.021360007440443,-12.866852259924118,-11.363369092293743,-2.7354654045454776,4.689866710803599,-5.698852601464257,-32.565539136929175,
-2.0764093527928953,-45.271251126282145,9.243564606926848,15.752478267105603,-0.2179035774358798,0.4368410894857625,-15.804911607346757,-17.438505679120045,2.0185347050782534,-1.0466286242301575,-2.466360935008319,4.47493332712658,4.5839103715203535,1.8259321786154856,9.820094927864552,-9.41626933278401,11.97611678277831,-17.483180480510878,
7.8363003630755035,5.224961047087286,4.128158135977732,26.445199493285727,14.519848813513036,0.357081822235955,-11.891980811060892,18.827552868434545,3.612183770273583,15.416568262954506,9.063136505064163,18.38072992175561,5.495743975440221,6.282233794748447,2.6393484060259103,-17.884516438049957,25.83685873068051,15.095079907038686,
7.139713302735835,-30.796445243356093,-6.56755096076384,-1.1442161724259918,-6.672048850282679,1.4122523182230902,12.740395246519883,-12.904364208843454,-4.578126072128141,-3.3482580946631724,-22.039353086810145,-21.19321007165204,2.698405153630179,-19.61533119883119,-9.943470810017377,6.35109322280199,-16.7692067610783,-13.398444189086096,
8.06983475987851,-34.571199781634256,21.34126564913342,20.34584528393211,-3.637893709051337,1.8458783621103922,-10.216109394859162,12.690731947384913,17.39810352901695,19.13129188566515,9.870606536398636,11.438722962742945,-0.21816268566269903,5.970611967164749,8.643750625448675,-17.338717557085413,-0.28370460043111273,-28.797185325787833,
1.8766693759325852,-27.960261706828614,13.749563132165452,17.587277352422465,-8.155390030408022,-0.08039671481786942,-3.799954267093159,0.27370432151337754,19.21755627690661,2.1619718378363366,11.236110809816633,16.05664010250842,13.500297224856281,3.1242900988947047,18.77600962620663,-11.015032881694681,2.0338391282501593,-1.86720140706091,
12.498136778215644,-8.63763027901836,13.544474603329702,13.80120544040343,11.870362440075153,-0.2704203110007247,-12.255407280498137,8.349245755057982,16.231024479440556,18.87395583696065,10.21580059626035,3.0168015641419688,3.861352814225364,5.901564390135418,14.379346230057532,-18.202824474597932,9.583554104466426,-24.7053136193711,
-1.7975668805862532,-13.624924579460377,5.099459462077512,-1.1760651055768567,-0.16965801987128276,-0.8435151724640585,-2.160489772146308,4.699704527929989,7.147217734015181,-12.171065357332369,6.901369415125803,-2.6201603606126174,-8.192489489019634,-0.8397295751709021,-2.3711082802191537,3.8155629713142525,1.1750589203181627,-8.925507212444286,
23.14090111057744,-14.995784533998687,19.91886030839977,30.792469487425425,26.3199444617568,-0.019789424214179733,-18.606096570691253,4.9543794134149985,11.094442555819057,27.35396796491468,17.674608107841006,1.3728596190074702,13.47615310924902,13.090032109676534,18.72763297972569,-5.904333722084046,30.821974545965894,3.1170503319376226,
-21.563847799032263,-34.66323367091234,-18.896359634534004,-31.63780155668507,-29.4162571767997,-0.20737873324778247,-6.805775618607845,-18.430965362012554,-18.808716724239,-26.828799353462514,-18.578154629573934,-8.417776235580265,-10.432745486674262,1.350956092426188,-20.547232835716006,-1.9554534153801786,-29.179887224190296,-13.282221871731606,
8.181246428187364,-11.784535460063992,-2.703390473130764,5.274504133984973,0.13932987868536836,-0.1675254317736813,5.185333560637384,-9.473682319770727,-0.20330779961588058,-14.659119944417464,-19.847614958871805,-17.117567399407676,4.337055799845165,-8.428169034197346,-4.164417638700467,1.7810837748216035,-21.95037903760719,-4.510231338128898,
-14.396535616511612,-16.431144831893604,-11.564286280945302,-29.156283464052173,-6.002620037144611,0.42170396128332527,-6.531655053870878,-29.401526757924593,-20.45644917189717,-10.484150321691708,-19.954480587447854,-24.092673109620677,-34.71980248716024,-25.1753694173605,-15.385378067022302,18.968173988491845,-29.53227137937252,-30.238397642833455,
2.429362129416323,-26.20192729306186,12.823743759947027,19.223770186451993,-8.16128653991057,0.38149941595558745,-12.90046883535583,-5.426915040108111,16.151734713612672,-3.3080418763200368,2.3730346308722465,3.272122363724247,12.297671862665005,1.1497575532329494,11.914143896643695,-12.821757203120315,7.71894206164233,-32.77311057494343,
-11.567767588135668,-11.449055759917423,-3.334333513729013,13.829388956948604,4.036089340786978,0.5822810470460157,-2.5187350429120086,-4.403783782934207,11.149832744171816,0.0188118232304373,5.392521826457788,7.980885074168426,-0.08568099574133388,-2.752695228061231,11.859116401328759,-4.81835742222974,-8.268496975827503,12.874457876629302,
-29.13114911117659,-33.61846276761339,-22.993471367637706,-9.365272259129272,-42.43388290147252,1.7214566871573895,-34.33589291340786,-46.94654866909191,-53.131245111122055,-15.203252708139795,-53.457344423216014,-19.82636925714605,-13.934512892332018,-7.425845250429687,-13.461514031678835,-11.726501922060514,-28.52088068724072,-47.08389366844825,
1.4658474311722303,32.32770152649609,-8.109205376512953,-15.562259785778949,11.806885968590358,-0.23337197143378713,20.24014701423495,13.834645013339502,-2.935833680703602,-11.475248145789012,0.03385188865956602,1.892278279658344,-7.729370169580646,0.999019427105138,-11.698045242655644,-0.5726592893108138,-5.185065309757022,21.00460251437864,
-0.9847221254319305,-43.63903586667503,-4.739826482704515,10.317356784629608,-3.9678851090179528,-0.46174989996462096,-7.964071879453999,-26.290218917215185,2.4992020170696727,-2.300478285852189,-16.728340457007125,-9.095235366377757,3.70604981092631,-12.657089189909312,2.3052990808155465,-0.15516534055696152,-11.42933736651953,-28.662114476830624,
