-83.4049951403602,17.696520829497,8.076574085486946,-35.27690380814946,18.201617535417444,23.246667964039528,23.317394732133803,37.349071254493715,74.86317593947281,-53.55237050899272,-44.95900843444489,-4.290999244086722,-13.122855803072548,12.180800346972717,13.900103942817088,-50.14487661305471,-44.18499898404681,-46.918092542276966,
64.7360723782762,64.48168666311909,-9.89891455526618,-44.149064181116366,43.77177634922081,-81.94983804734493,8.96178521334379,24.46157622877279,-39.90293714519522,-12.444825455431513,-25.626319854315064,-25.210404040250165,-24.07150166344083,20.400674767214753,41.54452048335354,53.912190139390994,-51.66112400657614,-53.122208507458325,
-54.576677911996164,-23.74239165503778,1.9782719180411392,25.37554832273374,9.483321532664664,24.476841596551626,-26.258520706866346,-12.620502269730688,-2.4290499303845445,24.614038323521374,-51.17654776010177,45.81487720088408,34.692859461927604,-75.01968512960048,-27.347565387270475,10.280152486847745,56.45923697207222,59.40667145147692,
23.294439670924884,-99.13275765119793,33.533242550847724,6.678639262165278,42.43182438880545,-34.338628071536746,-19.04401012000947,-34.449294554123426,-37.62735461390011,-1.8157179618157289,-111.44611743218584,-4.659728713446811,-7.23293449282923,14.577122700892891,-4.686661944135601,-43.18413223767897,-23.053943387466905,21.013313930040628,
-31.246933615196316,-55.57585028169136,-39.000022643033574,-40.00160402106379,-13.286794787394633,47.38724409790971,-16.184502691189458,-30.395049751239576,22.24843074601938,0.2174136919362184,-6.419248458821604,-55.34737499638902,21.52878066636719,-11.286762715164157,16.603658460855733,-35.784183613105036,8.956796797709282,2.8335596912313177,
-39.713689899329324,20.757408825337773,-9.834140338493375,17.647314244607514,-0.7176713077832443,7.588683833214274,36.27038696987117,26.022524516676324,11.593039197485847,13.807919553063222,-18.23926380592123,-20.29711644367396,-74.2261580094358,-2.062682657755566,25.755870105537745,-37.97166579493947,7.352363778865484,-68.9885551421013,
1.0005785505634364,-90.50473691092536,18.822806466969585,18.29283088954823,30.94856926788156,-119.56532260153124,12.80649429339048,5.676087608608422,-61.69397602217394,-15.35834479329243,-74.34779392201816,17.468017696513748,4.715636866828757,4.512973258055712,31.402894748222714,-73.21252508635632,3.0907730481063798,-9.621400789850721,
23.991604755180962,42.525560478941486,52.056383053917436,39.026257602157656,-33.34009681785927,8.949174479106416,-49.68878827901148,53.71115977850862,-55.7362533850361,46.313449340562265,-64.91359144141592,-12.562541140276437,-41.21797337551497,13.918695761401665,-6.198865724506036,70.61750875250648,-41.59784784633817,2.7863451140952313,
-67.39869600238151,43.412051357797004,5.493109504954484,5.931300371675291,-12.096800114953787,-40.60536834214985,38.073842554308065,-20.869255839973313,25.285773357300716,36.1799201513941,-83.15793204095115,4.169606536112296,-30.07239951777054,21.038684628570834,-0.7172888882933031,-29.00802028189411,-25.93358802863651,-20.490201659201695,
-54.206725883123916,-15.580742331279207,37.229151851834786,-5.868328753486449,6.444537962397442,46.28109096704649,15.676111629354095,52.04540981506191,-26.70564802673831,-7.707804420910746,-74.96985231731624,29.99279406409705,-38.44388725256028,-9.424787028453581,4.211070942572743,5.067602642058969,-42.21162352936251,18.815172987379164,
74.05191394688401,-24.115314550001735,-40.905379105517916,108.15656830278729,7.59330549608254,-14.110856913003529,-21.867433001741393,-54.259009357926125,-73.31812427456963,-2.885503897581316,-36.67300251870045,-68.00035635109813,0.027098893390508146,32.48039464907586,-24.71549478557189,-39.63811906330207,-4.793331530336712,60.57988132374352,
40.332467409295205,-26.189641623475044,-53.17917333734,-5.152596875542961,-15.575867477565575,8.135310924737531,29.203692273004474,-66.38244809717169,-8.128724531069569,28.872519726758064,-4.670454230222125,7.875471896706939,-12.382803825487075,-27.931929610618766,5.678875890565087,-3.196462187753204,60.90325936451069,35.09607195972505,
-27.70100394747956,68.16675389616012,21.679513999543094,-69.87908210741705,34.90283847560553,111.21614669136298,-45.150388957998395,-15.252325955505126,21.710012075636502,-26.649638038277875,-41.35109526126327,-16.71012185169161,18.02420791892208,47.3512572400146,-53.38844825482917,-2.1574636016802318,-97.79240451422257,-15.114899607448967,
19.42774675370912,-84.12775325766395,72.77074451193096,-41.928467114567404,-21.284194026625958,-32.44780148807472,-45.85087335091155,30.837646920027986,-36.40465673911399,-19.775816516620306,-84.09075133228546,38.67169731333971,-47.81469576054738,-9.446028863892828,13.391342229387012,19.56115216007145,39.75351475931128,20.42160407930626,
41.22351743674263,13.277633579204467,34.31841140411964,79.51029905671257,1.7604193179874248,-14.838463873695552,-39.46000902341708,18.67874344827462,0.8934132395092202,41.04359963455099,-55.583495320505286,-24.996053688399876,2.411397499325457,-45.86272206891112,-21.103900058971803,3.3555780053870645,-2.6509037310915597,19.503912302175088,
-125.01192393466265,15.519340414528122,7.849118586459702,-196.859590947368,36.68516558346542,27.119391034038504,24.37271900721702,34.80741564439901,42.602234167916414,-108.06020386591835,-83.84366872634209,-4.0486720162575836,-12.496449594289999,75.38493215015413,-42.025949928344154,3.2055250998437073,-105.88600666453841,-125.72657133522988,
55.263098666259445,-10.80655234976022,-54.88633801516692,82.38081567703414,-16.959355074119344,-20.06201750503094,-26.820975565040136,-28.257257515294032,-29.516724785952615,42.31219022468093,-66.81912579978233,-5.763248026604733,69.0922057145508,-0.1013591334713356,-4.111701329836888,60.365995498950234,4.737452333310572,36.58149669260118,
-27.765071320988213,96.63169378056915,-32.5529978962149,-19.517831900983715,-3.1851042508729237,-5.212701259733167,-26.15299989090754,16.912256475190834,61.38593090117279,-26.120524878967288,-50.91369197771743,28.36984074222572,30.076191568169033,60.12858775953438,-31.41844336708921,-60.16913584006337,-19.912752935622912,-36.300724946878994,
-41.7336235369491,-40.49656037942795,-7.684177272411423,-17.057521074072113,-30.260451689106866,23.338709751682707,-13.736405894476432,-7.547223628448079,36.35491709384653,35.910992362911315,-23.757644339917658,-10.906941227770403,50.60930507349536,-30.271694196381823,7.799910159846123,36.31182940302048,7.198160707803805,0.490655320190987,
-52.283070730405,33.60681660616966,-19.93721332889082,-81.26326033929745,-1.767746270448384,60.03081242018877,2.344034118367335,22.386865655050666,11.242231835387393,-26.246943485288377,-32.275655456339166,10.593696079439674,-2.828994412048888,-46.41134771190355,40.476751864164136,-14.056393631105951,61.36494786529599,-7.428813268106794,
41.261352773542384,-59.10891201150175,9.774072665261768,22.331497843250215,-35.655022106561724,-93.52992346909559,-7.538727367402235,22.605033592769857,-32.39113296434563,-13.114876551289068,-112.15707252607051,-45.92682954459656,-4.7766717204822955,49.57222534406838,-20.916876382599742,-59.41820527473093,-17.912526628120197,22.50773504997227,
24.992691803518166,36.47367841902194,2.0413616056239503,41.44486191058413,2.111673553308302,-83.2415152272261,88.71485347984206,-81.50307959487499,36.376424695257896,24.28975684145814,-39.75487100314223,-10.56869315882799,35.01375815262702,-20.837280544587472,-18.469417411391696,-37.634008253401234,27.340037967257494,0.2065886092859459,
16.569132427154805,-89.4667374269387,-90.73532846557664,13.128629181254102,-34.36042537659123,65.21166290049578,9.13780503994257,-6.953607876683155,-12.266916878273122,-7.323187533129859,-42.90769345963377,59.94132311376603,38.3578671666013,-64.14763911758509,13.173318887555373,7.087540440148862,10.492505033035131,46.298842063595494,
