-20.734541817042007,-6.127157698921519,22.238469233100513,24.7783513559504,18.687075468213997,4.117478675633914,5.04637155033418,-73.74797777673852,-37.56835681821877,-61.04706388433424,51.29983547993712,68.71831979038144,
-8.005737761874018,-40.47985834835442,-59.65403637405986,19.10227920370284,26.610545177492334,32.62572683284392,-44.29229973189706,12.556558507891046,5.789630537756094,-50.660302513579126,-18.37226313884889,11.133037589837627,
17.278673513493736,41.47891690976676,-22.440453711536122,1.0968857947177164,-23.393694692536354,-18.369256197775073,-17.698437486377685,-29.80172097782038,28.19979708944393,-6.182880557407431,-3.6342703013406035,24.247836339987725,
7.862932418428997,19.386500272700744,-20.91680592724865,-29.36812461180672,16.11329620103457,-36.7267436388852,-40.01445724555895,17.131246497804433,28.506680921165103,-13.173260031224874,23.867883785225715,70.28373293253708,
3.2647525940766093,19.729720941124523,6.426581849982636,7.3987652642212405,-37.689932358738986,-51.70882137916285,-15.444333521482728,-25.72867903778647,31.35619690661143,-21.574627618267904,32.57658668316109,55.18424421618843,
-56.74071735255133,4.9759852615969615,-85.20559766596347,15.20391167418375,37.567231139585616,53.974920285705146,31.171120681527384,-16.992254413953745,-52.49183745158997,-40.49786743509065,12.31195504954243,48.551123053274694,
-36.82274483837845,-14.823481429198733,-7.822506975501566,13.378676982825315,-7.872923670611891,74.94390163672834,-1.5594340311213863,58.574737085950446,-73.31701524546699,-6.5598729028252185,-9.532348373547274,-4.40931340210105,
-19.957765536739092,9.506423039112297,1.172267446891465,-21.12046224121255,-5.787214250353685,-19.851137197289617,-37.45863180451989,0.05607434532457999,-8.762015672416917,-15.82900630770283,-18.50381210176625,28.628125431990753,
7.0995796031391105,-21.052759406055927,-18.155759585390957,3.8083091881213784,-35.91378409266433,64.50333755381392,85.90355873097513,23.008920876501378,-35.131756386952496,-0.8204579188108632,-32.088858512966134,31.09465834094652,
2.070962904778334,-12.483602459317957,8.626709444110048,-39.6137357304482,28.896476991973397,-9.296890337936942,-31.763284918104674,-15.193442861515503,33.0905199931803,5.507644668124754,25.217181141813484,42.424574116909,
7.786002790812405,17.13735970218217,32.12691999231046,-64.98343355647602,-13.24013207790858,2.5182392117730843,-4.230793254775137,-6.1133297944437865,-25.428455441995894,20.125396487280852,42.78973151651038,-16.018165098906515,
9.256290026203501,8.64418322783934,-9.482988891816756,-31.398007953182205,1.045747393811314,-12.668515869861423,-9.287447929335691,37.85200231672083,-13.05684177761529,55.01515555568049,-11.159124217753723,-61.56003486600201,
-10.236708920365643,33.319578280716044,-26.77940146576872,-1.0190341513338803,12.23970576166149,-54.447944721049886,5.073151973373651,-16.799866651975048,-15.148896102099517,-23.759014050558655,37.65697388534042,9.05928861812181,
-30.918334382128645,-15.926942955315775,32.74081737557624,-25.65009527839091,5.228778259060173,69.46873732365401,30.649312226055365,61.812046302620374,-25.45759495326414,-4.953227220606258,-1.4822093356338624,44.30714632063031,
39.431208807034174,-1.725934176225142,-22.73147825681578,7.578446345020439,0.7326623817313469,-70.37066651316415,-55.42597101440783,-26.033639945718715,13.354702714776641,34.71251366343936,-24.376216585034992,-31.255330059626118,
46.52223134061932,-36.664806346483985,80.84018101660992,-45.2687376039651,35.261888016354355,-62.54469806628724,-3.2318994892653654,15.027265369679343,133.55884147764445,-79.00082034094682,-9.894428131177113,-38.669118697880535,
12.596436280628328,0.33116449407231596,23.819759666692665,-29.3989484738448,5.7414928795352065,34.31855159304929,-17.51974666642539,-40.18884752423208,-32.635874556068266,14.764535243396312,57.05979789829985,46.86748208429933,
-25.711712983067365,-46.76341394452821,21.486777790148583,2.945107014427725,44.93028780200878,40.314852406030774,-42.38359186366175,15.804441468446802,1.667261653139295,-25.76127519048828,32.5075027761015,43.2239800252648,
3.1732184759201303,3.2610909256486695,58.5526243439253,-10.054367754705643,-5.436560013601957,-22.193883097410804,27.77379583078093,1.855954052518103,62.122251806304725,-11.373792931942916,-49.967376630763816,-60.52438099235674,
33.26835888393501,-18.090490486735,-41.12722951603212,42.72998759549136,-14.612890860365075,23.061982397295317,-1.9378967196260244,-47.71153858498814,-18.234865866776122,49.260941056902716,-35.22284585635482,7.043653784097821,
-25.31282348302508,-21.633852456041584,27.076445243950104,-50.561843132739625,-26.44069147697721,-11.500213395570654,81.58833366720788,77.1433759854445,55.966083346207526,34.911343133126394,-107.98565305406586,-150.7516165935338,
-5.956600859834678,7.797244876963798,35.60625799093854,47.60782233847839,-8.268229761233675,-22.77885231601671,-6.9789675796788275,-41.97261623321043,0.004233418794330561,-9.677196103950072,14.568460254757872,21.360715385719583,
65.63357516003451,-21.01465803748364,4.080777240534927,31.96776727660835,-26.70297746562736,-14.303574210481619,16.95134708334916,3.4843395432552833,-21.983378773639757,28.641345647105652,10.049000095877927,-60.23750208364013,
-30.59433485567677,18.09949209225919,-17.905142475090916,49.33842109255333,-7.298937965048745,44.24195654273632,5.7437261611333685,-5.840731819654675,-23.81104544497376,-13.645896099813875,35.36039913047849,34.92589184855595,
9.334400127459691,49.90685078476651,-3.7705371593230956,-4.592655463025096,4.534046587825697,-48.670551477856755,-14.287791973931515,-58.515293758721356,51.792596898801605,-8.233405732304803,32.4304188052565,18.734361768383778,
-24.002853074425683,11.510232169459371,26.518737896384053,-41.237584491071125,-29.36542682399733,34.87205778628001,6.028812151505955,23.06321950361374,-37.84918976938444,-3.822967404550565,42.55055421629956,1.0507795137461327,
-27.037842086349027,-23.65336056865294,19.667307076729603,10.286534921829595,26.859720238856468,19.920733954797985,32.31047073682127,3.261598507892651,31.78939933415544,-11.39286026821275,-3.5819014142574512,-18.785960845888344,
41.941981887098706,12.821290165435661,-9.746775977747562,-21.00013372096399,-12.436164836532257,6.810857640677583,-6.972099927246904,20.434788014412213,3.0660668223902974,-4.8486104372857595,-14.381602519690562,-37.72290504012593,
19.52239989385933,-0.04823223100280305,-16.64995467212274,20.20861901472256,-18.28082736005652,-56.017153304442665,-37.92150853684221,-3.5709147354524546,-23.927676332757425,46.77620843355815,-13.329311329426856,-19.942951307475862,
-11.032652176248586,-23.09092906109937,-22.36379779371863,-1.8753821053152429,65.45685252355875,65.34439142634949,18.486238910715148,-43.753546229790516,-28.12579920109558,-20.41882761310002,11.853026035880426,56.456358436303155,
11.056845321788423,-40.08960497062624,-45.17311361790393,31.67928715267227,23.564293958598405,-76.27646019808792,-56.58604976680105,6.3230320748244795,-35.18491209386888,0.844044541098759,-61.3104472252707,0.5825897538765595,
66.2586240971973,28.851530429083997,-57.68204974307009,37.023446429651315,-82.3646707905735,-62.00470743656745,1.3443860318053635,31.497914214047466,-15.354662922048204,44.09082884355343,-91.89800848264998,-59.09766859873944,
6.049589001134,25.693689937754506,2.5232405794884545,-22.60626676426863,-69.87076291052416,-6.582910532799711,11.273241236482562,-3.1929581662390625,31.63266730927502,17.889207605412718,18.443895953639007,-19.434462134266006,
40.0514993888034,12.536128260899677,-3.1367890086611285,-34.10694828904921,5.652882830731588,37.70218209340323,-60.604069136323446,-2.3850671574316986,28.152942481151122,-41.26617463216981,11.52438516441222,-33.74906665126577,
-51.52582114545977,8.548779742351295,4.997856892878732,-18.75006539861966,58.14954208491072,75.00489528980651,30.768918510259738,-8.560354755489513,-52.23468314617859,-20.086126467636976,15.22560494526488,73.98957839293313,
