-6.483952675260056,-3.939281052419272,-0.9632058242749176,-0.4663429712921491,0.257339772519069,-0.9370783706878626,-0.1436770229617983,-4.2602432484514985,
-4.386856223577997,-4.606802821476269,-0.14350679052151738,0.17994976920747854,-0.4848440821448896,-0.42775886867628854,-0.9181108234014365,-3.874367768547289,
-5.321093889951984,-0.4682104766139931,-1.985257448119786,0.19130531680343332,-0.8846451486896902,0.7133587532822478,1.0288850792285513,-4.167529456049394,
-3.148306657877462,0.09849777919189592,0.7090617385863474,0.46226264938080264,-0.7632645598857984,-1.3955238078436565,-1.7437601104414022,-5.807808492492421,
-5.553546756551369,-1.267725233346404,0.8506415809745766,-0.9658277736891078,0.8613906759194963,-1.0933642543723425,-1.3239303936329727,-3.1677231242469412,
-4.7347932063778,-2.2047066461752625,-3.44663577281807,1.5577669992860437,0.09621483837929916,0.2065435353301313,0.12346450824935509,-2.6929216306026813,
-3.4561160378451365,-1.5011388627035913,0.6066134288754419,2.4952598036358316,-0.10994722783133476,-1.3115898581569585,-0.5810930904348464,-2.173862427502801,
-0.8673242951957725,-2.2154524133475717,-1.561595595972187,-0.545097850796255,-0.939626386753518,-2.153058403533622,-2.440486643977481,-4.304375105572209,
-3.4176948790513326,-0.5383410211613698,0.9299642146595348,-1.6472218087277908,-1.158680835203872,0.880536564320828,0.7950524065383647,-1.9596816803658124,
-6.534165430323199,0.7641173376616925,-0.0351906438546052,0.13826614345117835,-1.0892786475042477,0.27288627472229143,-0.5201774792034881,-5.647300515521475,
-6.057100232713246,-1.0273055175875716,-0.6004311229613105,-0.9512347972222679,-1.7614329229925483,2.6091110786429597,-2.316639183303842,-8.649631569783566,
-4.626471067948216,-5.110112245335906,1.3987236438091972,-1.4988086557211664,1.0963256112059683,-0.25697835956928283,0.5943816791925907,-2.5554726788440667,
