104.42110615193069,43.46005350339992,54.29150471877234,45.66003425728505,194.97485651051267,-13.366020520339985,-8.203726011929772,-9.743092701693923,4.203303995295126,203.68197574844564,-68.76146236928848,-30.60919689386826,94.19338583114155,83.22816259030645,-69.41206785410122,77.71529501633741,135.51947892066391,-120.2970761091265,6.1519411035731135,122.6220269162209,46.44917076196359,118.96669973884048,-129.80147879106067,
75.89532129005796,-108.62426059814096,203.61993857519587,-244.7062786841762,15.65879907034856,-246.870793876069,-136.24777975739286,292.133851084726,169.0694070682067,-261.7320229773935,-184.21133124988307,-171.58033757690146,-75.25895316769419,-89.68258490970211,29.064838870700306,79.25301258882722,161.95424127779157,84.71338697252558,177.67723712218398,-137.73691454282687,-304.7176641738895,-334.5796011030333,-2.619376393529338,
-141.90989621679392,-77.92073506530066,-305.9641917621857,-184.53772833387836,204.4584498005266,-238.55890760013546,-250.62538312362688,85.38974439687749,48.397778058628255,-190.6857321317371,-15.060048099599369,-159.59093297307336,-169.4861450731834,-240.71281355369837,65.70390563143096,44.72469267924541,20.778299398496106,363.67231172647615,189.05993330638486,-124.32968752028899,-445.39600770781647,-43.106762996255824,-150.99209931182145,
-257.0434690269145,-249.6319063434255,-206.46550536900628,-441.45503100187176,146.35661769730362,-395.26720511601116,-511.1944649157498,399.16020493049376,120.59032174118556,-758.1640321951137,-38.56461228210581,-312.56295287398274,-375.3909712376834,-482.8007674803712,101.18720956770555,34.85970235612306,7.6736777084422645,540.9538382558571,438.047409364893,-383.43883634120175,-839.163754185198,-461.4049768208415,-222.41535601002104,
78.75900807468199,-97.4756715513373,652.9863509012708,100.53523779652868,-506.7861867265357,299.4617068223316,136.97707778168188,109.898403715517,80.51198443072096,-196.60621156341895,-10.428653367924175,260.27225570652786,58.48648636731127,191.40169054221198,-86.45603219209025,-175.68118633715494,19.3660657796285,-526.533490053958,-184.29081312220467,-22.342347249481406,465.0568034138569,-404.41182331833556,204.87215158871888,
15.16514785318119,-50.31593294934802,19.868379167263743,23.210580037236124,14.262858681489345,34.708864303412945,-21.960096487402808,1.0939827025607622,3.74243146601992,-9.445486528553033,7.1924455456534835,16.943022214893595,14.22154495300539,16.003240743315715,-30.665400202886282,-25.805684443571515,-3.807697036172316,-63.457497124852395,9.413774352265914,1.7445551505989185,-4.98701338237161,4.8351427869445684,-8.15370477488865,
10.468978994368806,-32.586468781607934,15.54977261116634,2.6566659730733817,11.330003774617191,7.508852372045552,-15.374075505833433,11.779190793741718,1.0311863691077645,-13.900105842096494,-4.206260666935219,5.718914587565742,7.416288923762708,5.886860568268718,-17.21584847151639,-11.318268073669937,2.3325577937409037,-25.213474269840923,10.235534690945672,-0.4699380658134015,-14.469030653399951,-8.901715527753408,-9.266540955578769,
-5.09260733049981,-13.64931056312963,-7.858088633211273,-0.8245505982394791,5.903956192098045,5.414922195002103,-11.218238878646863,-1.5021703476067383,-8.53313446232121,-12.679200387348995,5.7234718695543725,0.32852786547519736,-1.8230938168650415,-10.30875650408402,-9.488813872834884,-9.228084867728052,-10.75335924656422,-0.9872382528674809,4.132552447913664,-1.6930258917011964,-12.323018440146067,0.3791194387717779,-8.08801096694575,
7.165992143683296,-25.369233061607485,9.02831655240731,5.805900150535399,7.282849385199974,9.761204267920965,-11.163218780522012,4.8121962033662165,-1.2186850524413784,-8.30806518449281,-1.0140353803594642,6.2147901763389175,6.957318973215679,2.5845942376333606,-16.315967216021424,-10.882557641965912,-1.7042817468068174,-24.933040171629525,5.015159974406159,1.233845145249283,-7.377344711058154,-1.2722893079275424,-8.21140331327075,
130.02011042862887,-1428.5114602657015,326.34506307982053,72.70227980403267,-1237.2889856664708,214.7152882119953,199.55536766832907,-23.34251929918817,94.94846243269697,-14.343184068220555,-397.76930983581593,1390.5144298809532,216.36908378026305,448.3692077451978,-308.679729418079,-638.5969418740377,15.907481477363934,-632.8165727763417,-454.3214870053246,290.0408402084714,366.6669580088117,-560.7750587950976,976.2208580079111,
-54.952420077580925,244.8330545864772,-3.3785851168645515,-125.65251870204209,164.6448801143881,27.781591222842355,-118.65734438558633,29.4933625234287,-3.2462596098835594,-115.31303184472576,179.72965616217823,-239.17708667404386,-138.30166294110143,-198.83325863934192,88.72638037853413,93.87407490059135,-115.43490253499223,230.33132831481356,235.53330367453202,-57.41573784576437,-183.71761208256822,-67.82597417559249,-72.51755411129024,
180.1949756843993,1050.4579776967378,-163.02703624106027,223.79049030958006,794.505166432501,221.76937829204212,114.53237369879503,9.288046765500772,-155.0645523196985,340.68102707653014,572.5184271015794,-608.8449478718004,-76.21132203319223,-355.9939534248866,-61.96875235618998,486.00693489243963,-192.14744883713593,197.69563478299804,207.64202907220687,-8.473162655024774,677.6107556934293,990.2868633324485,-607.5352120681335,
-91.83034431923754,417.049370889606,-221.63579216175316,20.767961179286633,217.48039558526602,144.44001902546506,-232.0761913900151,-156.54817596940444,-101.75317451613142,-93.35065489530919,332.5733760129859,-169.28035297499073,-142.78051276030544,-247.61609574016552,2.7797364067198784,164.4549798646959,-90.16419649751167,21.374229279570148,126.33473279593085,40.600498925267,61.896562449045966,160.14447834268975,-428.9137705727476,
151.49268722834177,387.3829772882504,-117.8520479238129,-305.4655018074531,524.5559149561077,-443.1135865326278,-503.17863688558026,118.51921324510258,120.62682616877139,1.6950394511107771,-113.15174895578394,-537.6475735230528,-103.60263648857037,-235.10830942026098,50.0117293836058,488.7510621106635,236.32200375748957,152.56794250013647,238.16140515292489,100.564233816357,-245.1311563661684,134.21547438417687,-574.313053917715,
21.39130586832777,28.221475856972603,18.866336669166547,3.2423155372281243,44.87934589171978,-6.579257047424621,0.42709079343496487,0.60103062882121,-8.689102987756934,39.5523596808046,-8.539782935977643,-11.58496308883248,19.833276210504312,13.907523432765675,-13.180906884926888,25.435878515498125,34.96774240345588,-25.065262029731713,9.508933614576613,32.06658505942589,17.566780194602583,21.974550458322252,-41.71493724204199,
17.54221666711135,21.559149953657386,17.579825035025138,0.48641520447692344,30.868022347551218,-6.581594598358746,-0.1699891301755499,3.6414913828021183,-5.231136153350205,26.384154135086348,-6.484045088626391,-9.136538939537845,13.848141017936207,11.135488631597434,-9.338419850862266,22.12829168280564,25.57686034805389,-19.146872333626835,9.450631693874735,21.76943716725961,12.915973120578938,13.574368794562993,-28.50430245443819,
-6.071451082323546,-29.8334725384334,-1.4954955893394115,-2.9120657927717573,16.510666412213755,0.6810037374234231,-26.852584703936998,13.243368134305118,0.9306351269968435,-22.425048662890077,3.093784754842159,-0.864872708120998,-6.830922653891463,-8.476672153568094,-10.341273673455143,-9.032515012476926,0.06683021708336964,-8.185926166081297,19.325526976668087,-6.716930510445123,-27.948627956498868,-10.79017236621084,-16.66947175012029,
-1.98523433621306,122.60375878876229,2.531370176079814,-14.851161154729628,-20.937236407847298,-77.78418125795662,-13.57545431089869,47.42715024851065,-52.40104569639269,-83.12149185153187,37.694894793569205,-21.02539835806942,-64.0690906815804,-95.1816172027389,17.34486464465952,55.23288577032288,31.58096937671557,81.2123486702519,37.62207922235504,64.35449948370355,110.86702089675755,-37.71289233974337,-102.84237398555273,
-74.82193162058464,-20.28942565854997,-21.870510526998995,-23.86024417947487,29.190071397048957,82.5837514970685,-113.97748222485903,26.49950283599783,-12.710566258993348,-223.93175875754616,118.70935833882038,-39.31793354268695,-90.31302903103757,-103.24270288348328,-24.49615873324033,-88.36907352326644,-85.23425458583667,121.78443090928299,105.87108539960555,-115.80306951855825,-128.13975511128788,-21.7187245597408,-15.758224409405997,
136.2928270933264,122.23050765602946,346.43095802963353,-150.76601631583662,-441.7866710379567,-32.38149936261795,298.38221062368973,235.77876368062343,151.8453130342259,-119.07884939553938,-82.32273074271372,13.521116847071228,39.734615288197695,89.01914841083595,281.3349810999407,7.123769544601183,57.581864058769824,102.13634007460595,22.677001912791788,-37.012698782292155,144.47085974117414,-365.98483682272655,383.2054179938476,
40.42617549165539,-329.4362938264442,67.99041650428445,-92.06284751740756,8.690778097984005,-74.7532787677815,-196.899997871082,160.3403930399008,169.7848263387598,-77.6656171977297,-224.7041665024854,-5.2772551167176935,-13.095587443524856,110.74622026953443,20.763994821123493,-3.1357979640487788,105.80703920580262,-96.26187564263368,136.99693223956294,-102.65834086758,-352.57811237111366,-230.9242892925671,78.58066994703464,
-539.3314811789622,489.13786872221345,-635.2364465403767,334.8125034843723,-265.3413226345521,387.0984943841015,396.191200952929,-331.58235914863764,-892.1431661069086,-180.77618081042473,796.6322167339412,439.08155381720064,-29.982308017065574,-460.6536088673061,66.75996412398707,-388.26085115168917,-764.2320579600026,627.7292479886719,-21.94271598470068,72.2310880852368,685.8291226435931,423.784702237825,-424.5309696496909,
15.891803472395155,-49.412679893839886,18.153924993399567,22.15673939195587,13.664836180687608,35.19529828011583,-23.140788426768196,1.822015963620579,2.856264293433448,-10.436911155532389,7.382383762290112,17.48086763608091,14.024014941297692,16.169433280342414,-30.424839371719827,-24.865240892726156,-3.5626106899399677,-62.67642558159561,9.981083211349834,1.168417540673136,-4.068522311184074,5.631753379842137,-8.385007517672205,
-11.242123058450636,-42.936463080386254,-0.08752603569296205,18.480232438102124,29.855784267921084,40.02269380857293,-42.31155742254292,-8.574654442237932,-13.405958754959483,-28.623555954274572,26.770236490303514,9.90313359184003,-4.702796416373311,-5.822692098449225,-35.67817619890586,-29.23934513201118,-11.501880053180832,-45.00532942324303,22.25092564499292,-0.9677783018216167,-24.459168112751982,3.9817034808959817,-34.05327320327188,
1.7435967798780636,-53.62488426160077,12.791634630947781,28.829724937877426,49.01916313753941,31.915753247055846,-38.24561622823469,-16.13771654117163,-2.4223795618467383,15.768612031122416,7.5372021068263235,16.379616083327686,10.376547408731671,18.565533582511723,-44.23462174692467,-21.406480558211832,14.237227686238638,-67.05550788526435,23.195374844879318,24.109360391090338,-12.67404677964681,7.454487090260951,-51.05359182451482,
-4.045590252578228,-13.855611490297546,-6.968455348552967,-1.2991588329897268,5.6419069636789025,5.562906911063934,-12.454496060137524,-1.007605968364631,-8.792788051736123,-11.766946199573415,5.576853056518396,0.7209215574581195,-3.1321262103208043,-9.24534730056634,-9.682281679013093,-9.598739140971484,-11.285000414502143,-2.500428729592073,3.507025894332406,-2.2374395132422222,-12.510030248677618,0.036318749141989196,-8.007584456819593,
-3.131885712593421,-17.62714147252833,-4.277248516261263,5.181890005542041,13.659848684693515,10.416074156848303,-16.503309849371753,-4.938043292137866,-8.851695625734266,-7.501399749501383,6.990534808648138,3.399717377051992,0.5574855263565252,-5.832312199390743,-16.199767939012716,-10.57614821605874,-7.23660290503249,-14.556290055672973,6.131082726625709,3.205753610109757,-9.514876180498584,3.034858325308591,-15.914484915986971,
-119.0406085443735,-99.58070615538566,-66.23011415163678,-149.62390210796045,72.08212916157255,-100.97238997982615,-237.23166198485842,154.47636731244845,17.605295786478067,-331.87000674766784,28.69349587474892,-108.07171376295673,-153.92169259817294,-190.03829224716475,10.986999318192646,11.244949465127206,-16.4502956972561,151.41050546522592,193.06034997999672,-142.8092157806649,-298.8359769350042,-164.5422737528669,-142.2761536727466,
-276.46397566068845,-34.646021716636255,-74.44635322447249,-228.0178015900551,52.583963532179474,-90.70567965535821,-289.0314966714503,186.94283007803855,-50.58708012329039,-663.798571806738,168.60494802686978,-234.75918311291835,-306.7382259949478,-419.222364666229,-2.2983366396389604,-63.59262202568925,-123.28355447991737,401.0020506108341,249.42127100740038,-272.7351339497212,-445.22021291862876,-300.49537144979985,-200.56275912143306,
-217.87516595437205,-1344.8694897115456,108.23318326087868,-892.2295540341743,700.3473440616076,-925.584274906913,-531.1980878705801,154.3656390611291,147.1733673492749,19.166319113645017,-1320.2710594493685,-666.7433381332847,-134.93581725013397,80.52918831747121,46.30354950965749,-137.78091252272412,486.62476345783534,1614.0707846651555,798.8354138354478,-99.1839015133533,-2664.821455236957,-1810.265374506721,224.44998722175666,
37.12448260456257,191.2375740172118,160.2852959388188,-246.16901721947832,143.19441542700667,-213.5087628283647,6.115290591651345,172.62865244128835,69.55179625873012,-54.65139193607735,-145.62683498669278,-245.50830527521342,-40.41786338901698,-77.10233694061174,97.34286362194865,102.59817043005255,197.73396218317924,269.5983959756144,157.87982114794696,15.314179610365072,-256.50606117383234,-234.45567280496363,-58.11095382822299,
11.385200948665352,12.602770927745288,28.4156939211369,-55.67081811918648,326.76013844451813,-6.006374960627158,-239.59049547375065,92.47712197521192,41.325357253167645,-50.03965787496042,5.775124526177866,-127.06227095768907,-18.141797313139026,-51.43269473187522,-54.10437797691623,117.02979397997197,178.4163454575336,-109.70920869110137,200.9338128444042,44.557281359259385,-168.79613598580457,0.18734788618474446,-338.87498142765185,
-2.3181376573876777,-0.9600661912773132,4.834510897484845,-38.4498729443598,-220.74850701937675,-108.89588810311481,171.4797802625409,17.872156416939312,23.259827513539243,116.12720458916806,-107.48953527161666,21.055296124205896,137.9676331269289,75.03639649976779,121.87667441154906,21.417342606878616,30.29250701785988,122.16699422455444,-26.205148189089734,-67.08652827974237,-38.25538412427488,-38.37410672314736,273.5707959276673,
20.979945005965398,-38.02221108914252,19.78165850395958,10.860677129341653,10.901684864750314,10.225159220147006,-9.22379162974534,11.823253050117739,2.862175585803225,-0.40246487411027587,-10.534273742192205,13.220251283372477,18.573734167845036,18.177156013114644,-17.532704087345106,-10.21406060409257,7.2154133480193225,-38.060897479376735,5.23749246308134,5.699623656282929,-0.7532519250940254,3.564333724958672,-4.1283002472257575,
13.68901322968236,-34.07287902067308,21.80571491376546,-9.273954315323891,6.245785436989381,-8.67579005159742,-11.739843705636632,28.617322029812005,7.432152896064104,-21.9256855233388,-18.17223803286458,4.335305460224688,10.001058191941738,7.207841251122727,-9.205391330354338,-6.918732765335089,8.93736862818674,-10.558485727240212,14.110719070652427,-4.9190583417052665,-22.145231869531333,-22.90423388480145,-4.130693259442761,
6.252047923810819,0.7118451723773134,33.04016652621235,-71.09781545690225,-35.57077800019826,-71.83362695570537,8.67022272121793,68.80482161751776,18.77923689536978,-70.2557909098795,-48.1326242300729,-20.910536410999672,-10.624318454807659,-12.453851403432141,36.0854727273966,25.461041054393384,17.87392923737111,73.44565327909442,19.85620880731977,-36.900463395521186,-52.13616385393572,-80.38643453847384,24.053774110572423,
41.30261446971569,-47.854876280194226,24.269434371703998,39.78911464839205,16.15347025961508,39.20353722257988,-0.9944670730663803,-5.98539322476119,7.559693998177186,33.765455741086065,-5.01430746588238,27.0808122043555,39.9063218643932,44.16785617437003,-33.892488833054095,-14.247576326234428,10.522819263160935,-88.53980742988529,-12.280855258619404,16.712802016100493,33.23483593843772,42.337800719500464,2.2182781646337415,
3.1107493120217544,-43.53372909773974,-0.46519024058392633,22.605602040351073,28.520990264007075,25.860696425226188,-27.874593829266548,-8.680320637152194,-11.189170785500977,6.70417192887169,5.179533522691457,22.65148039584694,14.668280977305646,17.89733062353389,-32.54431161595948,-16.039864408961556,4.672254102604143,-50.92254708147791,13.278234316335178,15.220413269913806,-4.321848476723972,20.637870314551872,-30.539502092358145,
150.93304319870626,387.2075030825526,-117.71938990861563,-304.0593609893082,524.8197963872699,-442.9489770701682,-503.50578302917296,118.19796688490395,120.4396450786681,1.8851418242357134,-112.26495421102646,-537.9078767504334,-104.5143268924181,-236.47381940352864,49.72541396507076,488.8387916894683,236.759368351372,152.44900870262975,238.14942915069412,102.15805964245509,-245.31647774828468,134.9117596616954,-573.4898723686163,
151.12260166433225,388.9885505628717,-118.38350439140811,-304.8754506159394,523.8241163527538,-443.8283780102306,-503.6423239987666,118.80166701519389,121.04338522035773,1.5412759680855557,-112.11235774471021,-538.8001977309215,-104.44802520390755,-236.70638150669618,50.03772025529578,488.5942720458126,236.50892395191747,152.90698720829667,238.87204927735007,100.44739596212368,-243.52365210957996,132.97320883892618,-573.5195387353212,
169.54481503116392,203.01823099557734,-85.42653551333402,-151.13140356750193,386.116722614604,-180.73059707666508,-127.093743898956,108.95167996085627,168.5837920013424,135.85185809416862,-100.65214106010558,-215.21568281155322,56.53410885887269,-43.57109305744265,82.46321065065955,304.9865952679175,319.28057949526595,33.43632406714513,151.07902542426964,110.44469138006413,-149.4959650540603,150.43686533156935,-329.30125319048153,
207.29808942943274,109.16271997494589,-2.2773883417097887,-73.20876418244998,145.59453514067397,-200.89099970284454,59.19405588470751,58.13440271738312,140.66484773704664,304.3217172335245,-204.5249214469377,-77.2293167435933,130.8289662582658,105.87218003255629,81.8564319930699,207.90941617150074,258.6802932859864,-3.1235901955623153,-11.49661804948498,144.3934135287358,-5.323459903732865,91.58927912724569,-37.788024449521,
