4.350833268123888,-0.9946302969616662,4.426571508909669,0.3565860329413881,-0.9768068362364358,-1.4820490948276452,-4.545396015886998,13.794992097910898,3.2020888871350084,6.66601456222433,1.0143182416404035,-7.5672242055723915,-1.1526001407240094,-2.9655589642798303,4.8940371046424715,-6.2187945038071755,-5.650005922145862,-4.066420843195999,-3.0279841020424594,-10.804089307752381,4.83203868669761,5.257349411472754,-9.085865237093627,
-1.0952860374223734,3.6653095791591155,0.9743416867567842,-2.8358715447446117,3.0263664210479915,-3.714088512914401,-1.3939469347789888,1.6425030636973894,-0.6151066080758663,-8.001837453282286,2.8552684573499514,0.6697680551251243,-2.18740072598026,9.39572093761724,7.096069730685279,-14.262182311662082,-5.595349804391523,1.5605965900473342,-12.307237111730926,-19.740999738314514,-2.301678108363547,-6.689180753955645,-1.5776906964978692,
-0.9088220575743923,-3.717039274857252,4.5713235539980355,0.46828887493789456,-0.02472661941183222,0.26889410633431177,-3.601182486760305,7.201802980623501,1.648285515634268,3.5166914329029573,3.461526247036412,-4.9043452951662285,-5.694671088263794,1.366928457216601,8.663504773990113,-12.33055783808333,-5.207054200261559,-3.449668097607856,-6.793104858870974,-13.266101714569283,1.268731391092416,-1.2793137347242043,-5.141055615543555,
-9.44689933010246,-6.714319670074927,-0.5183461849370627,2.432908920173129,0.6995034950079859,1.1472361536123123,-0.1044240953060228,-1.1421069877528687,-2.4833632651541486,-10.098700283899856,16.97723678957623,-2.3987721144476164,-12.007937958101166,14.774147169412297,19.8170141450946,-30.71664751059347,-11.379725800644367,2.503045835288957,-23.45973354375799,-34.428975558930325,-7.827778488426721,-15.169571364266721,-3.8265372526967614,
13.66764935625336,4.108016544318565,-5.052033295126918,-10.476662241472548,4.093639142475448,-14.449858697699826,1.5189308748742294,-3.3564413997634976,-0.03800825879981004,-9.032702009552533,-0.2301923975027466,6.117592053088447,7.914062173453324,6.55081276554479,4.115212049684638,5.5210999106236,2.0002202023071134,-1.1996854057936939,-11.244291998785062,-2.3702051413977316,-0.7280298644030146,0.7702158787959261,1.810975608620269,
-0.1384718410664385,0.09505416328908119,-0.3705338428982282,0.09224809397409708,-0.46650061665023523,-0.15919330718480787,1.0387799901554398,-1.905484965762748,0.17015747014900368,-0.3842795129834436,2.0233763875876867,-0.03734166319068592,0.24390139776137582,0.5296633813597161,-0.3744682260552151,-0.49358993750166813,0.9225011922592132,-0.2727937357225021,0.337909992467081,0.16600155022063415,0.05069289769976954,-1.1734270660898471,0.9845889417422201,
-1.0805413674692173,0.388309469226868,-1.1523331902608354,1.5339436593615245,0.8302399255185566,0.4136101921382877,1.0778624316294552,-1.411080282540608,0.6732170526555137,0.8422075928800694,0.9683834041128774,-0.1155905509724843,-0.07184715687897661,0.9030330528989717,0.3107555162694458,-0.5363435652353333,0.6011696998679664,1.2931268827801126,0.8427684349327451,0.24908147068619457,0.4624048786160524,0.5984855832872743,-0.29664864478168845,
-1.1581033226750013,0.2629664141855496,0.23046647643884,-0.7589929591244716,0.012056867358289381,-0.24922656599272952,-0.04578895021718779,0.05378186603240106,0.10211561949062381,0.6650141917896332,-0.3840583625162483,0.09992939782093238,-0.8381783313259412,-0.6136339037433916,-0.06232319263816749,0.8985954682337083,-0.5993781014229713,0.19224465674554897,-0.5315444196305098,-0.4252474106515722,0.5180527590644453,-0.8656123156807095,-0.6461045940451089,
0.29651592685438544,0.10756541749272963,0.28801917679546607,-0.16452665437556088,0.6648056324785219,-0.07008742889441304,-0.5737252523433474,-1.0114983158067448,-0.7251014023365668,0.5956640860683453,-0.3036693990246228,-0.702607225399795,-0.3981755160301457,-0.1524079144993259,0.38368704869844444,-0.5376207636678498,0.3583712604849302,-0.09655514539175662,0.2910408896006073,-0.1333203667581296,-0.2944516183863906,-1.0881860780835164,0.045713261830940065,
-147.05329788341263,-34.78994185115607,2.844520474381398,53.03501654587948,-31.498314612488663,100.98206306289616,13.116905880521822,-13.235775492581128,2.196197544164982,44.863579892298404,0.6472867028254705,-43.63409327022995,-73.59919848102841,-42.0905012732901,-79.78369858594796,-9.617888813227777,-20.74424693065312,33.70484698376649,100.37405649044386,50.59347430918402,-13.303937365334313,-23.615406983082476,4.95864316518294,
-0.4355537208994649,1.2172963940333685,1.6893528712429775,-0.15857321551214376,2.305262014402336,-0.7788714744551748,-0.02015696306244625,-3.2108798819856004,-0.11418663719287864,-0.9130564765664594,-2.2676383491275964,0.132167275087543,-2.540687590351221,0.5343724992198078,-2.7739987880157453,2.0068844982003804,0.8263455042501829,1.8037459987066922,-0.9431543028467412,1.0665372708816678,-0.06808844380442533,-1.9357070173558835,2.3021987875636536,
-32.634190551455184,-11.140675607538439,-1.1282177075799389,13.477149381879473,-28.896705734150043,-5.718044647659854,-11.312569625701988,-1.112599245268581,-11.696790769256163,-1.6277948394679378,8.002194005491901,-8.843976917952196,-18.12488277717572,-16.47504996071323,9.271373207031013,3.4167692505931697,-3.209084290891919,-1.9958344438136442,4.2654086372783935,2.968369197056235,7.528014884047618,3.7045743526347197,-15.440502586646252,
0.2625996346619258,-9.079160747480799,0.5151353894323474,0.3436752061543814,-1.408465632148245,4.509056855505745,1.3210344993104737,12.039214328034195,0.9170014877358414,4.822913004068556,10.535778017624656,-12.106224348212935,-6.609328629471235,1.7401279737155568,13.067308477493924,-17.076155519027587,-10.011613692782518,-2.9265523509818414,-10.476891990251195,-20.28265466257773,-1.2160523534094543,-1.1624332644919102,-7.309332694763853,
9.32607911970698,-2.372428810827238,-0.8258939585269848,-5.009148966901554,2.390416500464658,-1.3172428920473411,-1.1096237795968757,8.612889038891122,1.3130672461751518,0.9636790097474742,2.7672504284064234,-3.7679393000691914,-0.17543737340010018,6.727307184736356,11.621959697799392,-11.796362742912637,-5.222440276600044,-4.276338679940204,-10.205074351405298,-15.000835505309398,-2.446253853210791,1.6317609159970448,-4.101942891225919,
-0.3479459911418115,-0.761639656876391,1.5450472948248049,1.160883224248624,-1.1200206826550678,0.3741259903779918,-0.35128202633631994,2.3463075284945347,0.9612456996153391,1.8330721072048688,0.3350308495283781,-0.6297693458735315,-0.8627060066875522,-0.02265217400974613,0.3585607237460379,-1.0593581336681326,-0.8832415765190547,-0.0077599494016883964,0.10866715827220215,-1.809302507587773,0.9999469635803607,1.3800484694642814,-1.9867401444746884,
-0.3327690917198685,0.5469569112381042,1.0139282234909512,1.020533462274699,-0.7351218041919285,0.3388896768687054,-0.42212356110123106,2.0563646539649083,0.7168411717804473,1.2176634758956135,0.1835966769992392,-0.34890474271948807,0.2910070969501082,-0.037617497470843274,0.30029567929001183,-0.65327833552139,-0.5528009797646712,-0.6990786625350259,0.47245208152099305,-1.0518061703532517,0.6583390489654976,0.6813241337244064,-0.6948079442060504,
0.8353036363668523,-0.10659390922457118,0.11405739098295786,-0.1988691815002578,1.0944316085092922,-0.4706023209472007,-0.7114219810846538,1.5797367369840387,1.009897151032987,-0.6060655678060445,0.11528900956075533,0.8659271535714079,0.5931615375857772,-0.10895113640316229,0.1188397410027516,0.9694119503355278,0.16859570398467735,0.5933944184906588,0.6547700998354282,-0.8584358212366855,0.4567843596795817,0.5751021992465936,-0.23829312729207422,
23.813285043491124,9.604166907724347,10.097884701611349,-7.420638138590307,9.749181756241297,-0.6142636868618029,-1.2416106197438466,16.33851695346279,8.63408015108722,13.2190437197742,-9.230367654938725,1.8676461617541193,12.666327579077802,0.8726115803989596,-0.6723367117101805,11.634190195270921,3.6787417479703453,-3.7199442867423644,5.63116353764979,7.873336787692842,3.4672828156338995,10.366813974845872,-0.18168302731998642,
8.048374463209559,16.50617494743999,10.172982633587084,-1.0297477617679627,3.674429958525224,-5.076984419610012,-10.031538022471057,7.294966313862267,2.554857322453861,0.23471913249255782,-19.200066647438458,2.15543716105855,8.598736328666519,3.8373086686189857,-8.339276684048793,-6.220013374437683,-1.5021340115294322,-2.2848075523163263,4.180072462543488,-6.326097932515894,2.122112864227474,-0.5575123583899055,-4.127050102026101,
-3.5685478167132656,6.645821113055774,-25.280474112853668,-2.4285874495788446,1.7933161599986889,-4.3958752678140245,17.160700295143215,-37.918356353724015,-8.832270385589576,-23.534552330636657,-0.28571764393776183,27.738777405509694,13.222666257576295,10.456698378910746,-16.72797021810333,25.819766144889734,23.253192940423236,12.001856195053872,4.471246721574483,33.951955318515544,-14.724849391338106,-10.14771058479081,22.861297618814497,
2.1742486280526547,-2.3558705947714484,-9.579273912000028,-2.102513656349382,4.299988028041758,-0.8365065333696509,7.689011888208066,-5.672051944765043,-0.11303608140111403,-5.49064795662589,11.47225455777306,4.007876646473036,0.07263262428779406,5.230419995083207,4.441531886044988,1.5795941114218672,2.377233083989881,2.2835742087011055,-7.27300487964889,3.2189804694740825,-3.2126691230513202,-2.131539655977348,5.3725233462821524,
-5.245817651373846,0.6043584086985251,7.079833698335325,1.3434765690367696,-2.2601059659874636,-1.2285247946283575,-8.271038350204996,6.229954697334523,-1.0620215356602272,2.134848793706632,-2.494141907416001,-6.4101681548442135,-5.6247557735369265,0.7353910161995287,0.7801034992194947,-16.007378443758878,-10.719539420487603,-0.3465663028319371,-7.4711880973991756,-18.773217599348705,3.0389447572398294,-1.3570862931432126,-8.610995629176902,
-0.6193405355617454,-0.013300737525970096,-0.14120515559064017,1.010100784667824,-1.1993683084674724,-0.11036358681250241,0.6633424828600721,-0.904088346669795,0.27791936647757903,-1.066682906664359,1.6578093133743956,1.5297906903642389,-0.24839532050858162,0.7595346515823388,1.2012333916106506,0.0031855468929480693,0.4120338517176719,0.5311689718750093,-0.4037280668539336,0.8317703853315311,0.19153092360631735,0.17209056211359633,-0.48645102009820856,
-0.3562143810075694,0.2070291848895301,-0.8930047869522515,1.0801229079200174,-0.40488407796636594,-1.2370913377836297,0.8513209765211851,-1.4181290016927888,-0.03537038838074262,-1.7258069516660948,1.0189990977722443,0.13822753432642615,0.3941679006263061,0.7089021095280262,0.17769562622500015,-0.00965251907236083,0.7848789195748977,0.13531657644914918,-0.16599393536289303,0.5123740252028004,-0.3436444052228719,-0.2813547168236918,-0.4943871550466525,
16.253573845241668,-0.9654637982338677,22.396956585616252,-5.626080979557036,2.2049394406064065,-9.245292913907406,-13.528133275593415,28.184261056630653,5.6049489324042305,15.498572212269123,1.2325255143074352,-15.127663467286336,-1.6554527288248397,3.1408540251906127,17.5117485175082,-18.330891912744164,-13.55656544997922,-9.102310119024612,-12.475682722718576,-29.134361312945767,9.573603090132332,13.902052349502778,-16.525026200802667,
-1.0352402975070278,0.5319127502568307,0.7012661131219681,0.032879632476154746,-0.5054939708404883,0.7395383413513784,0.7069762147165927,0.32561094032967064,-0.6001052373158952,-0.6525030211809147,-0.4126978851921031,-0.030344944045001182,0.7960141979900366,0.11014859539515395,0.5628654943317517,-0.08861460410880209,0.7448621566835907,-0.08992352605833548,0.40223136928118153,-0.7242884390718781,0.88192523820968,-0.02490512618394026,-0.2457598761237973,
0.01866175721434826,0.511581590040936,0.6568567907577679,-0.31559352504180643,-0.959992758446944,-0.8826420111877417,-0.976135917076558,-0.9433664729282158,-0.8472120248729749,-1.0949315778932769,0.9493089538166035,-1.0240620174385637,-0.9973495362636813,0.4893204266916064,-0.3453919769185433,-1.1664749634843048,-0.8836791854394019,0.7017079384611979,-1.1386521696823526,-0.9003352964146105,0.14547936107424045,-0.7573771058819526,-0.876917852099478,
-14.601631181250362,-7.148987156443553,-5.270003028126728,3.0832877209315654,-0.8958127005439444,4.5964535350800775,3.459048059497383,-8.343527163004943,-3.453637128809499,-9.676229697708507,16.615254006128957,-0.7170823766809334,-11.12090547979156,12.680988457346729,12.41296093984468,-21.573721306784893,-4.517138742295795,4.675844277345929,-15.286342233136605,-21.47190739665769,-6.313907946136632,-14.628403103781121,3.6820915997102546,
4.3727927141702265,6.634923737407888,18.828226384695498,2.108704521351,3.210910780657287,-21.67946198292614,-4.972317061027785,-13.419064146439613,-2.4253270585240236,1.5626746593158598,-4.666655380045907,-6.206284768990193,5.790039783732603,-6.321369185803782,-34.561948073854246,3.57319284970525,-4.175286355660398,3.1312494113966136,23.152248005529728,8.33885918504517,19.173232131350055,19.703200485952696,-1.442452366481803,
2.1853194822400126,-5.6415199850122875,-11.71971166323221,-0.6228779156476287,-1.1165958178331206,-1.552385073445997,8.551029022827768,-12.869867174703463,-1.0621024336403704,-6.806360184729804,7.416876803588001,5.62854760984168,-1.6205460212106813,0.16154538988277833,3.8236066865751805,8.068312554145514,6.257029639208477,-0.05895545593744442,-1.707923063943078,9.552756527810608,-4.52229901660041,0.4843176721652766,8.293347197496521,
-11.550940684198455,-0.7252046053941332,-4.853220691266503,8.933806136109379,-3.690138486248437,0.6922088191024515,-2.808791640030053,-4.935702792391286,-3.8562941685701655,-10.517831283838486,5.018569904972512,-2.5654388608706578,-8.919462794587806,-0.28424415513937157,0.29022943369343024,-3.096751502066997,-3.4500464460555818,6.029698139243647,-0.6242368178558364,-6.022991680276723,2.9723079045723875,-6.408175526673998,-2.530472973392061,
8.80838658237527,-0.8381004903706577,1.1473736720935035,0.3332033794397548,-3.546082875925281,-1.0373164228093423,1.815566097941539,5.462113881909869,-0.19005405798624841,4.1568215022688975,-1.6112280210244279,3.4666214220224747,3.7041164893585306,-1.1731149649017865,5.1774935800389414,14.162339995884112,6.109323117424013,0.24839625826995448,1.5417502305393571,10.965328140216325,4.898075122884378,9.971237397093272,3.4854582563265195,
-4.655935364320068,-1.447828137413996,2.3297754793050967,-0.6028888546154112,-0.04198270036039574,-2.4753164926034272,-5.267716344587495,4.1351353224097025,-1.692606664265896,-0.1152318418892311,2.8124498465615844,-4.4722313285655995,-4.223946497048078,4.157414028799938,7.947967617047853,-17.201047451641045,-9.953619833786624,-0.6220209120807134,-14.030719024297714,-22.561110128962227,-0.903782440174211,-2.9673947380140304,-8.20694434155662,
-2.1920568295470506,-0.13206983453538595,-1.5268883279771353,0.22671101653266054,0.030368762518610763,1.690499884665717,0.843199471903637,-0.19837443088561288,0.5419631561361233,-0.45326989822210234,0.8747881881407064,0.9461202286977124,-0.5246659491008518,-0.8070642450058836,-0.7778578136159778,-0.27005938070245067,0.946011403710927,-0.17957273931124354,-0.12733477099372786,1.2443611146934555,0.5221308045114964,-0.5331879643979127,0.30821352118165163,
-1.2154086875876216,-0.19547364082359783,0.675925086715351,0.002890239422990531,-0.7368945883198345,1.9220976608624643,0.605423313844755,0.9808742137993219,0.1380093542285673,1.7132954059838177,0.40839399846377056,0.7697911258819423,0.5754369823806033,-1.299285427023287,0.40851861493787545,1.1524658247563386,0.4667575046045636,1.3544170706251526,1.5946363409204112,0.8935557480233011,-0.04452551075483625,0.8001420636803961,1.0167861901425135,
-0.06115178572548487,-0.18911457498561313,1.5096264653906066,0.6663746735537965,-0.6158057612111998,1.8086661689691856,-0.1337762787051673,3.487763464096688,0.28834701651166894,3.160608776860142,-1.2073923521780818,-1.7423240711314627,0.9737173528443309,-1.8268202041616952,-0.13282608351043323,1.2141510489875158,0.555879008007308,-0.7576792790832366,2.2615456853480276,0.977491127834538,2.113157870873368,1.648998269289618,-1.571588199022513,
-1.696637720993542,-0.10488793488265992,-1.1586375733631002,1.8913371546775206,-0.5891584568771138,1.4596184232555853,1.0769287015067777,-3.138329079427702,-1.5108686384818164,-1.8097946335399084,2.5183187898939625,1.2101168267808968,-1.150086384310841,1.7630632464718428,0.467102793156293,0.7969986611769362,1.6171007580264507,1.2970264808399152,-0.07212054087900867,0.47599584032007214,0.387133761211167,-1.7635201255759172,0.3137565317281214,
-0.24462865799412908,0.1651078111389198,0.5870361061327708,-0.3118592811673565,-0.2039361048457954,0.062114841006935866,0.7865700804025606,-0.7476908896297786,0.8273941912778232,-0.45782507069256706,0.48214436048619214,0.16744376072595002,-0.85766057057763,-1.0092891325910838,-0.4673451941639726,0.4328122229583678,0.9927682830332324,-0.14806100507641418,-0.1138129015635494,-0.07521907901223468,-0.253844112352514,1.3301579231471488,-0.39368583207827434,
9.670270281184793,-2.793939140155621,-0.8963153897434722,-6.02619119292048,3.0145733039356357,-1.6762019589801525,-0.7977700052088124,8.10213249228476,2.113358495455541,0.5898036643821908,2.8864106825042852,-2.5051862239001355,0.3370061812192033,6.00637825183318,11.302916944717088,-11.42040536469255,-5.162064593981656,-3.9814461366886027,-8.444160601572708,-15.149594626964566,-4.151235129988085,1.1468996021665103,-3.926277885926963,
10.333710756769177,-2.5438805695391706,-0.07415564325847711,-5.130505101650964,2.285066017670616,-2.021791128746577,-2.031416371406855,7.945594110520641,2.599764240133493,2.165815493412814,3.844196562213962,-2.9160809269522106,-0.15125937922726063,6.454004327878065,10.6974944235879,-12.325958122650535,-6.216932396100148,-3.0656395523907047,-9.091882490750997,-16.698981366244254,-3.1621905382617728,0.1615628376930644,-3.4493046357093635,
10.310806534611018,-2.0381659031105896,3.030124348649032,2.6066734390581,-7.399376849360053,-5.905423229636196,-5.344744622393221,9.30987778217937,-1.926315723702704,6.647821231392484,-3.218196543955905,0.33128056175125414,4.35167147179655,-9.2051143681354,5.341317384003235,12.09854708149441,5.247095400848969,-4.051524508645777,1.5872354037705099,7.846512503866321,7.5002656314541385,14.297173564466735,-3.734406534501395,
4.68844056748579,-1.841587427115813,6.54424524588269,3.957042315020966,-5.104300184403205,-2.074377263026422,-7.354915800282772,17.972531113508847,2.0415910118124665,12.369239879082897,-2.7452680033478623,-10.093040918277213,-0.7296497167090809,-9.962103880702829,2.6015930229455884,-3.433029566123436,-6.988206914831701,-7.645638692095553,3.671202681780125,-6.521486694118832,7.750403441040362,9.56381140638725,-13.053949203407452,
