462.6061289690526,1393.6158063459425,-689.4769942356015,-2204.0812134810935,-2718.0995239712865,3009.7572151731683,2343.42154982979,-335.6068623126526,-2436.5992535425366,128.0585514642446,-1268.482294538453,-1489.0151992407882,526.569016358993,-953.1730752318268,-662.0526190227456,1192.903549624186,819.8345360899377,-1126.9726684545271,-1730.6881243893029,-1134.978759743714,-216.16391149567013,-623.8023618166206,-1222.055756483139,
-306.0697715144815,-2709.44874005887,-828.968393660615,5638.25206568625,2776.469335508192,-1802.4245944590953,576.3030974969824,3114.339461920885,3985.503260923497,2487.25774218979,2343.6375398787027,3883.201751982386,1953.642628716434,2559.934704469632,3191.7571422839646,-40.0572878255608,2683.0695271749587,1980.3051036701572,3162.3494740037677,147.28659636124672,250.93977175590786,-992.9488920275999,519.263667807935,
1204.6029755697582,-232.69867845176034,-4387.403220234376,-122.47675272415366,-2247.0885662857404,2821.6478520128176,2810.14010710878,1456.488726360583,630.5596331381774,1452.0543970194444,-1070.8560755827214,91.78408375964811,2162.690033141741,1782.13572649794,376.11128264274276,-198.55263285850052,3075.4288789190728,825.156570763538,1371.8380538250078,-663.5722826252373,-1627.702741502655,-1114.7052932097552,-507.01508193770434,
422.3334433471306,-6196.378208114099,-5043.896028486623,13426.51377166744,6493.760347619521,-2766.2333070511495,2123.0930928923563,6884.755986659426,9404.089625888173,6559.196892228541,4182.770035122563,8140.641845693516,4356.218609119606,6421.787753430596,7028.122979741577,-1123.8389045190652,6834.008813384267,6304.92938644218,8471.227400643735,958.0713082113613,-152.77821575959695,-2342.3547765993435,859.4454013625796,
-4292.345650117038,509.89398173204154,5415.8197508370895,700.2721306252006,3335.207492001532,-2111.730855502893,-7105.267946795722,-7142.997083922654,-1987.9426994360954,-949.9851787633786,-154.5144748835891,-2142.971626735648,-6739.666372869581,-4702.5426907269675,1635.2679285716613,1561.7196871639442,-7649.802322799012,567.3010005985361,-2890.709441587096,2173.4085917870966,2336.0998394020444,1828.3027013205262,-2392.886284215588,
78.32137158582938,83.78626344460851,-48.820926348655036,-21.53088292601315,-80.52171511259725,230.3892830443304,138.13375325472018,80.8970592105333,-155.31337141839097,63.77321521530028,-156.54713351782254,-180.37824632476415,76.64859440941989,-117.93363480550103,10.445600552674637,102.10991762589549,128.80804448975655,-44.82160172475453,-183.2996847748273,-16.592917890683815,-43.57362646635708,-184.54616539311954,-70.84882005718964,
112.17158654524009,21.89541543804337,-237.7921893087061,-96.85577162222856,-205.2028560509482,173.16732397744974,221.9532137159875,125.73698123274688,-39.61087827731353,43.33314336556221,-183.72573152169994,-80.27543251378384,176.0049396781792,114.13494549990186,-51.19296943462428,-7.232025804845521,250.62234451330596,-55.29192230675722,-21.085681594964345,-98.44388510091598,-141.14056045103428,-131.3276081682692,40.14313163201864,
-14.520487011747985,-43.025140342553016,-16.718486680085892,-4.702442518078577,42.96520947699205,-144.11190284770177,-78.97057180152325,-33.395053105408536,123.51154403874898,8.489047940580242,-77.50204890652255,-66.331902649228,22.840263176766324,-5.731483859370888,-36.45777931142059,-67.00400140203799,61.749112475717915,35.48545914788535,43.56751251151944,37.30276437290447,-73.4269337612591,-70.02980074123272,77.17669025283001,
55.4130313282736,7.18686096719883,-122.80414330659481,-48.74794253985202,-72.58623516777405,58.02483599582108,80.51467106432945,50.16512765131617,0.6782170436927826,25.434012207149934,-122.97500458298106,-83.03830948118842,82.45957749726139,32.00778309657782,-31.950936580606193,-19.484188793777356,134.34136150509573,-13.193079066900848,-17.94772999917017,-26.600798309903674,-96.73175068412928,-104.21632211300117,28.44268614814902,
-16653.87995442875,10223.9967755429,-50351.176997227165,31987.171835016143,-14375.968930468234,35589.529763064485,-15657.33049918028,13314.0648832626,-17588.87621800586,-44284.395268847155,4911.8301336584,11940.257738436309,-46672.0203548373,33268.16524343415,5941.913033770474,-22936.23976252897,-42344.57997941621,-31224.34361995684,-30158.494372018053,19434.489481921104,-42056.61931708816,5646.975377548615,21451.84550535155,
-1934.642338576549,-4018.108199996749,1920.7885276410216,6285.71753429752,7237.388709239473,-5632.737031278759,-1164.482659878018,-5321.578288647027,10390.175636748812,11661.179736146603,-279.08884254533143,-301.0248215461505,4827.283278864866,-3975.9021483017027,5199.850530531893,4634.361344396844,4960.822880734682,11052.17267924515,7476.535468408925,2373.8783772446463,2971.3065655216024,-3065.2463502649885,-7735.61494163677,
-10712.560452943888,-358.39126246188135,15524.89210281598,-2869.877582911532,-14576.381297927077,-6652.5945065861615,-5766.653640628541,-515.8887760014958,-37.32331408349577,-7236.541805781555,11334.45745142725,18540.745860680556,3198.519160830381,10423.42564001035,-1983.0206149866654,5619.191083283793,-4823.559053508162,-6373.579804103289,5303.233424826774,-8418.02027738362,11831.959905533951,18467.051204568485,7325.544553667479,
-497.34723947948834,-2477.4933400207647,816.9518611799909,8789.947258931077,1952.8834307882132,1956.4999001256658,5173.8350552475595,5911.302610862521,1273.1429567144253,4792.435497331491,5321.460698968827,7492.728155298254,3017.60054853969,3767.2420896061576,5501.380463397507,2606.449174290625,4041.4053481576593,1969.1600867587533,3116.9265439625437,-2285.3828660949757,3767.544099780478,221.96502107462302,-1504.102129761388,
3638.1952526676523,-7852.453744620466,-10021.945759276288,17634.715606933758,8771.315025348089,-2126.4213408888854,9437.925978425796,17461.466953052157,10711.49746933136,7529.765587177084,8277.15109178704,13007.668319256745,9665.578105167222,11131.223387132673,7552.9026048228625,-2800.629166324387,13028.78491523872,5420.492784649162,10435.43297250673,-642.77177409535,-1184.1383374960058,-4257.660933811799,3934.0631562020258,
155.62431066148739,136.29017165680992,-56.41641047413196,-3.3974296143872404,-345.9110223922585,675.2859243141431,751.3853287329893,257.64214066274286,-480.18352674502194,247.34970248447837,-165.61944301341606,-148.69876830776968,299.8589796244599,-213.289545948398,82.08986163668013,387.46945570904916,469.5606606823143,-194.88089067228873,-368.01404427989405,-275.39820204074874,23.72545724540268,-404.78133635219183,-266.0874653570785,
76.81707252215335,32.37970849629976,-10.588879391253675,104.57072138329198,-139.1524828065963,343.8905887931997,420.9705874796683,179.03396266355915,-218.59646318710654,183.04248312435962,-73.53082222454377,-41.53874939848679,199.10799224394492,-110.78146162754284,100.125034415064,232.5856845307617,305.45457081967976,-78.74739354268422,-178.6563254465807,-141.88187363107994,20.56151479081753,-259.80403044341665,-154.22127298360994,
-41.593032697900576,-559.8848385498655,-403.8425928994791,1270.4905323932933,526.6400749525765,-404.34526950259897,41.460498986384,670.9878361002948,779.6753324023276,353.18100979940084,275.46176334042354,729.8686382435176,271.0127068005969,662.7022403769334,547.6240286187032,-247.93009339257463,551.2243020102023,263.50641254052977,556.7370455929935,101.52954323614999,-155.68866809057755,-312.243536824783,425.07770933621356,
-9217.31444310716,-1412.8532262795172,20690.794740107016,-4373.714382501035,6345.414810151844,-25656.812975312125,-25134.704255611436,-14550.589696981055,3088.8935556315782,-15857.807833676312,2149.006154890504,-1059.9447287777266,-8365.569938623305,-11383.291488018825,-10431.521543993857,-6634.974146669614,-18637.75688287922,-6162.704647279168,-6632.401823162615,2562.8903709465453,4041.7837397600774,6212.922722922176,7899.629382253067,
-1803.3499496617044,-535.8974285498987,3501.833383351443,5035.475918950395,5147.990228218503,-2686.293494039312,-2975.5307462948167,-1241.071527135594,2747.260536182355,2476.683163437638,365.27180033682106,-609.7606565165931,-824.9579440865923,-3438.350274054594,3258.907352150879,1102.3475839459597,-460.48392581375083,2577.5644898264286,771.9601476577209,2139.508919149786,1786.6669110869084,-1103.0056345195555,-1042.1793080959817,
-9797.684564600862,-7735.626853007818,25939.790543218653,8902.930805144004,16107.543456274012,-31660.386320084934,-28470.926267244104,-14321.172537145843,7141.605655929983,-6189.900035857699,-8646.605881032505,-8205.6943737398,-5872.536047707466,-19878.03172879423,1646.7008433243245,-5602.441489881019,-12696.133817682448,-604.3114832376102,-4610.344181789272,10192.760823963565,-1346.9873434642536,-4691.666013190264,2754.356759217266,
-1091.0717044050439,-754.5697505355977,1282.9289707314651,1490.1546547461235,1342.3686079692704,-3212.1314225104584,-2117.2749041597003,-1105.817151756959,2843.513397810664,679.7608774431363,774.0106196997664,1216.3277261750186,-637.6671518339374,1408.409588273795,416.8045864176249,-1166.091533279136,198.26030367502148,1325.4460828725446,2030.4276880210373,496.81738098401024,14.345211972089635,904.2293518654803,1517.3586514692531,
703.7616442841596,877.7705862760912,-615.1485814810374,-2196.7316484221665,-2239.2165148629024,1758.6522944395701,1631.402937765772,-461.2284596182082,-1969.7206923834942,-186.8781870939159,-1097.12250043284,-1184.5366815924658,456.9067082250279,-189.50851313182488,-1100.7104416420689,551.1822430875693,558.0995915559245,-673.4778388919106,-894.797313547364,-790.3845708437399,9.41869572228074,49.578624832384946,-635.9458170988263,
76.45021591960045,82.98359698428699,-48.18049452149084,-22.478741312886314,-80.2228212829019,231.87144023865255,138.8912943498958,80.55315366989156,-154.29953335013664,64.68795638347459,-156.70096521877335,-180.0969946783549,76.17529675925263,-116.64828205907166,10.055754353810038,101.64003973781902,128.98895703056013,-43.489072221811725,-182.1245726283122,-16.0279094154448,-43.62212392385435,-183.48432455733032,-71.26139350513347,
-77.84424337555451,-199.85669801776106,40.61853064891066,561.5097119518094,433.48308315825903,-291.58740451448523,-174.8084966068282,279.1147584852513,379.84003537012995,127.73615557958189,117.11013334025813,210.70879763098995,46.470553246422696,99.13631770356349,270.77762523554316,-90.33877921274865,131.9478916031072,87.20336313771205,103.12975430903565,109.3145193468122,-68.58455647103358,-202.68103193864263,199.9254491760064,
37.09164409715779,742.2313472307154,-406.0608212344453,-2134.8798525038546,-2115.4121960820735,1323.0458231954392,673.7452432941085,-759.4598599844812,-2020.265249201777,-1029.0473296495502,-278.963301988202,-246.4359546141277,-399.50838844664895,86.13491316352977,-936.6952440225531,247.54312867638245,-1019.7877760898066,-1110.5228770199158,-833.5762736557228,-929.9862657386311,304.6245757606508,1049.2296691407971,-466.66579754275847,
-14.758001303067417,-42.84090534806111,-16.98292943309791,-5.713826558220944,44.04245336686797,-144.58776014772172,-77.92809390153977,-32.5913840090153,124.45621835973483,7.7678935313396265,-76.89848024325921,-65.69218217651303,21.934773535445007,-5.736971026015231,-36.800969650875594,-66.07750238254523,62.85698328116538,34.957164227595555,43.77391518454074,37.689913515220645,-74.09620761084378,-68.87632721749188,76.48254149114655,
2.257439789874017,-60.322296787425095,-19.21344876141398,22.426073801761245,152.76850663702822,-262.1766228645434,-180.33656932398728,-52.124840730132725,294.4758601173391,52.590923071037736,-172.09008364728032,-191.56014745783668,50.53061019415093,-59.93188866243877,-77.61211616716187,-125.88879726527726,151.72014510353475,111.42530988880206,69.84885867870803,155.7029473049969,-185.90483028792792,-198.49523620769358,160.25655818871886,
302.61618829880814,-11365.296612142896,-5845.289936125975,24563.630744941005,13811.832312617524,-8966.679961513402,1494.007793412158,11821.718329232934,18441.635221173052,10837.105790782573,8215.82096129791,14783.864690540111,7254.509681598396,10534.247548198826,11682.682196160555,-2993.2260756780115,11595.942995171954,11300.227740874201,15337.365569582089,2341.1275558455195,204.47946927662053,-3693.6171620505297,2692.4810427575917,
15498.867264931907,19436.357350033584,21369.402387451228,-25581.88465665944,1265.8606953542776,23683.026382058917,17082.61234583345,6327.48291887619,-41232.51620744096,-17748.776156536784,3939.091972991834,-15698.326866671203,-7767.287494889914,-15886.644790898712,-18811.97106370653,6032.590068808633,-11561.799811194709,-20232.00830847099,-24441.25276938452,-1494.0385960788565,17940.666444698665,9265.061003452991,10572.554850069293,
142.72817119267646,-11189.173634383655,8668.035466321362,4316.634696718556,9889.648283147706,-22142.28523504352,-4424.238291432696,21727.253100580314,37655.53870102553,4119.917287729211,6332.710620067651,10867.992646553284,27361.468939100672,8495.051222666456,-862.5479743445293,-9813.35510455229,30645.923306579916,10571.69166502605,30999.008851146125,3627.04857406268,-7559.084691341127,-9375.341427300224,14136.040903492683,
11127.07149836218,47474.992519562766,-21541.842706678937,-82819.73613582375,-12331.394548524771,36683.357317379785,-7824.003857684373,-70347.37029528903,-60036.08204960637,-37417.999444598565,-37653.006239293434,-61865.95436615969,-79562.11386082269,-28702.580390262065,-39195.2488122963,-10504.948231047347,-81652.19418664736,-22820.705064620943,-58872.25620530851,-2502.5627439247937,-3926.169136350918,26638.057289627493,7371.056939727238,
6228.415561514845,-7616.630818692595,-14185.809771460254,25728.462152277414,9311.364785202442,13087.30995202272,11184.394625290643,11548.13693649461,10008.848355950606,16176.969007989072,1009.1022941614217,7063.130185957613,10007.809147909664,6601.8432468706715,12434.685119699838,3636.322788984022,21328.115742486534,17213.395995505813,14568.460855845477,2425.9537037743557,3781.8568812916938,-6480.395283333271,-5616.814316923459,
424.8074769796571,453.37859307252313,-509.79132532167836,-770.7816404339488,-617.3843880268355,663.1223052925409,342.1133476521861,245.42159142929876,-878.8162702041451,-518.1086020778648,-605.7333577531779,-585.3251060638677,-75.0661474065885,83.12246843809142,-585.8617665727021,-193.90952833123205,-24.69641173897537,-650.7630053357001,-795.1923094571052,-44.78692733106321,-446.9648151416329,-282.609564671522,349.6837118677201,
129.06171326806052,52.21130893610884,-251.61270980303755,-155.09182334751603,-231.3388547580741,194.18020023325005,208.05325980310172,120.32125896124477,-96.01043273712386,-5.768569618850004,-214.77500091019212,-113.43690563603434,147.79237804489895,115.83788518186618,-87.27851595302616,-31.622326028075932,213.14977968292393,-99.00208632223647,-73.28629088457386,-99.31726565705551,-164.92244362644482,-124.18917435948296,65.577041818875,
208.24753652221898,69.92518945088347,-438.51903173219614,-243.21417775605374,-511.18808532878063,408.1623191071622,494.8774069779421,233.38998602497426,-162.19585599532493,51.920678869319424,-290.532119801471,-70.21328243103441,341.7799736663394,268.59907865712074,-113.68256432638482,23.98667210490601,434.1777546692626,-159.3639366978236,-38.435315967769355,-263.15811998677,-203.13234382637228,-129.35431294112075,45.68023035355943,
294.903718808646,128.40149218864033,-635.876105346967,-431.8712687072881,-877.5380776193867,693.0638357012477,809.7378492873048,316.11196225658455,-318.7658489358451,69.94736130389254,-388.13534322890416,-43.85395517533494,520.3816234992454,417.23689678103295,-175.77374667818765,96.50334334442624,610.6811588997892,-267.9015375828458,-47.5634686810491,-473.8162249831698,-227.92224529892658,-81.38033385241616,-5.607999928850221,
40.364834775645285,106.4369457219409,10.977085000016238,-163.30903889860662,53.82954515841726,7.792607687466695,-141.04594799133937,-46.38193365376879,-153.25632183230385,-139.122988549771,-129.89028116459878,-202.86309768544035,-144.17062992032058,-100.96621400219769,-108.1882390535573,-83.64747806586276,-140.1822467558143,-93.69289284451659,-216.81276179673702,69.3747832875203,-91.0534620588311,-70.60094888137361,85.61178325744885,
25.622059330509707,-157.88177663408584,-40.70297796450111,325.7867572484655,353.9428630027884,-224.80607093632858,-111.9168872841095,146.40760200073316,373.84155672983144,206.40844481280428,-112.06813376323854,-98.71855629090288,142.27328094463286,-59.674346241525384,148.51385471482328,-75.00259781825638,297.6416555727676,199.45652619731308,109.01657374323065,187.09018615834358,-165.03741390975566,-348.45881624960674,103.30238469698548,
3637.686355102107,-7851.938204605037,-10021.535718938838,17634.35534798885,8771.011091381528,-2126.0797398776967,9437.602359709712,17462.493853724955,10710.453455339471,7530.029390739899,8277.199751915592,13007.798732073046,9666.223799872254,11131.887954138923,7553.757691401888,-2800.530263127133,13029.458696522055,5421.162157807607,10434.64944657392,-642.6204639680734,-1183.775003212788,-4257.335272214813,3935.8658330378667,
3637.7851507051364,-7851.972143367172,-10021.245783058535,17633.638279863953,8771.815106024902,-2125.270056511272,9438.090975985411,17462.597917949133,10711.259563124278,7529.291432495285,8276.74247033214,13007.194781512719,9664.592722713414,11131.225857583277,7553.400982221045,-2799.851283932109,13027.972954035471,5421.431856954013,10435.235813568248,-642.0811281860189,-1184.5486861245147,-4256.947818927702,3934.652300078269,
8882.20333929919,-6616.342456065817,-21253.646021028595,24182.773538865767,2187.3677199822714,19842.04260960827,18164.26018905807,19007.800942882237,6105.453459982562,13461.674047652123,5917.419232189037,14930.42331780288,11514.693401195653,16791.799640913683,12803.601369013079,2696.5275816521994,22302.001923288262,13158.138683682668,14236.735050947615,-2436.1189610796728,3412.166329840474,-2344.424426187293,-3862.4005524827894,
-1015.8785385258308,1496.8919547849268,-1080.2234019385417,-2959.0899761216733,-3030.0298053793795,2579.098723691331,-963.0138366179641,-2511.571100074448,-2443.605888603661,-1514.5869647058976,-1691.0736374511919,-1108.0106453984174,-1704.984899796947,-222.93499728830054,-428.3799182243628,138.82400183191734,-2740.841880954036,-1474.546780118828,-1772.6020940661178,-1125.4850337303628,-856.9066106308832,1180.245815316741,-913.7858552352728,
