409.13017667588446,56.496308244789496,373.0706299613099,64.04902384558403,258.1321752579399,141.92099150394526,179.9041180032441,149.32463209362396,120.17671277654833,94.20998822110141,424.55939800649674,256.71181489444666,223.3175965059964,405.6704292995569,145.81006639704103,656.5890651345129,100.79407610691531,327.16855941708053,82.22713273632486,314.26599369964737,214.6734311273778,232.4937619883401,95.97145878951036,
-9.64572465208218,148.18500578161908,476.4552886117735,329.1046478887219,465.7118025762858,57.326998191193134,543.1763493118325,355.27636340775916,293.7913018159853,-86.6513883199489,-350.6192581693967,512.9480146680648,295.32553768013304,277.5065795069281,279.541255084637,451.8248072865145,618.7326767421553,584.0659106845914,846.7659306805748,410.7499533680439,330.800149334504,273.46326278439244,389.3808954410427,
855.9320040496767,640.0952164423234,1047.4785429292049,724.0056179763899,1258.4714845817452,159.06632102302567,1219.0960839695001,1102.5892995081988,684.5382170064129,274.9785086533467,172.1142300310466,1108.910963913171,784.961180136566,747.4186076920737,835.316842209915,1588.5185342012883,1180.9863176373315,1155.3176600517183,1280.9981262523474,1093.4490299758957,928.2524865560699,870.8243221111625,944.0423431061134,
-96.8066971204381,714.4328291090301,628.9051324210865,803.5343960220694,1300.3731129273567,135.7838761481271,1454.2773790990932,1235.6825979546682,865.9753648790833,41.252403341367135,-807.1516588285755,1127.2241685156976,890.5429288909295,66.3764919573875,853.4627576070001,987.0421800381755,1536.067380353554,1200.6957903592192,1930.613164139447,836.1828059578816,937.6786137830563,566.6618263228551,1078.709540500625,
-2385.0227470543323,-1599.7864785600575,-2029.8106555308054,-1640.2075114513423,-3054.397745198848,-166.3085811282806,-2482.1964619635487,-2753.312630531748,-1756.0823810356628,-1043.1787312876484,-739.3570104455681,-2329.281749290793,-1484.3046170885184,-1519.3201476731308,-2039.49289952629,-3206.1268283269114,-2765.293259131003,-2324.351919306702,-2420.5420858074112,-2296.68029198028,-2027.3846596140431,-2145.2738361637385,-2175.802517076005,
5.256624954285911,8.534968653046858,-6.401626721116361,5.690101931215906,1.2121883558288904,-1.988150570921241,3.426637479931069,5.437612797480876,-0.16399606738497405,6.59677529041599,0.7416277355813574,2.0249843086572192,2.2390206937808905,-3.037384815399176,4.670982338065216,-6.76353806708956,0.9969551777335629,-6.57396213278556,-2.5858625232772248,-2.196355018913414,4.041186017165769,4.627742375331585,6.746847365368818,
19.672730275532814,4.753719787014567,6.374505836071581,4.489524154879204,9.490712351870451,6.217968298597334,5.711809369584566,-1.059122509829626,8.562544272870914,5.366308845420262,28.766619136965506,10.981157091073703,6.872186046595219,12.848902072909349,6.252574926934556,14.474221371180114,-0.46637327728035133,5.346630586168435,-5.82264134225074,5.250971339095723,10.548392006833046,16.034129153848212,1.0045063417578988,
8.030691051169164,1.7121231757658986,1.9683956772573743,3.0256325185386177,-4.866577609018162,-2.764730587504646,-2.0156372657802946,-6.6817934154076415,-3.086451538986107,5.026166128356009,2.786283830016836,-1.4541192771813707,-1.2596843105455704,3.5411950343450695,1.7991436941976668,-2.677066979332295,-4.530282544629487,-2.1490213116242414,-7.15273356586065,0.28683243401246605,-1.2933333811649639,3.428614451545401,0.2095706278675731,
7.9998767571751515,0.36895881551414234,0.04853220297083422,0.2149336286135549,2.46586291417185,1.408400222516834,-0.2932996985810353,-0.7619195299371683,3.1442658701093547,1.3189055899689266,13.26347347561634,3.5192906422508177,1.9116553782181618,3.77034568699746,1.0025198780409086,2.5361666564361456,-3.1507942646622826,0.6682971578478797,-5.729128777789909,0.9558682455814286,3.6552900240657458,5.6490525399037494,-2.2460490148753287,
480.731118490832,-3845.302796260895,3554.0618917821034,-7047.698107970333,-2689.753751748646,4018.8485617109695,-2289.5981142070555,-1768.9537458527034,-537.9265005745467,-2735.635351389632,6913.207731979853,-2188.558159908387,3205.886058736865,2854.7628913476083,-1301.2236283623292,11883.015669172693,-5525.398264606998,2313.42999143473,-5419.152179318213,1401.5574667053336,-1428.8740665946418,-4831.3740645411235,-6231.344642332364,
-50981.11509105011,-20948.841312082837,-45534.132747431686,-33730.79374109892,-33132.71156859427,-30221.825999188804,-20823.057256781805,-3779.8539269427456,-46300.11314429612,-18271.926042613395,-78313.84748106125,-39122.37806441741,-30649.965837055348,-48279.02307002704,-22325.533316645,-38607.72056579204,-31599.933515522232,-54047.380337658265,-26126.760577515066,-24698.514344272797,-38694.730303677185,-49609.26943559402,-17380.71433951972,
4919.954712915977,-2285.1212790443615,3330.0839647383104,-2478.7320430539694,-8192.166908333933,-4797.8842432200445,-3277.2058908012064,-6232.258906247225,-11141.963505153375,-880.0276688159065,305.38455277884594,-5913.9594018417865,-5506.994553274671,5033.7782248032645,-5752.102525662258,-1575.2526354673507,-6277.798780403532,-11638.455443147725,-7812.906449214888,217.7563144241271,-4981.903146042649,-2438.579681408067,-3124.582293797961,
70.73435574507269,96.35813865977534,527.3431330367869,-2.821397179410264,824.5928007972228,227.98980150816794,169.7430358494317,734.899161656963,706.2222581976008,-97.67133444519989,156.14535907587558,576.1539315380701,296.15192995951304,293.3458579301828,170.4035537660875,1061.5267225269622,537.017141124714,732.709018602098,693.1208027201225,444.6048356299428,385.90343077579547,199.3416285286472,163.20947203735378,
-768.7379917710631,260.0297195354533,374.5005780411091,-156.5213987936798,1474.869763448491,-90.42104633160288,1605.713777826034,1392.9221998113546,38.97298444534489,-566.669896412467,-1665.9523773594672,774.5142825700916,950.4974518129018,-199.6569601551092,451.13818102180255,2541.77982641177,1189.712158727531,741.6013943489892,1603.404909021364,1279.6477353327937,563.4678822111878,-487.5333694856787,719.9736991200743,
111.68470076884462,8.35173236531508,106.36755390712675,11.412531912039611,65.23781161242879,45.523371300311844,42.9900127913795,30.328901785738765,30.98357699094333,22.51265949075908,126.59930001299047,64.08644824335414,58.97721858837854,116.84810808093567,34.96256060796659,185.50778048806416,19.00794812359364,87.71906828387998,13.410742823118937,86.53468649078248,55.17482301680848,57.735186329475766,19.396707709778973,
47.6466380732209,2.2227312157162813,44.423946437272186,5.518925466334439,26.554578376701684,17.76816456430238,20.100049517413872,10.956978901166613,12.2373045691881,8.516822295633858,52.249657221021664,27.3186057768572,24.383496160746503,51.40463607540372,15.411122486563535,80.02825669386483,9.100466298113446,36.53788604659544,4.596352040049572,36.44332866223097,22.914488474270794,24.980141228125706,8.440333012574529,
-31.645166329650188,-36.10767549048195,-60.541072311853846,-23.778160716570284,-108.38139138934378,-51.256782894483415,-100.23937786887055,-51.00564290025958,-79.71501504151402,3.693381575400806,-69.6662801730651,-81.57136849404024,-80.96264486533423,-37.566793512659146,-43.812287210473464,-157.64572421214345,-77.20949206957384,-85.26462176160237,-78.12330808487766,-61.137319758940365,-79.353966348867,-44.728969193142014,-23.935189362880102,
-2416.2142110849527,102.31221465001839,-1976.7392121000287,-883.8521647079924,1298.0006285267573,543.9821064464462,2195.426790584437,758.8204724732452,135.98797062679202,-786.7728021580994,-464.69392871556505,158.85830366628343,1495.0549313243114,-2473.670893632477,98.68087025358962,1750.6349830669415,786.5273103035371,-424.4754292065299,1011.9119434735311,-426.5215097815721,988.6990684862752,-1268.3336065455364,-561.1005057094371,
-87.98225834381176,1262.5921246040186,-136.35270269636865,1725.689450081433,744.1683987615321,-477.29543457307176,706.9134321002797,1461.6087719374955,784.259945289027,804.8442605758413,-1678.7067196891583,817.7134682293097,363.58556324324746,-535.4849575487625,1141.3828953441393,-1637.1744779491603,1492.2466472487806,952.8274348242581,1887.9789330690917,153.58384552613785,704.672023998405,948.4985786289313,1825.3039965978178,
-119.5158363347009,-123.96980341135882,78.2190070531065,-232.4013986867397,109.46352019052911,9.44928095448739,133.95989402541372,96.7920992774271,-88.26438702229899,-141.1905803085248,0.9595923053614213,-23.53217915392376,58.05941996842341,-171.58312506125404,-5.9808210266050725,543.2022147315104,-125.39322655771642,-107.06177992184979,-150.33244305610975,172.75688898895368,-23.172420887287352,-225.53758675172782,-176.30230156264156,
6470.012104051842,3260.8049278690382,5318.340456034709,4520.07279645581,5129.242462683336,4154.184671852953,2572.1119989160147,2019.5828342124987,6828.497733443564,2770.309063620362,10058.896404359431,5661.042270837994,4468.81814693192,5833.7747351084745,3469.7963219125086,5029.612180143043,4450.363333722657,7443.366946486204,3952.1788664624055,3141.994051047589,5613.596302671301,6808.33615319433,3086.479475431142,
20.87050076057841,-12.848493905940925,-4.137742073247466,-11.57050560829792,-33.300036688870975,-12.070566132100833,-25.107689017012138,-40.367442688371646,-38.130097955942205,7.356268635841251,11.172036273298989,-26.07247246179582,-21.309419780245896,4.59436166649971,-12.47269637738576,-6.5799090516732,-43.48006054965422,-45.65341250439237,-61.45165774073232,-2.0662604161995404,-26.12572742877518,-16.033123037498008,-22.80149919505078,
6.893313224455175,8.590424277729008,-7.710607716786623,5.665788883864004,1.8053016622765976,-1.8173486116746451,3.3303622702674276,3.7905851484792237,-1.8882822445338023,7.375745077647349,0.8701502287485882,1.5322731110269041,3.151659847835157,-2.5603006460028412,4.68015088609802,-6.119343529832814,2.2598877188734243,-5.5983387948870345,-1.778974060573355,-0.8906601994306675,4.789130952784452,4.944302046996746,6.493199624631248,
4.0730692006001155,22.679613753234495,-3.657821192968831,17.35645918098411,24.685395237913074,6.331313413413154,17.4874414578182,33.316704658081896,27.023349611982542,11.11324446904908,3.084461829427938,22.449643063694126,20.75260548893737,-4.913139866289786,18.308309085061516,-2.7856518809226123,27.307066360957513,24.125973431471177,32.697825365264535,1.0701382994606927,25.624640937008675,21.019446804795855,26.109393771973824,
-20.507677166741043,-16.15691514599255,-17.479594494519272,-19.707145833303475,-5.02459759750687,2.6208295491999,-1.9067972436907867,-19.46813999069784,-8.059223972081579,-14.54040842429884,1.8104686964645107,-9.138468961213105,-2.954546788759105,-11.609378124046449,-14.109163765983439,5.418260811400652,-7.344408646871167,-16.019978897348615,-14.103335020192171,-10.880501699055369,-6.602633448279366,-15.913437111438581,-22.20379016634963,
8.445531177350855,0.5814608824192946,2.5098384927133393,2.6705515682080265,-5.1188682570962065,-2.5575719452875556,-2.084978962730226,-5.466843209695552,-3.9221628554635797,4.8702856364141764,2.5773374662701385,-1.0784559351115375,-1.8685900417859334,4.559218242159019,2.2539334921213934,-2.6125446364533262,-3.2665409688814555,-2.6200590295947057,-8.08355983958899,0.6822526466955783,-1.179692931130144,3.7098640228492497,0.050208327537663064,
21.964447125663153,8.563074273576886,11.158383608840687,14.178008278204436,-5.41491841205482,-3.8305801565747886,-2.979014961135803,0.4801468032292792,-1.1738654367084733,12.765138334010391,4.76643531566103,2.5542832180005153,-1.9860013852924667,13.064571479967245,8.74402066652019,-7.3187246420997,-2.0619704796108143,5.652734186733317,-2.880227859955158,8.25590120214076,0.7528020188239434,11.608480738613629,11.889760257308245,
2081.6707700738248,1557.1504145520237,7546.0095819611915,5140.410881517205,9653.221067403707,5304.632705133585,5185.54317579289,4500.765612936258,8330.832658563593,653.1161029610479,4804.772390199055,8484.61768690923,5644.781733072786,4086.459245612271,3136.8857822002897,7631.253045623833,8268.600929841534,8392.392333037329,8988.983108430872,3512.838387732245,7263.536489218083,6334.003658443265,4162.035699668155,
-209.31184557611675,-933.4473981738995,-785.3840521148585,-860.8504693265662,-1164.34417870056,-255.7995642515742,-1486.5698998926662,-1201.7077906658913,-740.2088438711796,-273.1822402038839,444.800160198202,-1008.5734831940963,-1096.3882181030149,-167.67783405374948,-950.0904600716565,-1200.9281657648055,-1228.0971918482835,-1286.2268895933455,-1662.6321068090274,-994.7132653489302,-919.9228409132603,-548.7307821625881,-1264.0216366376958,
-2528.698456116467,5492.168519313282,2601.8113392433843,4617.123492567419,17850.661114251347,3092.2919125042913,15514.395845183435,16124.111845440037,12889.967662138282,-727.4360698748404,-1386.2394947077337,12543.893985003298,12927.805302809082,-2302.66952886898,8411.813563341224,15577.863171521834,17366.291413471878,12308.00191323613,18477.983547775064,6141.839079442135,12506.848804232739,3721.862765561095,6751.130281705261,
-48440.875925476554,-15649.821660469035,-59810.681569548564,-24541.045633816433,2276.6240291268255,-28898.164239078214,-23876.095720032943,19554.065575373515,5553.674382481873,-11960.32200098895,-69007.25127583765,-13747.604357069547,-38908.48507162858,-57944.70479820818,-14988.82792630212,-34917.26644032972,7809.163700577176,-55251.44909595186,-5902.6397275009995,-38028.108700232355,-10424.667055425529,-30055.703820998784,-35189.987146690124,
19410.460367882602,18244.69102924741,13811.830655797981,21179.749748661463,37459.91600019395,10650.563498095302,25104.45465741947,22952.917401074035,37304.61720784619,7772.244306116711,23575.794571940314,31260.801506501302,21573.981354220163,11046.158997089204,20511.116881495986,28348.82617981691,36135.50961280316,32404.44654051493,31787.457546530863,14853.147745959459,30233.03900584082,28537.424219922512,17519.304699494714,
-1590.3883690384903,2047.3051647955276,-926.62561495969,520.4188182838409,2845.285910491771,1542.7042085552787,2231.9447399960027,3910.93827528451,2836.621605395347,573.9689178697272,140.75105899518178,1915.4962517448146,3339.7955588957307,-1731.9941196911732,1551.1115516200186,2075.651607154456,1537.3203553410863,3311.0591306778297,2886.2252310267913,292.40398129324535,2157.1797455503242,81.19317518558623,1723.653549804131,
22.254622443502317,6.71699534625376,3.864779684529742,3.5688682898755366,5.474193937901576,4.722786463293769,-0.9865506638958864,-1.50488361099609,6.046834240087368,8.534795958221796,28.117242292298695,8.245627681160913,4.784665420741893,7.989873645114566,5.4026083639284135,9.269674967683438,-8.489122826485767,2.381214912054642,-13.716841623591705,4.584804686110116,7.724625339683007,13.795221088787216,-0.14503445064163142,
46.44059252471058,13.21368249612172,23.485465634876892,12.751939131714135,26.854686270353696,17.039779121903933,19.972289351816094,-1.1559895910570277,21.408131195214217,10.48818843912915,64.052664796414,29.204054263470393,20.708892248312353,32.8020524111803,15.582598491590593,41.88297334545995,7.908152188340665,18.95620094023354,-4.467040779502295,18.214433023311003,26.616875961849598,34.74727091393146,5.219583362114665,
71.0945803082505,19.498758213817013,45.37501213857572,21.96189608851509,45.996178401986924,27.31436576034615,40.028399426506994,-0.4171200071593004,34.53528996686429,14.740050462114258,97.10283026453203,50.362967870880205,36.91669233491155,56.499228590863865,24.99181772260498,73.29534720469942,21.207135462266137,39.02495580592027,4.4644741280874,35.66306959503411,45.70464733678426,56.35964004689784,10.254528307964003,
-2.385567228564069,-6.976651586347679,-19.00069807015093,-12.523459258612494,-36.119364308417964,-11.799333194986511,-46.924796458500225,-8.415153829545993,-21.031304795158565,9.786642904911588,-9.799523452081047,-30.68604911978849,-25.998007568616313,-16.215186666218415,-14.242187747895743,-39.29922404441444,-42.2333302568646,-27.734792641179816,-44.44206295385832,-18.5039931414294,-26.39148383785042,-16.072380431703643,-10.409818117216696,
2.500320469828616,0.9935676493279867,-4.509556203212753,1.6601760662328244,0.36049510451586236,0.6011792857731755,0.2965237190931509,-0.048616617844406476,1.0730957044949403,2.3322690603798297,4.772938535943346,2.119975428978586,1.4828270375517545,-1.706452496517135,1.6568601684273125,-1.8433199372712288,0.3150892047071734,-0.3759088336677068,-1.4489818900090357,-2.6395291170471933,2.0262265837553444,2.8374878298657933,-1.064804275618992,
-769.7597896107401,259.83798592294175,375.74421937391884,-157.91473832565265,1473.7888809372935,-88.8471684810507,1606.310606895369,1394.1575229265734,39.00087563808701,-567.0074267616436,-1667.229184894227,774.3021504585511,950.228971862346,-199.01814669608964,452.2845662870998,2541.8399475821343,1190.2923385438226,741.4720521442663,1603.5096356812305,1280.110656895843,562.8807276929716,-486.6264699815905,720.3517986671129,
-769.4719851839635,260.7408631813631,375.5209369157133,-156.71699287300413,1474.2627568247476,-89.3091150134495,1606.2108032383471,1393.2546679926638,38.960614582313966,-567.0370178427914,-1666.6247941812142,774.8914926588848,948.8245816123833,-199.71772486613858,452.26160688165555,2541.756358696468,1189.8806427692998,739.9701615145185,1603.7183855975654,1278.5947662967324,562.5230345923763,-487.27472930520526,719.2644659326927,
17681.352384812177,16398.369863615986,12655.263927915517,18840.313492827645,35047.94260183465,9944.69257870787,23357.973400389215,21260.144881788958,34518.85620023247,6545.38098588276,22113.46090123999,28829.989316558833,19657.549159177994,9921.973737243907,18553.506752518377,26991.109873062425,33255.10509255701,29799.52536494017,29120.735964409832,13690.674705817513,27829.07635490278,26129.577318452353,15369.584260653084,
808.9362729089787,627.0360391993996,564.7854003380112,571.5714344790423,579.2962616509733,85.29957984964818,481.3328108290897,823.1590474247117,401.59154865306715,498.08991216565835,268.87865921220737,602.9829994056885,510.96849288469934,449.2827012871991,620.6620027612166,770.9286895917028,469.43383616414576,699.6096857288113,532.2610358083215,633.6272499040354,546.6749337381506,604.0334163367868,725.5954059185229,
