-4.187201339341069,6.496723097508037,-4.360471741249884,8.398239763774804,5.493650349166187,-9.635744339728609,-3.1868108627555376,-2.657452728047575,2.360313506093546,-4.052730961235753,3.0402577028595528,-9.793052442418174,-9.005468900080274,8.454302070708543,-6.09421622583944,-10.735499851819132,8.892375999144761,-7.076459448827079,-14.68603272142408,6.883142901647522,-2.3227384471876182,-3.9802354453095092,-5.886129818566635,
3.9766246825580582,-4.969441041471343,4.393360844738171,-5.971978098183561,-2.612441436675901,8.869075873859002,4.095995357771062,1.1273393086140382,-2.155020041634416,3.670636767178595,-1.1662383479484424,6.371032285852746,7.152655574598652,-6.448686364031839,2.683044754179227,3.1929691922166388,-4.565028810525429,6.2345396564957944,5.974297198140969,-3.146758078813789,-0.39447854244763064,4.064777473525475,3.1404851655160253,
7.341886389690376,-6.465632163275668,4.16481687718929,-4.378628659338145,-9.245472458425319,8.102720007988182,2.6866901406621255,-0.04464641452879895,1.9631958552408875,5.2225055071469,-1.7902664710716387,16.602839931107106,13.769999808953475,-8.85537687047441,10.715903286815369,13.93209979210909,-10.3259292871437,8.23424670456269,16.270567281064594,-13.360836531980496,0.10111781323677345,5.771551478371841,3.4788393666340194,
14.627258437341672,-15.911304341540106,12.181159265846764,-16.467524912985855,-15.743067208767874,23.82578261719986,9.865355308826812,3.0459345166109144,-1.0949339503276516,11.991710215151345,-5.663375407303413,31.54041545078166,26.24948064908772,-22.18024761208419,18.784760126411257,23.407402123172734,-22.658488933607497,19.51838980791496,31.965673077956282,-20.976150879152552,1.4106736659599208,11.066951957625601,8.227640075750438,
-6.900577062313876,5.932803138184297,1.4608637322122369,-8.165036601564495,8.664516934235388,5.001452311829896,2.0478558771076947,-1.390087034476864,-7.963741101482952,0.1206643136906981,0.4365434992249926,-15.993379906240753,-8.679300611216707,5.190521046312187,-18.730084892338414,-29.03577194447408,5.917242301997365,-2.002149941149779,-29.708819038809096,24.80235858167902,-6.661935219807922,-1.77580010423503,-1.4041738457799051,
-0.636107447204605,0.41648751639790843,-0.3933509004941038,0.246324238552569,1.6273750316156603,-0.0322849144544169,-0.7822578784978814,0.13919004801539187,-0.420414314992562,0.1144438536555261,0.9477351770149257,-0.6464359166795357,0.6232271665482737,-0.012228143196811713,0.21302097310376336,0.7352971430052035,1.021426214117146,-0.02285496403200766,-0.5052390922128503,-0.49338586908608517,0.9312140308693357,0.3169283832250166,0.40696457830735905,
-0.5743181830906926,-0.1847725847645428,-0.390732390810357,-0.40042315052276356,-0.6121090066648276,-0.015362745759148328,0.8846596313696229,-0.8577559236769082,-0.224838845686858,-0.9084361235424879,0.9088126070500331,0.5229689369439282,0.5752992620444058,1.0639277893579966,0.628985151837685,-0.2723339397728217,1.1058710130141187,0.6041851687551792,-0.4848631224334458,-0.6209649283335419,0.060777634311588134,-0.2885356542772001,-0.07770481297479356,
-0.13585662242533655,-0.6743248580442871,-0.599968834213997,-0.36453017770885315,0.06030285578936614,0.9399473585249858,1.0009850927402812,0.8743269410370615,0.44005443886441464,-0.2652218028028247,-0.04577945344931232,0.6768893390453616,-0.6653202114647614,0.31448952097972604,0.1314235129900223,-0.8423107607032762,0.22269585795693908,1.1627336853910704,-0.13206551197104252,0.9843051133771511,0.1399147264580884,-0.7697729455871831,-0.44466802128452126,
0.16839766374739645,0.8246346128537726,-0.3028406537806516,-0.36767587594095513,0.2522075021864541,-0.8819524117161716,-0.22482993800148313,0.9056751127932089,-0.8941081791922397,0.2246154440412061,-0.5988594572293459,0.6509967281556396,-0.32353572430543653,-0.577799688805243,0.42338591419614696,0.8106275876624577,0.1319061405536946,-0.5641338353676845,0.8708638044565333,1.0269926999945722,0.5323429067487654,0.8318958503111742,-0.8164718577282954,
4.011460753319063,2.606966834858705,-10.170710282962458,15.537954907273418,-6.361969118853815,-8.593687363399317,-6.11394101915656,-4.696139276117122,12.589209798354352,-1.9199443402873322,6.911928633665372,7.827589519064076,6.881952159850555,5.33324085401057,12.647729753379068,0.6949901704249424,8.325862378017655,0.5167370731301538,-8.296886847280375,-11.887150059083293,-10.169172708541382,4.3025976251075555,-14.360038856258614,
-12.098848893022748,1.3650032337935916,-0.5941901211027727,7.1217034974551305,18.12580432150012,-24.590595419454406,-7.253968467700973,1.7481811129611018,-10.20108147547221,-15.628296286724453,0.5473619148011566,-49.41850619755777,-38.345648561029485,1.7147041695512424,-23.57032595837778,-18.91583043784454,3.6091536071819563,-20.008984687359586,-18.96782578572398,20.655527810811765,-0.7635481135595851,-17.553620578808747,4.412689470656023,
-5.297337556962804,0.5101887250101116,-3.3504726051179596,-0.5445175368920037,9.830031017279325,0.4012051828671004,2.4735972553474976,-0.2127123723837457,-2.9475165601271938,-1.1563988352681571,-2.3095298854585526,-6.987877097923966,-3.159443081191157,0.9956884105321183,-5.861455262039186,-2.0158218315196548,3.942161598353659,0.22053217564913347,9.508002686778989,8.480046306307978,5.7970765376772615,-1.4876906073265928,3.1245018901971315,
1.728098730555817,-2.8871579632532516,2.0403731612917437,-4.629436136334672,-1.6038756610726728,3.248625334845121,1.980708299657217,-0.27957743510266636,-1.7346026490871362,2.875890654528222,-0.8833799452040921,1.1088685628949682,1.8292126502910235,-3.0189990597237486,-1.1438875796436778,0.13594065066361172,-2.9729488686252794,1.9234244352003325,-0.3115058406604241,1.3371899715965712,-1.3087809356155125,1.172158405929447,0.7705821648633482,
16.166667594437627,-18.865129528230362,14.673785466213703,-20.597542240850125,-21.246684052368316,27.29061395026133,10.563987365459047,2.5797687522127313,0.3158524926686603,14.64181383896029,-4.954962535934611,31.98741020642971,27.603174285040108,-23.154359687696044,18.16597551730832,20.697398538528457,-24.610757001800856,25.11128027647526,24.945484756923342,-21.56184482175992,-2.7832776359898306,13.890799401788781,7.144937471832073,
0.28894601941043374,1.4474230631262943,-0.4358424854412569,-0.12265977315549009,0.8536676209347471,-1.0195446357545497,-0.15241389588674562,-0.16103937660199763,0.9476968402284498,-0.3529513106457815,-0.7006247185080382,-0.6793318767348457,-1.4185331117157813,-0.28101727835665924,7.924455370912474E-4,0.10506179236841659,-0.0799584051700794,-0.9549652379646788,-0.2798223227181599,0.43760139088454947,-1.1181563928912364,0.44691197185810155,-0.9039748392321226,
0.7437937555086669,-0.8293285781106486,-0.3803929020634672,0.9208968790652652,-0.8588153671941676,-1.1151218126725368,0.9118685261119087,0.5947371934588438,0.8356433273223597,-0.2588557535728714,-0.6498846206324721,-0.3746557425049779,0.4523187540134295,-0.463988203636215,-1.0599377548801832,-0.7947180394244684,0.5887372643723799,0.6119173765991784,0.19898547256967475,-0.025723104210557467,-0.09113405210464708,-0.5363724434595956,0.7491333580147828,
-0.7009286679000586,-0.4829631699651708,-0.9801555954538639,0.2560043162671541,0.6602654045700477,0.3169062561667414,-0.2273329944402923,0.5930693943080428,-0.606919289435198,-0.17588366978561867,-0.7002262852793338,0.7844069683051915,0.19077863180891522,0.15522857289679706,0.5157796946773057,-0.026873117011114236,-0.73747167654966,0.6748930173393548,0.2609217000158283,0.874247838740017,-0.14138825530133964,-0.5028571395994549,0.6810879167461595,
-6.006552155734204,2.81293099571651,-6.561729160055535,15.72415677764457,7.547916446052455,-27.967838733585328,-11.740581674605242,3.163858065269536,-0.19057999312619764,-13.227344459932704,2.585824876815487,-23.302809329562304,-25.641601849503214,6.5952366618560125,-6.000677718471735,7.534344206488464,5.802489369767841,-23.142354288782474,-3.1124657886964338,0.10518838217478664,4.782284256022182,-17.977647584324423,0.1242355970441407,
2.8934569101151313,-6.520702432279765,4.201937249858961,-6.81555734800211,1.4396015727043008,6.705338770066479,4.873979228295669,2.9770624803463024,-2.217023095411315,3.2836701414075775,-0.5418223002308966,4.6694082338343845,3.596793633247577,-9.35314883046568,1.2699930759584548,3.5603215179290872,-5.831138813421452,5.205199713689625,10.72178006540301,-0.6573418810168462,3.9602073092668797,2.0427465400716756,5.0594341351688445,
-4.468517908188411,3.6438436426013756,-2.2284090313536633,3.5851278276011023,4.957931322605389,-5.656859139495187,-2.210805895660184,-0.21908506010621398,-1.4029703019318736,-2.8814815405008005,2.010632198573456,-9.199795729897193,-7.629923383377711,4.09462407700298,-5.349644286226908,-6.121437011273797,4.01355117893909,-5.8120587553588035,-8.521324648000919,6.876389907678539,-0.27209305092952596,-4.79131966738055,-1.5935598087151863,
1.3784799062049051,-0.26142981278927085,2.0159801335494794,-3.486144384549623,-1.500345724200728,9.104345817056672,5.244709032267802,0.43271857980090606,0.2550229124842236,3.650400611832957,0.38014142836341364,6.747925001009786,7.922174087434234,-3.108232104749408,2.9232520472411996,-2.575006939810418,-1.6060071807885523,7.7178786438971745,3.7385010213715755,1.2802952404672001,0.4182567450884553,4.516473365691721,1.2604712494196355,
65.29734402468515,-44.38225029812755,31.76646307713182,-35.60079110966924,-18.385819785754304,1.2493470249196683,18.231261639078248,27.78926309704733,11.11694844676296,35.25129548581653,4.298725559986333,-14.372793107282812,-29.27412534965932,-36.16384285997818,-6.6322612856340335,-42.585991975105344,-37.74854510051581,-12.564490941626646,-170.1158652146259,3.125881273935988,-107.63303760660534,19.698107942751054,-19.837398978713267,
0.6317732165277871,0.4024524744664601,0.2593927051581577,-0.09221050985249542,1.2776861455189528,-0.35505029839200936,1.0893750657362986,0.7088092774500195,-0.8861859329369117,-1.0100747580480203,0.9543891742431796,-0.5838235834423251,-0.11202828434580465,-0.44526035954451276,-1.256552791133924,0.6224588031769731,1.0255063059907257,0.46549587172062146,-0.38189667882154005,-0.3312726442665479,-0.5244324929894868,0.5274686979023228,0.5621382424357181,
0.49471415017725984,-1.0742900295618578,-0.10059182991367666,-1.2067995157483087,0.07219003892339679,0.7178208818256254,1.2267334491030144,0.639420239236026,-1.1137050745950718,0.7060711790346526,0.1711614283176835,-0.49370305286127153,-0.4439191055968257,-0.44725203014178433,-0.5546139411574503,0.08732865031907923,0.574488471674161,1.2637917143188715,-0.47976201096066456,1.1333089788892055,0.36736264546004893,-0.5640638285721418,1.1572330583470496,
2.4752837109289385,-14.028668999210826,-3.2138343885775797,11.181807260693919,17.557012727405766,-48.34502840678134,-4.190004513044673,7.812153811058997,-1.6040133268969474,-16.30767303638096,-9.788601248709039,-29.664101988620256,-33.31348844667907,-11.361680044378856,0.545404224602211,27.201013363986792,-4.458140869572831,-23.01103978496243,27.545257824437513,-15.147355912217344,8.883618272694735,-26.97517591779284,11.990457797496525,
0.8841418553569405,0.9274269149255652,-0.4062663314630458,0.9185032223945565,-0.6408968973733133,-0.0035673840761972185,-0.18331452738357618,0.7712236611556136,0.6310093101013761,0.6960865089924889,0.5915233433150483,-0.05521185888259915,0.7640158446539422,0.5224123742914045,-0.587950676636948,0.3075067598266086,-0.42785301932994957,-0.5682828972068517,-0.4633799691255691,0.7419272910835065,-0.43541665649870903,0.8103458977773816,-0.33089568174852796,
-0.56488027427203,-0.12631025797011836,0.49052107163551373,0.3101191323377314,-0.16391329345952277,0.5536014423874326,-0.24597050640992377,0.04106972086987244,-0.44902627058425987,0.15336740422177372,-0.6584680879414466,0.49336167010920096,-0.131908921668064,0.7507544768367962,-0.5944728061651738,-0.7190701919038502,0.28140761267589165,-0.4854428349684662,0.17347986124919884,0.5791478294332688,0.6961687327153578,0.5612078409382633,0.09087135395226119,
39.86163100547373,-130.64610552773664,-83.15308422550181,-62.94497658861005,105.63958845490626,7.559559547888173,79.18267016194342,73.86425821670882,10.94502668360763,23.898894728322485,18.162585573292418,-7.634290565061931,-13.80441565383019,-139.52686868407042,-1.8115028432608047,3.7951802111891193,-13.741981644898711,39.29651940164388,62.26382310024186,1.578341127589392,-9.904260877627815,-3.977901392946979,0.4517956107122229,
12.947704625173131,54.54908843324703,18.745820127039018,9.512047993429379,-27.246173743679805,20.248532284766068,-27.534578763259393,5.748920892833729,13.711398192030021,19.59029084103343,5.427800092052086,20.73550985939085,-39.254992823920965,54.503930893148485,18.418062731199782,30.534741468178083,12.534591314815504,12.568931866702586,-88.25233899809652,-4.968800212999051,29.19290277802673,20.370961192391817,-18.80505778922132,
2.2320368726711277,-9.463344912465027,0.7448890150119608,-0.6695721391830335,2.3076098306616917,-5.881332096990224,-0.2966969542058429,11.36858794696386,-0.5960251924493725,-0.3133012046037976,-3.5417775758065138,14.507162991919886,4.214115386295514,-11.491383833310053,10.368508061035834,39.55240104247995,-9.05334659585822,-5.733990584611631,45.03607581932905,-17.663146922796837,20.362370054071825,-6.949600865137472,10.296024727738695,
15.474745473720962,-16.363872146398553,13.688742428070997,-18.069521820659048,-10.731100003571942,20.430818289486282,11.616214730914912,7.277307999246083,-4.377496374726942,13.863252613928548,-3.091445122135954,21.57385935326196,17.764150352565927,-21.495353164786128,12.625747323954092,20.904861049699473,-21.55214543194837,22.65256933226301,27.192428839521273,-13.711889971552107,2.865171582819042,10.762595843719492,9.67521041130992,
4.437419492882343,8.615257868410742,-15.009385462564605,20.71000366618612,22.720070807108367,-21.971865894638327,-3.3610010137830453,18.84453619410696,-1.4214383807276842,-21.785039736285416,17.6830188341446,-84.70071080111498,-69.75328459655563,12.593797245092118,-9.870105857602397,0.1660876291512071,20.425544234277627,-20.11832230923371,-46.00090680290889,22.70578430994469,3.8065286893843857,-33.617030582559714,-13.699515345541439,
-0.08057429410557836,-0.9499371788540147,-0.500282860847739,0.19546775744090494,-0.9281305956027001,-0.23688305647071622,-0.4956900587378263,-0.30051034878546284,0.2651379728338472,0.7592841578346688,0.1012439383002206,1.2343078297887917,0.12227388915526956,-1.02268062886185,1.1694876600982684,-0.8225549382280531,0.7255571087136259,0.9120109535643903,-0.7210632202815246,-0.42411176030790104,-0.1657930822946809,-0.20452944250924834,0.8935899052680468,
0.3611181589402271,-0.6053603007525883,0.4952124738229627,0.5267685139478779,0.3942421616902905,-1.3420144049680691,0.9633905025625413,-0.446331142734412,0.7947127088782608,-0.4658297195560434,0.8867917641856224,-0.619742594507575,-0.9154030043243296,1.1436366549450179,-0.044961742520657315,-0.5183837283558775,-0.16770858663074467,-1.2024307651602921,-0.7402247120753054,0.4639495908831641,0.7454907266706869,-0.03872009693768323,-0.5901361976143279,
0.3293225398887513,0.6371867908711917,-1.210983013741034,0.2072483531301989,0.9606240992346112,-2.109430086387649,-1.0812056569730897,-0.5038807974828124,-0.46910410480088,0.3469540690783777,-0.48449147591198477,-2.1006919608284202,-1.2060813128231669,0.45114218271820866,-0.7594690544231705,-0.21851514669966599,1.8422786372903268,-0.25297774834732134,-0.37815407874077334,0.49729573630970836,-0.4909115476346612,0.5155937300569383,-0.6231367045660696,
-0.16027679526147387,1.6422839395505793,-0.25280384713708326,1.5962996349734766,0.9395188393761922,-0.8562227325933643,-1.3406988233460677,-0.05495095597130638,1.1387445101805969,-1.4883136216117883,1.15633278962184,-1.5325289656144716,-0.7909025620809048,0.4774354742878288,-0.21529079133550114,-2.1104354526047775,1.2168504501322202,-1.257430321292246,-0.5966513868785656,0.7634883159473412,0.04962860246438987,-0.08013878594882241,-0.2797686184402082,
-0.8040778403238477,0.06658050031207034,-0.06227301021820557,0.31532304702749575,0.2806463527828316,0.3691402712602532,-0.6504126821797783,0.7007614764924758,-0.4950667156927427,-0.8993240516130094,0.8921259773863655,-0.5066334824680944,-0.020043635749289263,1.1452311857919737,-1.3526180864846482,0.1514384161818166,-0.10643359391023534,-0.3934336777772413,-0.6089333553073288,0.6000516378131115,0.33800982205352004,-0.848083903973074,0.40639896940093617,
-1.144112852624995,0.7609305845327311,0.24951511984769537,-0.7344254043234479,0.41459191498296927,0.39510338134414513,-0.5908040317445169,-0.3867601626965317,0.7093850787259401,0.23708672581892806,0.28354383966848984,0.17565240219458342,-0.7885438036963663,-0.4659138306852052,-0.4363160712119126,0.32737329675884386,0.022005674208984624,-0.6032231928210582,0.36179715080426256,-0.3056762019497559,-0.534383216959797,-0.27732321342419985,0.640702576205988,
15.448939718509545,-17.499948541003555,14.491596726155139,-20.233325244858975,-21.27395228440011,27.981668787023942,11.456829391951773,2.555409650178041,-0.942768217617556,14.837956293542385,-3.723928890101074,31.416279331380903,28.924608229103622,-23.09925411623918,19.250021099067716,20.317165324436974,-25.435912240734687,24.02544865265722,26.019307452990454,-21.40054879513211,-1.7995664481564742,15.416933696041989,7.657619694805984,
16.211088115993753,-18.879952449974475,14.042356911471108,-20.616143386916107,-19.878264654349778,28.3992069409678,11.687647352530776,2.5962364410399346,-1.049142553596609,15.868037505898831,-4.379307270233371,31.60579694028765,27.279996143897183,-22.495839671942193,18.730035005419115,21.73649152445279,-24.960638516048018,24.05330788113147,26.078741855580375,-21.207984580516964,-2.5670362161916698,15.40359573616937,5.964277994786744,
24.470137054978885,-5.01793595069523,-3.9214469836676558,3.379495255950918,-0.42833297569342704,20.82041653596622,13.042964077622452,17.82478100513359,4.315332693800589,-4.981414314996407,12.767417213179264,-39.37680246406219,-26.663707341776043,-4.614635884816097,17.503456082998913,22.219797075863955,1.1000680464759276,10.781229627951028,-8.673540736511574,-4.421633968326136,3.281847529434122,-12.444704753889667,-9.206013239441669,
-2.625870463672445,0.9071670300262074,-6.500270057432776,8.78591799188593,8.870039198335002,-13.013238616016716,-1.884156320091376,2.7206678953030248,3.176699935909532,-4.598921692010257,3.749591007575822,-11.34855501984134,-10.242642869542737,3.1788823740775305,-4.6378212263133864,-1.8648713309168645,6.69153846920761,-6.540804384583808,-5.019933073395074,4.483924759509107,-1.00910673732278,-5.503413534284473,-3.132971340039092,
