-880.6640786484267,-2055.4656138278274,-632.1680886619481,366.64863953081914,-885.6147072833097,841.8513143184312,-2849.1928220760633,-3431.5578773209495,1450.290075796199,334.4479661562607,2064.429546129594,-502.78998838511745,1752.876563393266,3367.4849783247787,3879.5350529702796,-2729.2914297693883,805.3997543039844,3202.230550952163,717.7607910520295,-3146.928900566024,1844.5530959081782,-1354.6646256818217,-2287.6679672335936,-1068.0167370910033,257.2960844052925,-1340.9928935254954,-448.43862667009535,1874.1823517973437,-1471.584940163273,-1729.9997009741846,-1488.4967806552345,4063.466927457144,3025.801570341868,-1383.3504726535812,714.8395942662999,
2296.707372527335,5133.694676602162,-745.7543671337577,-4853.693938268059,-664.5768026676461,-635.3491767457198,-1243.5748599633243,3521.0601956559794,689.5582984641037,10148.754701902208,1566.707156335492,1538.184164549519,-6765.311403736507,-7143.92637644083,1756.2001885097645,5355.397240883626,1522.3047127939626,-481.66410834847943,3290.697127901784,8041.07467736441,2770.1740249192726,1701.019178668052,7364.845610836435,4191.313870911633,-4004.511987079036,1697.4611774980376,1873.9400415830607,-750.0414286853061,3961.6015626289877,2211.280598694828,1498.7871992397172,-4512.663875995138,-3167.1658921969442,1203.062629200968,35.587385379878526,
3265.6236488408795,13585.057624673955,8548.138240254106,7634.451128661133,10734.947603799863,-3108.5564972570464,36078.32384457616,37977.15811946395,-10617.273894096152,-27676.37080166528,-24726.216963968214,1134.6636069139536,-864.9198046537983,-22024.233257409385,-40043.193445646946,18056.055457869523,-8793.584626855702,-39004.08627188202,-15802.521445727125,14050.545886658516,-22361.596807481685,11939.360053663997,6424.019832148444,7350.921530566489,6325.317477113222,8449.486530838773,1591.5818995619086,-22281.91260078669,5515.849383159547,11817.698297294837,10801.215670972628,-37433.339211094935,-23462.71203654528,10492.865648211517,-9470.289601254319,
5895.297687672937,18954.805476137695,6670.632172594858,-843.945231675083,8688.382128839066,-2777.9829058631212,29464.49499887306,37694.422760981746,-8620.470923160276,-8417.28163883557,-19000.94931355019,3624.930655986092,-10576.751551054867,-28015.807449217813,-33118.891548051426,22442.824560349203,-5380.252391052034,-33417.908347483884,-8264.886204509337,22987.510142156774,-14517.423483783536,12603.015690710074,16481.958106942056,11917.250683241376,-551.6232397386344,10444.221701461607,3246.4319796648324,-20237.8928863224,10394.260595355528,13562.245846637332,10652.047099609916,-37787.336563308374,-24688.31864721364,11368.16832999859,-8372.510695552533,
-12475.92220213085,-31260.04864280364,-19713.40692065401,-26097.605899512164,-23896.439517555573,27906.914797687044,-77163.49362333686,-71013.36973847896,23960.581982617536,69675.09993796045,57656.380344418336,-1943.6793276547046,1175.8177198699032,45083.440918204615,86376.99491646198,-48301.75028677204,31380.60869758652,93010.79912391727,46762.83603342052,-42238.90889043771,59569.55420396391,-23587.890096484418,-14698.16029267015,-17471.222078497532,-16043.848985256054,-18616.771904144094,-10311.393202024174,50126.88920383908,-12997.405550151547,-26962.82449879177,-30376.510591322807,75802.81609152647,61824.32180395483,-21696.59910436357,18153.059498502556,
-157.8553888494481,-295.28533157486606,-90.28325343478215,-103.41793750984878,-120.9120501391122,292.1710436584673,-368.2095589001687,-347.36243237475935,135.74119655888396,192.81817093671387,314.21733233693425,-72.66807557295674,158.71691482864946,378.357310751934,348.04348444868003,-425.5393387602257,206.97106790731138,510.73918231700355,228.69984432863706,-468.2043778112943,296.37301094212853,-123.81790338739653,-201.99056272007067,-171.4733924732897,-24.7770269203196,-173.44274549679835,-138.36965805084304,272.568748598407,-171.78646600631063,-203.51766332713223,-273.9874275970115,524.4569874040528,465.34708833554924,-149.79135994272048,78.41489352003587,
-211.50479612059013,-359.3908862163325,-63.578419143181804,95.17553363347811,-50.52291974341388,376.993788683473,-105.62295232496157,-178.28983736506262,105.37593862492575,-304.0356557994503,141.01581637437002,-107.25834054540282,378.4912746649946,457.6364453411235,65.64243917715602,-505.5030558511047,185.4932962312785,309.2378718383961,59.2015748886138,-649.4033829086914,102.67988197101478,-82.27813162790879,-371.2370289512103,-240.01184172495587,117.4284129998014,-168.42184815669924,-176.80711407796463,202.32505206440703,-251.8841146036134,-201.83225958092274,-266.9042730455217,438.7355094725413,485.3751822634945,-119.5098985720008,26.05014571424503,
-81.10880255740176,-266.50167416462983,-230.71367469328146,-103.38702065761656,-228.99131320833712,126.90078057380579,-649.4802768118043,-642.1207377048261,237.89511471688476,355.7611863579744,405.6065600061484,-56.47917853962378,98.26054426959071,382.6024348125279,580.8560417862192,-411.5938742145258,216.16212643778218,640.8275112186936,231.51641119464776,-345.8978836133223,314.9456575199019,-175.1453200303602,-172.88629739755368,-106.64238268734411,-116.20072887183245,-154.66433346553066,-33.021730651410635,323.8202607069412,-147.87056417195052,-237.288037273639,-265.19844023491044,651.6129941624563,453.4947361323765,-183.02867585300933,155.5644538402547,
-134.24165149484733,-280.9278018442236,-112.70684987898441,16.228497179421847,-106.86531587209814,210.26235947951386,-291.39286987577526,-322.6090870139609,127.19538787909549,-47.65832774075855,202.2808846432736,-78.97819824201102,226.64033599408137,359.8509650031223,225.35929300020499,-399.0312997863309,154.13432241064618,365.9596852329577,97.45156875935629,-444.3517456646218,142.00971597739718,-107.05171625607689,-254.38301728521728,-157.30925162666696,21.737709030037227,-139.75788436208057,-97.87187203749478,204.60624753885776,-179.26298513993206,-185.73641198190168,-226.1710909145132,443.5386904296837,392.65790355143207,-124.2480598424245,67.03702625113394,
-5910.792947564691,-129540.72401220824,82621.88559332018,-66955.90739583998,-16800.84852759332,-290044.99420107156,-369397.79095311905,156931.65547221634,-40357.04781015334,-138669.2240123715,-175182.5919291529,-144668.7522071311,1949.286513626401,-374021.8554267587,60286.57355567366,-6169.584834041252,-500553.31742416584,-295492.0963382002,-499479.29738168576,-217539.6847826285,-278716.14112186973,-12464.509554813945,3161.5405391884406,42333.83411279198,-155072.90496844944,-15810.089058022917,92486.82339189661,-955660.8982093099,-2040.7062238360413,-18879.59749484953,-156129.20670572045,-911428.569411797,976.2233497236969,88010.43226580661,-222137.59985049695,
-4333.469756088277,-7783.374590776298,-1337.0872807247702,16082.315100727503,-1949.4930030766502,1191.8876368678416,2975.0611598187184,-10779.14934766236,-57.75570606556485,-39280.706881889375,-9337.483255769659,-3777.1215448307835,25013.187450703004,16355.60263885129,-19641.738797960163,-13057.566724761424,-8031.4499641102875,-14819.700093734009,-15624.190965804739,-20557.49368970991,-14925.40599678672,-1682.0291144877372,-28186.398855232987,3226.2332413124695,12252.096314327064,2467.796149466804,-881.8779094269888,-16315.554533165838,-17650.74896685753,-6660.4216148547575,-12160.51175562804,6942.798891243915,3536.3608372571566,2270.7818883058335,-4332.675399539231,
-5678.407577795926,-29264.959263115383,9772.096135509879,16433.746872528638,757.2255010601825,-31195.2587605454,-15952.000449760517,-29425.227100125565,-15115.799157841495,-36420.02907923049,1691.3665091109945,-12639.298183487774,9346.7480113882,17465.91016221764,20740.41807151399,-3699.967995403321,-24363.637155594413,1812.7320956481663,-21482.19476741025,-18462.763172507734,-11750.200875453378,-15989.066112709274,-17701.760734519547,-23845.56390953259,10256.573544747725,-27067.48260265521,-4244.731688073961,22615.45005713788,-6676.560267368635,-13269.74689836985,7384.646812669881,17526.81938282425,2831.4837024926883,-17906.092900855787,5648.848338477342,
-4129.799442800979,-2684.6652827395824,-1929.529107542915,-7729.053819123671,-2228.2900064318264,13495.189228257555,-3466.137740687031,-5113.4821916069595,3658.137452592052,15843.862591871408,11762.261444400432,1616.441870823607,936.4539488182651,6278.920566505337,11869.928975146944,-8215.6786844235,9750.297593396888,18247.00925770496,13939.387861693098,-7308.393254364543,14282.371607472516,-1400.2093599573254,-3751.6469639535053,-2896.77512431922,1076.0848575863413,-1784.022470847198,-4144.67407828487,11246.909147489641,-3004.723251297906,-3422.592654460503,-3952.7580599321636,13783.904196708034,13948.107642672085,-2859.721147044804,2668.9837048901977,
4694.7907440897325,18926.169166077405,15275.97261683655,-12190.099417300236,14500.198598393337,4744.7516676428595,36601.12092128845,59206.28943249807,-14081.898898181795,-1456.1057370690116,-23662.790537894354,7894.9384875125015,-15902.723233683513,-38638.1482629459,-33933.55207969768,22030.28875565972,-8671.611159450053,-36850.58380450243,-6380.395849651968,24734.537403401002,-9495.99306025289,14880.03224063125,18003.856282723733,15534.8484866175,3894.7694591021077,13237.748619859934,1618.708623335345,-37029.31233854486,10400.000035731398,14475.024486493212,8879.180655044474,-60652.396416544274,-19892.382159396613,17197.88580942681,-14665.84014715988,
-592.5844265929102,-1458.0489630717782,-207.40824740389783,73.99433260446877,-489.8944924288151,364.2092514715221,-1991.3356556613621,-2260.336608170698,681.5699715899893,372.59993165273306,1376.8005991711668,-319.76420741122445,919.1943213001352,2095.7875431159437,2806.418198018183,-1655.5683471068064,326.2973591271594,2164.472596272418,465.5326187683633,-1937.8483573406584,1203.3486839814602,-947.8412599012834,-1362.5214110433483,-866.9506077500337,221.19393422843808,-1004.8325631352353,-332.0606937298776,1349.8868357917934,-840.8921632022519,-1099.2666414987093,-800.1611166748921,2510.000770273727,1984.938844209879,-924.5456951336903,492.28160035482415,
-346.0890195321506,-823.6083050977313,-66.9718014402765,102.48082403226194,-216.35330549595636,225.72044639540482,-932.4411173176069,-1110.0290407754921,314.550027805423,-3.2286394921520833,643.5755754397431,-188.0456312856585,565.7582526899328,1134.262371293568,1347.8238852816926,-915.2103162835549,144.49813681660487,1061.7721143317103,177.78191171058523,-1113.2020721482668,554.4050802342638,-482.25008346019547,-788.1453040419156,-508.0949090961113,184.80845741416732,-541.2938028646182,-204.33154245478775,673.4216753913539,-482.71644788618147,-580.4262714890688,-419.93042007777535,1273.5442942878922,1064.0169099876637,-474.5917785795296,230.60547912359812,
-370.2369406281212,679.7757112111551,1594.9626459826084,-53.100726539804604,1454.1662230161871,1342.344941870424,4172.435165374356,4877.485208911928,-1484.6162916247752,-2374.7331092750787,-2250.182472994839,83.24524937024611,-175.65433567866197,-1747.757642098863,-4000.855345258206,1040.3926931165697,-488.1888115445181,-3267.5238398066813,-778.2849335437433,117.60061292912688,-1198.3823352242805,1145.840987004866,516.0451278634233,-38.10060176450912,807.0566383124866,329.68561901638213,-719.9897879114013,-1799.9551353991026,297.78133832872453,1001.1298228129726,625.5852055234583,-3925.048953440834,-1286.8319885875171,906.8936753299266,-1299.68827698359,
6368.673368370431,15270.73205778577,8004.19519129167,8467.02623490319,9721.248761737184,-13057.103151036084,32183.49811515162,32397.504467778108,-7092.547622437239,-23277.89805140421,-21930.828951344512,856.6178698969189,-3661.5635840356745,-24108.831479972618,-32167.90240534899,22928.836198564088,-9811.223597732587,-37811.87694141798,-17787.082751757433,20657.777493357113,-22343.563859356585,11235.040743318934,5435.588696436965,9588.735499654234,3093.38200912287,8199.625216612194,6850.422639354865,-19258.624554592458,5408.287330862654,11720.046338304755,13541.062992327707,-34936.49689020809,-28123.73204257616,9038.389940035542,-6568.557091490807,
336.1883818911186,-2168.505436460548,-7502.666135215601,-5006.185195921473,-7348.095954270756,2552.465682115165,-18030.044043061553,-17942.480137334907,10391.514508989207,21361.65876988025,15016.063030426698,456.9297657453879,-527.5693722386524,8902.771095177864,21608.512928032047,-6288.573584750072,6328.101572299938,19590.457030986538,9934.013545934631,-3889.9726870875566,14319.276008376479,-4047.698711059425,402.0207564851151,2465.774428487611,-7265.534635655326,-625.161446354278,1459.478087428469,7407.984459276144,-2137.622832254208,-4774.882996131881,-7898.336073234147,19514.65579010033,8432.135058645747,-3980.077610155833,5061.1799136972895,
-2051.924747067481,6704.810937386695,17594.389199786423,-263.05759186615734,13602.574754201685,4252.295802715544,31638.9734770758,39160.64122799905,-12912.641174914726,-14310.284924614973,-17196.514475391134,993.3968270059507,-4284.937013848007,-10854.61917555788,-29578.19745575384,11038.76824869383,-7276.193109198484,-27432.035427514802,-6129.537693629605,1838.1038007459404,-7307.505043486317,6763.0058552653645,5984.973197796686,27.828376989794126,5829.742316417732,3792.873556912508,-6203.601521794931,-13380.283399994947,4302.391691593084,8895.87180923211,5420.090793906865,-27795.880483662055,-12978.252214156806,8609.557911613238,-10345.717838225228,
3027.8991804703455,15642.823782709915,1565.5759451727286,-9912.278789456688,2054.933087924806,1806.9670211041616,9660.677131879609,15899.52192299561,-2121.6662371100338,17790.606021155436,-408.0312468070862,3116.916956819199,-15071.968397665223,-19161.344307629006,-7137.21239465903,15971.887862829866,3364.994216703784,-7476.314812499206,6953.863930197169,17699.161033939152,3229.9436074717955,7048.933563575061,16629.445560552318,7230.574559540324,-6524.996231462661,4128.98394348969,733.0075170788907,-762.5103531733248,9776.699849590826,8628.385731590193,6309.333669766643,-14758.877377188055,-12036.623543887983,3401.8200366754572,-2131.505445044787,
125.3268928852449,323.51866708027626,-309.7462487962453,-264.47845717566423,-259.6344552055817,-79.36284369709844,-519.1542509995934,-361.0017127542813,286.54255282572393,929.3749338113466,436.0765582019742,16.871089392588814,-303.15371146313373,-230.6171794940872,363.188921589338,151.35384556514424,248.76329782429096,398.84690556168994,311.38995190338204,413.46849557491686,271.47443897467105,34.51804840679836,363.01681992582667,265.1358648189741,-350.6706807958647,80.24767227668717,148.5712950155973,139.95835326683158,166.22759369120047,46.39467007259678,-59.04210462057033,262.9262361563747,-52.76226238118046,-47.9152099219181,147.26732806625571,
-159.351564212102,-295.2081494840812,-89.72048709795038,-103.67651294610421,-121.95293017862797,293.0914744888728,-368.80226814931433,-346.5261601524836,135.65707718208245,192.8464946326104,315.06152579104906,-71.69675808704905,158.01292690213234,378.37912666190795,348.29468533996214,-425.36807421543307,206.70489022866767,510.34561322198846,227.86167137874523,-468.5382713988133,295.61288354594683,-122.08457357525934,-202.4752562332659,-172.5114462054669,-24.837324606597825,-172.1408148563806,-138.23322721279672,272.17519347752017,-171.79600950918066,-203.54571542871483,-274.1656723051896,523.3846890598495,466.04740610620337,-151.3417603851264,79.495406615417,
-335.2179682815271,-670.3319623192838,51.254310585250856,3.852354153378538,-28.685565329412505,529.7221630992157,-246.62339407410983,-309.32194258095313,36.51121349416595,-290.8105398262911,221.76122777713746,-127.62765559794973,452.7972130489153,746.9274016663152,306.3982114886484,-774.9318878738743,174.75538443266058,554.1527165407949,164.37462768111382,-1014.025022312598,296.1738145773687,-211.84935742914053,-555.2810145633779,-441.7385021725115,182.43951062492124,-324.50938728622253,-319.3543495004121,335.08062417457796,-381.86816695076016,-354.1281970748947,-402.9719261097984,662.480681312153,774.7717981323044,-206.0335625748591,28.725140702030927,
193.86739527348925,99.11537587635105,-604.218094221969,-355.6921019004719,-525.9707017007009,-288.9286147956087,-1389.1531447187147,-1287.6884683277724,532.3600207314212,1383.1325886064085,784.6813364376699,40.851672687772975,-366.95334371151364,118.9497554668372,1216.8287171302427,-91.55486743013597,330.60687109831525,1030.0203787553517,459.4214408220343,331.6846113026317,561.847575019171,-209.3445717713641,254.7485634370411,226.20996915441623,-543.1827764233577,-46.46150751883245,271.19092558881573,496.81030749737863,89.6965209006392,-189.8206551415697,-184.78038840995364,892.2742808612442,219.08558495998832,-235.18447607954508,366.7277976328414,
-80.62518049772791,-267.2448455457157,-230.4238954403894,-103.5685575264723,-228.4486819498491,125.48182200909893,-649.8416030345236,-642.3430773856153,238.81191710159524,355.72949992021705,405.86663837740986,-55.419548478286806,98.76971904690033,384.05254893770245,582.1975268969203,-411.4254387113868,214.78833004684273,640.3012664029006,231.620839221595,-345.25507365519775,315.72891284159533,-174.59805457727802,-173.49361924579898,-105.04695805933065,-114.34812743888047,-154.02082279694662,-33.3685005737139,322.86242533374207,-147.286379187419,-236.24576539070935,-265.12371155703,651.4224937870126,452.2429184355217,-181.77093363761503,155.9311883251661,
-228.099907689012,-455.53712311628817,-5.7821983044265135,38.31624843604929,-46.683954200532845,335.8454395192977,-211.08804005326752,-251.97253937048526,55.60497177468623,-228.68214792731587,170.0405822502047,-108.56150629183198,345.3648211742002,506.779004284628,193.18906320296193,-558.5560249694528,133.29017164821317,384.6623724033269,87.16720539436241,-695.0236453055402,160.5577279884077,-142.9813863783456,-397.4727948645547,-287.74072382334253,124.49582074774884,-211.2204461077834,-197.96755797515561,212.6232624240941,-269.3554711421558,-247.47666061393676,-292.7749416141251,478.04469404745345,543.5540082521771,-143.7304960043134,30.563537925242322,
4951.2777623809225,14423.348751368516,2027.8758698137904,-4115.050722043716,3402.0329840118993,-560.4875540983821,14324.195389110168,21201.759657209976,-2418.141835157243,5089.739770805161,-7504.27458177832,3447.9018405869792,-10180.820994495496,-18381.905573351083,-16061.995207623751,14731.067040683038,-282.50910253674544,-16357.023222198504,-468.12270202020255,17529.39327549493,-3929.255464490167,7781.41756609925,13976.77463886507,10017.18919819216,-3954.3243054680115,7426.071444120292,2939.246072625499,-10613.719956538025,7857.429741746253,8432.585546404609,5464.734294839339,-20301.93097310252,-14677.704368514564,6826.771593266847,-4060.9259047415367,
5636.7328097826785,16149.494906322487,2084.012120027242,-8711.758091129986,3273.2135362805325,527.8796725097739,13225.649451633146,22464.972964368142,-2649.3034626688686,13434.05592262954,-5318.150899433611,4553.107647519063,-15055.532032860157,-21743.495894498832,-12984.594648867062,17191.522546659762,2053.4983110259395,-13507.99399600626,3843.0722362117845,21904.914876817253,-206.49699225110052,8638.667928695962,18581.508460227364,10912.358062059551,-6101.949421941242,7397.135364370975,3232.1479035059206,-7277.701770408635,10273.496656261388,9439.6105268236,6807.838525315393,-20720.173583257038,-14842.032968085523,6865.280342756147,-3323.237094570904,
-6038.25435563653,-23201.521360044942,26999.266384327922,13846.406282548338,20006.2396754751,-7600.5364187429695,39346.872709699484,51601.55751181921,-34113.528642797195,-63717.81671401273,-49994.33292000666,-10391.465924673394,10232.226510920642,-18076.980360780304,-31036.860412751008,8000.828055385057,-40716.661395826646,-45571.94420246699,-38902.57778649931,-14717.746269900734,-38779.587502296454,4940.817712310927,-10959.347957628926,-15832.064838340975,21343.424247603,-10813.397234095712,-6383.6988658266355,-51344.20486623693,-700.058457373534,735.5160185868509,13533.288450970851,-63406.56632783725,459.5205411599572,10566.077349829839,-16724.33917780421,
-635.5396367815854,2901.099292873141,9893.669198063419,-10345.600711995896,7219.25038451446,-5675.620704479844,6711.773220755371,18127.251302118402,-17794.13264485737,7353.162724871939,-8129.536501415319,1549.9073503380387,-19208.03389307738,-10973.671009167027,2204.4897476714855,10706.522722252894,-4755.679454644378,-7625.067159453625,4622.274464827139,12669.11901078456,-4158.956911905362,-1276.9812430964726,13215.945714876438,-5146.731908216533,-1551.5400901258165,-8371.821532950946,-4516.139851706769,11226.836312192987,9375.908002044032,3652.6500427497012,11033.50139591544,-9896.29048914589,-13658.167295218176,-1627.7126110379438,328.3084643167859,
17895.217015013055,25105.1672652193,366.66808217250184,-19624.397996679287,-2418.9235952304834,-57250.732985595736,-36196.10342520542,50222.03278972621,14726.086089218947,-36127.523194612746,-41520.34157557488,2509.777740068067,-47890.62494141324,-76739.4978261574,16884.557031821056,26880.232459057024,-55100.729201398724,-77156.70695261574,-75139.30219986866,20113.79172331262,-43598.17809352613,-12984.544362354174,16120.493214963059,38126.5952960299,-30937.590826605745,22076.6694613796,34820.0340038359,-116458.35998832702,19920.503567982378,3937.184908257525,-14336.369320059785,-179113.85835780672,-22508.97213963792,23889.475432542917,-36481.3337687893,
-563.8250110081713,-1018.0703106964263,-272.80330055167747,286.9888873084718,-318.35633401156247,765.5619520927737,-872.0992174349835,-1280.5629929143122,559.2693366895896,41.10248553100607,962.4611946334285,-385.35274405482164,1051.6578004713972,1535.0580661910194,1082.2392627148668,-1379.1654828133762,578.1969639172672,1557.4078371872367,471.3105269633069,-1642.118351337119,739.9528868822148,-338.0484044099521,-1023.0800594509514,-660.1948596089743,179.666115534065,-627.9279967649499,-363.64136497226417,988.5327826876205,-770.7309094181697,-653.4077289282716,-741.9482674193198,2000.802388018877,1553.6233402491991,-557.2355002814867,347.33910821085857,
-226.64974495196736,-371.9233370809677,-65.16938020048062,86.35457500449496,-55.97894253762523,407.4104544224358,-119.48068756822586,-195.7008030606931,117.57969194958099,-264.69968231750374,173.55267691952915,-118.64135089264454,385.5920268188514,477.42459378329846,90.68848646054771,-531.0124243079928,211.2716463385967,352.50501998484333,94.03602896827668,-673.9144311683856,135.52913857885125,-83.61267008205934,-378.4362499110215,-251.9083801863542,118.02289034834135,-187.44158596180202,-192.21872622538712,243.28378635416513,-262.966017765561,-208.74026414363195,-277.0978161377326,485.0395349271505,523.7918333907334,-134.4864135903873,34.983500593132746,
-326.7457970251644,-434.5318340863815,61.938196046085544,264.5913571033526,97.64454806404375,636.8166424690918,377.76949864537323,234.680802823507,10.02530796407944,-876.5096774552151,-83.56904244361101,-147.79074439113197,627.9129467040034,532.8517081798491,-382.1755226624234,-601.9020900083312,187.48533263440663,38.86582642925747,-80.34983325365857,-932.7730884809212,-71.23228336934417,2.0766286994763505,-539.2869268983718,-356.37549097621803,310.1002547099583,-177.17869298977234,-307.2468864393033,113.76745051225008,-342.87955957967677,-173.5999916584322,-275.2464850307692,261.00329749708476,531.9880066066472,-65.06829531897094,-88.36513356490217,
-409.26692343471416,-434.78655106370144,223.1231917232961,433.8243704097819,286.6300777621302,861.3422235152838,985.2459151756443,792.649520546057,-138.92483359907038,-1516.6573441429657,-405.487037390237,-160.96358878792304,820.6543536360728,495.2655323755398,-969.3870078145147,-593.4769197914868,142.20065671449134,-386.35073327658364,-273.0243064281845,-1112.0037877890045,-320.97063754125105,126.23961358750026,-641.3252745580111,-431.6389623628585,508.4323299176662,-137.3811393121249,-421.8170539051204,-58.078424515321394,-383.0771704566643,-90.95019161363692,-224.53214138525004,-89.63022655803843,455.9473700795983,39.161036304412605,-241.64303191078068,
-93.03733603946267,-283.25246889876166,-251.53520989383344,-241.33259285087487,-290.18052894816327,143.41801441207951,-880.654449263097,-849.5609099093365,278.0024137067718,740.3283660653948,608.0530630364655,-62.6867119348441,-13.185990072981934,420.97398810092363,857.5907686291495,-447.6208393360472,301.0509061644646,893.4440667047359,446.4371741038591,-309.17256474585105,525.1871322202657,-224.38842164004302,-106.32353659067508,-112.95317896252918,-183.48640919999085,-221.8275189874359,-57.34081275083692,528.3412218441367,-136.5380623552571,-272.34867375329395,-291.42365683548263,884.2632684777487,578.6338622291107,-256.6178377009934,233.32256222285687,
-317.93116570068946,-556.1530447891682,115.08055735922215,-61.069150816015316,39.875830756620594,619.3520017215416,-40.63046638639309,31.57771167417499,-16.785083687990813,-295.06456433063994,101.87617807022384,-102.04370202674103,345.9876469217513,505.37367196163416,68.68587761087522,-683.6323801012355,183.00145325323908,355.1100602549464,149.78803919332404,-900.7054321655472,216.28088804822386,-118.36965773127315,-421.70983451800447,-366.6660406932976,195.94532049509934,-236.65215400620133,-333.79115235127284,171.49440041766022,-297.42753974539744,-257.46845164106634,-345.9251027352645,310.0725458363169,698.7373675377578,-106.65095097647695,-57.056708596083034,
4695.378819567442,18926.375728087576,15275.221051693296,-12191.604948051678,14500.109132850886,4745.037603753578,36602.3389454585,59206.065745347296,-14082.136617148686,-1455.6408119234704,-23662.372640428875,7895.4513015119865,-15903.471329007503,-38638.544015239124,-33933.06792011222,22028.947543827002,-8670.936410946128,-36852.53970518852,-6380.505232364538,24734.463113702208,-9495.638265090578,14880.262699359695,18003.910703642992,15535.16571021842,3893.5446319584066,13237.262300833265,1619.2951509227435,-37027.699280852605,10400.221438427656,14475.426578394998,8879.30269894442,-60651.16390632077,-19892.42377662337,17198.110984738065,-14664.12776535198,
4695.404608348148,18925.635389411345,15276.163587632667,-12190.071393179616,14499.407267411741,4745.7296387626075,36601.92205723283,59207.845717738266,-14082.979845294713,-1455.1458405285878,-23661.518759179897,7896.734725968106,-15903.971493684023,-38638.502084683234,-33932.84553928691,22030.08608058645,-8671.344706780672,-36852.01022556124,-6380.737868149243,24735.07905212682,-9495.36124556401,14880.596339572157,18003.755756335166,15533.883561257151,3894.170532148831,13238.771526704082,1620.1191845667888,-37029.015239637,10401.518415449973,14474.703963600512,8879.689066807481,-60650.7221179343,-19891.722033383412,17199.129423682152,-14665.688427482914,
-8399.870185481988,-26182.314089576023,3090.9425709502266,18667.181018331947,-1376.7689673486445,-47380.73175116357,-39640.058439195986,16506.23501764952,15031.599170599615,-113757.38508276788,-40913.93725579066,-18831.019635549656,11535.549075362229,-13555.095607767797,25646.381326022452,-25540.198225403514,-62775.20047571158,-58449.40393213966,-103104.62258073084,-61425.20417708587,-58384.0770571334,-28525.108725910803,-49814.288533465406,-5071.921734745048,-1663.8482453906481,-5684.530581714302,21116.25500246801,-102691.92210000216,-16728.37983540527,-19399.996815933664,-30820.842435848743,-138304.27961677616,25100.194821982455,5592.451255565859,-35358.21086663471,
-103.44249651655412,-85.98548677739807,-2146.5132555277346,-3953.5166779778197,-2709.9020509931543,1594.6880922131515,-8021.2429641581875,-7093.35946096879,3484.1281602178406,11755.19515846792,6852.6640068077695,704.3981214055386,-2207.316093558427,2732.806595090612,10113.658421636126,-1916.6832458673061,3060.1589085503683,8653.627042796885,5970.919366191211,-445.9778800117111,7745.009776302915,-2381.8035990176077,1251.572208837314,288.5523291503245,-3211.4404057651764,-780.2790734623723,-176.06766192768848,4333.717625565781,168.19459617540753,-1945.8015490908067,-2527.018062390633,6918.290004414644,3835.252628347748,-2096.6452136665957,1821.1173818549905,
