-4987.5186869891395,-6827.366652168868,-6762.756431931696,7680.688562121532,-3476.4960103597427,-348.9963255506473,1873.7551813296845,3630.342439669084,-7482.978003125391,-594.1044339249524,735.131192619652,-2244.71202736632,1271.5238428208825,4792.173691415109,5144.534616688687,-1923.002896620056,-4672.604287660435,1821.1343085170972,342.4168024004885,-8497.401708184643,-3771.4277484011295,-1260.0264733299623,-2866.9272883312574,
5043.3598224966045,2764.099982405439,2940.269698258158,-12199.864127235223,2163.4392356514586,-971.0520603877983,-1708.1141207402316,-724.944400041944,5222.8527985023375,3875.0639776256307,-1791.6463376127303,-3387.181644664362,487.0515264041716,-4858.0692546187165,-6793.959506055047,6070.71749889184,2046.3553149568518,4521.438402484765,5422.9419775541655,4458.013599996709,6758.844865998083,2266.128666129438,248.9497081703211,
4258.250974982328,4127.6872986885655,3354.1802402095054,-5992.102209730802,2880.5369545478516,908.8531568037373,-1162.3575487170995,877.2317177710215,6173.12746841121,1001.212344450954,-938.7183866698057,750.3899737871961,394.30608728762945,-5959.707894648649,-6283.63195363399,6634.316593733686,3737.518496264047,-2318.384587485773,3656.842781775259,1797.2788842314017,6106.47854159055,2513.2234648847216,608.4168743012854,
13776.457005485448,14794.78580259539,13314.983977063232,-19953.188437837376,8740.77002078149,207.81999231636442,-3867.11308483838,-3347.5793217077257,18233.230851671226,3205.887955093951,-2909.77116735183,3058.0493227983393,-1293.672978652009,-13942.39647137374,-15221.737707025637,13355.246175867069,12097.61006222386,-4666.405879103099,6585.139897557151,12157.407344164823,14393.804653275218,6293.791608302337,5142.946319282003,
148.44580291221112,-2171.4277729531887,-5941.0643175783325,-26892.23012243845,-7678.870673027954,-5942.2282688905325,-566.810822594389,-6975.53896892599,-9389.230607069037,13032.23650783624,-3196.116107046942,-25900.55276694713,2332.0629165901273,210.69580219165158,-2790.777375034483,5066.744198883019,-14124.520118920971,22407.753638626527,11993.207658226807,5045.1965495640625,11829.621491871538,-6093.984926030416,-1596.0026676323719,
-7.638262260601301,-96.54541166648032,-36.52968112913048,-42.29894549274326,-117.52502760212522,131.92462684178443,4.563849546512702,59.91547851729799,-47.82540801020763,-72.21659868805955,72.1912753839836,38.48699850337586,64.36405096236196,-107.80483417245321,-65.63783231624203,69.20925614301781,-171.30450079676257,123.02575904745838,-62.34780132191318,-89.8498898522696,167.2501865097687,-75.97663545438158,-128.80309623618075,
-300.44962858707174,-138.92500689189342,-57.596541592680495,588.802956497283,-368.04693881387385,389.0609356458666,87.85688594231983,3.297304767903271,-162.06596310257126,-521.3170091739604,245.72484738818912,501.72127681035545,70.13703162128014,-106.99902423669059,139.70926754987312,7.868927126849363,-435.01461332734283,-457.6246734130323,-574.0972065116222,-331.94297792956854,73.06599876240506,-290.21968891373473,-293.22130068928635,
-161.72299998037315,-174.54302289951752,-87.82855686113302,198.24150247081604,-214.7631232498344,152.72618009273657,61.866480200320986,23.201217859948628,-135.89569654315554,-243.4784340902473,118.29251281687866,181.21598770627745,53.416184013204905,-33.45513756820032,33.221760564537476,-16.2956545881621,-232.16754240493083,-113.8866912487692,-222.76209466115245,-230.64618135744865,3.5451699182845537,-126.33677101637171,-182.45363012996924,
-215.2619090471958,-105.72906890635583,-55.38856591533611,394.3586028620736,-217.92037319688788,194.7641953107301,56.54173856077661,-11.87284618070932,-129.66369870531105,-314.37388083592265,136.4737516593264,278.02502168447745,31.182475562464177,-3.4620874862854136,125.58689444722482,-57.09786741359406,-250.86380674177107,-285.31074238091026,-350.3676407046242,-190.6118735499135,-40.36238325007112,-170.28537814598343,-162.69090088528424,
794.4777852510267,-7358.22556337362,-3276.893241436921,-3565.0288800028943,-3520.102777434758,-547.9873109819109,-2257.3961595745377,-913.4161948791193,-2887.6777876534948,2385.869917863519,-2040.7815636571297,1048.5191360432002,871.2487584092967,5219.044668540944,-2950.5295385603936,-2741.144091303205,-4000.006463443587,9280.917021198213,3825.574127098197,7399.094850903374,-1863.5581054002819,1457.9014681534632,-1551.1176203601583,
-236.4604977029331,4406.538220232231,-856.8042508919987,-7795.486848469163,6526.273645813557,-5567.842939758496,-484.6193265639738,-2849.3764708438976,-630.2801245262987,8793.100447069348,-2535.354943737435,-9709.244196171192,-2750.0003030860016,3277.7557333424875,527.7028571036567,-4093.9617087790666,7852.643903950168,3841.0230198977424,7766.132560200266,5399.44336713518,-4838.531743288195,2988.0822364784485,8289.704868201183,
4886.567279799071,-581.009068527978,9861.8871224869,-7186.079077212635,-7011.734543899,8230.0351820217,-2485.576964077649,-8053.561468080998,5851.880656467786,-8915.43933265385,4152.449312919376,12444.31792023632,1271.3666660634324,-3935.188970351056,-7184.7393214231715,-2387.482775142366,-5443.280393931177,-8197.040831187502,-10571.311266530862,13390.91042922274,2622.5208951690074,-1209.4490774438289,-3623.752409858111,
3961.2654859749323,-1224.4915789054423,2522.3960944512787,-16036.550065213221,-5.396166155746616,-488.6862831059489,-451.97971602900776,-1010.679544653234,4355.156863045905,2804.5193630259605,-651.2059510799478,-4568.9406556656395,2028.879885417818,-5391.67428457409,-9843.352797191008,5719.051798439458,696.1915280710527,8852.060466994699,5982.278314358557,4016.001755599193,4750.89163387024,2868.7859291294144,-2164.836127531599,
8814.58489217382,2027.264217304455,3560.912079163699,-17675.171268114515,627.3909939131357,-1937.9125880054012,227.1704288406174,-356.32052323824695,6356.202233210866,2678.3020293300424,-1886.5421198527017,-5141.889990923622,1766.297321464667,-9175.672927458583,-11925.876266820627,11262.928651437944,4723.587585375736,2226.1956613694338,10064.200986150452,397.24814086513555,9161.496477688988,5603.58041506765,694.3359235229101,
-761.0329713775448,-1176.084564142335,-1120.9473485165997,1124.698365490099,-775.7270835326829,223.91183777162408,345.18850638439375,710.6549928805425,-1192.6053102945707,-268.89890013997547,258.30343956616395,-232.4046359272993,329.7798467729448,432.37884179652247,657.3608251044694,-33.967120225703425,-988.420352423819,252.391160893147,-58.17052829659205,-1686.316846502942,-215.65758319115784,-330.7921510109654,-655.3576105174269,
-390.8362273049878,-587.7041126089567,-564.8972170731223,604.3694053382486,-409.5015159621208,142.0764134492421,179.32780515820448,362.7489749154164,-606.9918512110609,-161.7244968067459,146.60451598440704,-91.0502297183731,170.8599568274464,204.79884478204306,341.71640978829413,-7.036743129274152,-521.2735385987062,95.65751168005791,-63.982019458286885,-878.5960390422799,-90.62134724556363,-183.2188219691263,-338.53083832552204,
-252.06961319186638,83.55202767719916,46.82691482209722,762.9055788629579,-201.78294367661124,278.6637546709584,124.3424926546613,-42.029756869145515,-73.26518612883065,-458.19580016546524,182.98154658318018,555.1324198930955,0.5047936477439255,-36.36178844111531,220.61807770104633,-30.483941352685637,-155.12044390047362,-787.0211715089931,-482.3957133432169,-200.06037217919484,-132.16940131821593,-130.24609787051833,-50.51242576691171,
-1878.6892348450456,-3184.165848045431,-1317.366121202062,-4322.643788394347,387.1706055149121,-5571.870083086207,-561.3335004565724,-4764.604139636825,-4767.292810795202,9011.293946949902,-2662.7158388114963,-10472.487367711134,-1196.744668424943,6769.357582698084,4746.158564211846,-6200.206928382019,-2094.15031344303,11935.40766502632,2311.3540545025476,7721.765385811265,-7071.812806365655,-1262.7472922421973,2236.277496764324,
706.9660926289152,-7631.355182751524,-5510.423482050194,-14181.841504233491,503.4259828738451,-6641.33707580641,-969.4654787518572,2369.3575620025367,-5171.393614920179,10405.226301335579,-3103.542736273008,-14701.261823545909,1639.1271898882749,5241.189181297641,-694.7600413977749,-1081.1031980238856,-2917.421552947313,26041.963260329496,10826.819310983521,1025.9238715919994,694.1071134960201,588.2114419134227,-2042.746971886241,
-4862.56191043729,-767.9913915314572,319.0768493879109,9803.303639827169,-1092.3851755035757,-2003.1557575149816,1013.1763111418602,-2999.6993425005667,-2550.2718488590885,-2035.1061847548033,-538.8788113748801,2280.515715944228,-1233.8359706858057,7353.561564544654,6477.994708692841,-5947.371434201159,-392.36560189324416,-5699.375400291378,-2701.214019338035,3247.771244654232,-8129.030052667538,130.90749145069285,1930.660829520751,
42.26676338235765,8.20024148862751,-14.060145350389696,57.470640467266435,53.193755726090984,-31.515642877006535,7.030344732180428,50.94276754471394,-20.05354152136153,108.84203862519279,-31.022529143508024,-34.71391447910286,5.2295137622312655,74.89663620677285,77.85919341915833,-18.150990581627557,27.725016988969614,140.67977711467753,112.54630431796092,77.47967493756764,-20.537730366482247,52.52397794046001,56.93164843586408,
-1400.3009173856715,-884.956410458251,-630.1050288577721,3412.0098696903124,-1228.618201682024,1409.2965416406596,331.97973879476797,255.35986372165894,-1042.722186608078,-1904.7132474010632,913.8602604150078,1965.827330461957,185.2654393817264,423.7049445835091,1213.551683462627,-908.7812392389249,-1494.6010666514678,-1792.9149980079599,-2333.7286813321316,-1106.5886465925432,-785.6109699525747,-1066.9794306848733,-903.3345560026017,
-8.887021075460092,-96.63805973247248,-37.39408547257088,-41.761389540449656,-118.41028024252435,131.7254174983583,5.3824316024721,59.03841803042845,-48.64604211855585,-72.12146333419253,72.04768263919627,38.84181813283908,65.53027613793347,-107.16380339655703,-65.8063486138533,68.56874435489375,-170.46849107799437,123.38885458224303,-61.474939369442026,-91.13982275790386,167.907206854536,-74.83727739795941,-129.44988261964068,
222.07761687871167,33.190496333458874,43.52714711279466,-630.7853137527086,103.54479850124079,-137.71313353939178,-38.416347914641,32.14180173951411,105.59034047126103,273.67755617953475,-93.81297456437882,-327.08860162331735,33.75649349152093,-164.32240085746216,-260.02884907091004,215.93093513380734,105.92396008605961,438.3683004203217,372.2665127601318,66.89044642420052,269.101113638464,117.81807168715595,33.4121940416858,
-93.67612832278643,-988.353363290626,-126.57001259877786,-1450.6926727745627,-1201.1170933949688,1082.5570610574284,105.44543861223801,231.59696723970671,-4.293738382116974,-989.2322951454,639.7241052172793,506.5828220743434,658.0590501444934,-1505.8378990393137,-1315.7290941018732,1305.9497861093337,-1459.3460904534343,948.8210952331493,-384.985644925419,-1153.2980356038713,1959.2967213726415,-576.9893423668284,-1599.5050620114134,
-160.50773147925722,-174.36480327166686,-86.68103963708975,198.95973707983944,-214.70353160299544,153.00172926765802,62.640086566381505,22.711733669430735,-134.0322436240539,-243.87440668566373,117.12744405563126,182.08651892494245,53.285665189199825,-35.089926925957634,33.24941590843689,-16.5944134217116,-231.870420932615,-113.34818526830777,-222.67885521605365,-229.11155330996564,3.3170453491603116,-125.53039520519408,-183.01579078507993,
-117.15486203505768,-55.45054464832251,-43.5604682867018,276.1507099189207,-83.3377062314268,47.40275679091669,46.57925670454171,-11.825789119403028,-96.07152317393157,-135.84064875618373,49.742122638321305,133.23929484727,-9.881705009815638,85.34381728648943,126.18475659931927,-119.57470704586065,-67.60885597125909,-180.84373315102505,-163.49833238567598,-75.28796559509033,-151.4886395710271,-56.109026169215745,-18.245558796012524,
-42866.65961778795,-71222.21386661232,-25738.080537529673,22173.344481038526,-38637.05245653287,12052.12668551672,4545.8375442368815,-4978.949564043318,-42798.16121129588,-5881.003405558663,15504.479311337076,-418.0342127288943,15015.087854408657,48988.59265391151,24549.58695169316,-57474.54068781906,-56777.01951311006,45505.001015079375,-33480.07987859606,4909.308169685016,-56889.04539663062,-14925.083838373439,-27712.885853816166,
20908.583549556268,22202.79588499803,22593.53179269174,-31324.247567301994,13632.36663734964,2180.284643436476,-6338.481409769196,-4839.545779321143,30325.64782421688,3028.074577830698,-3757.101346077103,7250.480465093639,-1315.8537459007723,-22633.248232611226,-25436.040950785915,19472.249845695525,19156.348062960547,-7360.653875345671,8124.369094322173,20777.19790402888,20812.4728468219,9436.497199225329,7456.22962765332,
-5746.998356737379,-21708.41873911414,-8893.39173228749,-3442.1726239881295,-7532.541436945351,-3198.4836395168313,-196.9891623267114,3017.5457132910683,-8881.093254781841,3112.793297626811,-893.2263807044952,-4692.867099700636,2386.944835446282,9116.323254698851,-1987.2229531197215,-7521.114823677596,-9782.098970685547,13059.237580538796,4108.075253897397,269.0329429903446,-9773.477839226764,3027.1224516452817,-10227.629377816762,
11839.331042389693,25113.66124153593,13141.781804177888,-21774.181170164684,16894.70292584835,-6733.91900258818,-5971.548717695037,-10654.424038744224,12421.732723795989,13972.536261991047,-6048.676278424792,-8593.022902561428,-8190.2161324160925,-8093.852866809239,-6972.7636627077745,2607.944884130293,17172.29062676935,-7281.054138299399,5967.762092488768,17684.389867372127,6373.41549210396,797.4352224953403,15655.940178522646,
9772.715301705319,16715.13789369968,7899.268471947168,-1911.287014236314,17293.26223098929,-9310.806928059834,6042.647165603213,641.9590150091518,6094.911736620898,-2521.463616598773,-6558.033240757047,-8590.421386580201,-11142.245957943793,-26236.466191186384,-2179.479455387017,19867.567573159333,11336.042406281322,-13476.469227079177,8862.980963280557,-7342.033197003677,17829.28167771265,-1085.6145134975595,934.203407814937,
-1626.314610077286,-615.4521052831178,-574.703054592678,3791.6957104909916,-709.365730887365,345.6335444678656,465.615387227908,-107.55582877715533,-1186.6771194867176,-1401.1483440717411,436.6054738065818,1465.07924598091,-110.34220174147966,1455.307756477808,1918.8081432228857,-1568.354180570867,-740.8941973747218,-1917.3417125873348,-1776.1700418044159,-454.00856674186014,-2099.6358751683006,-578.3441541163131,-163.49912336822163,
-459.5186712912525,-216.60681977427151,-133.74189414038975,950.3662237978837,-417.60221210405507,388.10643952558655,133.29544849694375,6.322028099509785,-291.7289434385269,-630.0302955827788,272.0016662970761,604.8040599862874,56.542496206965694,67.3294241682882,336.97930170860127,-168.96919302767117,-480.1318924677084,-614.0901783903608,-709.734156108122,-378.34621937016743,-174.6127159575732,-325.3497543887,-292.45655582932335,
-435.84051757694937,-216.03054076632057,-66.63357869041694,830.332318625342,-658.7381677232927,751.8484812424591,138.01886369162042,42.80332641581654,-212.80603865015036,-892.3040127742473,451.3232752258821,878.0088938157954,154.46077541406132,-356.9238162215999,103.79856397628686,182.78001379339088,-787.3539185343308,-716.5776077046354,-951.279459157489,-625.0140246009781,358.06455558961926,-514.7460485593937,-563.7197500575595,
-411.8303102933226,-266.80732897239915,-21.418217074520992,663.052760805321,-947.1337076450703,1172.296212812182,142.9356254020916,110.2680344321355,-146.91607280137612,-1179.8083538251685,658.6066724129785,1158.0942257906577,283.8656196307397,-839.1119538397209,-162.87838583097022,583.3038678078514,-1166.7215156711509,-748.3541885607191,-1206.7519262175751,-940.6953974432136,982.3999014674505,-742.1906242562219,-898.5018134820878,
-673.4727003570569,-357.6529159938137,-372.1879700890557,1490.7360310803874,-147.2978195019066,-112.57921514071535,181.06580913439163,35.539338330278596,-582.347957686405,-380.3927189420894,63.09394033781618,271.2438231053345,-61.96363033164586,830.9523035474214,870.5033088082279,-832.4579749049332,-129.11198289509798,-576.281243545196,-490.4676366407815,-217.618864407103,-1146.450028083291,-103.59382947811923,52.67287749064983,
-195.83981363188127,-135.7836026270319,-78.37786030717918,465.4556299202972,-217.71673873673086,238.89541697241015,52.157675356615876,41.65356321962889,-144.75595421066504,-309.09475791899615,154.06677597764508,294.44442742378754,48.65139211292494,16.7738695998117,133.84049057500923,-91.6404954376503,-265.1251111538413,-236.96051204666662,-352.05055712903993,-192.13058041053569,-47.67063705738968,-160.88153758252008,-161.44775480038896,
8813.11247711308,2027.5086708358267,3561.427627709883,-17675.20310829963,627.4586771118373,-1937.908884019987,228.17187077413857,-355.0589653723417,6355.786569541668,2677.823026568445,-1886.4925840921949,-5142.481675785778,1765.9888237807215,-9176.00215170515,-11926.267835940258,11262.613401231361,4724.627622170395,2226.262250975008,10064.20601987544,397.7055160590681,9160.303317791262,5605.217492349137,694.2689471239556,
8813.09901295289,2026.9127809444044,3561.429621164107,-17674.546309673926,627.8855425323053,-1937.5297778288232,226.86096539553407,-355.8373284027792,6355.736648959404,2678.3430955094955,-1886.7331185878231,-5143.26134964297,1765.7828479733405,-9175.606191414958,-11924.930239417134,11262.819133446837,4725.018088437661,2226.040729200028,10064.701701692145,396.9731766910124,9160.574472232762,5604.516386148662,693.9931356205535,
7992.95443785621,13982.89920391679,9044.114375692163,-241.9255313550158,16317.764858094526,-7626.019170830386,4443.860004847826,-366.4715628944002,7301.359054756412,-3397.489190144516,-5387.031402827785,-3595.2616499473297,-9502.34131301392,-19356.32354099943,-2632.624000889346,12816.178760783047,11416.855328932832,-11348.46122657498,6335.050062384229,-934.774118703968,10808.25205651758,789.922063477449,1566.0015434302811,
-5986.576076721701,-8676.02242758503,-9491.824495785866,15419.870408403374,-2975.802219282305,3200.5662175457715,2255.428552594478,7952.200763564818,-9183.593999891093,-1885.7508942555667,2368.4096665937545,508.4924212770721,1584.8839333097667,5032.354008670689,6238.421251319942,-4222.981792612382,-4300.723729576025,252.3523872684291,-1590.6802891056254,-11531.375644257017,-6658.431233515903,-1919.7796008796258,-3115.173506490427,
